0 0 -0 -0 -0 -0 0 0 -0 -0 0 0 -0 -0 0 0 -13 -13 0 1
0 0 -0 -0 -6.1952173 -6.1952173 12.390435 0.47655518 -0.034226367 -0.034226367 0.068452735 0.0026327975 -6.7705563 -6.7705563 13.541113 0.52081202 -0 -0 0 0
0 0 -0 -0 -0.55895848 -0.40846966 0.15048882 0.042996806 -0.78295604 -0.57216019 0.21079586 0.060227388 -0.5006145 -0.36583367 0.13478083 0.038508808 -11.157471 -8.1535365 3.0039345 0.858267
0 0 -0 -0 -6.0873657 -4.4484595 10.535825 0.4682589 -0.00094622793 -0.00069147426 0.0016377022 7.2786764e-05 -6.0628227 -4.4305243 10.493347 0.46637098 -0.84886538 -0.6203247 1.4691901 0.065297337
0 -0 -0 -0 -1.1082611 0.80988308 0.29837798 0.08525085 -11.358502 8.300444 3.0580583 0.87373094 -0 0 0 0 -0.53323666 0.38967295 0.14356372 0.041018205
0 -0 -0 -0 -10.717608 7.8320983 18.549707 0.8244314 -2.144304 1.5669914 3.7112955 0.16494646 -0.091328283 0.066739899 0.15806818 0.0070252525 -0.04675941 0.034170338 0.080929747 0.0035968777
-0 0 0 0 -0 0 0 0 -13 13 0 1 -0 0 0 0 -0 0 0 0
0 -0 -0 -0 -11.611009 11.611009 23.222019 0.89315457 -1.3889906 1.3889906 2.7779812 0.10684543 -0 0 0 0 -0 0 0 0
0 0 -0 -0 -0.40298761 -0.55145673 0.14846912 0.042419749 -0.045314077 -0.062008737 0.01669466 0.0047699028 -1.5302278 -2.0939959 0.56376813 0.16107661 -7.5214705 -10.292539 2.7710681 0.79173374
0 0 -0 -0 -4.0957646 -5.6047306 9.7004952 0.43113312 -0.023325888 -0.031919636 0.055245524 0.0024553566 -4.7808714 -6.542245 11.323116 0.50324962 -0.6000381 -0.82110476 1.4211429 0.063161905
0 0 -0 -0 -0.050892171 -0.050892171 0 0.0053570706 -0.64502408 -0.64502408 0 0.067897272 -0.10327102 -0.10327102 0 0.010870633 -8.7008127 -8.7008127 0 0.91587502
0 0 -0 -0 -0.31605096 -0.31605096 0.11643983 0.033268523 -0.43404275 -0.43404275 0.15991049 0.045688711 -0.48644805 -0.48644805 0.1792177 0.051205058 -8.2634582 -8.2634582 3.044432 0.86983771
0 0 -0 -0 -4.2993996 -4.2993996 10.182789 0.45256838 -0.0054609218 -0.0054609218 0.012933762 0.00057483388 -4.5890191 -4.5890191 10.868729 0.48305464 -0.60612039 -0.60612039 1.4355483 0.063802146
0 0 -0 -0 -4.4462045 -4.4462045 12.16856 0.46802153 -0.0067209327 -0.0067209327 0.018394132 0.0007074666 -4.6402053 -4.6402053 12.699509 0.48844266 -0.40686926 -0.40686926 1.1135369 0.042828343
0 -0 -0 -0 -0.21407233 0.21407233 0 0.022533929 -8.2171322 8.2171322 0 0.86496128 -0.0064815877 0.0064815877 0 0.00068227239 -1.0623139 1.0623139 0 0.11182252
0 -0 -0 -0 -0.53507407 0.53507407 0.19713255 0.056323586 -8.2496883 8.2496883 3.0393588 0.86838824 -0 0 0 0 -0.71523764 0.71523764 0.2635086 0.075288172
0 -0 -0 -0 -7.7761623 7.7761623 18.417227 0.8185434 -1.3335956 1.3335956 3.1585158 0.14037848 -0.33297822 0.33297822 0.78863262 0.035050339 -0.057263921 0.057263921 0.13562508 0.0060277812
0 -0 -0 -0 -8.0422737 8.0422737 22.010433 0.84655513 -0.95583888 0.95583888 2.6159801 0.10061462 -0.43746064 0.43746064 1.1972607 0.046048488 -0.06442679 0.06442679 0.17632595 0.0067817674
0 -0 -0 -0 -0.6781734 0.92802676 0.24985336 0.071386674 -8.2607577 11.304195 3.043437 0.86955344 -0 0 0 0 -0.56106892 0.76777852 0.2067096 0.059059886
0 -0 -0 -0 -7.5138303 10.282084 17.795914 0.7909295 -1.3106445 1.7935135 3.104158 0.13796258 -0.57484061 0.786624 1.3614646 0.060509538 -0.10068462 0.13777896 0.23846359 0.010598382
0 -0 0 0 0 -0 0 0 0 -0 0 0 9.5 -13 3.5 1 0 -0 0 0
-0 0 -0 -0 0.80570921 -1.1025495 1.9082587 0.084811496 0 -0 0 0 8.6942908 -11.897451 20.591741 0.9151885 0 -0 0 0
0 -0 0 0 0 -0 0 0 0 -0 0 0 0 -0 0 0 9.5 -9.5 0 1
-0 0 -0 -0 0.010933739 -0.010933739 0.0040282196 0.0011509199 0.0081057481 -0.0081057481 0.0029863282 0.00085323664 5.9872361 -5.9872361 2.2058238 0.63023538 3.4937244 -3.4937244 1.2871616 0.36776046
-0 0 -0 -0 0.75607958 -0.75607958 1.7907148 0.079587324 0.0029887509 -0.0029887509 0.0070786206 0.00031460536 8.7274679 -8.7274679 20.670319 0.91868083 0.01346374 -0.01346374 0.031887804 0.0014172357
-0 0 -0 -0 0.99426821 -0.99426821 2.7211551 0.10465981 0.0088700871 -0.0088700871 0.024276028 0.00093369338 8.4257851 -8.4257851 23.060043 0.88692474 0.071076647 -0.071076647 0.19452556 0.0074817523
-0 -0 -0 -0 0.071265291 0.071265291 0 0.0075016096 1.4240052 1.4240052 0 0.14989528 1.8731498 1.8731498 0 0.19717367 6.1315797 6.1315797 0 0.64542944
-0 -0 -0 -0 0.22287539 0.22287539 0.082111984 0.023460567 1.4094652 1.4094652 0.51927665 0.14836476 2.7714097 2.7714097 1.0210457 0.29172734 5.0962497 5.0962497 1.8775657 0.53644733
-0 -0 -0 -0 2.9119818 2.9119818 6.8967991 0.3065244 0.36194328 0.36194328 0.85723409 0.038099293 5.5398463 5.5398463 13.120689 0.58314171 0.68622861 0.68622861 1.6252783 0.072234591
-0 -0 -0 -0 3.0523892 3.0523892 8.3539073 0.32130413 0.2846697 0.2846697 0.77909603 0.029965232 5.6839815 5.6839815 15.55616 0.59831384 0.47895956 0.47895956 1.3108367 0.050416796
-0 -0 -0 -0 0.34485571 0.47190782 0.1270521 0.036300601 1.4995827 2.0520605 0.55247782 0.15785081 3.2031842 4.3833047 1.1801205 0.33717728 4.4523775 6.0927271 1.6403496 0.46867131
-0 -0 -0 -0 3.0421962 4.1630053 7.2052014 0.32023118 0.43138437 0.59031545 1.0216998 0.045408881 5.2433158 7.1750637 12.41838 0.55192798 0.78310367 1.0716155 1.8547192 0.082431965
-0 0 -0 -0 0 -0 0 0 0 -0 0 0 6.8536697 -6.8536697 0 0.52720536 6.1463303 -6.1463303 0 0.47279464
-0 0 -0 -0 0.80093896 -0.80093896 1.6018779 0.061610689 0 -0 0 0 12.199061 -12.199061 24.398122 0.93838931 0 -0 0 0
-0 0 -0 -0 0.071261862 -0.052075976 0.019185886 0.0054816817 0.068474232 -0.050038862 0.01843537 0.0052672486 6.4938319 -4.7454926 1.7483394 0.49952553 6.366432 -4.6523926 1.7140394 0.48972554
-0 0 -0 -0 0.86500868 -0.63212173 1.4971304 0.066539129 0.0064392887 -0.0047056341 0.011144923 0.0004953299 12.128552 -8.8631726 20.991725 0.93296554 0 -0 0 0
-0 -0 -0 -0 0.3704857 0.27073955 0.099746149 0.0284989 1.6276136 1.1894099 0.43820366 0.12520105 4.0253048 2.9415689 1.0837359 0.30963883 6.9765959 5.0982816 1.8783143 0.53666122
-0 -0 -0 -0 3.6711607 2.6827713 6.353932 0.28239698 0.45098786 0.32956805 0.78055592 0.034691374 7.9297689 5.7948311 13.7246 0.60998222 0.94808252 0.69282953 1.6409121 0.072929425
-0 -0 -0 -0 0.098534555 0.098534555 0 0.0075795811 1.7902836 1.7902836 0 0.13771413 3.683573 3.683573 0 0.28335177 7.4276088 7.4276088 0 0.57135453
-0 -0 -0 -0 4.1153052 4.1153052 8.2306105 0.31656194 0.35890934 0.35890934 0.71781867 0.02760841 7.9072882 7.9072882 15.814576 0.60825294 0.61849725 0.61849725 1.2369945 0.047576712
0 -0 -0 -0 -0.10378679 0.013971298 0.013971298 0.0079835991 -7.6207732 1.0258733 1.0258733 0.58621332 -0 0 0 0 -5.27544 0.71015539 0.71015539 0.40580308
-0 0 0 0 -11.25 1.75 26 1 -0 0 0 0 -0 0 0 0 -0 0 0 0
-0 -0 -0 -0 0.0028680757 0.01843763 0 0.0016389004 0.74647139 4.7987447 0 0.42655508 0.12085527 0.77692673 0 0.069060154 0.87980526 5.655891 0 0.50274586
-0 0 -0 -0 0 -0.0030409034 0.00056016642 0.0003200951 0 -0.061180644 0.011270119 0.0064400677 0 -0.95544894 0.17600375 0.10057357 0 -8.4803295 1.562166 0.89266626
-0 -0 -0 -0 0 6.298855 12.59771 0.55989822 0 0.83910973 1.6782195 0.074587531 0 3.5996019 7.1992037 0.31996461 0 0.51243343 1.0248669 0.045549638
0 -0 -0 -0 -0.089785846 0.01302102 0.024173112 0.0069066036 -7.6714562 1.1125382 2.0653921 0.59011202 -0.010784392 0.0015639857 0.0029034902 0.00082956863 -5.2279736 0.75817681 1.4075313 0.40215181
-0 0 -0 -0 1.7540999 -0.27285998 4.0539198 0.15591999 0.080626894 -0.012541961 0.18633771 0.007166835 9.4152732 -1.4645981 21.759743 0.83691317 0 -0 0 0
0 -0 -0 -0 -4.3236764 5.1201431 5.9166098 0.45512383 -5.1295449 6.0744611 7.0193772 0.5399521 -0.0096784978 0.011461379 0.01324426 0.0010187892 -0.037100232 0.043934485 0.050768739 0.0039052876
-0 -0 -0 -0 0.023618097 6.2746316 14.852281 0.57124156 0.0025204745 0.66961572 1.5850047 0.06096172 0.013529978 3.5945161 8.5083499 0.32724423 0.0016766508 0.44543665 1.0543647 0.040552489
-0 -0 -0 -0 1.6810429 1.4547487 1.4547487 0.129311 1.2823137 1.1096945 1.1096945 0.098639512 5.9674612 5.1641491 5.1641491 0.45903548 4.0691822 3.5214077 3.5214077 0.31301402
-0 -0 -0 -0 0.0036610826 0.019874448 0.0073221652 0.0020920472 0.75435303 4.0950593 1.5087061 0.43105888 0.11569559 0.62806176 0.23139117 0.066111764 0.8762903 4.7570045 1.7525806 0.50073731
0 -0 -0 -0 -12.702139 1.7099034 23.694375 0.97708764 -0.23863553 0.032124014 0.44514706 0.01835658 -0.059225157 0.0079726172 0.1104777 0.0045557813 -0 0 0 0
0 -0 -0 -0 -9.2621692 1.7061891 21.936717 0.97496518 -0.072962195 0.013440404 0.1728052 0.0076802311 -0.14216922 0.026189066 0.33671656 0.014965181 -0.022699372 0.0041814633 0.053761671 0.0023894076
-0 -0 -0 -0 0.088616127 5.3932452 14.76046 0.56771002 0.0097888621 0.59575762 1.6304945 0.062711328 0.051199747 3.1160557 8.5281524 0.32800586 0.0064892634 0.39494153 1.0808926 0.041572792
0 -0 -0 -0 -9.4974706 1.884798 25.993077 0.99973375 -0.0016403219 0.0003255262 0.004489302 0.00017266546 -0 0 0 0 -0.00088908604 0.00017644146 0.0024332881 9.3588004e-05
-0 -0 -0 -0 0.024612614 0 0.0045339026 0.0025908015 0.6014956 0 0.11080182 0.063315326 0 0 0 0 8.8738918 0 1.6346643 0.93409387
0 -0 -0 -0 -10.653424 1.8350777 21.982946 0.97701982 -0.11989394 0.020652017 0.2473967 0.010995409 -0.10612306 0.018279951 0.21898101 0.0097324893 -0.024558921 0.0042303328 0.050676424 0.0022522855
0 -0 -0 -0 -9.441178 1.9988464 24.468055 0.99380821 -0.025614767 0.0054230507 0.06638404 0.0026962913 -0.033207261 0.0070305015 0.086060987 0.0034955012 -0 0 0 0
-0 0 -0 -0 1.474834 -0.29268469 4.0363878 0.15524569 0.066864675 -0.013269471 0.18299806 0.0070383869 7.9575299 -1.5791927 21.778503 0.83763472 0.00077144158 -0.00015309461 0.0021113138 8.1204377e-05
0 0 -0 -0 -4.1329156 -3.5765616 4.6892696 0.31791658 -0.032696437 -0.028294994 0.037097881 0.0025151106 -4.4649628 -3.8639101 5.0660155 0.34345868 -4.3694252 -3.7812333 4.957617 0.33610963
-0 -0 -0 -0 1.6856474 1.2318193 1.4411897 0.12966519 1.2873142 0.94072958 1.1006239 0.099024167 5.9887022 4.3763593 5.1202022 0.4606694 4.0383361 2.9510918 3.4526842 0.31064124
0 -0 -0 -0 -0.070911299 0.014072534 0.026125215 0.0074643472 -5.5162604 1.0947164 2.0323065 0.58065899 -0.018285573 0.0036288202 0.0067367902 0.0019247972 -3.8945427 0.77288226 1.4348315 0.40995187
-0 0 -0 -0 0.0020288645 -0.0728324 0.022775173 0.0065071923 0.00027890793 -0.010012268 0.0031309023 0.00089454351 0.14027824 -5.0357237 1.5747041 0.44991545 0.16920199 -6.0740316 1.8993898 0.54268281
-0 -0 -0 -0 0.0022624234 0.016692181 0.0050634537 0.001446701 0.68596141 5.0610297 1.5352271 0.43863632 0.10682687 0.78816968 0.23908563 0.068310179 0.76879929 5.6722084 1.7206238 0.4916068
0 -0 -0 -0 -4.9336417 5.8387355 5.8589465 0.4491335 -5.9430906 7.0333713 7.0577176 0.54102856 -0.02009781 0.023784824 0.023867156 0.0018296018 -0.087969955 0.10410835 0.10446873 0.0080083347
-0 0 -0 -0 1.7242855 -0.26681482 3.5468746 0.15763887 0.088619316 -0.013712896 0.18229093 0.0081018189 9.095888 -1.4074918 18.710344 0.83157082 0.029407213 -0.0045504532 0.060490967 0.0026884874
0 -0 -0 -0 -0.087427488 0.01850978 0.019514736 0.0092028934 -5.5395532 1.1728109 1.2364866 0.58311086 -0.012783955 0.0027065651 0.0028535133 0.0013456794 -3.8602353 0.81727277 0.86164516 0.40634056
-0 -0 -0 -0 0.00074363782 0.0037612655 0.00082984998 0.00039592268 0.80158946 4.0543806 0.89452013 0.42677691 0.12373082 0.62582139 0.1380753 0.065875936 0.95217609 4.8160367 1.0625647 0.50695124
0 -0 -0 -0 -0.09108997 5.4138808 12.822349 0.56988219 -0.011488133 0.6827907 1.6171359 0.071872706 -0.050256377 2.9869593 7.0743773 0.31441677 -0.0070055204 0.41636914 0.98613744 0.043828331
-0 -0 -0 -0 0 0 0 0 0.75164307 5.5836342 0.75164307 0.42951033 0.13245806 0.98397419 0.13245806 0.075690323 0.86589886 6.4323916 0.86589886 0.49479935
0 -0 -0 -0 -4.2755525 4.2755525 5.7788368 0.45005816 -5.1670494 5.1670494 6.983784 0.54389994 -0.0054485004 0.0054485004 0.0073641931 0.00057352635 -0.051949569 0.051949569 0.070215037 0.0054683756
-0 -0 -0 -0 0.043389668 0.0012086895 0.013568236 0.0038766389 0.70049707 0.01951348 0.21905007 0.062585733 0.14281622 0.0039783771 0.044659576 0.012759879 10.305897 0.28708745 3.2227221 0.92077775
0 0 -0 -0 -4.1511038 -3.0334989 4.7531097 0.31931568 -0.021051409 -0.015383722 0.024104349 0.0016193391 -4.5522135 -3.3266176 5.2123895 0.35017027 -4.2756313 -3.1244998 4.8956965 0.32889471
-0 -0 -0 -0 1.3369428 1.5393418 1.5912996 0.14073082 0.9726359 1.1198827 1.1576824 0.10238273 4.3828299 5.0463442 5.2166748 0.46135052 2.8075914 3.2326312 3.3417431 0.29553594
-0 0 -0 -0 0 -2.8143902 5.6287804 0.25016802 0 -0.0017691669 0.0035383337 0.00015725928 0 -8.4273041 16.854608 0.74909369 0 -0.0065365664 0.013073133 0.00058102812
0 0 -0 -0 -2.99099 -2.99099 4.6865036 0.31484106 -0.0063405845 -0.0063405845 0.009934895 0.00066742995 -3.4443505 -3.4443505 5.3968621 0.36256321 -3.0583189 -3.0583189 4.7919994 0.3219283
-0 -0 -0 -0 1.5001905 1.2264368 1.418626 0.12909862 1.1537797 0.9432389 1.0910494 0.099288305 5.327172 4.3550737 5.0375366 0.45842881 3.6393578 2.9752506 3.441488 0.31318427
-0 -0 -0 -0 1.3358448 1.3358448 1.6084696 0.14061524 0.95071676 0.95071676 1.144743 0.10007545 4.4247147 4.4247147 5.3277291 0.46575944 2.7887237 2.7887237 3.3578582 0.29354986
0 0 -0 -0 -0.056574804 -3.2768348 6.0351482 0.25206421 -4.4886335e-05 -0.0025998341 0.0047882744 0.00019998724 -0.16782631 -9.7205654 17.902964 0.7477358 -0 -0 0 0
0 0 -0 -0 -6.654276 -2.6227303 16.502814 0.7004501 -0 -0 0 0 -2.574503 -1.01472 6.3848488 0.27100032 -0.27122101 -0.10689962 0.67263666 0.02854958
-0 -0 -0 -0 0.0018492833 0.0093185125 0 0.00098089606 0.79964351 4.0293923 0 0.42414656 0.1293509 0.65179736 0 0.068610248 0.95445631 4.8094918 0 0.5062623
0 0 -0 -0 -0.056821742 -2.770353 6.582275 0.25316442 -7.2645252e-05 -0.0035418307 0.0084152828 0.00032366472 -0.16724239 -8.1539292 19.37349 0.74513422 -0.00030921842 -0.015075993 0.035820103 0.0013776963
0 0 -0 -0 -0.068687587 -2.4328241 6.2227543 0.25608675 -5.7799416e-05 -0.0020471794 0.0052363401 0.00021549257 -0.19896934 -7.0472326 18.025634 0.74181396 -0.00050527329 -0.017896116 0.045775251 0.0018838017
0 -0 -0 -0 -4.3412257 5.9406246 6.0136486 0.45697113 -5.0895641 6.9646667 7.0502785 0.53574359 -0.017250666 0.023606174 0.023896349 0.0018158596 -0.05195952 0.071102501 0.071976515 0.0054694232
0 0 -0 -0 -0.028362495 -3.2660055 5.6527019 0.2512312 -2.1862619e-05 -0.0025175301 0.0043572637 0.00019365616 -0.084455521 -9.7252447 16.832154 0.74809575 -5.4121524e-05 -0.0062322162 0.010786528 0.00047940124
0 0 -0 -0 -3.4774505 -3.0365163 4.7981113 0.3196333 -0 -0 0 0 -3.9168326 -3.4201856 5.4043613 0.36001954 -3.485217 -3.0432981 4.8088274 0.32034717
0 0 -0 -0 -0.028490276 -2.3974491 6.5614398 0.25236307 -3.1413483e-05 -0.0026434362 0.0072346676 0.00027825644 -0.084220558 -7.0871375 19.396376 0.74601448 -0.00015175178 -0.012769872 0.034949124 0.0013441971
-0 0 -0 -0 1.4775198 -0.31281428 3.829187 0.1555284 0.067659641 -0.014324614 0.17534886 0.0071220675 7.9462973 -1.6823566 20.593875 0.83645235 0.0085232525 -0.0018045071 0.02208913 0.00089718447
0 0 -0 -0 -6.6982417 -2.5717793 15.864257 0.70507807 -0.0025587607 -0.00098243213 0.0060602227 0.00026934323 -2.5257465 -0.96975638 5.9820312 0.26586805 -0.27345304 -0.10499186 0.64765193 0.02878453
-0 -0 -0 -0 0.031555145 0.00052213801 0.01162558 0.0033215942 0.59552952 0.0098541329 0.21940561 0.062687318 0.0052451132 8.6790059e-05 0.0019324101 0.00055211717 8.8676702 0.14673194 3.2670364 0.93343897
-0 0 -0 -0 2.1205779 -0.22861788 3.8757314 0.16312138 0.12325405 -0.013287924 0.22526858 0.0094810805 10.675874 -1.1509577 19.512048 0.82122106 0.080294256 -0.008656462 0.14675196 0.0061764813
-0 0 -0 -0 2.1274169 -0.21341592 3.6820677 0.16364745 0.12184106 -0.01222272 0.21087875 0.0093723889 10.676615 -1.0710451 18.478756 0.82127805 0.074127355 -0.0074362282 0.12829735 0.0057021043
-0 -0 -0 -0 2.7222635 0.8878658 5.1174214 0.22744095 0.23046794 0.075167082 0.43324299 0.019255244 8.6447864 2.8194957 16.25082 0.72225868 0.37158215 0.12119146 0.69851522 0.031045121
-0 -0 -0 -0 2.2902612 0.98538851 5.6646839 0.24108013 0.18216568 0.078377071 0.45056476 0.019175335 6.7668861 2.9114634 16.737074 0.7123038 0.26068698 0.11216098 0.64477768 0.027440734
0 -0 -0 -0 -0.18176626 5.4924934 13.986837 0.5781572 -0.021736074 0.65680639 1.6725817 0.069137515 -0.097914448 2.9587144 7.5344752 0.31144362 -0.012972215 0.39198585 0.99820642 0.041261669
-0 -0 -0 -0 2.285439 2.055971 3.6237896 0.216418 0.73342117 0.6597825 1.1629118 0.06945079 5.556702 4.998785 8.8107006 0.5261879 1.9847377 1.7854614 3.146998 0.18794331
-0 0 -0 -0 0.00050246769 -0.03036638 0.011187614 0.003196461 0.00046628965 -0.028179978 0.010382097 0.0029663135 0.043993555 -2.6587282 0.97953143 0.27986612 0.11223269 -6.7827255 2.4988989 0.7139711
0 -0 -0 -0 -12.747471 1.8486774 22.06293 0.98057466 -0.20998916 0.030453274 0.36344277 0.016153012 -0.042540289 0.0061693236 0.073627423 0.0032723299 -0 0 0 0
-0 -0 -0 -0 2.0733285 4.2885774 11.329067 0.4514292 0.2248255 0.46504042 1.2284899 0.048951623 2.0530067 4.2465427 11.218025 0.44700449 0.24164926 0.49983952 1.3204182 0.052614687
-0 -0 -0 -0 2.2636842 0.95225329 5.3613572 0.23828254 0.1810511 0.076161907 0.42880523 0.01905801 6.7921521 2.8572225 16.086676 0.71496338 0.26311262 0.11068234 0.62316147 0.027696065
-0 -0 -0 -0 2.0536952 2.0536952 3.5988305 0.21617844 0.66886432 0.66886432 1.1720967 0.070406771 4.9814025 4.9814025 8.7292524 0.52435816 1.796038 1.796038 3.1473203 0.18905663
-0 0 -0 -0 0.039551242 -2.3507057 5.5674608 0.2474427 1.6876086e-06 -0.00010030206 0.00023755751 1.0558112e-05 0.12001368 -7.1329452 16.893818 0.75083633 0.0002733911 -0.016248845 0.038484107 0.0017104048
0 -0 -0 -0 -4.9807033 4.2276857 5.64534 0.44501955 -6.1260651 5.1998837 6.9435416 0.54735618 -0 0 0 0 -0.085331605 0.072430576 0.096718454 0.0076242712
-0 -0 -0 -0 0.065535951 0.0018063372 0.009913472 0.005041227 0.80778803 0.022264689 0.12219223 0.062137541 2.0405641 0.056243126 0.30867142 0.15696647 10.086112 0.27799885 1.5257029 0.77585476
0 -0 -0 -0 -0.067711877 0.011719711 0.020394266 0.0058269332 -6.9019624 1.1946058 2.0788149 0.59394711 -0.011842867 0.0020497878 0.0035669753 0.0010191358 -4.6389828 0.80292467 1.3972239 0.39920682
-0 -0 -0 -0 0.0022814118 0.020735467 0.0055826258 0.0015950359 0.63334248 5.7563708 1.5497921 0.44279775 0.098076005 0.89140057 0.23999246 0.068569275 0.6966201 6.3314932 1.7046328 0.48703794
0 0 -0 -0 -8.4768559 -2.4470431 16.052219 0.71343196 -0.038145638 -0.011011632 0.072234582 0.0032104259 -2.978749 -0.8598857 5.6407154 0.25069846 -0.3880495 -0.11201958 0.7348309 0.032659151
-0 0 -0 -0 0.82705515 -1.7021688 4.1926568 0.17917566 0.00063571 -0.0013083598 0.0032226555 0.00013772209 3.77562 -7.7706336 19.140052 0.81796143 0.012579129 -0.025889206 0.063768385 0.0027251796
0 0 -0 -0 -2.9078029 -3.5391328 4.4984936 0.30608452 -0.015744398 -0.019162756 0.024357247 0.0016573051 -3.5167819 -4.2803308 5.4406097 0.37018757 -3.0596708 -3.7239736 4.7334395 0.32207061
-0 0 -0 -0 1.5200723 -0.24980388 3.6001712 0.16000761 0.07687499 -0.012633393 0.18207234 0.0080921042 7.8803318 -1.2950288 18.663944 0.82950861 0.022720936 -0.0037338869 0.053812744 0.0023916775
-0 -0 -0 -0 0.061713857 0.0022638257 0.016615269 0.0047472198 0.81958629 0.030064569 0.22065785 0.0630451 1.1752076 0.043109689 0.31640205 0.090400585 10.943492 0.40143592 2.9463248 0.8418071
-0 0 -0 -0 0.81753432 -1.713073 4.0572781 0.18032347 0.0005671324 -0.0011883772 0.0028145777 0.00012509234 3.7039249 -7.7612566 18.381924 0.81697438 0.011683638 -0.02448206 0.057983827 0.002577059
-0 -0 -0 -0 2.1240655 4.1778378 9.8948789 0.43977239 0.26081665 0.5130019 1.2150045 0.0540002 2.1376816 4.2046194 9.958309 0.44259151 0.30735628 0.60454099 1.4318076 0.063635894
-0 0 -0 -0 0.79224338 -2.2179499 4.144014 0.1841784 0.00021295653 -0.00059618918 0.0011139189 4.9507505e-05 3.5029621 -9.806828 18.323061 0.81435827 0.0060815715 -0.017025855 0.031811079 0.0014138258
-0 -0 -0 -0 2.1461735 4.5248524 9.8404388 0.43735284 0.26676144 0.56242245 1.2231302 0.054361343 2.1761146 4.5879784 9.9777221 0.44345432 0.31814051 0.67074674 1.4587088 0.064831504
-0 0 -0 -0 0.77816579 -2.4005893 4.1548661 0.18466071 0.00019231619 -0.00059328256 0.0010268352 4.563712e-05 3.4329462 -10.590409 18.329554 0.81464685 0.0027256483 -0.0084084422 0.014553073 0.00064680325
-0 -0 -0 -0 2.0526809 4.323599 11.833008 0.45511568 0.21334933 0.44938154 1.2298863 0.04730332 2.0211029 4.2570855 11.650971 0.44811426 0.22310685 0.46993399 1.2861351 0.049466736
-0 -0 -0 -0 0.0013918526 0.011205849 0 0.00086198837 0.69997417 5.6355138 0 0.43350106 0.11314602 0.91094216 0 0.070072474 0.80018796 6.4423382 0 0.49556447
-0 -0 -0 -0 1.8736141 0.20472488 4.7449375 0.19722254 0.12252232 0.013387691 0.31028841 0.012897086 7.379405 0.80632816 18.688382 0.77677947 0.12445864 0.013599268 0.31519216 0.01310091
-0 -0 -0 -0 1.1006326 4.8877901 12.679494 0.51450423 0.12395254 0.55045981 1.4279565 0.057943138 0.81098786 3.6015093 9.3427321 0.37910624 0.10363702 0.46024077 1.1939179 0.048446397
-0 -0 -0 -0 2.1446619 0.13047763 4.2412562 0.18850027 0.14518213 0.0088326369 0.28711034 0.01276046 8.9268584 0.54309508 17.653642 0.78460632 0.16079757 0.0097826539 0.31799123 0.014132944
-0 0 -0 -0 2.0327005 -0.25247704 4.0654011 0.15636158 0.096858274 -0.012030543 0.19371655 0.0074506365 10.868662 -1.3499714 21.737324 0.83605093 0.0017791062 -0.00022097867 0.0035582124 0.00013685432
0 -0 -0 -0 -12.804705 1.5904429 25.60941 0.9849773 -0.10166496 0.01262757 0.20332993 0.0078203817 -0.087572136 0.010877133 0.17514427 0.0067363182 -0.0060579619 0.00075244546 0.012115924 0.00046599707
0 0 -0 -0 -0.098118697 -3.3261529 6.6523059 0.25585792 -0.00010764179 -0.003648979 0.007297958 0.00028069069 -0.28492029 -9.6585918 19.317184 0.7429686 -0.00034237538 -0.011606278 0.023212556 0.00089279061
-0 -0 -0 -0 1.8396855 0.17344768 4.35715 0.19365111 0.121367 0.011442622 0.28744817 0.012775474 7.4125931 0.69886786 17.556142 0.78027296 0.12635433 0.011912832 0.29926025 0.013300456
-0 -0 -0 -0 1.9235738 1.6477269 2.4050742 0.17344494 0.94488367 0.80938423 1.1814028 0.08519834 5.4773099 4.6918456 6.848366 0.49387848 2.7446327 2.3510433 3.431657 0.24747824
-0 0 -0 -0 0.88722255 -1.7366447 4.7529224 0.18280471 0.0016174019 -0.003165894 0.0086645521 0.000333252 3.9406177 -7.7133442 21.110205 0.81193097 0.023932389 -0.046845132 0.12820773 0.0049310665
-0 0 -0 -0 0.47550163 -2.0780215 5.2168402 0.21873911 0.00038291694 -0.0016734109 0.0042010717 0.00017614852 1.6936194 -7.4013996 18.581097 0.77909469 0.0043260355 -0.018905497 0.047461953 0.0019900523
-0 -0 -0 -0 2.9314486 0.85904073 5.0736611 0.22549605 0.24777178 0.072607806 0.42883578 0.019059368 9.4226988 2.7612566 16.308517 0.72482298 0.3980808 0.11665482 0.688986 0.0306216
-0 -0 -0 -0 1.0483267 4.9416004 13.52438 0.52016847 0.1109957 0.52321131 1.4319467 0.055074874 0.76569769 3.6093443 9.8782054 0.37993098 0.090339887 0.42584398 1.1654677 0.044825682
0 -0 -0 -0 -0.18696938 0.25585284 0 0.019680988 -8.5778285 11.738081 0 0.90292932 -0.01150752 0.015747133 0 0.0012113179 -0.72369459 0.99031892 0 0.076178378
-0 -0 -0 -0 1.1795795 4.7990634 11.366203 0.50516457 0.14365742 0.58446345 1.3842555 0.061522468 0.88775155 3.6117753 8.5542046 0.38018687 0.12405155 0.50469788 1.1953371 0.053126093
-0 -0 -0 -0 1.2261846 5.3962916 11.244357 0.49974918 0.15498447 0.68206812 1.4212384 0.063166153 0.93707445 4.1239525 8.5931591 0.38191818 0.13535649 0.59568772 1.2412459 0.055166486
0 0 -0 -0 -4.2043988 -5.7533879 11.506776 0.4425683 -0.016921676 -0.023155977 0.046311954 0.001781229 -4.9072543 -6.7151901 13.43038 0.51655309 -0.37142519 -0.50826605 1.0165321 0.039097388
0 0 -0 -0 -6.2286045 -4.5516725 12.457209 0.47912343 -0 -0 0 0 -6.1396259 -4.4866497 12.279252 0.47227892 -0.63176954 -0.46167774 1.2635391 0.048597657
-0 -0 -0 -0 1.6510196 1.6510196 2.3846458 0.17379153 0.82810698 0.82810698 1.1960741 0.087169156 4.6705698 4.6705698 6.7459252 0.49163893 2.3503036 2.3503036 3.3946548 0.24740038
-0 0 -0 -0 0.51733228 -2.0734761 5.6747766 0.21826064 0.00072509244 -0.0029061821 0.0079537616 0.00030591391 1.8446874 -7.3935368 20.234943 0.77826704 0.0075051839 -0.030080898 0.082326667 0.0031664103
-0 0 -0 -0 0.45089973 -2.0889545 4.9475238 0.21988995 0.00026915234 -0.0012469446 0.0029532899 0.00013125733 1.5960982 -7.3944968 17.513282 0.77836809 0.0033028697 -0.015301727 0.036240932 0.0016107081
-0 0 -0 -0 0.41278362 -2.573446 4.9948272 0.22199232 0.0002132374 -0.0013294009 0.0025802476 0.00011467767 1.445148 -9.009588 17.4868 0.77719111 0.0013051249 -0.0081366319 0.015792471 0.00070188759
-0 -0 -0 -0 2.423065 0.10139502 4.1937663 0.18638961 0.16718316 0.0069959079 0.28935547 0.012860243 10.219348 0.42763646 17.687332 0.78610365 0.19040435 0.0079676164 0.32954599 0.014646488
0 0 -0 -0 -9.3951129 -2.4788355 18.790226 0.72270099 -0.014667911 -0.0038700267 0.029335822 0.0011283008 -3.2760164 -0.86435426 6.5520329 0.25200126 -0.3142028 -0.082900233 0.6284056 0.024169446
-0 0 -0 -0 0.38588634 -2.8982329 5.0161724 0.222941 0.00017086411 -0.0012832897 0.0022210784 9.8714596e-05 1.3448328 -10.100484 17.481607 0.77696029 0 -0 0 0
-0 -0 -0 -0 0.028035944 0.046786904 0 0.0049249373 1.6588165 2.7682638 0 0.29139619 0.83671822 1.3963309 0 0.1469822 3.1690793 5.2886184 0 0.55669667
0 -0 -0 -0 -0.069976025 0.23073018 0 0.017748475 -2.5624447 8.4490839 0 0.64992953 -0.1267878 0.41805421 0 0.032158016 -1.1834415 3.9021317 0 0.30016398
0 -0 -0 -0 -6.0365323 8.2605179 11.329554 0.63542445 -3.2444066 4.4397143 6.0892048 0.34151649 -0.17916816 0.24517749 0.33626846 0.018859807 -0.039892925 0.054590318 0.074872301 0.0041992552
0 0 -0 -0 -1.7468311 -4.5953054 9.1906109 0.35348503 -0.0054535011 -0.014346265 0.028692531 0.0011035589 -3.079766 -8.1017938 16.203588 0.62321491 -0.10968933 -0.28855448 0.57710896 0.022196499
-0 -0 -0 -0 0.17155542 0.065830303 0.046187998 0.013196571 1.2878393 0.49417762 0.34672597 0.099064562 2.5571343 0.98123932 0.68845924 0.19670264 8.983471 3.4471928 2.4186268 0.69103623
0 -0 -0 -0 -0.010161971 0.11349573 0 0.0087304406 -0.6281668 7.0157894 0 0.5396761 -0.060227896 0.67266566 0 0.051743512 -0.46541334 5.1980493 0 0.39984994
