-0.0087356647 0.011117945 -0.0072106183 0.0031824843 -0.013843151 0.017618281 -0.011426455 0.0050431892 -0 0 -0 0 -0.011708842 0.01490193 -0.0096647472 0.0042656406 -0 0 -0 0 -2.7106323 3.4498418 -2.2374182 0.98750869
-0.0084627503 0.011430808 -0.0077339318 0.0031550585 -0.013456811 0.018176388 -0.0122979 0.0050169301 -0 0 -0 0 -0.011384941 0.015377871 -0.010404461 0.0042445014 -0 0 -0 0 -2.6489755 3.5780249 -2.4208437 0.98758351
-0.009477764 0.011797688 -0.0074797739 0.0035369542 -0.014240355 0.017726044 -0.011238372 0.0053142793 -3.4065298e-05 4.2403646e-05 -2.6884055e-05 1.271264e-05 -0.012143685 0.01511616 -0.0095836969 0.0045318344 -2.4830303e-05 3.0908151e-05 -1.9595873e-05 9.2662833e-06 -2.6437193 3.2908368 -2.0864017 0.98659495
-0.0085154202 0.011448052 -0.0067972335 0.0031781783 -0.013503065 0.018153396 -0.010778503 0.005039698 -0 0 -0 0 -0.011420412 0.015353497 -0.0091160747 0.0042623975 -0 0 -0 0 -2.6459011 3.5571251 -2.1120282 0.98751973
-0.0089451939 0.011342798 -0.0082819053 0.0033834353 -0.013727098 0.017406408 -0.01270923 0.0051921456 -1.2834802e-05 1.6274947e-05 -1.1883098e-05 4.8546429e-06 -0.011675497 0.014804911 -0.010809756 0.0044161468 -7.4311402e-06 9.4229281e-06 -6.880119e-06 2.8107587e-06 -2.6094519 3.3088702 -2.4159603 0.98700061
-0.0083170081 0.011687718 -0.0072929339 0.0031569229 -0.013224112 0.018583568 -0.011595825 0.0050195336 -0 0 -0 0 -0.011186331 0.015719918 -0.0098089569 0.0042460443 -0 0 -0 0 -2.6018025 3.6562588 -2.2814423 0.9875775
-0.0092007567 0.012214847 -0.0071606858 0.0035328961 -0.013832469 0.018363869 -0.010765415 0.0053113757 -3.5533106e-05 4.7173452e-05 -2.76544e-05 1.3643962e-05 -0.011794386 0.015658127 -0.0091792334 0.004528795 -2.6845762e-05 3.5640207e-05 -2.0893289e-05 1.0308205e-05 -2.56942 3.4111403 -1.9997061 0.98660298
-0.0098609396 0.012070758 -0.0085284887 0.0037873086 -0.01432801 0.017538891 -0.01239195 0.0055029841 -5.608956e-05 6.865913e-05 -4.8510507e-05 2.1542417e-05 -0.012288318 0.015042108 -0.01062787 0.0047195963 -4.0796474e-05 4.993889e-05 -3.5283886e-05 1.5668774e-05 -2.5671058 3.1423896 -2.2202279 0.9859529
-0.0083314227 0.011309292 -0.0085021961 0.0032221399 -0.013088473 0.017766637 -0.013356754 0.0050619075 -0 0 -0 0 -0.011103493 0.015072173 -0.011331087 0.0042942254 -0 0 -0 0 -2.5531566 3.4657219 -2.60549 0.98742173
-0.0079839361 0.011780371 -0.0082782266 0.0031719166 -0.012635879 0.018644356 -0.013101642 0.0050200745 -0 0 -0 0 -0.010713025 0.015807167 -0.011107911 0.0042561491 -0 0 -0 0 -2.4857372 3.6677281 -2.5773622 0.98755186
-0.0080676657 0.011999267 -0.007905403 0.0032067738 -0.012705279 0.01889692 -0.012449741 0.0050501543 -2.4043493e-06 3.5760565e-06 -2.3559913e-06 9.5569211e-07 -0.010774595 0.016025359 -0.010557889 0.004282737 -6.8421138e-07 1.0176469e-06 -6.7045002e-07 2.7196357e-07 -2.4842694 3.6949239 -2.4343039 0.98745911
-0.010237794 0.013080593 -0.0081937664 0.0040868296 -0.014360138 0.018347617 -0.011493063 0.0057324299 -9.6873888e-05 0.00012377353 -7.7532522e-05 3.867113e-05 -0.012385476 0.015824637 -0.0099126529 0.0049441638 -7.5870524e-05 9.6938014e-05 -6.0722587e-05 3.0286788e-05 -2.4679138 3.1531964 -1.9751823 0.98516762
-0.009742759 0.013125954 -0.0078226771 0.0039421067 -0.013889888 0.018713182 -0.011152499 0.0056201142 -7.4747305e-05 0.00010070347 -6.0016267e-05 3.024419e-05 -0.011950945 0.016100937 -0.0095956783 0.0048355808 -5.7076687e-05 7.6896694e-05 -4.5828137e-05 2.309432e-05 -2.4357446 3.2815623 -1.9557133 0.98554886
-0.011135331 0.013788669 -0.009445528 0.0045236337 -0.014927112 0.018483959 -0.012661901 0.0060640125 -0.00015133102 0.00018739032 -0.00012836631 6.147694e-05 -0.012976973 0.016069138 -0.011007698 0.0052717848 -0.00012144764 0.0001503863 -0.00010301777 4.933707e-05 -2.4222778 2.9994605 -2.0546935 0.98402976
-0.0095577339 0.012535129 -0.010295009 0.0039133511 -0.013639257 0.017888116 -0.014691378 0.005584504 -5.6733074e-05 7.4406381e-05 -6.1109414e-05 2.3228983e-05 -0.011755412 0.015417421 -0.012662215 0.004813176 -4.0226848e-05 5.2758188e-05 -4.3329912e-05 1.6470618e-05 -2.4072906 3.1572022 -2.592987 0.98564927
-0.0081286254 0.012118516 -0.0093191383 0.0033425411 -0.01249736 0.01863162 -0.014327715 0.0051389918 -0 0 -0 0 -0.010659438 0.015891564 -0.012220612 0.0043832268 -0 0 -0 0 -2.4005846 3.5788983 -2.7521725 0.98713524
-0.010556358 0.013287871 -0.01050573 0.0043457363 -0.01439188 0.018115854 -0.014322858 0.0059247057 -0.00011593459 0.00014593327 -0.00011537858 4.7726797e-05 -0.012481921 0.015711683 -0.012422058 0.0051384328 -8.9692751e-05 0.00011290122 -8.9262589e-05 3.6923817e-05 -2.3914942 3.0103058 -2.3800247 0.98450647
-0.0087180685 0.012192 -0.010158205 0.0036267258 -0.012868145 0.017995779 -0.014993832 0.0053531621 -1.3451862e-05 1.8812092e-05 -1.5673973e-05 5.595989e-06 -0.011049524 0.015452483 -0.012874794 0.0045966138 -3.8838787e-06 5.431507e-06 -4.5254561e-06 1.6156977e-06 -2.3711869 3.3160455 -2.762883 0.98641629
-0.0082158433 0.012922725 -0.0078826661 0.0034472552 -0.012468269 0.019611379 -0.011962643 0.0052315147 -1.2309549e-05 1.9361728e-05 -1.181036e-05 5.164918e-06 -0.010637316 0.016731468 -0.010205941 0.0044632721 -5.391038e-06 8.4795805e-06 -5.1724152e-06 2.2620056e-06 -2.3519609 3.6994066 -2.2565818 0.98685053
-0.0084735133 0.013005104 -0.0075486169 0.0035590735 -0.012669993 0.019445838 -0.011287044 0.0053216928 -2.394792e-05 3.6755142e-05 -2.1333969e-05 1.0058686e-05 -0.010827169 0.016617482 -0.0096453676 0.0045476638 -1.4694081e-05 2.2552398e-05 -1.30902e-05 6.1718571e-06 -2.3488107 3.6049423 -2.0924345 0.98655534
-0.0080098615 0.01293345 -0.0084785193 0.0034171181 -0.012187719 0.019679398 -0.012900823 0.00519945 -7.8286e-06 1.2640769e-05 -8.2866521e-06 3.3397894e-06 -0.010406989 0.016804071 -0.011015903 0.0044397661 -1.9618086e-06 3.1677144e-06 -2.0765942e-06 8.3693477e-07 -2.3134256 3.7354673 -2.4487844 0.98693949
-0.012402813 0.015574733 -0.011791966 0.0053057213 -0.015562934 0.019543028 -0.014796448 0.0066575693 -0.00025316195 0.00031790607 -0.00024069353 0.00010829855 -0.013694194 0.017196373 -0.013019744 0.0058581527 -0.0002097727 0.00026342038 -0.00019944124 8.9737341e-05 -2.2955071 2.8825645 -2.1824517 0.98198052
-0.0092845358 0.014006589 -0.0080219006 0.00399328 -0.0131397 0.019822464 -0.011352788 0.0056513865 -7.1637599e-05 0.00010807201 -6.1895362e-05 3.0811341e-05 -0.011330816 0.017093594 -0.0097899004 0.0048733854 -5.3827485e-05 8.1203789e-05 -4.6507305e-05 2.3151208e-05 -2.2911595 3.4564281 -1.979577 0.98542799
-0.0085909353 0.01305483 -0.010960499 0.0037482429 -0.012450564 0.018919942 -0.015884697 0.005432207 -1.6930241e-05 2.5727283e-05 -2.1599965e-05 7.3866994e-06 -0.010741631 0.016323039 -0.013704403 0.004686596 -4.9210278e-06 7.4780196e-06 -6.2783528e-06 2.1470547e-06 -2.260185 3.434589 -2.8835925 0.98612342
-0.0080168143 0.013238506 -0.0094448978 0.0035244786 -0.011985126 0.019791547 -0.014120108 0.0052690904 -8.2846658e-06 1.368082e-05 -9.7604632e-06 3.6422357e-06 -0.010279425 0.016974851 -0.012110561 0.0045192033 -2.5083866e-06 4.1422052e-06 -2.9552206e-06 1.1027766e-06 -2.2443178 3.7061373 -2.6441117 0.98668248
-0.010409908 0.015318948 -0.00897053 0.0046010032 -0.013832047 0.020354878 -0.01191949 0.0061135307 -0.00014283733 0.00021019569 -0.00012308722 6.3131686e-05 -0.012057337 0.017743261 -0.010390169 0.0053291389 -0.00011407838 0.00016787476 -9.8304761e-05 5.0420714e-05 -2.2259738 3.2756848 -1.9181884 0.98384277
-0.70775025 -0.48059622 0.10789416 0.31381367 -0.67800671 -0.46039894 0.10335986 0.3006255 -0.19282998 -0.13094076 0.029396286 0.085500052 -0.33897041 -0.2301771 0.051674906 0.15029814 -0.10201377 -0.069272221 0.015551658 0.045232503 -0.2357489 -0.16008476 0.035939132 0.10453013
-0.25055602 -0.35487881 -0.10371631 0.11109752 -1.5834391 -2.2427279 -0.65545606 0.70210309 -0.065378875 -0.09260036 -0.027063233 0.02898925 -0.20706571 -0.29328065 -0.085713733 0.091813746 -0.038731106 -0.054857389 -0.016032532 0.017173524 -0.11010924 -0.1559549 -0.045579128 0.048822871
-0.65126841 -0.4141648 -0.010589941 0.28952855 -0.72284653 -0.45968387 -0.011753836 0.32134939 -0.16162928 -0.10278582 -0.0026281707 0.071854079 -0.35257467 -0.2242148 -0.0057330354 0.15674095 -0.090416223 -0.057498899 -0.0014702117 0.040195528 -0.27067489 -0.17213181 -0.0044013052 0.1203315
-0.68379558 -0.5358658 0.10093937 0.30401318 -0.71128884 -0.55741128 0.10499782 0.3162366 -0.19684506 -0.15426033 0.029057538 0.087516642 -0.33547109 -0.26289653 0.049520999 0.1491493 -0.1030898 -0.080787738 0.015217734 0.045833374 -0.21873964 -0.17141832 0.032289535 0.097250899
-0.72433969 -0.42002662 0.1165785 0.32237578 -0.64372287 -0.37327893 0.10360366 0.28649633 -0.1877861 -0.1088925 0.030223142 0.083576381 -0.33936651 -0.19679023 0.054619177 0.151039 -0.10040064 -0.058219844 0.016158932 0.044684471 -0.25126419 -0.14570187 0.040439592 0.11182804
-0.6274679 -0.46013382 -0.015091275 0.27938372 -0.76545838 -0.56132478 -0.018410094 0.34082478 -0.16227791 -0.11900139 -0.0039029575 0.07225518 -0.34926404 -0.25612178 -0.0084001741 0.15551184 -0.09043799 -0.06631985 -0.0021751305 0.040268039 -0.25099379 -0.18405838 -0.0060366693 0.11175644
-0.35256914 -0.42070455 -0.14592601 0.1572404 -1.3013522 -1.5528437 -0.53862096 0.580383 -0.089152805 -0.10638194 -0.03689975 0.039760776 -0.27912066 -0.33306185 -0.11552617 0.12448351 -0.053255074 -0.063546832 -0.022041919 0.023750942 -0.16678015 -0.19901109 -0.06902919 0.074381376
-0.59906396 -0.50257175 -0.018695069 0.26718044 -0.81775749 -0.68603995 -0.025519868 0.36471699 -0.16205035 -0.13594864 -0.0050571271 0.072273893 -0.34291751 -0.28768323 -0.010701473 0.15294001 -0.089773988 -0.075313945 -0.0028015889 0.040038886 -0.23060669 -0.19346249 -0.0071965739 0.10284978
-0.66817405 -0.36366794 -0.0032573284 0.2980445 -0.68285871 -0.37166038 -0.0033289157 0.30459472 -0.15940083 -0.086757295 -0.00077707427 0.071102047 -0.35347861 -0.19238825 -0.0017231976 0.15767202 -0.090020006 -0.048995303 -0.00043884482 0.04015416 -0.28792779 -0.15671083 -0.0014036393 0.12843255
-0.01192213 0.016714743 -0.010340667 0.0053226411 -0.014931364 0.020933666 -0.012950728 0.0066661146 -0.00024307977 0.00034079613 -0.00021083539 0.00010852308 -0.013148375 0.018433929 -0.011404251 0.0058700986 -0.00020172799 0.00028282123 -0.0001749689 9.0061563e-05 -2.1994433 3.083604 -1.9076885 0.98194256
-0.65566307 -0.58685764 0.093972465 0.29300104 -0.74847322 -0.66992827 0.10727442 0.3344758 -0.19918479 -0.17828229 0.028548025 0.089011189 -0.32987905 -0.29526146 0.04727969 0.1474155 -0.10390486 -0.093001059 0.014892093 0.046432738 -0.20064501 -0.17958928 0.02875731 0.08966373
-0.76123292 -0.54763406 0.24439976 0.34088007 -0.60766314 -0.43715534 0.19509499 0.27211153 -0.22892909 -0.16469252 0.073499468 0.10251444 -0.31824523 -0.22894691 0.10217511 0.1425102 -0.11370698 -0.081801262 0.036506511 0.05091798 -0.20336264 -0.14629991 0.065291161 0.091065783
-0.14663398 -0.24516447 -0.061346134 0.065729503 -1.8353507 -3.0686121 -0.76784164 0.82270627 -0.038908281 -0.065052647 -0.01627776 0.017440856 -0.12662669 -0.21171332 -0.052975838 0.056761124 -0.022689281 -0.037935313 -0.0094923409 0.010170598 -0.060661033 -0.10142213 -0.025378292 0.027191649
-0.73753113 -0.61341813 0.234436 0.33117995 -0.63353757 -0.52692479 0.20137999 0.28448283 -0.23732653 -0.19738881 0.07543801 0.10656877 -0.31507015 -0.26204961 0.10015006 0.14147866 -0.11615758 -0.09661038 0.036922532 0.052159236 -0.18735704 -0.15582828 0.059554414 0.084130544
-0.56191262 -0.54083491 -0.020346396 0.25239753 -0.87871238 -0.84575129 -0.031817456 0.3946963 -0.15927898 -0.15330432 -0.0057673614 0.071544256 -0.3315677 -0.31913038 -0.012005795 0.14893218 -0.088289334 -0.084977542 -0.0031968845 0.039657429 -0.20653898 -0.19879156 -0.0074786073 0.092772303
-0.51269721 -0.46403601 -0.11369564 0.23041432 -0.9332869 -0.84470662 -0.20696554 0.41943405 -0.13110878 -0.11866496 -0.02907466 0.058922382 -0.33989723 -0.30763685 -0.075375549 0.15275525 -0.076223857 -0.068989286 -0.016903389 0.03425622 -0.23189603 -0.20988628 -0.051425223 0.10421778
-0.77809767 -0.47672979 0.25539329 0.34996792 -0.57971146 -0.35518128 0.19027742 0.260739 -0.21944649 -0.13445187 0.072028441 0.098701276 -0.31813973 -0.19491986 0.1044223 0.1430909 -0.11062862 -0.06778064 0.036311387 0.049757849 -0.21731604 -0.13314656 0.071329165 0.097743052
-0.45960531 -0.48542036 -0.10409306 0.20701729 -1.0536169 -1.1127963 -0.23862693 0.47457441 -0.1219188 -0.12876672 -0.027612606 0.054915161 -0.31673028 -0.33452035 -0.07173421 0.14266294 -0.071157067 -0.075153809 -0.016115908 0.032050856 -0.19710165 -0.20817244 -0.044640289 0.08877933
-0.23453534 -0.33301988 -0.13927228 0.10576089 -1.5681469 -2.2266328 -0.93120037 0.70713695 -0.057614205 -0.081807183 -0.034212591 0.025980431 -0.20821276 -0.29564409 -0.12364135 0.093891035 -0.035065915 -0.049790564 -0.020822917 0.015812552 -0.11402488 -0.16190546 -0.067710499 0.051418145
-0.42439838 -0.42971571 -0.1753458 0.19140841 -1.0962548 -1.1099899 -0.45293215 0.49442315 -0.10362856 -0.10492693 -0.042815507 0.046737636 -0.31712613 -0.32109943 -0.13102485 0.14302743 -0.061837997 -0.062612771 -0.025549185 0.027889627 -0.21399415 -0.2166753 -0.088414511 0.096513752
-0.54615735 -0.42799664 -0.11689109 0.24633751 -0.84889972 -0.66524094 -0.18168539 0.3828857 -0.13301353 -0.10423615 -0.028468162 0.059994103 -0.35062158 -0.27476488 -0.075041632 0.15814352 -0.077835768 -0.060996061 -0.016658766 0.035106859 -0.26058205 -0.20420533 -0.055770959 0.11753231
-0.012390258 0.016477914 -0.014180484 0.0055927101 -0.015203424 0.020219169 -0.017400116 0.0068625162 -0.00026790071 0.00035628353 -0.00030660878 0.00012092493 -0.013457463 0.0178972 -0.015401887 0.0060744249 -0.0002208668 0.00029373271 -0.0002527791 9.9694776e-05 -2.1738901 2.8910757 -2.4879881 0.98124973
-0.73428956 -0.35490098 0.12961946 0.33154063 -0.60036793 -0.29017323 0.10597913 0.27107339 -0.18073304 -0.087352916 0.031903652 0.081603157 -0.33536592 -0.16209095 0.059200009 0.15142178 -0.098002426 -0.047367087 0.017299744 0.044249282 -0.26602112 -0.12857483 0.046959013 0.12011176
-0.013480547 0.018081942 -0.012138496 0.0060891595 -0.016051864 0.021530943 -0.014453827 0.007250623 -0.00035127167 0.00047117332 -0.00031630095 0.00015866932 -0.014266618 0.019136328 -0.01284631 0.0064442278 -0.00029716796 0.00039860206 -0.00026758351 0.00013423069 -2.1694125 2.909911 -1.9534375 0.97992309
-0.71093634 -0.67537426 0.22428661 0.32133442 -0.65693437 -0.62407355 0.20725003 0.2969262 -0.24187355 -0.22977468 0.076306406 0.10932385 -0.31177959 -0.29618392 0.098360406 0.14092051 -0.11830945 -0.11239144 0.037324333 0.053474406 -0.1726167 -0.16398216 0.054457216 0.078020611
-0.679099 -0.30837581 0.0091043994 0.3069485 -0.63891904 -0.29013027 0.0085657233 0.28878741 -0.15565012 -0.07068002 0.0020867367 0.070352879 -0.34889607 -0.15843214 0.0046775053 0.15769884 -0.088623089 -0.040243347 0.0011881331 0.040057082 -0.30123269 -0.13678842 0.0040385022 0.13615529
-0.62117 -0.63346839 0.08778195 0.28117036 -0.78454378 -0.80007677 0.11086946 0.35512092 -0.19743357 -0.20134251 0.027900742 0.089367594 -0.32081739 -0.32716918 0.045336987 0.14521684 -0.10311912 -0.10516075 0.014572496 0.046676496 -0.18214614 -0.18575241 0.025740366 0.082447794
-0.013622826 0.017798363 -0.014476651 0.0061692554 -0.016144842 0.021093402 -0.017156737 0.0073113793 -0.00036036348 0.00047081861 -0.00038294963 0.00016319479 -0.01436614 0.018769511 -0.015266553 0.0065058738 -0.00030404392 0.00039723652 -0.00032310019 0.00013768983 -2.1633818 2.8264807 -2.298974 0.97971261
-0.38353208 -0.47794722 -0.088710267 0.17376487 -1.2235988 -1.5248155 -0.28301617 0.5543695 -0.10552353 -0.13150055 -0.024407399 0.047808992 -0.27783586 -0.34623148 -0.064262926 0.12587764 -0.061690928 -0.076877552 -0.014268998 0.027949985 -0.15500877 -0.1931677 -0.035853244 0.070229011
-0.010704793 0.014895346 -0.013384484 0.004851525 -0.013862774 0.019289567 -0.017332991 0.0062827554 -0.00015574093 0.00021670808 -0.00019472699 7.0583433e-05 -0.012173598 0.016939137 -0.015220969 0.0055172027 -0.00012134824 0.00016885184 -0.00015172489 5.49963e-05 -2.1694617 3.0187304 -2.7125351 0.98322294
-0.57133987 -0.38930931 -0.11649344 0.25895603 -0.78301434 -0.53354369 -0.15965285 0.35489609 -0.13374782 -0.091135372 -0.027270534 0.060620317 -0.3552658 -0.24207708 -0.072436982 0.16102188 -0.078550854 -0.053524322 -0.01601614 0.035602657 -0.28440132 -0.19379023 -0.057988057 0.12890302
-0.13938003 -0.23339734 -0.083109852 0.063268285 -1.8148255 -3.0389965 -1.0821484 0.82379731 -0.034671924 -0.058059498 -0.020674256 0.015738504 -0.12917465 -0.21630802 -0.077024562 0.058635791 -0.020589183 -0.034477395 -0.012276966 0.009345975 -0.064358741 -0.10777124 -0.038375981 0.029214136
-0.59232542 -0.34947807 -0.11381357 0.26888927 -0.73337572 -0.4326992 -0.14091596 0.3329198 -0.13395805 -0.079036624 -0.025739641 0.060810968 -0.35828349 -0.21139093 -0.068843107 0.16264469 -0.079238504 -0.04675153 -0.015225443 0.03597074 -0.30567882 -0.18035364 -0.058735277 0.13876453
-0.81212987 -0.61389071 0.40023307 0.3699251 -0.52795126 -0.39907949 0.26018444 0.24048177 -0.26918981 -0.20348115 0.13266186 0.12261594 -0.29097952 -0.21995204 0.14340025 0.13254115 -0.12401821 -0.093745631 0.061118536 0.056490287 -0.17112132 -0.12935097 0.084331845 0.077945749
-0.60819802 -0.30744569 -0.10714452 0.27715788 -0.69091336 -0.34925851 -0.12171625 0.31485154 -0.13347121 -0.067470045 -0.023513245 0.060823277 -0.35875617 -0.18135218 -0.063201059 0.16348639 -0.079534619 -0.040204958 -0.014011389 0.036244193 -0.32353662 -0.16354861 -0.056996532 0.14743673
-0.2685354 -0.3984484 -0.064262396 0.12254672 -1.4916104 -2.213227 -0.35695279 0.68069969 -0.075128485 -0.11147441 -0.017978771 0.034285049 -0.20772563 -0.30821986 -0.049710193 0.094796045 -0.044339329 -0.065789966 -0.010610711 0.02023435 -0.10395074 -0.15424039 -0.024876137 0.047438147
-0.78743468 -0.40154678 0.26995613 0.35956085 -0.54476477 -0.27779896 0.18676164 0.24875217 -0.20851862 -0.1063326 0.071486412 0.095214416 -0.3133834 -0.15980766 0.10743719 0.1430981 -0.1067579 -0.054440439 0.036599797 0.048748121 -0.22913064 -0.11684356 0.078552828 0.10462634
-0.78723069 -0.68934273 0.38580343 0.3594989 -0.54677372 -0.47878531 0.26796107 0.24969117 -0.27998272 -0.24516836 0.13721301 0.12785767 -0.28991181 -0.25386282 0.14207903 0.13239191 -0.12780932 -0.11191691 0.062636372 0.05836575 -0.15809174 -0.13843387 0.077477081 0.072194602
-0.33056112 -0.39496875 -0.1967375 0.15103563 -1.2742278 -1.5225026 -0.7583723 0.58220338 -0.078548106 -0.093852682 -0.046748869 0.035889166 -0.28263409 -0.33770346 -0.16821315 0.12913745 -0.048720268 -0.058213088 -0.028996465 0.022260623 -0.17393864 -0.20782943 -0.10352172 0.079473754
-0.009494816 0.013996024 -0.012652001 0.0043394756 -0.012856604 0.018951534 -0.01713164 0.0058759346 -7.8872575e-05 0.0001162637 -0.00010509903 3.604763e-05 -0.011225671 0.016547426 -0.014958395 0.0051305393 -5.3403475e-05 7.8720462e-05 -7.1161025e-05 2.4407327e-05 -2.1543006 3.17559 -2.8706417 0.9845936
-0.51005639 -0.56977868 -0.019156486 0.23329021 -0.95239503 -1.0639106 -0.035769656 0.4356076 -0.15068629 -0.16833008 -0.0056594129 0.068921077 -0.3111876 -0.34762442 -0.011687454 0.14233136 -0.083955289 -0.09378558 -0.0031531579 0.038399572 -0.17807941 -0.19893066 -0.0066882326 0.08145018
-0.46855376 -0.40530719 -0.19231304 0.21440968 -0.94473699 -0.81721401 -0.38775753 0.4323106 -0.10875704 -0.094076738 -0.044638201 0.049767099 -0.34209328 -0.29591667 -0.14040865 0.15654151 -0.065829733 -0.05694387 -0.027019133 0.030123613 -0.2553492 -0.22088152 -0.10480544 0.11684751
-0.8313412 -0.53371429 0.41553554 0.38046085 -0.50646136 -0.32514407 0.2531484 0.23178055 -0.25466271 -0.16349139 0.12728998 0.11654564 -0.29016603 -0.18628423 0.14503587 0.13279363 -0.11936005 -0.076628183 0.059660635 0.054624776 -0.18309865 -0.11754784 0.091519576 0.083794556
-0.0081695902 0.013705595 -0.010690932 0.0037389771 -0.011838769 0.019861139 -0.015492512 0.0054182506 -1.0672751e-05 1.7904985e-05 -1.3966631e-05 4.8845988e-06 -0.010223415 0.017151164 -0.013378619 0.0046789513 -0 0 -0 0 -2.1547376 3.6148642 -2.819744 0.98615894
-0.68009967 -0.73201606 0.21472463 0.31207253 -0.67259826 -0.72394201 0.21235624 0.30863041 -0.24377798 -0.26238713 0.076966861 0.11186068 -0.30523624 -0.32853689 0.096370784 0.1400616 -0.11924006 -0.12834242 0.037647097 0.054714846 -0.15834778 -0.17043549 0.049994391 0.072659929
-0.75962164 -0.76009664 0.37100059 0.34926578 -0.56173881 -0.56209007 0.27435426 0.2582814 -0.28986353 -0.29004479 0.14156988 0.13327611 -0.28717633 -0.2873559 0.14025744 0.13204056 -0.1307884 -0.13087018 0.063877291 0.060135085 -0.14572129 -0.14581242 0.071170545 0.067001068
-0.61940756 -0.26131891 -0.094706409 0.2856216 -0.64726317 -0.27307078 -0.098965486 0.29846639 -0.13193712 -0.055662323 -0.020172971 0.060838924 -0.35443625 -0.14953143 -0.054192727 0.16343786 -0.07905437 -0.033351872 -0.012087285 0.0364536 -0.33653153 -0.14197769 -0.051455124 0.15518163
-0.0090444635 0.013999536 -0.012437731 0.0041794152 -0.012435728 0.019248729 -0.017101317 0.0057465069 -5.6376472e-05 8.7262718e-05 -7.7527581e-05 2.6051372e-05 -0.010840261 0.016779174 -0.014907269 0.0050092471 -3.4240958e-05 5.3000107e-05 -4.708735e-05 1.5822628e-05 -2.1316389 3.2994723 -2.9313791 0.98502296
-0.85943979 -0.67579438 0.57349303 0.3988823 -0.4482325 -0.35245401 0.29909974 0.2080332 -0.31207366 -0.24538964 0.20824271 0.1448393 -0.26087973 -0.20513485 0.17408166 0.12107923 -0.13244324 -0.10414272 0.088377656 0.061469418 -0.14155109 -0.1113044 0.094455206 0.065696544
-0.84111254 -0.44862853 0.43286023 0.390788 -0.4794481 -0.2557257 0.24673751 0.22275564 -0.23808552 -0.1269889 0.12252552 0.11061654 -0.28586794 -0.15247486 0.1471157 0.13281666 -0.11460435 -0.061127111 0.058978629 0.053246149 -0.19323155 -0.1030649 0.099442402 0.08977701
-0.57963536 -0.67698599 0.08315608 0.26934103 -0.80884415 -0.94469072 0.116039 0.37584821 -0.19160548 -0.2237859 0.027488248 0.089033935 -0.30735849 -0.3589798 0.044094492 0.14282126 -0.10115054 -0.11813892 0.014511334 0.047001947 -0.16345598 -0.19090866 0.023449844 0.075953617
-0.49521774 -0.36808898 -0.20022912 0.23017646 -0.837959 -0.62284415 -0.33880812 0.38948207 -0.10981634 -0.081625073 -0.044401537 0.051042468 -0.35121665 -0.26105482 -0.14200582 0.16324497 -0.067389524 -0.050089767 -0.027247297 0.031322549 -0.28987075 -0.2154572 -0.11720211 0.13473149
-0.15577542 -0.2726738 -0.039593038 0.072416971 -1.7398798 -3.0455359 -0.44222077 0.80883638 -0.04366671 -0.076435468 -0.011098655 0.020299806 -0.12787517 -0.22383639 -0.032501702 0.059446685 -0.025689198 -0.044967114 -0.0065293573 0.01194241 -0.05820366 -0.10188137 -0.014793474 0.027057752
-0.68004843 -0.24431798 0.029074156 0.31626923 -0.58479551 -0.21009689 0.025001802 0.27197008 -0.14904517 -0.053546796 0.006372138 0.06931624 -0.33817369 -0.12149416 0.014457962 0.15727399 -0.086182756 -0.030962496 0.0036845771 0.040080901 -0.31197445 -0.11208168 0.013337865 0.14508955
-0.73326767 -0.28228453 0.14917067 0.34107535 -0.55314782 -0.21294417 0.11252839 0.25729361 -0.17029367 -0.065557603 0.034643313 0.07921115 -0.32499127 -0.12511122 0.066113873 0.15116787 -0.094486294 -0.036374193 0.019221608 0.043949771 -0.27368328 -0.10535928 0.055676146 0.12730224
-0.83083635 -0.75810815 0.55205909 0.3867287 -0.46045917 -0.42015235 0.30595757 0.21432955 -0.32856959 -0.29980788 0.21832197 0.15293901 -0.26026668 -0.23748394 0.17293729 0.12114612 -0.13706407 -0.12506602 0.091073855 0.063799101 -0.13117414 -0.11969167 0.087160219 0.061057519
-0.88360751 -0.58855837 0.59603146 0.41174052 -0.43293263 -0.28837025 0.29203177 0.20173652 -0.29237925 -0.19474965 0.19722244 0.13624192 -0.25924928 -0.17268225 0.17487485 0.12080413 -0.12641357 -0.084202277 0.085271417 0.058905779 -0.15144776 -0.1008772 0.10215806 0.07057113
-0.071463443 -0.14039142 -0.030938409 0.033339449 -1.9489755 -3.828803 -0.8437629 0.9092449 -0.01888755 -0.037104985 -0.0081769184 0.0088115054 -0.064313045 -0.12634431 -0.027842813 0.030003613 -0.01081262 -0.021241617 -0.0046810683 0.0050443525 -0.029057804 -0.05708466 -0.012579889 0.013556178
-0.72839713 -0.82364571 0.35707762 0.34006421 -0.5692809 -0.64372271 0.27907506 0.26577817 -0.29394224 -0.33237949 0.14409749 0.13723178 -0.2830505 -0.3200635 0.1387581 0.13214679 -0.13337689 -0.15081787 0.065384526 0.062269198 -0.13389234 -0.15140072 0.065637213 0.062509846
-0.39247279 -0.39715527 -0.23542173 0.18326747 -1.0552512 -1.0678411 -0.63298417 0.49275574 -0.088838466 -0.089898373 -0.053289058 0.041483643 -0.32310779 -0.32696269 -0.19381367 0.15087708 -0.055843666 -0.056509921 -0.033497386 0.026076528 -0.22601609 -0.22871263 -0.13557398 0.10553954
-0.015433703 0.020518662 -0.015187986 0.0072079017 -0.017351193 0.023067908 -0.017074947 0.0081034143 -0.00050846316 0.00067598705 -0.000500368 0.00023746423 -0.015591572 0.020728544 -0.015343341 0.0072816302 -0.00043808887 0.00058242646 -0.00043111413 0.00020459778 -2.091897 2.7811165 -2.0585922 0.97696499
-0.80006946 -0.83431498 0.53015119 0.3749646 -0.47172347 -0.49191474 0.31257881 0.22108031 -0.34238952 -0.35704488 0.22687806 0.160466 -0.25832488 -0.26938201 0.17117419 0.12106785 -0.14059239 -0.14661019 0.093160939 0.065890739 -0.12062028 -0.12578321 0.079926795 0.056530512
-0.78532777 -0.32060281 0.28988143 0.36947386 -0.5035546 -0.20557152 0.18587287 0.23690778 -0.19403719 -0.079213892 0.071623316 0.091288851 -0.30369572 -0.12398097 0.11210065 0.14288 -0.10216496 -0.041707902 0.037711292 0.04806564 -0.23674975 -0.096650902 0.087389444 0.11138387
-0.5160922 -0.33066981 -0.20335878 0.24292522 -0.75967038 -0.48673485 -0.29933729 0.35757776 -0.11038521 -0.070725845 -0.043495719 0.051958452 -0.3545589 -0.22717244 -0.13970888 0.1668913 -0.068449354 -0.043856766 -0.026971492 0.032219193 -0.31533395 -0.20204029 -0.12425285 0.14842807
-0.90549867 -0.73114863 0.76055168 0.42644011 -0.37714522 -0.30452746 0.31677399 0.17761467 -0.35818162 -0.28921522 0.30084597 0.16868386 -0.22940438 -0.18523351 0.19268265 0.10803686 -0.13771093 -0.11119526 0.11566696 0.064854279 -0.11544919 -0.093219925 0.096968752 0.054370225
-0.93792596 -0.64010933 0.79398597 0.44241582 -0.36680899 -0.2503373 0.31051619 0.17302229 -0.3304344 -0.22551262 0.27972387 0.15586455 -0.2290747 -0.15633734 0.19391946 0.10805359 -0.13195118 -0.090053146 0.11170113 0.062240831 -0.12381477 -0.084500263 0.10481338 0.058402918
-0.072717782 -0.14261381 -0.043885396 0.034311199 -1.9162324 -3.758107 -1.1564519 0.90415617 -0.018205023 -0.035703615 -0.010986785 0.0085898681 -0.069386662 -0.13608083 -0.041875055 0.032739441 -0.010490917 -0.020574744 -0.0063312996 0.0049500403 -0.032327199 -0.063399968 -0.01950956 0.015253284
-0.64468019 -0.78384815 0.20671432 0.30448509 -0.67405017 -0.81955826 0.21613169 0.31835665 -0.23886903 -0.290434 0.07659247 0.11281882 -0.29615285 -0.36008376 0.094960317 0.1398742 -0.11853435 -0.14412251 0.038007601 0.055984258 -0.14499341 -0.17629333 0.046491602 0.068480982
-0.89700691 -0.49536051 0.61889967 0.42389227 -0.41283317 -0.2279818 0.28483873 0.19508968 -0.26920914 -0.14866728 0.18574377 0.12721828 -0.25607481 -0.14141401 0.1766816 0.12101148 -0.12116713 -0.066912987 0.083600579 0.057259102 -0.15982884 -0.08826342 0.11027565 0.075529197
-0.86833772 -0.81454067 0.72747845 0.41088406 -0.38411318 -0.36031581 0.32180343 0.18175645 -0.38187295 -0.35821437 0.31992661 0.18069641 -0.22878483 -0.21461068 0.19167201 0.10825747 -0.14296148 -0.13410443 0.11977067 0.067647173 -0.10726984 -0.10062404 0.08986883 0.050758438
-0.53283707 -0.29405046 -0.20192749 0.25215059 -0.70714512 -0.39024377 -0.26798443 0.33463712 -0.11072658 -0.06110536 -0.041961683 0.05239833 -0.35566908 -0.19627887 -0.13478673 0.16831068 -0.069157322 -0.038165029 -0.02620832 0.032726814 -0.33763483 -0.18632652 -0.12795235 0.15977646
-0.62405205 -0.20655967 -0.073856067 0.29531559 -0.59323996 -0.19636095 -0.07020948 0.28073461 -0.1282557 -0.042452315 -0.01517896 0.060693506 -0.343241 -0.11361191 -0.040622301 0.16242943 -0.077652218 -0.025702691 -0.0091900787 0.036746792 -0.34672908 -0.11476646 -0.041035112 0.16408007
-0.5474082 -0.25804696 -0.19556043 0.26016758 -0.66644144 -0.31415895 -0.2380848 0.3167407 -0.11119956 -0.052419212 -0.039725807 0.052849993 -0.35499781 -0.16734514 -0.12682222 0.16872038 -0.069797138 -0.032902209 -0.024934881 0.033172599 -0.35421586 -0.16697653 -0.12654287 0.16834875
-0.76589346 -0.90142445 0.50959376 0.36432083 -0.47223434 -0.5558 0.31420516 0.22463282 -0.35096619 -0.41307247 0.23351835 0.16694788 -0.25645548 -0.30183734 0.17063485 0.12199095 -0.14450539 -0.17007678 0.096147895 0.068738441 -0.11219513 -0.13204896 0.07464999 0.053369073
-0.98932086 -0.68646523 1.0054236 0.47125328 -0.30867025 -0.21417864 0.31369433 0.14703204 -0.36672362 -0.25446043 0.37269262 0.1746852 -0.19960435 -0.13850051 0.20285322 0.095079573 -0.13437465 -0.093239239 0.1365618 0.064008045 -0.10064626 -0.069835947 0.10228444 0.047941859
-0.83032256 -0.88941303 0.69407841 0.39586296 -0.39108257 -0.41891423 0.32691147 0.18645176 -0.40129105 -0.42984919 0.33544488 0.19131873 -0.22776875 -0.24397807 0.19039513 0.10859059 -0.14819367 -0.15873997 0.12387719 0.070652522 -0.098841398 -0.10587551 0.082622926 0.047123432
-0.94824417 -0.77958439 0.95931866 0.4523893 -0.31493503 -0.258919 0.31861313 0.15024953 -0.4001501 -0.32897726 0.40482343 0.19090402 -0.19926712 -0.1638244 0.20159435 0.095066561 -0.14017606 -0.1152436 0.14181317 0.066875339 -0.093307526 -0.07671135 0.094397259 0.04451525
-0.95744915 -0.5404935 0.82533552 0.45688763 -0.35224618 -0.19884792 0.30364149 0.16808927 -0.30285683 -0.17096694 0.26106713 0.14452103 -0.2264786 -0.12785035 0.19522795 0.10807391 -0.12599325 -0.071124963 0.10860807 0.060123046 -0.13056597 -0.073706325 0.11254983 0.062305113
-0.83957446 -0.35970162 0.4546179 0.40159882 -0.44553444 -0.19088177 0.24125071 0.21311523 -0.21964746 -0.094104279 0.11893605 0.10506532 -0.27701176 -0.11868105 0.14999802 0.13250474 -0.10851569 -0.046491729 0.058759735 0.051906976 -0.20029618 -0.085813546 0.1084576 0.095808906
-0.42294246 -0.57367104 -0.013062704 0.20261396 -1.0484076 -1.42204 -0.032380384 0.50224805 -0.12915972 -0.17518977 -0.0039891366 0.061874995 -0.27239392 -0.36946988 -0.0084129676 0.13049248 -0.073576313 -0.099797499 -0.0022724264 0.03524732 -0.14094995 -0.1911818 -0.0043532813 0.067523197
-0.42880824 -0.36909827 -0.25930425 0.20550671 -0.89772803 -0.7727227 -0.54286433 0.43023691 -0.09262127 -0.079724098 -0.056008926 0.044388821 -0.33837485 -0.29125739 -0.20461835 0.16216643 -0.058443945 -0.05030584 -0.035341587 0.02800931 -0.27061367 -0.23293171 -0.16364255 0.12969183
-0.0086395014 0.014569836 -0.012416176 0.0041434073 -0.011902559 0.020072724 -0.017105647 0.0057083328 -4.677417e-05 7.888094e-05 -6.7221046e-05 2.2432364e-05 -0.010386139 0.017515402 -0.014926339 0.004981075 -2.6166715e-05 4.4128096e-05 -3.7605241e-05 1.2549261e-05 -2.0541189 3.464109 -2.952057 0.9851322
-0.55844439 -0.21869198 -0.18233944 0.26800357 -0.626116 -0.24519281 -0.20443511 0.30047991 -0.11113051 -0.043519735 -0.036285574 0.053332747 -0.35004026 -0.137079 -0.11429275 0.16798814 -0.069900675 -0.02737375 -0.02282349 0.033546098 -0.36808816 -0.14414672 -0.12018563 0.17664953
-0.69468863 -0.88116941 0.34615988 0.33364486 -0.56126625 -0.71193141 0.27967617 0.2695648 -0.29212684 -0.37054477 0.14556535 0.1403026 -0.27608081 -0.35019137 0.13756969 0.13259601 -0.13381933 -0.16974151 0.066681503 0.064270709 -0.12413814 -0.15746152 0.061857413 0.059621029
-1.0163426 -0.58222917 1.0476199 0.48825068 -0.29965453 -0.1716622 0.30887622 0.14395395 -0.33341285 -0.19100123 0.34367343 0.16017143 -0.19806207 -0.11346323 0.20415731 0.095148958 -0.12868065 -0.073716902 0.13264072 0.061818146 -0.10544729 -0.060407275 0.10869237 0.050656845
-0.901282 -0.86090392 0.91147936 0.43300888 -0.31685487 -0.30265954 0.32043985 0.15222868 -0.43297077 -0.41357337 0.43786952 0.20801501 -0.19783903 -0.1889757 0.20007743 0.095049113 -0.14625535 -0.139703 0.14791012 0.070266425 -0.086237999 -0.082374475 0.08721372 0.041431893
-1.0331974 -0.72682599 1.226252 0.49761471 -0.2579872 -0.18148691 0.30619253 0.12425334 -0.39888877 -0.28060729 0.47342177 0.19211519 -0.17140569 -0.12057919 0.20343312 0.082553432 -0.13506315 -0.095013212 0.16029991 0.065049919 -0.079757775 -0.056107403 0.094660644 0.038413416
-0.0083155248 0.01528689 -0.010016986 0.0040155322 -0.011649993 0.021416828 -0.014033729 0.0056257331 -4.2141331e-05 7.7470746e-05 -5.0763979e-05 2.0349873e-05 -0.010119915 0.018604001 -0.012190577 0.0048868647 -2.5284402e-05 4.6481718e-05 -3.045791e-05 1.2209732e-05 -2.0406871 3.7515083 -2.4582375 0.98543931
-0.98637176 -0.82223891 1.1692432 0.47717199 -0.26038841 -0.21705963 0.30866392 0.12596676 -0.43671044 -0.36404157 0.5176757 0.21126516 -0.16967762 -0.14144316 0.20113551 0.082084067 -0.14059546 -0.11720029 0.16666158 0.06801514 -0.073376312 -0.06116645 0.086980137 0.035496881
-0.79137785 -0.95582085 0.66473793 0.38316517 -0.38994199 -0.47096931 0.32754168 0.18880006 -0.41574944 -0.50213938 0.34921931 0.20129538 -0.22515204 -0.27193712 0.18912217 0.10901293 -0.15079133 -0.18212476 0.12666101 0.073009356 -0.092357343 -0.11154858 0.077577897 0.044717093
-0.079455434 -0.16198141 -0.022309248 0.038473109 -1.8538242 -3.779289 -0.52051095 0.89764006 -0.022282514 -0.045426132 -0.0062564145 0.010789414 -0.067826152 -0.13827343 -0.019044014 0.032842095 -0.012933064 -0.026365923 -0.003631305 0.0062623176 -0.028898642 -0.058914066 -0.0081140701 0.013993009
-0.8554928 -0.93110381 0.86379505 0.41428423 -0.31885192 -0.34703301 0.32194627 0.15440846 -0.46418681 -0.50521304 0.46869158 0.22478889 -0.19602936 -0.21335503 0.19793176 0.094929934 -0.15079037 -0.16411767 0.15225374 0.073022324 -0.079638733 -0.086677443 0.080411599 0.038566159
-1.0687828 -0.62026232 1.2817961 0.51757537 -0.25310789 -0.1468898 0.30355346 0.1225716 -0.35875409 -0.208201 0.43025543 0.17373248 -0.17109171 -0.099292148 0.20519107 0.082853929 -0.12835029 -0.074487397 0.15393109 0.062155705 -0.084893232 -0.049267329 0.10181284 0.041110922
-0.016627681 0.022552175 -0.018416206 0.0080582333 -0.018069688 0.024507973 -0.020013319 0.0087570696 -0.00061677416 0.00083653269 -0.0006831163 0.00029890579 -0.016344075 0.022167519 -0.018102095 0.0079207901 -0.00053466543 0.00072516837 -0.0005921757 0.00025911363 -2.0112471 2.7278606 -2.2275831 0.97470589
-0.21466668 -0.32479517 -0.16828283 0.10404399 -1.4571987 -2.2047721 -1.1423362 0.70627062 -0.050973422 -0.077123849 -0.039959399 0.024705642 -0.19865061 -0.30056251 -0.15572741 0.09628137 -0.031731497 -0.048010417 -0.024875151 0.015379525 -0.11000905 -0.16644599 -0.086238974 0.05331885
-0.89670163 -0.39830811 0.64388966 0.43561982 -0.386772 -0.17180121 0.27772727 0.18789478 -0.24630366 -0.10940623 0.17686193 0.11965492 -0.24848539 -0.11037534 0.17842855 0.1207148 -0.1144707 -0.050847024 0.082197355 0.055610145 -0.16571662 -0.073610077 0.11899523 0.080505537
-0.12751377 -0.22725224 -0.10064218 0.062067713 -1.6922802 -3.0159446 -1.3356578 0.8237225 -0.030479234 -0.05431942 -0.024056197 0.014835859 -0.12325508 -0.2196625 -0.09728094 0.059994783 -0.018408028 -0.032806383 -0.014528815 0.0089601632 -0.062493676 -0.11137486 -0.04932408 0.030418985
-0.0086799404 0.01596003 -0.0098121102 0.0042287746 -0.011888755 0.021860159 -0.013439467 0.0057920747 -6.5484492e-05 0.00012040802 -7.4025976e-05 3.1903348e-05 -0.010360357 0.019049855 -0.011711713 0.0050474558 -4.4828964e-05 8.2428169e-05 -5.067624e-05 2.1840194e-05 -2.0215506 3.7170771 -2.285232 0.98487795
-0.92729121 -0.89683021 1.1012293 0.45248064 -0.25933617 -0.25081712 0.30798155 0.12654557 -0.48226757 -0.46642535 0.57272966 0.23532709 -0.16715401 -0.1616631 0.19850818 0.081564404 -0.14567443 -0.1408891 0.17299953 0.071083234 -0.067626615 -0.065405118 0.080311781 0.032999056
-0.73064295 -0.96218068 0.49437245 0.35719004 -0.46340116 -0.61025107 0.31354955 0.22654332 -0.35034279 -0.46136497 0.23705125 0.17127238 -0.2510926 -0.33066281 0.16989593 0.12275186 -0.14514912 -0.19114628 0.098211757 0.070959176 -0.10490138 -0.13814419 0.070979062 0.051283226
-0.67038478 -0.16799051 0.059876969 0.32790792 -0.51624384 -0.12936461 0.046109514 0.25251236 -0.13904533 -0.034843117 0.012419156 0.068011784 -0.3180176 -0.079691451 0.028404478 0.15555318 -0.081830972 -0.020505875 0.0073089228 0.040026302 -0.31890748 -0.079914446 0.02848396 0.15598846
-1.0674542 -0.76293673 1.4560592 0.5224449 -0.21500425 -0.15366902 0.29327619 0.10522969 -0.41879501 -0.29932347 0.57125665 0.20497115 -0.14517908 -0.10376319 0.19803129 0.071055105 -0.1336014 -0.095488329 0.18223878 0.065388633 -0.063156072 -0.045139255 0.086147938 0.030910523
-0.72158639 -0.2005843 0.17883 0.35319422 -0.49217124 -0.1368122 0.12197429 0.2409026 -0.15674637 -0.043571858 0.038846289 0.076722499 -0.30611773 -0.085093635 0.075864838 0.14983516 -0.08927829 -0.024817296 0.022125746 0.043698962 -0.27712998 -0.077035713 0.068680835 0.13564655
-0.96090413 -0.43593429 0.85678407 0.47045029 -0.33335121 -0.15123176 0.29723049 0.16320585 -0.27393479 -0.12427626 0.24425221 0.13411609 -0.22052559 -0.10004606 0.19663025 0.10796741 -0.11886211 -0.053924288 0.10598265 0.058193854 -0.13494217 -0.061219345 0.12032033 0.066066512
-0.52425572 -0.70774689 0.081923618 0.25711287 -0.81264712 -1.0970762 0.12698954 0.39854985 -0.17735907 -0.23943531 0.027715285 0.086982934 -0.2864376 -0.38669167 0.044760607 0.14047876 -0.095351702 -0.1287251 0.014900279 0.046763724 -0.14295878 -0.19299481 0.022339671 0.070111859
-0.5647062 -0.1707381 -0.15998555 0.27699192 -0.5782561 -0.17483489 -0.16382434 0.28363823 -0.10919157 -0.033013913 -0.0309348 0.053559148 -0.33907746 -0.10251958 -0.096063214 0.16631961 -0.068993216 -0.020859998 -0.019546301 0.033841604 -0.37848546 -0.11443453 -0.1072278 0.18564949
-1.1068305 -0.65330793 1.5206242 0.54348576 -0.21285117 -0.12563564 0.29242657 0.10451607 -0.37454312 -0.22107449 0.51456781 0.1839115 -0.1465003 -0.086471967 0.20127013 0.071935883 -0.128199 -0.075669603 0.1761268 0.062949415 -0.067615921 -0.039910372 0.092894449 0.033201371
-0.87252237 -0.95759212 1.0348152 0.42877899 -0.25686642 -0.28191055 0.30464466 0.12623049 -0.52845151 -0.57997482 0.62674572 0.25969409 -0.16449719 -0.18053544 0.19509436 0.080837973 -0.15011613 -0.16475225 0.17803836 0.073770763 -0.062446382 -0.06853482 0.074061673 0.030687691
-0.45088289 -0.33097817 -0.27332664 0.22165993 -0.77949458 -0.57220111 -0.47253209 0.38320973 -0.093465515 -0.068609933 -0.056659092 0.04594887 -0.34548739 -0.25361083 -0.20943555 0.16984612 -0.06003217 -0.044067624 -0.036391692 0.0295126 -0.30475746 -0.22371234 -0.18474494 0.14982275
-1.025612 -0.47143733 1.0889105 0.50441012 -0.2852755 -0.13113099 0.30288205 0.14030242 -0.2978828 -0.13692612 0.31626745 0.14650286 -0.19371956 -0.089045982 0.20567549 0.095273945 -0.12073477 -0.055497475 0.12818624 0.059379022 -0.11006532 -0.050593108 0.1168583 0.054131639
-0.80697879 -0.98959608 0.81913634 0.39691646 -0.31466474 -0.38587258 0.31940532 0.15476939 -0.49182787 -0.6031273 0.49923751 0.24190794 -0.19257975 -0.23616007 0.19548107 0.094721292 -0.15331943 -0.18801524 0.15562927 0.075410911 -0.073749415 -0.090438724 0.074860488 0.03627401
-1.0101532 -0.85403683 1.3799144 0.49739191 -0.21364092 -0.1806233 0.29184303 0.10519519 -0.4684667 -0.39606646 0.63994642 0.23066951 -0.14222526 -0.12024473 0.19428605 0.070030655 -0.13879074 -0.11734102 0.18959435 0.068339526 -0.057623144 -0.048717646 0.078715785 0.028373206
-0.30276013 -0.3848916 -0.23720736 0.14911574 -1.1731255 -1.491366 -0.9191237 0.57778904 -0.069237695 -0.088020198 -0.054246544 0.034101024 -0.27143452 -0.3450681 -0.21266428 0.13368722 -0.04422259 -0.056219103 -0.034647639 0.021780557 -0.16958952 -0.21559504 -0.13287048 0.083526413
-0.27078116 -0.44473808 -0.024338515 0.13345679 -1.3379204 -2.1974355 -0.12025576 0.65940539 -0.080469216 -0.13216475 -0.0072327824 0.039659935 -0.19896133 -0.32677931 -0.017883162 0.098059778 -0.047605015 -0.078187726 -0.0042788626 0.023462535 -0.093242928 -0.15314463 -0.0083809169 0.045955568
-0.7710043 -0.2335472 0.31858512 0.38124366 -0.45107762 -0.13663726 0.18638887 0.22304737 -0.17793016 -0.053897353 0.073522162 0.08798232 -0.28645474 -0.086770854 0.11836538 0.14164519 -0.096130788 -0.029119262 0.039722007 0.047534434 -0.23974239 -0.072621076 0.099063464 0.11854702
-0.014785468 0.020856548 -0.018499147 0.0073122628 -0.016529096 0.023316128 -0.020680723 0.0081745865 -0.00048543707 0.00068476298 -0.00060736472 0.00024007649 -0.014894412 0.021010224 -0.018635454 0.0073661414 -0.00041482283 0.00058515374 -0.00051901424 0.0002051537 -1.9749008 2.7858172 -2.4709383 0.97670178
-1.0815165 -0.503212 1.3314183 0.53507576 -0.24206558 -0.11262916 0.29799872 0.11976093 -0.32015593 -0.14896333 0.39413311 0.1583958 -0.16788438 -0.078113862 0.20667676 0.08306009 -0.12125219 -0.056416666 0.14926946 0.059989012 -0.088365396 -0.041114977 0.10878364 0.043718408
-0.61990273 -0.13708108 -0.041184356 0.30753872 -0.52392399 -0.11585699 -0.034807835 0.2599229 -0.1208 -0.026712892 -0.0080255661 0.059929852 -0.3238269 -0.071608882 -0.021514024 0.16065313 -0.074679448 -0.016514106 -0.0049614638 0.037049074 -0.35255693 -0.077962045 -0.023422755 0.17490632
-0.9442359 -0.92290174 1.2939473 0.46888266 -0.20982807 -0.20508719 0.28754094 0.10419509 -0.52561557 -0.51373976 0.72028491 0.26100684 -0.1386591 -0.13552622 0.19001351 0.068854455 -0.14314457 -0.13991034 0.19616023 0.071081819 -0.052316788 -0.051134737 0.071693068 0.025979138
-0.60134766 -0.8278523 0.20105608 0.29884638 -0.65525826 -0.90206896 0.21908068 0.32563786 -0.22822617 -0.31419023 0.076305706 0.11341952 -0.28110694 -0.38698917 0.093985998 0.13969921 -0.11476247 -0.1579891 0.038369971 0.057032482 -0.13152849 -0.18107024 0.043975564 0.065364542
-0.0091337215 0.015163636 -0.013848315 0.0045470357 -0.012054514 0.020012683 -0.018276747 0.0060010923 -8.9968385e-05 0.00014936386 -0.00013640777 4.4788913e-05 -0.010611567 0.017617128 -0.016088987 0.0052827506 -6.0559287e-05 0.00010053941 -9.1818445e-05 3.0148197e-05 -1.9767697 3.2817966 -2.9971277 0.98409418
-0.81624729 -1.0086824 0.97217897 0.40663333 -0.25191341 -0.3113035 0.30003766 0.12549676 -0.57011773 -0.70452638 0.67903009 0.28401794 -0.16012549 -0.19787603 0.19071505 0.079770389 -0.15170649 -0.1874722 0.18068772 0.075576257 -0.057219578 -0.070709434 0.068150511 0.028505317
-0.75198035 -1.0166524 0.64389282 0.37478337 -0.38112445 -0.51526755 0.3263427 0.18995058 -0.415194 -0.56132844 0.35551519 0.20693068 -0.22061959 -0.29827033 0.18890835 0.10995574 -0.15125329 -0.2044894 0.12951257 0.075383907 -0.086268333 -0.11663191 0.073868367 0.04299572
-0.88190366 -0.97170397 1.205868 0.43963731 -0.20510732 -0.22599248 0.2804528 0.10224794 -0.59015326 -0.65024594 0.80694408 0.29419698 -0.134758 -0.14847981 0.1842609 0.067178138 -0.14651599 -0.16143505 0.20033814 0.073039604 -0.047541776 -0.052382743 0.065006088 0.023700025
-0.012005522 0.017857722 -0.016646461 0.0059960453 -0.01430316 0.021275365 -0.019832291 0.0071435794 -0.00028512196 0.00042410724 -0.00039534071 0.00014240149 -0.012771329 0.018996829 -0.017708304 0.0063785205 -0.0002333587 0.00034711151 -0.00032356749 0.00011654882 -1.9626415 2.9193489 -2.721334 0.9802229
-0.0081330375 0.015326334 -0.010871143 0.0040619896 -0.011300023 0.021294371 -0.015104341 0.0056437186 -3.7671561e-05 7.0990317e-05 -5.0354242e-05 1.8814802e-05 -0.0098513597 0.018564433 -0.013167964 0.0049201938 -2.0510165e-05 3.8650459e-05 -2.7415212e-05 1.0243661e-05 -1.9728874 3.7178152 -2.6370888 0.98534504
-0.60253597 -0.90837753 1.0328559 0.30148807 -0.09502479 -0.14325847 0.16288972 0.047547104 -1.1070721 -1.6690114 1.8977224 0.55394043 -0.06316771 -0.095231042 0.10828091 0.031606928 -0.11763051 -0.17733864 0.20164003 0.058858222 -0.013108908 -0.019762866 0.022471046 0.0065592424
-1.1236364 -0.53242758 1.5795902 0.56270446 -0.20611265 -0.097665101 0.28974989 0.1032189 -0.33050241 -0.15660635 0.46461503 0.16551189 -0.14531984 -0.068858835 0.20428833 0.072774542 -0.1201264 -0.056921089 0.16887178 0.060157948 -0.071152305 -0.033715043 0.10002478 0.035632273
-0.46205825 -0.28952429 -0.27741473 0.23167318 -0.70072065 -0.43906941 -0.42070503 0.35133704 -0.092159852 -0.057747081 -0.055331769 0.046208385 -0.34477998 -0.21603808 -0.20700213 0.17287057 -0.059984868 -0.037586335 -0.03601426 0.030076046 -0.33473641 -0.20974481 -0.20097208 0.16783478
-0.42638295 -0.73682611 0.73622085 0.21387159 -0.065556669 -0.11328752 0.11319446 0.032882902 -1.363442 -2.3561441 2.3542087 0.68389579 -0.043061769 -0.074414411 0.074353284 0.021599571 -0.088042193 -0.15214442 0.15201944 0.04416153 -0.0071544126 -0.012363435 0.01235328 0.0035886181
-0.82203261 -0.2665759 0.48210588 0.41241232 -0.40456365 -0.13119543 0.23726858 0.20296887 -0.19852264 -0.064378653 0.11642961 0.099598461 -0.2633442 -0.085399552 0.15444617 0.13211932 -0.10222079 -0.033149048 0.059950472 0.05128399 -0.20254612 -0.065683422 0.1187893 0.10161703
-1.0821491 -0.79162753 1.6848266 0.54316304 -0.17844798 -0.13054054 0.27783036 0.089568379 -0.42834932 -0.31335155 0.66690835 0.21500134 -0.12283159 -0.08985533 0.19123974 0.06165285 -0.1308087 -0.095690844 0.20365951 0.065656798 -0.049723272 -0.036374202 0.077415474 0.024957598
-0.81517053 -1.0070643 1.115716 0.40963549 -0.19646117 -0.24270876 0.2688945 0.098724702 -0.6599859 -0.81534868 0.90331629 0.33165287 -0.12882273 -0.15914801 0.17631842 0.064735367 -0.14708773 -0.18171265 0.20131754 0.073913801 -0.042461942 -0.052457619 0.058117248 0.021337767
-0.010010134 0.015835931 -0.014894165 0.0050316085 -0.012692672 0.02007968 -0.018885538 0.0063799905 -0.00015066067 0.00023834368 -0.00022416933 7.5729811e-05 -0.011238766 0.017779615 -0.016722257 0.0056491822 -0.00011287308 0.00017856409 -0.00016794484 5.6735823e-05 -1.9552449 3.0931779 -2.9092259 0.98280675
-1.1245502 -0.68182444 1.7591888 0.56591394 -0.17837183 -0.10814837 0.27903575 0.089763091 -0.38071494 -0.23083073 0.59557094 0.19158939 -0.12469254 -0.075602154 0.19506262 0.06274975 -0.12518448 -0.075900422 0.19583218 0.062997312 -0.053625983 -0.032513892 0.083889739 0.026986515
-0.65600134 -0.93100409 0.3386445 0.33019482 -0.53822917 -0.76386057 0.27784752 0.27091481 -0.2819039 -0.40008103 0.14552593 0.14189484 -0.26474756 -0.37573256 0.13666939 0.13325929 -0.13124165 -0.18625955 0.067750263 0.066059793 -0.11458637 -0.1626222 0.059152388 0.057676447
-0.72514456 -0.97639183 1.247777 0.36541337 -0.11446598 -0.15412602 0.19696489 0.057681462 -0.91688366 -1.2345645 1.577708 0.46203414 -0.07695616 -0.10361984 0.13242067 0.038779591 -0.13248704 -0.178391 0.22797425 0.066762599 -0.01851261 -0.024926839 0.031855179 0.0093288369
-0.067449451 -0.13981716 -0.053420025 0.034005783 -1.7916804 -3.714006 -1.4190125 0.90330605 -0.016230736 -0.033644979 -0.012854757 0.0081830004 -0.066987664 -0.13885991 -0.053054289 0.033772965 -0.00937125 -0.01942583 -0.0074220383 0.0047246744 -0.031750452 -0.065816073 -0.025146386 0.016007528
-0.81639029 -0.999796 1.2638655 0.41167586 -0.15512448 -0.18997388 0.24015042 0.078223619 -0.73448639 -0.89949203 1.1370689 0.37037472 -0.10372984 -0.12703322 0.16058566 0.052307179 -0.14246604 -0.17447168 0.22055372 0.071840433 -0.030892956 -0.037833196 0.047825827 0.015578192
-1.0200747 -0.87894757 1.5923915 0.51470575 -0.17552336 -0.15123973 0.2740014 0.088564965 -0.48588704 -0.41866465 0.7584958 0.24516719 -0.11939799 -0.1028793 0.18638668 0.06024542 -0.13605388 -0.11723085 0.21238742 0.068649592 -0.044922987 -0.038707899 0.070127197 0.022667084
-0.47419528 -0.25338542 -0.27662011 0.23975533 -0.6515103 -0.34813339 -0.38005618 0.32940662 -0.09213438 -0.049231845 -0.053746258 0.046583569 -0.34332211 -0.18345357 -0.20027572 0.17358525 -0.060364791 -0.032255821 -0.035213583 0.030520718 -0.35630314 -0.19038996 -0.20784815 0.18014852
-0.88792141 -0.98109583 1.3823993 0.44914155 -0.16494085 -0.18224899 0.25679538 0.083432824 -0.63467706 -0.70127717 0.98812476 0.32104175 -0.11061992 -0.12222787 0.17222346 0.055955405 -0.14310392 -0.15812059 0.2227976 0.072386943 -0.035666838 -0.039409553 0.055529478 0.018041528
-0.35634588 -0.38373242 -0.28372622 0.18030505 -0.96030246 -1.0341053 -0.7646026 0.48589696 -0.077168755 -0.083099467 -0.061442549 0.039046098 -0.30948775 -0.33327306 -0.2464173 0.15659562 -0.050140957 -0.05399448 -0.039922741 0.025370484 -0.2229042 -0.24003523 -0.17747859 0.11278579
-0.72522077 -0.9937 1.124025 0.36722642 -0.14028792 -0.19222299 0.21743327 0.071036893 -0.85292207 -1.1686768 1.3219502 0.43188989 -0.093668147 -0.12834442 0.14517695 0.047430272 -0.13724936 -0.18805954 0.21272378 0.069498272 -0.025511741 -0.034956275 0.039540834 0.012918253
-0.15430442 -0.29801014 -0.017842682 0.07816721 -1.5728563 -3.037678 -0.18187408 0.79677427 -0.04518513 -0.087266634 -0.0052248919 0.022889789 -0.1218875 -0.23540293 -0.014094217 0.061745516 -0.02686047 -0.051875977 -0.0031059566 0.013606921 -0.052936174 -0.10223633 -0.0061211683 0.026816296
-0.75880837 -1.0454935 0.78652578 0.38475029 -0.30541748 -0.42080716 0.31657364 0.15486053 -0.49804613 -0.68621278 0.51623854 0.252532 -0.18772771 -0.25865305 0.19458494 0.09518647 -0.15372444 -0.21180302 0.15933962 0.07794527 -0.068485863 -0.094360484 0.070987484 0.034725441
-0.95312961 -0.94340251 1.4916587 0.48345402 -0.17011725 -0.16838113 0.26623543 0.08628823 -0.55384 -0.54818783 0.86676592 0.28092315 -0.1146422 -0.11347222 0.17941635 0.058149732 -0.1398945 -0.13846682 0.21893649 0.070958409 -0.039876448 -0.039469492 0.062407096 0.020226451
-0.48553054 -0.21919843 -0.26922335 0.24641967 -0.61647053 -0.27831282 -0.34182868 0.3128752 -0.092552743 -0.041784016 -0.05131986 0.046972981 -0.3410839 -0.15398631 -0.18912868 0.17310916 -0.060834583 -0.027464483 -0.033732358 0.03087517 -0.3738677 -0.16878694 -0.20730707 0.18974781
-0.026682788 -0.062240086 -0.012558055 0.013559843 -1.8950093 -4.4202855 -0.891872 0.96301887 -0.0070831495 -0.016522105 -0.0033336315 0.0035995637 -0.024356343 -0.056813436 -0.011463131 0.012377574 -0.0040115084 -0.0093572168 -0.0018879866 0.002038596 -0.010636933 -0.024811637 -0.0050061935 0.0054055501
-0.88006384 -0.29953318 0.67340514 0.44751664 -0.35424727 -0.12056945 0.27106208 0.18013642 -0.2206434 -0.075096844 0.16883138 0.11219821 -0.23690958 -0.080633105 0.1812779 0.12046965 -0.1069811 -0.036411437 0.081859541 0.054400397 -0.16770481 -0.057078988 0.12832396 0.085278689
-0.41913417 -0.72875211 0.80716937 0.21332806 -0.056135728 -0.097603663 0.10810629 0.028571581 -1.361348 -2.3669872 2.6216865 0.69288963 -0.03692314 -0.064198576 0.071106654 0.018792889 -0.08614494 -0.14978093 0.16589809 0.043845466 -0.0050540555 -0.008787529 0.0097331097 0.0025723788
-0.59007235 -0.89699712 1.1307817 0.30093909 -0.080313608 -0.12208855 0.15390851 0.040960239 -1.1132881 -1.6923624 2.1334431 0.56778109 -0.053633332 -0.081530586 0.10277992 0.027353199 -0.11379955 -0.17299213 0.2180791 0.058038195 -0.0096630427 -0.014689252 0.018517715 0.0049281878
-0.81502944 -0.99664634 1.417443 0.41603724 -0.12560729 -0.15359697 0.21844755 0.064117085 -0.7722014 -0.94427473 1.3429595 0.39417538 -0.085053127 -0.10400592 0.14791854 0.043415939 -0.13850644 -0.16937049 0.24088086 0.070701542 -0.022632294 -0.027675556 0.039360526 0.011552806
-0.49705992 -0.18346258 -0.25493995 0.25386104 -0.58134771 -0.21457283 -0.29817081 0.29690894 -0.093019546 -0.034333096 -0.047709336 0.047507429 -0.3365345 -0.12421337 -0.17260713 0.17187666 -0.061274199 -0.022616032 -0.03142728 0.03129428 -0.38876413 -0.14349109 -0.19939549 0.19855165
-0.56688607 -0.10749086 -0.12581464 0.28988278 -0.51306145 -0.097284827 -0.1138688 0.26235903 -0.10493243 -0.019896903 -0.023288693 0.053658235 -0.32077736 -0.060824625 -0.071193293 0.16403267 -0.067492294 -0.012797641 -0.014979233 0.03451285 -0.38242039 -0.07251315 -0.084874341 0.19555444
-0.59583502 -0.92806176 0.93289431 0.30470013 -0.11602278 -0.18071497 0.18165597 0.059332122 -1.0266662 -1.5991165 1.6074433 0.52502003 -0.077312049 -0.12041984 0.12104688 0.039536098 -0.12094982 -0.18838924 0.18937021 0.061851731 -0.018694155 -0.029117675 0.029269295 0.0095598805
-0.69077254 -1.0137591 0.48463532 0.35330742 -0.44352788 -0.65090954 0.3111723 0.22684992 -0.33876547 -0.49716305 0.23767261 0.17326739 -0.2418127 -0.35487779 0.16965205 0.12367924 -0.14295257 -0.20979333 0.10029331 0.073115535 -0.097328843 -0.14283718 0.06828441 0.0497805
-0.25186123 -0.50317961 0.44603337 0.12894007 -0.036581544 -0.073084244 0.064784047 0.018727881 -1.5850398 -3.1666633 2.8070245 0.81145935 -0.02349995 -0.04694925 0.041617212 0.012030773 -0.053533683 -0.10695198 0.094805419 0.027406509 -0.0028038227 -0.0056016023 0.0049654269 0.0014354139
-0.94338724 -0.32914539 0.88938749 0.48300314 -0.30796796 -0.10744923 0.29033979 0.15767596 -0.24387908 -0.085088786 0.22991937 0.12486321 -0.21085991 -0.073568483 0.19879023 0.10795779 -0.11102824 -0.038737467 0.10467295 0.056845148 -0.13604756 -0.047466646 0.12826016 0.069654748
-1.1471436 -0.56102304 1.8306156 0.5880948 -0.17333898 -0.08477331 0.27661493 0.088863986 -0.33417365 -0.16343125 0.53327544 0.17131751 -0.12328886 -0.060295754 0.19674477 0.063205283 -0.11665146 -0.057049665 0.1861528 0.059802556 -0.056013441 -0.027393982 0.089386438 0.028715859
-0.033481689 -0.077536705 -0.021609142 0.01716728 -1.8557701 -4.2975818 -1.1977173 0.95152082 -0.0082634428 -0.019136434 -0.0053332407 0.0042369677 -0.033301767 -0.077120043 -0.02149302 0.017075027 -0.0046460664 -0.010759334 -0.0029985795 0.0023822072 -0.014856957 -0.034405657 -0.0095887064 0.0076177022
-0.74886715 -1.0473342 0.90911377 0.38399899 -0.23790266 -0.33272069 0.28881035 0.1219901 -0.60904134 -0.85177969 0.73936728 0.31230006 -0.15243697 -0.21319196 0.18505625 0.07816559 -0.15066769 -0.21071752 0.18290837 0.077258351 -0.051264185 -0.071695941 0.062233971 0.026286899
-0.73600311 -1.0306854 1.020573 0.37774938 -0.18192398 -0.25476304 0.25226349 0.09337144 -0.72827533 -1.0198636 1.0098574 0.37378314 -0.11987328 -0.16786836 0.16622136 0.061524272 -0.14569121 -0.20402332 0.20202159 0.074775178 -0.036623095 -0.051286317 0.050783133 0.018796593
-1.007016 -0.35579955 1.1260477 0.51779926 -0.26557227 -0.093832168 0.29696355 0.13655506 -0.26420609 -0.093349467 0.29543588 0.13585258 -0.18541165 -0.065509763 0.20732774 0.095337127 -0.11241884 -0.039719898 0.12570702 0.057804834 -0.11017516 -0.038927159 0.12319813 0.056651151
-0.01720307 0.010378795 -0.03458904 0.0088656883 -0.018591724 0.011216585 -0.03738111 0.0095813378 -0.00085109783 0.00051347638 -0.0017112443 0.00043861752 -0.016520552 0.0099670249 -0.033216747 0.0085139492 -0.00070577818 0.00042580349 -0.00141906 0.00036372632 -1.8865378 1.1381683 -3.7931328 0.97223668
-1.0624839 -0.37962593 1.3743129 0.54960423 -0.22689748 -0.081070563 0.29348974 0.11737008 -0.28089641 -0.1003644 0.36333684 0.14530277 -0.161229 -0.057607187 0.20854818 0.083400925 -0.11275865 -0.040288711 0.14585224 0.058328065 -0.088914557 -0.031769208 0.11501014 0.045993936
-0.71474609 -0.97623242 1.3810327 0.36994756 -0.095011603 -0.12977113 0.18358147 0.049177339 -0.91616741 -1.2513427 1.7702191 0.47420182 -0.064276646 -0.087791941 0.12419537 0.033269141 -0.12825601 -0.17517784 0.24781633 0.066384412 -0.013562243 -0.018523922 0.026204972 0.0070197216
-0.8869981 -0.99130864 1.5630633 0.45959879 -0.1323854 -0.14795385 0.23328884 0.068595602 -0.65652895 -0.73373643 1.1569318 0.34018102 -0.089998346 -0.10058211 0.15859461 0.046632717 -0.1378198 -0.15402734 0.24286531 0.071411441 -0.026209415 -0.029291629 0.046186091 0.01358043
-0.25140235 -0.50464652 0.49485863 0.13034876 -0.031986865 -0.064208072 0.062962722 0.016584762 -1.5699729 -3.1514477 3.0903237 0.81400997 -0.020429132 -0.041007933 0.040212562 0.010592232 -0.053083486 -0.10655587 0.10448916 0.027523078 -0.0018152849 -0.003643869 0.0035731942 0.00094120098
-0.42419956 -0.76507901 0.67847862 0.22000455 -0.077493322 -0.13976562 0.12394535 0.040190713 -1.2717591 -2.2937228 2.034093 0.65957821 -0.051737002 -0.093311963 0.082749848 0.026832596 -0.092768481 -0.16731563 0.14837693 0.048112938 -0.010182502 -0.018364984 0.016286225 0.0052809971
-0.50533791 -0.13932716 -0.23063643 0.26226388 -0.5414237 -0.14927641 -0.247106 0.28099194 -0.092841784 -0.02559749 -0.042373028 0.048183692 -0.32665491 -0.090062313 -0.14908543 0.1695297 -0.061230033 -0.016881786 -0.027945412 0.0317776 -0.39934167 -0.11010284 -0.1822597 0.20725319
-0.022847714 0.011123096 -0.043896701 0.011865737 -0.023609458 0.011493941 -0.04536022 0.012261341 -0.0013637432 0.00066391965 -0.0026201232 0.00070824669 -0.021332556 0.010385462 -0.040985669 0.011078855 -0.001174474 0.00057177658 -0.0022564855 0.00060995162 -1.8551921 0.9031748 -3.5643308 0.96347587
-0.010863737 0.01990976 -0.01150491 0.0056580785 -0.013214264 0.024217525 -0.013994165 0.0068822858 -0.00022619577 0.00041454459 -0.00023954575 0.00011780784 -0.011750967 0.021535768 -0.012444504 0.0061201676 -0.00018515979 0.00033933874 -0.00019608784 9.643538e-05 -1.8837997 3.4524031 -1.9949808 0.98112522
-0.027284876 0.019608351 -0.049760865 0.014223689 -0.027280041 0.019604876 -0.049752046 0.014221168 -0.0016860723 0.0012117005 -0.0030749788 0.00087895463 -0.024849878 0.017858433 -0.04532003 0.012954317 -0.001459453 0.0010488399 -0.0026616813 0.0007608173 -1.8357097 1.3192378 -3.3478804 0.95696105
-1.0814575 -0.81822521 1.9205312 0.56469438 -0.14633968 -0.11071985 0.25988069 0.076412799 -0.42038344 -0.31805996 0.74654763 0.21950763 -0.10226839 -0.077375739 0.18161567 0.053400511 -0.12649103 -0.095702466 0.22463201 0.066048618 -0.038179962 -0.028886764 0.067802766 0.019936068
-0.3835327 -0.35142031 -0.31253508 0.20043936 -0.802951 -0.73572159 -0.65431279 0.41963302 -0.078722003 -0.072130775 -0.064149386 0.041141181 -0.32603931 -0.29874072 -0.26568457 0.17039254 -0.052196576 -0.047826266 -0.042534211 0.027278634 -0.27001841 -0.24741034 -0.22003397 0.14111526
-0.0096155089 0.018543607 -0.01086548 0.0050282429 -0.012218441 0.023563388 -0.013806781 0.0063893955 -0.00014376737 0.00027725684 -0.00016245646 7.5180345e-05 -0.010798726 0.020825454 -0.01220251 0.0056469834 -0.00011175138 0.00021551368 -0.00012627854 5.8438208e-05 -1.8794118 3.6244648 -2.1237265 0.98280176
-0.70502298 -1.0658793 0.62956178 0.3690756 -0.36230499 -0.54774581 0.32352616 0.18966465 -0.40226494 -0.6081587 0.35920904 0.21058345 -0.21207499 -0.32062264 0.18937582 0.11102007 -0.14867885 -0.22477807 0.13276521 0.077832552 -0.079893249 -0.12078551 0.071341982 0.041823671
-1.1257369 -0.70912754 2.0048415 0.58933858 -0.14745592 -0.092885872 0.26260642 0.077195179 -0.37160294 -0.23408123 0.66179316 0.1945392 -0.10439941 -0.065763589 0.18592645 0.054654512 -0.11909449 -0.075020355 0.21209713 0.062347585 -0.041880373 -0.02638141 0.074585376 0.021924946
-1.1047761 -0.40291032 1.6281365 0.57841379 -0.19393192 -0.070726704 0.28580238 0.10153451 -0.28842084 -0.10518668 0.42505308 0.15100489 -0.13985716 -0.051005713 0.20611103 0.073223261 -0.11127412 -0.040581518 0.16398748 0.058258397 -0.071749822 -0.026167061 0.10573953 0.037565155
-1.0192805 -0.90383577 1.8140552 0.53374973 -0.14301937 -0.12682086 0.25453743 0.074892586 -0.48295201 -0.42825239 0.85952945 0.25289948 -0.098785504 -0.087596959 0.1758126 0.051729368 -0.13140814 -0.11652472 0.23387244 0.068812324 -0.034214464 -0.030339299 0.06089288 0.017916521
-0.95222237 -0.96304914 1.6944522 0.49869979 -0.13774547 -0.13931164 0.2451141 0.072140333 -0.55958733 -0.56594984 0.99576951 0.29306819 -0.094390097 -0.095463313 0.16796445 0.049434169 -0.13555582 -0.13709709 0.24121766 0.070993562 -0.029908913 -0.030248978 0.053222048 0.015663955
-0.65061515 -0.080998239 0.09820218 0.3410165 -0.4433085 -0.055189628 0.066911847 0.23235781 -0.12553411 -0.015628351 0.018947796 0.065798042 -0.29379519 -0.03657599 0.044344693 0.1539912 -0.076658058 -0.0095435339 0.01157057 0.040179917 -0.31795899 -0.039584258 0.047991913 0.16665653
-0.69585692 -0.10996866 0.21470992 0.36509332 -0.4264392 -0.067391655 0.13157982 0.22373867 -0.14039248 -0.022186707 0.04331876 0.073659334 -0.28328425 -0.044768385 0.087408686 0.14862996 -0.083085711 -0.013130321 0.025636487 0.04359235 -0.27691144 -0.043761268 0.085442325 0.14528636
-0.039454252 -0.09439981 -0.012397231 0.02072471 -1.7989257 -4.304181 -0.5652546 0.9449479 -0.01126467 -0.026952297 -0.0035395608 0.0059171575 -0.034036902 -0.081438043 -0.010695003 0.017879059 -0.0064967431 -0.015544366 -0.0020413928 0.0034126389 -0.013551768 -0.032424499 -0.0042582079 0.0071185348
-0.012805118 0.022421171 -0.013133056 0.0067296892 -0.01465673 0.025663258 -0.015032087 0.0077027979 -0.0003660388 0.00064091705 -0.00037541301 0.00019237053 -0.013171345 0.023062417 -0.013508661 0.0069221584 -0.00031126633 0.00054501299 -0.00031923783 0.00016358503 -1.8614695 3.2593472 -1.9091415 0.9782894
-0.011849699 0.0062229889 -0.02632786 0.00623006 -0.013712707 0.0072013666 -0.030467123 0.0072095494 -0.00046535966 0.00024438832 -0.0010339439 0.00024466602 -0.01188984 0.0062440696 -0.026417047 0.0062511647 -0.00036716381 0.00019281978 -0.00081577073 0.00019303888 -1.8637352 0.97875937 -4.1408783 0.97987152
-0.034626317 0.020701003 -0.059961562 0.018214216 -0.03372212 0.020160438 -0.058395787 0.017738588 -0.0023769968 0.0014210641 -0.0041161883 0.0012503534 -0.030960089 0.018509184 -0.053612844 0.016285698 -0.0020886051 0.001248652 -0.0036167873 0.0010986529 -1.7972859 1.0744897 -3.1123168 0.94541249
-0.015872917 0.02610429 -0.015974906 0.0083528918 -0.01701597 0.027984134 -0.017125304 0.0089544071 -0.00059610109 0.00098033626 -0.00059993124 0.00031368953 -0.015461332 0.025427405 -0.015560676 0.0081363011 -0.00051956379 0.00085446451 -0.00052290216 0.0002734129 -1.8508241 3.0438294 -1.8627163 0.9739693
-0.019026471 0.029378823 -0.019332351 0.010015724 -0.019435858 0.030010959 -0.019748319 0.01023123 -0.00084068209 0.0012980994 -0.00085419737 0.00044254345 -0.017811872 0.027503358 -0.018098225 0.0093763472 -0.0007417615 0.0011453559 -0.00075368647 0.00039047066 -1.8418034 2.8439334 -1.8714132 0.96954368
-0.084076331 -0.18693794 -0.013029773 0.044365584 -1.675144 -3.7245674 -0.2596063 0.88394368 -0.024656999 -0.054823141 -0.0038212311 0.01301106 -0.068607518 -0.1525441 -0.010632486 0.036202967 -0.014530493 -0.032307551 -0.0022518706 0.0076674825 -0.028064679 -0.062399882 -0.0043493381 0.014809232
-0.80555879 -1.0073992 1.5817676 0.42616521 -0.10346473 -0.1293888 0.20315979 0.054736003 -0.75945159 -0.94973936 1.4912331 0.40177309 -0.070781988 -0.088517084 0.13898508 0.037445834 -0.13419682 -0.1678211 0.26350427 0.070994219 -0.016796074 -0.021004489 0.032980194 0.0088856363
-0.74221324 -0.14057893 0.3523263 0.39265556 -0.39729841 -0.075250325 0.18859631 0.21018411 -0.15735662 -0.029804138 0.074696694 0.0832469 -0.26663592 -0.05050219 0.12657124 0.1410593 -0.088700482 -0.016800319 0.042105841 0.046925513 -0.23803533 -0.045085093 0.11299462 0.12592863
-0.015864966 0.0064812769 -0.033849104 0.008393762 -0.017353845 0.0070895253 -0.037025741 0.0091814914 -0.00080731204 0.00032980928 -0.0017224613 0.00042712889 -0.015400251 0.0062914281 -0.032857601 0.008147893 -0.00067740099 0.00027673703 -0.0014452863 0.00035839616 -1.8399862 0.75168522 -3.9257498 0.97349133
-0.60592154 -0.054765813 -0.00056126223 0.32085145 -0.44910745 -0.040592276 -0.00041600608 0.23781425 -0.11155544 -0.010082863 -0.00010333327 0.059071547 -0.29876288 -0.027003483 -0.00027674263 0.15820283 -0.070883834 -0.0064067879 -6.5659357e-05 0.037534861 -0.35224886 -0.031837778 -0.00032628644 0.18652507
-0.021240391 0.031386679 -0.02270852 0.011250028 -0.021111742 0.031196577 -0.022570979 0.011181889 -0.0010178433 0.0015040552 -0.0010881963 0.00053910334 -0.019444582 0.028733033 -0.020788585 0.010298874 -0.00090232717 0.0013333584 -0.00096469572 0.00047791993 -1.8243131 2.6957663 -1.950409 0.96625219
-0.040723808 -0.095020921 -0.032128371 0.021640075 -1.7656741 -4.11985 -1.3929992 0.9382551 -0.0098066021 -0.022881759 -0.0077367554 0.0052110943 -0.041352279 -0.096487332 -0.032624192 0.021974036 -0.0055362466 -0.012917732 -0.0043677296 0.0029418858 -0.018776947 -0.043812277 -0.014813759 0.0099778129
-0.24940316 -0.52101336 0.41421996 0.13272197 -0.043055935 -0.089945602 0.071509228 0.022912574 -1.4973187 -3.1279597 2.486814 0.79681061 -0.028398036 -0.059324654 0.047164732 0.015112251 -0.056534277 -0.11810241 0.093894663 0.030085186 -0.0044299028 -0.0092542474 0.0073573813 0.0023574097
-1.1447606 -0.58548657 2.0729802 0.60982023 -0.14559304 -0.074463399 0.26364593 0.077558204 -0.32531142 -0.16638017 0.58908745 0.17329517 -0.10489206 -0.053646928 0.1899429 0.055876571 -0.1120051 -0.057284887 0.2028235 0.059665729 -0.044647759 -0.022835047 0.08085002 0.023784104
-0.021259368 0.030978102 -0.024854872 0.011364149 -0.021096294 0.030740478 -0.024664217 0.011276978 -0.0010229847 0.0014906429 -0.0011959976 0.00054683427 -0.019438404 0.028324683 -0.022725936 0.010390757 -0.0009051532 0.0013189446 -0.0010582378 0.00048384767 -1.8070178 2.6330971 -2.1126307 0.96593743
-0.012160637 0.009251872 -0.026573198 0.0065078866 -0.013915647 0.010587092 -0.030408213 0.0074470977 -0.0004563897 0.00034722351 -0.00099729429 0.00024424152 -0.012126832 0.009226153 -0.026499328 0.0064897956 -0.00035534101 0.00027034517 -0.00077648457 0.0001901643 -1.8295852 1.3919573 -3.9979755 0.97912081
-0.79152276 -0.17127091 0.51445547 0.42369563 -0.35862861 -0.077600609 0.23309305 0.19197095 -0.17636687 -0.038162534 0.11463082 0.094407738 -0.24546475 -0.053114038 0.15954144 0.13139526 -0.094694001 -0.020490033 0.061546995 0.050688921 -0.20146301 -0.043592876 0.13094222 0.1078415
-1.1304909 -0.42933078 1.8851647 0.60550227 -0.16387881 -0.062236873 0.27327824 0.087775137 -0.28927916 -0.10986063 0.4823912 0.15494082 -0.11907692 -0.045222289 0.19856825 0.063778792 -0.10749428 -0.040823505 0.17925347 0.057575013 -0.05680993 -0.021574921 0.094734133 0.030427969
-0.70125391 -1.0916698 0.76255465 0.37591675 -0.28649701 -0.44600126 0.31154141 0.15358064 -0.48740913 -0.75876912 0.53001644 0.26128233 -0.17788076 -0.27691404 0.19343037 0.095355416 -0.1499592 -0.23344743 0.16306801 0.080387679 -0.062449994 -0.097218382 0.067909117 0.033477174
-0.0083372287 0.016443974 -0.012889206 0.0044754032 -0.01104157 0.021777896 -0.01707007 0.005927087 -7.0643136e-05 0.00013933334 -0.00010921302 3.7921056e-05 -0.0097391737 0.019209107 -0.015056588 0.0052279638 -4.5284694e-05 8.9317489e-05 -7.0009325e-05 2.4308709e-05 -1.8336661 3.6166404 -2.8348149 0.98430732
-0.5110334 -0.079593451 -0.19435383 0.27432585 -0.48234678 -0.07512551 -0.18344387 0.2589267 -0.090309413 -0.014065691 -0.034346053 0.048478645 -0.31020793 -0.048314884 -0.11797683 0.16652151 -0.060241426 -0.009382602 -0.022910737 0.032337966 -0.40873106 -0.063659862 -0.15544668 0.21940933
-0.1215425 -0.2820188 0.22670797 0.065304351 -0.016496017 -0.038276215 0.030769307 0.0088632509 -1.6863254 -3.9128328 3.14543 0.90605664 -0.010248843 -0.023780705 0.019116723 0.0055066666 -0.025785039 -0.059829818 0.048095719 0.013854209 -0.00077217244 -0.0017916955 0.0014402999 0.0004148855
-0.39713863 -0.30984645 -0.33011273 0.21420869 -0.69504401 -0.54227139 -0.57774001 0.37489294 -0.077837344 -0.060728478 -0.064700576 0.041983918 -0.32622898 -0.25452293 -0.27117064 0.17596143 -0.052250149 -0.04076542 -0.043431785 0.028182693 -0.30548089 -0.23833534 -0.25392426 0.16477033
-0.018170735 0.027181681 -0.023979903 0.0098051646 -0.018687346 0.027954482 -0.024661674 0.010083935 -0.00078462392 0.0011737223 -0.0010354675 0.00042339326 -0.017119386 0.025608964 -0.022592439 0.0092378431 -0.00068549386 0.0010254332 -0.00090464564 0.00036990139 -1.7977324 2.6892357 -2.3724659 0.97007976
-0.01895821 0.016809107 -0.037926963 0.010235288 -0.019857251 0.017606232 -0.039725544 0.010720668 -0.0009571246 0.00084862492 -0.0019147814 0.00051673898 -0.017883149 0.015855914 -0.035776242 0.0096548765 -0.00080324046 0.00071218509 -0.0016069276 0.00043365895 -1.793781 1.5904379 -3.5885595 0.96843877
-0.0086026614 0.016221715 -0.014165825 0.0046475499 -0.011190585 0.021101665 -0.018427305 0.0060456642 -9.1922562e-05 0.00017333492 -0.00015136699 4.9660759e-05 -0.0099121992 0.018691062 -0.016322214 0.005355022 -6.1796619e-05 0.00011652756 -0.00010175922 3.3385351e-05 -1.8211508 3.4340757 -2.9988515 0.98386872
-0.54258205 -0.85506319 0.19707932 0.29328284 -0.61523388 -0.9695563 0.22346828 0.33255346 -0.21041848 -0.33160164 0.076429236 0.11373787 -0.25862037 -0.40756371 0.093937362 0.13979253 -0.1078366 -0.16994131 0.039168939 0.058289107 -0.11533862 -0.18176386 0.041893862 0.06234419
-0.039153688 0.0343412 -0.063773611 0.021164956 -0.036855325 0.032325335 -0.060030033 0.019922551 -0.0027121311 0.0023787756 -0.0044175251 0.0014660723 -0.034018453 0.029837151 -0.055409329 0.018389049 -0.0023856301 0.0020924058 -0.0038857195 0.0012895786 -1.7348048 1.5215751 -2.8256538 0.93776779
-0.86858968 -1.0011044 1.7372969 0.47022726 -0.11059872 -0.12747201 0.22121241 0.059874684 -0.63763501 -0.7349146 1.2753563 0.34519563 -0.076223509 -0.087852405 0.15245733 0.041265021 -0.13384411 -0.15426378 0.26770633 0.072459008 -0.020278969 -0.023372791 0.040560682 0.010978399
-0.84680965 -0.19993204 0.70485638 0.45844616 -0.31919879 -0.075362938 0.26569053 0.17280797 -0.1943371 -0.045883053 0.16175978 0.1052103 -0.22233476 -0.052493309 0.18506411 0.12036768 -0.098972498 -0.023367439 0.082381438 0.053581772 -0.1654772 -0.039069222 0.13773776 0.089586117
-0.60294303 -0.96103492 0.33141724 0.32645513 -0.50389451 -0.80316082 0.27697364 0.27282668 -0.26363454 -0.42020886 0.14491093 0.14274126 -0.24784109 -0.39503557 0.1362298 0.13419011 -0.12531517 -0.19974068 0.068881477 0.067850155 -0.10331167 -0.16466916 0.056786904 0.055936667
-0.55703817 -0.03066508 -0.08270785 0.30184245 -0.44418323 -0.02445239 -0.065951387 0.24068971 -0.09801201 -0.0053955838 -0.014552616 0.053109799 -0.29776086 -0.016391804 -0.044210904 0.16134777 -0.064523351 -0.0035520254 -0.0095802908 0.034963289 -0.38394237 -0.021136116 -0.057006952 0.20804698
-0.45760332 -0.72968877 0.086943737 0.24830072 -0.76524812 -1.2202555 0.14539565 0.41523225 -0.15908292 -0.25367171 0.030225443 0.086320182 -0.25423789 -0.40540469 0.048304703 0.13795234 -0.087050803 -0.13881017 0.016539483 0.047234746 -0.11971694 -0.1908992 0.022745985 0.06495976
-0.59909606 -1.000371 0.87012904 0.32558861 -0.14732809 -0.24600855 0.2139798 0.080067876 -0.83920664 -1.4013078 1.2188664 0.45608065 -0.098249146 -0.16405649 0.14269738 0.053395114 -0.12897914 -0.21536945 0.18732972 0.070095835 -0.027180916 -0.045386712 0.03947765 0.014771916
-0.12953794 -0.30127615 0.26653439 0.070502978 -0.015303503 -0.035592509 0.031488148 0.0083291622 -1.655494 -3.850307 3.4063076 0.90102755 -0.0093430816 -0.021729908 0.019224117 0.005085113 -0.02720505 -0.063272835 0.055976508 0.014806759 -0.00045646724 -0.0010616402 0.00093921687 0.00024843918
-0.013976611 0.022087834 -0.020759487 0.0076127406 -0.015379069 0.024304198 -0.022842561 0.0083766275 -0.00046796344 0.00073954257 -0.00069506699 0.00025488899 -0.013951247 0.02204775 -0.020721814 0.0075989255 -0.00039671624 0.00062694758 -0.00058924338 0.00021608227 -1.7917784 2.8316237 -2.6613318 0.97594074
-0.90882275 -0.22286888 0.92423315 0.49535224 -0.27936435 -0.068507989 0.28410138 0.15226705 -0.21222729 -0.052044096 0.21582591 0.11567411 -0.19809361 -0.048578119 0.20145257 0.10797057 -0.10197196 -0.025006389 0.10370104 0.055579635 -0.13422005 -0.032914529 0.13649595 0.073156404
-0.67119368 -1.0780257 0.85648392 0.36591869 -0.21717164 -0.34880635 0.27712421 0.11839677 -0.61513546 -0.98798883 0.78495023 0.33535709 -0.14075831 -0.22607645 0.17961616 0.076738056 -0.14484437 -0.2326392 0.18483022 0.078965676 -0.045166543 -0.072543437 0.057635254 0.024623716
-0.051255706 0.038316125 -0.078612213 0.027985338 -0.047099625 0.035209254 -0.072237924 0.02571614 -0.003962596 0.0029622326 -0.0060775368 0.0021635559 -0.043696681 0.032665388 -0.067018739 0.023858151 -0.0035340716 0.0026418898 -0.0054202978 0.0019295839 -1.6819713 1.2573551 -2.5796833 0.91834723
-0.008837741 0.0059634458 -0.021163167 0.0048260438 -0.010790474 0.0072810924 -0.025839252 0.005892377 -0.00026475771 0.00017865066 -0.00063399818 0.0001445768 -0.0091732921 0.0061898658 -0.02196669 0.0050092789 -0.00019568433 0.00013204199 -0.00046859262 0.00010685775 -1.8019981 1.2159349 -4.3151283 0.98402087
-0.39073245 -0.72654147 0.86965497 0.21408472 -0.048152136 -0.089535751 0.10717242 0.026382853 -1.2694854 -2.3605252 2.8254994 0.69555891 -0.031857178 -0.059236341 0.070904663 0.017454744 -0.081118042 -0.1508337 0.18054479 0.044445076 -0.0037847652 -0.0070375236 0.0084237688 0.0020736962
-0.96967042 -0.24086588 1.1656026 0.53141361 -0.24121869 -0.059918658 0.28995948 0.13219635 -0.22732125 -0.056466539 0.27325392 0.12458007 -0.17448035 -0.043340872 0.20973595 0.095621389 -0.10329003 -0.025657217 0.12416088 0.056606584 -0.10871926 -0.027005836 0.13068714 0.059581992
-0.55544528 -0.9001916 1.2259807 0.30472927 -0.068236895 -0.11058925 0.15061271 0.037436233 -1.0378907 -1.6820748 2.2908359 0.56940925 -0.045989475 -0.074533605 0.10150813 0.025230819 -0.10779583 -0.1747011 0.23792732 0.059139119 -0.0073918131 -0.011979664 0.016315235 0.0040553083
-0.63882441 -1.0468373 0.47792754 0.3504844 -0.41268303 -0.67626093 0.30874303 0.22641427 -0.31870389 -0.52225795 0.23843385 0.17485359 -0.22704636 -0.37205936 0.16986156 0.12456664 -0.13708468 -0.22463976 0.10255799 0.075210092 -0.088347629 -0.14477467 0.066096041 0.048471012
-0.011021528 0.018694485 -0.017951737 0.0060568164 -0.01299762 0.022046291 -0.021170373 0.0071427663 -0.00026141212 0.00044340176 -0.00042578504 0.0001436575 -0.011682661 0.019815884 -0.019028582 0.0064201379 -0.0002101158 0.00035639402 -0.00034223419 0.00011546791 -1.7835167 3.0251635 -2.9049713 0.98012115
-0.0092714671 0.01678379 -0.015756175 0.0050952765 -0.01160561 0.021009201 -0.019722878 0.0063780403 -0.00014475282 0.00026204062 -0.00024599675 7.9551127e-05 -0.010352771 0.018741233 -0.01759377 0.0056895234 -0.00010656234 0.00019290581 -0.00018109484 5.8562963e-05 -1.7881388 3.2370008 -3.0388101 0.98269905
-0.35275277 -0.59942024 0.020735938 0.19392249 -0.95282549 -1.6191025 0.056010135 0.52380678 -0.11245529 -0.19109128 0.0066104823 0.06182123 -0.22797238 -0.38738536 0.013400947 0.12532566 -0.065284614 -0.11093582 0.0038376388 0.035889598 -0.10774946 -0.18309482 0.0063338585 0.059234244
-0.92826842 -0.97578378 1.8842695 0.51157795 -0.11533477 -0.12123842 0.23411524 0.063562137 -0.53816372 -0.56571075 1.0924054 0.29658737 -0.079910763 -0.084001162 0.16220891 0.044039615 -0.12934608 -0.13596693 0.26255646 0.071283909 -0.023496247 -0.024698952 0.047694461 0.012949015
-0.029960103 0.012242517 -0.057329346 0.016511766 -0.029824202 0.012186983 -0.057069295 0.016436867 -0.0020825464 0.00085098535 -0.0039850004 0.0011477437 -0.02732114 0.011164164 -0.052279629 0.015057367 -0.0018386351 0.00075131652 -0.0035182705 0.001013318 -1.7234434 0.70424603 -3.2978485 0.94983294
-0.0085462441 0.01799665 -0.011706162 0.004718267 -0.011066578 0.023303959 -0.015158372 0.0061097093 -9.4260152e-05 0.00019849268 -0.00012911223 5.2039768e-05 -0.0098020365 0.020641093 -0.013426275 0.0054115731 -6.78443e-05 0.00014286628 -9.2929285e-05 3.745593e-05 -1.781733 3.7519669 -2.4405171 0.98367095
-1.0238938 -0.25650716 1.4216406 0.5653748 -0.20736321 -0.051948891 0.28791654 0.11450205 -0.23727531 -0.059442508 0.32944844 0.13101894 -0.15208185 -0.038099738 0.21116032 0.083976728 -0.10282798 -0.025760595 0.14277304 0.056779669 -0.087557889 -0.021935113 0.12157106 0.048347813
-0.40421227 -0.26755821 -0.33772298 0.22329826 -0.62089847 -0.41098822 -0.51876625 0.34300182 -0.076412805 -0.050579546 -0.063843585 0.042212588 -0.3231329 -0.21388974 -0.26998044 0.17850772 -0.052000999 -0.034420761 -0.043447301 0.028726818 -0.33353255 -0.22077353 -0.27866944 0.18425279
-0.049972175 -0.12327879 -0.010502072 0.027626489 -1.6773597 -4.1379603 -0.35251122 0.92730726 -0.014634427 -0.036102379 -0.0030755475 0.008090459 -0.042042949 -0.10371779 -0.0088356784 0.023242916 -0.0085320136 -0.021048039 -0.0017930742 0.0047168166 -0.016308704 -0.040232735 -0.003427411 0.0090160622
-0.99254827 -0.92011616 2.0240993 0.55018696 -0.11836405 -0.10972633 0.24137929 0.065611276 -0.45898828 -0.42549319 0.93601277 0.25442527 -0.082880248 -0.076831987 0.16901732 0.045941978 -0.12454857 -0.11545952 0.25399135 0.069039462 -0.026690575 -0.024742806 0.054429971 0.014795055
-1.0501258 -0.83394809 2.1412414 0.58240666 -0.12102802 -0.096113333 0.24678016 0.067122937 -0.39695836 -0.31524097 0.80941129 0.22015571 -0.085824071 -0.068156425 0.17499813 0.047598593 -0.11912456 -0.094601713 0.24289893 0.066067262 -0.030019185 -0.023839469 0.061210115 0.016648837
-1.0972065 -0.72820209 2.2388485 0.60987428 -0.12182425 -0.080853212 0.24858222 0.067715124 -0.34822844 -0.23111481 0.71055969 0.19356025 -0.087349976 -0.057973074 0.17823751 0.04855285 -0.11164697 -0.074098684 0.22781551 0.06205816 -0.032813834 -0.021778127 0.066956586 0.018239331
-1.1279575 -0.45364135 2.1269212 0.62712736 -0.13898862 -0.055898367 0.26208242 0.077275572 -0.28072053 -0.11290003 0.52933772 0.15607638 -0.10205136 -0.041042962 0.19243208 0.056739016 -0.10325331 -0.04152636 0.19469851 0.05740728 -0.045638647 -0.018354926 0.086058033 0.025374398
-0.027325403 0.028765807 -0.049430462 0.015208577 -0.026668375 0.028074146 -0.048241928 0.014842894 -0.0016348188 0.001720995 -0.0029573159 0.00090989575 -0.024462404 0.025751891 -0.044251422 0.01361511 -0.0014120974 0.0014865333 -0.0025544226 0.00078593508 -1.7152069 1.8056206 -3.1027345 0.95463759
-0.67738102 -0.98478907 1.5048092 0.37719243 -0.0811679 -0.1180034 0.18031536 0.045197483 -0.8498988 -1.2355986 1.8880593 0.47325712 -0.05545579 -0.080622656 0.12319563 0.030879968 -0.12115371 -0.17613551 0.26914427 0.067463159 -0.010792778 -0.01569074 0.023976271 0.0060098435
-0.13031146 -0.31324791 0.22988 0.072606219 -0.020937414 -0.050330195 0.036935299 0.011665792 -1.59859 -3.8427547 2.8200426 0.89069353 -0.013556986 -0.032588827 0.023915625 0.0075536065 -0.029787026 -0.071603245 0.052546732 0.01659657 -0.0015870757 -0.0038150761 0.0027997304 0.00088427803
-0.41211383 -0.22938363 -0.33684393 0.22967049 -0.57597876 -0.32059127 -0.47077998 0.32099219 -0.075879424 -0.042234685 -0.062020541 0.042287502 -0.32077692 -0.17854527 -0.26218911 0.17876855 -0.052065592 -0.028979843 -0.04255615 0.029016085 -0.35755547 -0.1990163 -0.29225029 0.19926519
-0.42231652 -0.19409646 -0.32872988 0.23556254 -0.5456623 -0.25078612 -0.42474185 0.30436317 -0.076291194 -0.035063396 -0.059384831 0.042554214 -0.31849064 -0.14637814 -0.24791214 0.17764985 -0.052461587 -0.02411132 -0.040835938 0.029262376 -0.37757776 -0.17353455 -0.29390537 0.21060785
-0.23542813 -0.50549987 0.53575555 0.1313751 -0.027587942 -0.059235492 0.062780915 0.015394799 -1.4600946 -3.1350445 3.3226863 0.81477131 -0.017612851 -0.03781746 0.040080949 0.0098284353 -0.050086492 -0.10754329 0.11398008 0.027949583 -0.0012199554 -0.0026194292 0.0027762099 0.00068076731
-0.4336118 -0.15723703 -0.31238752 0.24200328 -0.51950124 -0.18838241 -0.37426496 0.28993908 -0.077132108 -0.027969774 -0.055568385 0.043048236 -0.31372461 -0.11376334 -0.22601703 0.17509299 -0.052943005 -0.019198281 -0.038141798 0.029548045 -0.39484723 -0.14318016 -0.28446031 0.22036837
-0.020706467 0.0067213336 -0.044027019 0.011571867 -0.021584116 0.0070062192 -0.045893115 0.012062343 -0.0012752827 0.00041395766 -0.0027115633 0.0007126953 -0.019538983 0.0063423677 -0.041544663 0.010919415 -0.001110308 0.00036040677 -0.0023607867 0.00062049874 -1.7251648 0.55998972 -3.6681229 0.96411318
-0.0088233715 0.0042574616 -0.022076951 0.0049326473 -0.01071154 0.0051685425 -0.026801336 0.0059882154 -0.00029272379 0.00014124536 -0.00073242397 0.00016364529 -0.0091235358 0.0044022972 -0.022827992 0.0051004522 -0.00022268432 0.00010744985 -0.00055717827 0.00012449019 -1.7595961 0.849042 -4.4026841 0.98369055
-1.0623091 -0.27268161 1.6779561 0.59430545 -0.17788658 -0.045661284 0.28097836 0.099518082 -0.24273245 -0.062306416 0.38340477 0.1357959 -0.13222923 -0.033941608 0.2088609 0.073975223 -0.10158534 -0.0260757 0.16045776 0.056831596 -0.070737288 -0.018157387 0.11173213 0.039573751
-0.042894038 0.022410948 -0.073888672 0.024030946 -0.040727437 0.021278959 -0.070156516 0.022817131 -0.0032933622 0.0017206906 -0.0056730998 0.0018450725 -0.037643835 0.019667862 -0.064844745 0.021089574 -0.0029356618 0.0015338021 -0.0050569302 0.0016446746 -1.6574557 0.86597474 -2.85511 0.9285726
-0.011893566 0.0042835681 -0.028684409 0.0066817788 -0.013522329 0.0048701807 -0.03261259 0.0075968139 -0.00054278806 0.0001954897 -0.0013090737 0.00030493711 -0.011848961 0.004267503 -0.028576831 0.0066567194 -0.00044860108 0.00016156746 -0.0010819174 0.00025202308 -1.7417438 0.62730369 -4.2006652 0.97850773
-0.44428324 -0.1129509 -0.28604521 0.24994557 -0.48520723 -0.12335508 -0.31239351 0.27296865 -0.077335735 -0.019661198 -0.049791471 0.043507659 -0.30545573 -0.077656541 -0.19666316 0.17184376 -0.053122987 -0.013505549 -0.034202451 0.029886014 -0.41211507 -0.10477273 -0.2653342 0.23184835
-0.18461796 -0.32411484 -0.18475093 0.10388662 -1.249077 -2.1928765 -1.2499766 0.7028698 -0.043179204 -0.075805306 -0.043210305 0.024297429 -0.17610173 -0.30916378 -0.17622858 0.099094448 -0.027505903 -0.048289297 -0.027525715 0.015477884 -0.096628247 -0.16964032 -0.096697846 0.054373813
-0.50814818 -0.0088996225 -0.14924255 0.28603733 -0.42341304 -0.0074155854 -0.12435594 0.2383398 -0.085772338 -0.0015022024 -0.02519124 0.048281371 -0.2893019 -0.0050667853 -0.084967646 0.16284845 -0.058226091 -0.0010197621 -0.017100938 0.032775549 -0.41164845 -0.0072095423 -0.12090069 0.23171749
-0.10747162 -0.22229754 -0.10860445 0.060644078 -1.4638189 -3.0278072 -1.4792486 0.82600364 -0.025345289 -0.052424963 -0.025612448 0.014301839 -0.10646958 -0.2202249 -0.10759185 0.060078651 -0.015556846 -0.03217825 -0.015720827 0.0087784162 -0.053507793 -0.11067714 -0.054071806 0.030193375
-0.23561488 -0.45879251 -6.9294316e-05 0.13299027 -1.1738689 -2.2857736 -0.00034523476 0.66257765 -0.072346562 -0.14087421 -2.1277118e-05 0.040835236 -0.17072884 -0.33244553 -5.0211338e-05 0.096366051 -0.043512173 -0.084727496 -1.2796926e-05 0.024559976 -0.075598598 -0.14720662 -2.2233541e-05 0.042670812
-1.1167178 -0.60579855 2.3079415 0.63044386 -0.12091793 -0.065595717 0.24990333 0.068264305 -0.3052928 -0.16561564 0.6309543 0.17235327 -0.088137096 -0.047812728 0.18215458 0.049757862 -0.10494101 -0.05692854 0.21688355 0.059244527 -0.035313347 -0.019156831 0.072982752 0.019936176
-0.39788413 -0.79403644 0.62699695 0.22491147 -0.082178155 -0.16399862 0.12949864 0.046452743 -1.12858 -2.2522477 1.7784479 0.637951 -0.055722088 -0.11120164 0.087808425 0.031497955 -0.092717927 -0.18503229 0.1461075 0.052410547 -0.011987718 -0.02392326 0.018890582 0.0067762827
-0.0087897219 0.018860958 -0.011696839 0.0049759809 -0.011125071 0.023872142 -0.014804582 0.0062980535 -0.00011831658 0.00025388334 -0.00015744866 6.698062e-05 -0.0099009688 0.021245468 -0.01317562 0.0056050728 -8.9422114e-05 0.00019188169 -0.00011899763 5.0623072e-05 -1.7364065 3.7259757 -2.3107065 0.98300329
-0.64446281 -1.0973473 0.62066193 0.36487633 -0.33173207 -0.56485073 0.31948075 0.18781716 -0.37850766 -0.64449701 0.36452886 0.21430016 -0.19740218 -0.33612296 0.19011185 0.11176344 -0.14235994 -0.2424008 0.1371024 0.08060011 -0.071785343 -0.12223118 0.069134213 0.040642798
-0.76377544 -1.0166627 1.7242536 0.43520216 -0.088712088 -0.1180848 0.20027108 0.050548486 -0.69962149 -0.93126729 1.5794235 0.398647 -0.061509202 -0.081874997 0.13885948 0.035048178 -0.12774937 -0.17004739 0.2883993 0.072792078 -0.013622406 -0.018132806 0.030753125 0.0077620989
-0.61829418 0.013553984 0.13904505 0.35263591 -0.37798941 0.0082861247 0.085004125 0.21558127 -0.11023046 0.0024164258 0.024789171 0.062868488 -0.26763848 0.005867058 0.060187862 0.15264407 -0.07062696 0.0015482545 0.015882939 0.040281153 -0.30857051 0.0067643527 0.069392859 0.17598911
-0.26134213 -0.38587205 -0.26101384 0.14921984 -0.99726403 -1.4724619 -0.99601132 0.56941288 -0.058338738 -0.086137236 -0.058265456 0.033309964 -0.24365898 -0.35976286 -0.24335291 0.1391232 -0.038398026 -0.056694744 -0.038349793 0.021924315 -0.15238809 -0.22500125 -0.15219667 0.0870098
-0.65972987 -0.014094 0.25361835 0.37690235 -0.36405857 -0.0077774882 0.13995415 0.20798593 -0.12257232 -0.0026185478 0.047120178 0.07002532 -0.25782728 -0.0055080385 0.099115912 0.14729621 -0.075929339 -0.0016221004 0.029189331 0.043378279 -0.27028262 -0.0057741255 0.10390409 0.15441192
-1.085772 -0.29581076 1.9344507 0.62115104 -0.15170332 -0.041330477 0.27028012 0.086786798 -0.24280904 -0.066151573 0.43259737 0.13890677 -0.113338 -0.03087812 0.20192707 0.064838671 -0.097616392 -0.026594882 0.17391689 0.055844618 -0.056761235 -0.015464189 0.10112787 0.032472102
-0.0083902759 0.01819152 -0.012555089 0.0048019893 -0.010752117 0.023312387 -0.016089315 0.0061537372 -9.9365114e-05 0.00021544017 -0.00014868854 5.6869432e-05 -0.0095623565 0.020732787 -0.014308974 0.0054728038 -7.1926333e-05 0.00015594831 -0.00010762954 4.116545e-05 -1.718374 3.7257219 -2.5713503 0.98347343
-0.5794119 0.036137238 0.042437664 0.33226589 -0.38162247 0.023801344 0.027951041 0.21884281 -0.099479971 0.0062044487 0.0072861768 0.057047156 -0.2720958 0.016970294 0.019929018 0.15603434 -0.065859175 0.0041075592 0.0048237006 0.037767186 -0.34535069 0.021539116 0.0252944 0.19804262
-0.70243647 -0.044703477 0.3889127 0.40393127 -0.3429562 -0.021825937 0.18988197 0.1972146 -0.13651502 -0.0086878975 0.07558324 0.078502024 -0.24388971 -0.015521287 0.13503257 0.1402471 -0.081105056 -0.0051615742 0.044904824 0.046638905 -0.23209755 -0.014770827 0.1285037 0.1334661
-0.054163535 0.057898123 -0.07735595 0.031170925 -0.048150287 0.051470261 -0.068767875 0.027710322 -0.0041644646 0.0044516055 -0.0059476569 0.0023966349 -0.04497051 0.048071238 -0.064226542 0.025880372 -0.0037391966 0.0039970151 -0.0053402923 0.0021518946 -1.582442 1.6915518 -2.2600317 0.91068985
-0.45364031 -0.053910298 -0.24768943 0.26125786 -0.4373895 -0.051979063 -0.23881643 0.25189879 -0.07656867 -0.0090993674 -0.041806802 0.044096978 -0.29084796 -0.034564169 -0.15880416 0.16750345 -0.052878687 -0.0062840662 -0.028871975 0.030453582 -0.42504487 -0.050512036 -0.23207621 0.24478934
-0.054072782 -0.12969394 -0.054541626 0.031318943 -1.5703006 -3.7663768 -1.5839161 0.90951778 -0.012690271 -0.030437702 -0.012800304 0.0073502023 -0.055907901 -0.13409548 -0.056392657 0.032381844 -0.0074114177 -0.017776336 -0.0074756792 0.0042926915 -0.026136988 -0.062689744 -0.026363612 0.015138538
-0.006680996 0.0042222742 -0.017860305 0.003871515 -0.0085978977 0.0054337231 -0.022984758 0.0049823245 -0.00015775302 9.9697189e-05 -0.00042172112 9.1414991e-05 -0.0071615536 0.0045259783 -0.01914498 0.0041499893 -0.00010889134 6.8817449e-05 -0.0002910992 6.310054e-05 -1.7029729 1.0762495 -4.5525571 0.98684166
-0.75004546 -0.075442868 0.54990565 0.43527578 -0.31430342 -0.031614019 0.23043567 0.1824005 -0.15170753 -0.01525941 0.11122637 0.088040817 -0.22605644 -0.02273775 0.16573624 0.13118791 -0.086044741 -0.0086547582 0.063084829 0.049934562 -0.19499241 -0.019613194 0.14296124 0.11316044
-0.0087249761 0.0084772612 -0.021564751 0.0050740471 -0.010513169 0.010214685 -0.02598447 0.0061139784 -0.00025024863 0.0002431437 -0.00061851737 0.00014553316 -0.0090409264 0.0087842411 -0.022345657 0.0052577893 -0.00018387013 0.00017864978 -0.00045445551 0.00010693046 -1.6908168 1.642812 -4.1790421 0.98330172
-0.53994379 0.053030054 -0.038269059 0.31401026 -0.38062263 0.037382481 -0.026977012 0.22135529 -0.089335849 0.0087740334 -0.0063317681 0.051954248 -0.27250384 0.026763699 -0.019313983 0.15847761 -0.060939879 0.0059851509 -0.0043191752 0.035440259 -0.37616401 0.036944582 -0.026661002 0.21876233
-0.011596579 0.012896094 -0.026482397 0.0067475716 -0.013077222 0.014542658 -0.02986365 0.0076090968 -0.00040773139 0.00045342185 -0.0009311112 0.0002372421 -0.011564309 0.012860208 -0.026408705 0.0067287953 -0.00031629584 0.00035174002 -0.00072230543 0.00018403952 -1.6816679 1.8701159 -3.8403218 0.97849325
-0.061357309 0.041191925 -0.093453836 0.035732685 -0.055441732 0.037220532 -0.084443771 0.032287628 -0.0051335199 0.0034463632 -0.0078189076 0.0029896105 -0.05159136 0.034635604 -0.078579236 0.030045285 -0.0046158823 0.0030988497 -0.0070304893 0.0026881536 -1.5389802 1.0331867 -2.3440338 0.89625664
-0.067896041 0.063336095 -0.090677969 0.039555393 -0.05926747 0.055287026 -0.079154157 0.034528495 -0.0056261961 0.0052483369 -0.0075140175 0.0032777522 -0.055369251 0.051650614 -0.073947924 0.03225744 -0.0050686151 0.0047282034 -0.006769345 0.0029529124 -1.5232524 1.4209497 -2.0343666 0.88742801
-0.23351019 -0.53901538 0.38737667 0.13617105 -0.043976726 -0.10151219 0.072954235 0.025644948 -1.3469856 -3.1092689 2.2345526 0.78549223 -0.029565355 -0.06824619 0.049046804 0.017240983 -0.055695221 -0.12856219 0.092394378 0.032478567 -0.0050968559 -0.011765156 0.0084553185 0.0029722223
-0.016867856 0.027694072 -0.026128181 0.0098415674 -0.017317515 0.028432333 -0.026824698 0.010103921 -0.00071902994 0.0011805215 -0.0011137719 0.00041951873 -0.015914918 0.026129515 -0.024652087 0.009285575 -0.00062254808 0.0010221152 -0.00096432223 0.0003632263 -1.6624981 2.7295314 -2.5751969 0.96998619
-0.022696339 0.035804397 -0.030839693 0.013247689 -0.021810709 0.03440728 -0.029636303 0.012730754 -0.0011854724 0.0018701309 -0.0016108151 0.00069195167 -0.020248863 0.031943405 -0.027514073 0.011819115 -0.0010536216 0.001662131 -0.0014316568 0.00061499135 -1.646235 2.5970027 -2.2368975 0.9608955
-0.12713171 -0.31433461 0.300082 0.074236195 -0.013656432 -0.033765685 0.032234677 0.0079744194 -1.5363369 -3.7986106 3.6263734 0.89711533 -0.0082882718 -0.020492847 0.019563657 0.0048397819 -0.026868661 -0.066433072 0.063420853 0.015689454 -0.00024800933 -0.0006132059 0.00058540183 0.00014482043
-0.829451 -1.0190264 1.9109193 0.48483508 -0.0918191 -0.11280484 0.21153617 0.053670585 -0.58299215 -0.71623806 1.3431184 0.34077365 -0.064270635 -0.078960025 0.14806902 0.037567811 -0.12650476 -0.15541808 0.29144625 0.073945229 -0.015752353 -0.019352636 0.036290842 0.0092076487
-0.13243166 -0.30111897 -0.0040491195 0.077439531 -1.3676221 -3.1096563 -0.041815266 0.7997182 -0.039844746 -0.090597735 -0.0012182595 0.02329925 -0.10339673 -0.23510024 -0.0031613717 0.060461328 -0.024101255 -0.054800679 -0.00073689977 0.01409323 -0.042733512 -0.097166121 -0.001306584 0.024988458
-0.80167501 -0.10205011 0.73914388 0.46966449 -0.28238501 -0.035946513 0.26035881 0.16543638 -0.16710935 -0.021272371 0.15407473 0.097901679 -0.2053646 -0.026142114 0.18934603 0.12031366 -0.089848957 -0.011437423 0.082840684 0.052638368 -0.16052706 -0.020434471 0.14800586 0.094045418
-0.035361725 0.045065636 -0.056287654 0.020719356 -0.03232819 0.041199643 -0.051458971 0.018941929 -0.0023161711 0.0029517713 -0.0036868065 0.001357105 -0.030026175 0.038265912 -0.047794696 0.017593118 -0.0020431461 0.0026038232 -0.0032522141 0.0011971326 -1.6046246 2.0449632 -2.5541897 0.94019136
-0.30589604 -0.38496109 -0.31366422 0.1794038 -0.80736605 -1.0160462 -0.82786899 0.47350904 -0.06423458 -0.080837313 -0.065865808 0.037672694 -0.280355 -0.35281845 -0.28747458 0.16442434 -0.043407845 -0.054627485 -0.044510181 0.025458102 -0.20381048 -0.25648944 -0.20898622 0.11953203
-1.1016735 -0.47638882 2.3630084 0.64837124 -0.11607856 -0.050195024 0.24897995 0.068316066 -0.26235119 -0.11344665 0.56272395 0.15440234 -0.086135535 -0.037246975 0.18475437 0.050693607 -0.09647167 -0.041716557 0.20692462 0.056776763 -0.036429538 -0.015752966 0.078138673 0.021439986
-0.038605961 -0.10565413 0.079160311 0.022727036 -0.0049739688 -0.013612414 0.010198967 0.0029281376 -1.6442885 -4.4999751 3.371562 0.96798014 -0.0029079384 -0.0079582448 0.0059626364 0.0017118812 -0.0078082316 -0.021369028 0.016010534 0.0045966466 -9.5391467e-05 -0.00026106077 0.00019559721 5.6156231e-05
-0.015783099 0.020044964 -0.032963061 0.0093049753 -0.016619842 0.021107651 -0.034710603 0.00979828 -0.0006905583 0.00087702777 -0.0014422336 0.0004071208 -0.01503078 0.019089498 -0.031391839 0.0088614431 -0.00056653685 0.00071951717 -0.0011832143 0.00033400357 -1.6475092 2.0923813 -3.440829 0.97129418
-0.62575515 -1.1206833 0.74475353 0.36895288 -0.25619156 -0.45882101 0.30491091 0.15105368 -0.45496244 -0.81480562 0.54148157 0.26825141 -0.16243975 -0.29091813 0.19333053 0.095776461 -0.14210274 -0.25449598 0.16912609 0.083785513 -0.054578342 -0.097745957 0.064957376 0.032180057
-0.85794418 -0.11873859 0.95876321 0.50637387 -0.24851283 -0.03439392 0.27771615 0.14667668 -0.18174742 -0.025153657 0.20310499 0.10727055 -0.18350707 -0.02539719 0.20507141 0.10830913 -0.093061422 -0.012879605 0.10399729 0.054926501 -0.12951708 -0.017925032 0.14473694 0.076443279
-0.015352861 0.0041005125 -0.036901122 0.0090666147 -0.016552297 0.0044208634 -0.039784007 0.0097749403 -0.00086858343 0.00023198524 -0.0020876697 0.00051294095 -0.014845888 0.0039651079 -0.035682595 0.0087672224 -0.00075043011 0.00020042831 -0.0018036842 0.00044316564 -1.6449699 0.4393461 -3.9537409 0.97143512
-0.011995622 0.02130329 -0.020979246 0.0070969096 -0.013401161 0.023799417 -0.023437404 0.0079284612 -0.00036996605 0.00065703086 -0.00064703674 0.00021888115 -0.012183539 0.021637015 -0.021307894 0.0072080857 -0.00030628163 0.0005439323 -0.00053565853 0.00018120385 -1.6520034 2.9338293 -2.8892028 0.97736646
-1.0856632 -0.32176629 2.1761907 0.6434322 -0.12923714 -0.038303001 0.25905334 0.076594053 -0.23617117 -0.069995855 0.47340051 0.13996987 -0.097199978 -0.0288079 0.19483546 0.057606814 -0.093341666 -0.027664383 0.18710155 0.055320136 -0.045686891 -0.013540573 0.091578483 0.027076922
-0.54761545 -0.98394347 0.32708686 0.3248035 -0.45539527 -0.81824427 0.2720044 0.27010556 -0.24077735 -0.43262349 0.14381462 0.14281066 -0.23077476 -0.41465104 0.13784014 0.13687789 -0.11904847 -0.2139037 0.071106819 0.070610427 -0.092378701 -0.16598403 0.05517715 0.054791962
-0.029048896 0.046226331 -0.035375447 0.017239497 -0.026550802 0.042251043 -0.032333294 0.015756966 -0.0017226269 0.0027412649 -0.0020977972 0.0010223183 -0.02486679 0.039571227 -0.030282521 0.014757564 -0.0015517935 0.0024694128 -0.0018897581 0.00092093474 -1.6012791 2.5481607 -1.9500212 0.95030272
-0.0063442162 0.0054905595 -0.016995861 0.003767573 -0.0082605345 0.0071490244 -0.022129589 0.0049055968 -0.00012601723 0.00010906077 -0.00033759431 7.4836527e-05 -0.0068810521 0.0059551605 -0.018434019 0.0040863781 -8.2933839e-05 7.1774536e-05 -0.00022217591 4.9251047e-05 -1.6622052 1.4385444 -4.4529708 0.98711636
-0.027293542 -0.073186719 -0.02581329 0.016229057 -1.6020963 -4.2959677 -1.5152074 0.95262511 -0.0063126956 -0.016927282 -0.0059703296 0.0037536022 -0.029546608 -0.079228241 -0.027944162 0.017568757 -0.0035240703 -0.0094496766 -0.003332944 0.0020954532 -0.012996759 -0.034850373 -0.012291886 0.0077280238
-0.91419513 -0.12843225 1.2042134 0.54366541 -0.21538816 -0.030259172 0.28371768 0.12808982 -0.19266049 -0.027066236 0.25377991 0.11457384 -0.16121354 -0.022648358 0.21235676 0.095872559 -0.093706894 -0.013164572 0.12343437 0.05572683 -0.10437577 -0.014663408 0.13748783 0.062071538
-0.0098259384 -0.027699727 -0.0075957225 0.0058505141 -1.650078 -4.6516382 -1.275556 0.9824817 -0.002118248 -0.0059714287 -0.0016374643 0.0012612373 -0.011428757 -0.032218139 -0.0088347457 0.0068048569 -0.0011004569 -0.0031022336 -0.00085068366 0.00065522888 -0.0049485767 -0.013950242 -0.0038253868 0.0029464583
-0 -0 -0 0 -1.67828 -4.81959 -0.936285 1 -0 -0 -0 0 -0 -0 -0 0 -0 -0 -0 0 -0 -0 -0 0
-0.50051991 0.063858851 -0.104254 0.29826229 -0.37098096 0.047331618 -0.077272151 0.22106938 -0.080528123 0.010274183 -0.016773317 0.047987106 -0.26809562 0.034204989 -0.055842017 0.1597595 -0.056300283 0.0071830737 -0.011726866 0.033549617 -0.40169511 0.051250285 -0.083669645 0.2393721
-0.053875713 -0.14727383 0.12119145 0.032112458 -0.0053867846 -0.014725233 0.012117376 0.0032107769 -1.6047914 -4.3868334 3.6099197 0.95653111 -0.0029888951 -0.0081703984 0.0067234106 0.001781522 -0.01063419 -0.029069461 0.023921223 0.0063384773 -4.3042994e-05 -0.00011766168 9.6823646e-05 2.5655648e-05
-0.45781061 0.013249399 -0.20037098 0.27291731 -0.38932545 0.011267385 -0.17039693 0.23209086 -0.074432943 0.0021541478 -0.03257723 0.044372145 -0.27329712 0.0079094334 -0.11961455 0.16292221 -0.052110475 0.0015081181 -0.022807307 0.031064922 -0.4304934 0.012458817 -0.188415 0.25663255
-0.88613193 -0.99533929 2.0798371 0.52941327 -0.093914124 -0.10548815 0.2204255 0.056108331 -0.48685938 -0.54686019 1.1427059 0.2908707 -0.066318902 -0.074492079 0.15565686 0.03962176 -0.12263059 -0.13774365 0.28782582 0.07326478 -0.017945081 -0.020156642 0.042118835 0.010721162
-0.58177047 -1.0667045 0.47290524 0.34815707 -0.37495164 -0.68749213 0.30478789 0.22438758 -0.29280307 -0.53686871 0.23801157 0.17522625 -0.21150269 -0.3878005 0.17192473 0.12657253 -0.13071627 -0.23967465 0.10625566 0.078226372 -0.079255852 -0.14531947 0.064424905 0.047430192
-0.96271939 -0.1352004 1.4637072 0.57823416 -0.18545737 -0.026044879 0.2819672 0.11139049 -0.19906457 -0.027955819 0.30265543 0.11956333 -0.14066456 -0.019754359 0.21386475 0.084486773 -0.092976127 -0.013057189 0.14135981 0.055843865 -0.084047976 -0.011803356 0.12778555 0.050481387
-0.009125905 0.017672653 -0.017210304 0.0054839225 -0.011029055 0.021358174 -0.020799404 0.0066275601 -0.00018577429 0.00035975879 -0.00035034683 0.00011163515 -0.0099466754 0.019262105 -0.018758173 0.0059771383 -0.00014335813 0.00027761832 -0.00027035531 8.6146508e-05 -1.6336892 3.1636997 -3.0809314 0.9817136
-0.018507752 0.026749303 -0.035776045 0.0111422 -0.018697788 0.027023962 -0.03614339 0.011256607 -0.00089431888 0.0012925615 -0.0017287455 0.00053840575 -0.017137445 0.024768795 -0.033127201 0.010317236 -0.00075792535 0.0010954315 -0.0014650927 0.00045629292 -1.6050548 2.3197899 -3.1026195 0.96628926
-0.48293581 -0.8793172 0.19464365 0.29124275 -0.54752862 -0.99692613 0.22067729 0.33019655 -0.18887145 -0.34389231 0.076123216 0.11390218 -0.23701899 -0.43155812 0.095528718 0.14293838 -0.10109481 -0.18407085 0.040745504 0.060966966 -0.10074031 -0.18342539 0.040602625 0.060753178
-0.0084010759 0.017402098 -0.015754881 0.0050688282 -0.010452681 0.02165182 -0.01960234 0.0063066738 -0.00013628695 0.00028230656 -0.00025558449 8.2229364e-05 -0.00939081 0.019452246 -0.01761097 0.0056659889 -0.00010100154 0.00020921592 -0.00018941233 6.0939751e-05 -1.6289181 3.3741623 -3.0547768 0.98281534
-0.94575055 -0.93907451 2.2430675 0.57157827 -0.095481485 -0.094807483 0.22645656 0.057705641 -0.40902161 -0.40613433 0.9700899 0.24719823 -0.06807967 -0.067599097 0.16146678 0.041144951 -0.11595948 -0.11514093 0.2750249 0.070081822 -0.020337209 -0.020193649 0.048234422 0.012291092
-0.055092168 -0.15404461 0.10660301 0.033373618 -0.0095414808 -0.026679177 0.018462708 0.0057800183 -1.5663425 -4.37969 3.0308632 0.94885566 -0.0061732541 -0.017261193 0.011945209 0.0037396209 -0.012940056 -0.036182021 0.025038931 0.0078388004 -0.00068058607 -0.001903004 0.0013169299 0.000412284
-0.32607684 -0.35250328 -0.34784665 0.19756605 -0.67510542 -0.72981838 -0.72017734 0.40903828 -0.064749933 -0.0699975 -0.06907282 0.039231209 -0.29346287 -0.31724615 -0.31305527 0.17780564 -0.044828255 -0.048461298 -0.047821115 0.027160903 -0.24624668 -0.2662034 -0.2626868 0.14919791
-0.99850994 -0.85038637 2.3759707 0.60602066 -0.097735272 -0.083236771 0.23256267 0.059317981 -0.34723695 -0.29572622 0.82625597 0.21074679 -0.070679649 -0.060194704 0.16818337 0.042897247 -0.11021042 -0.093861296 0.26224748 0.066889459 -0.023277772 -0.01982464 0.055389838 0.014127862
-1.0409694 -0.74173772 2.4704642 0.6319438 -0.099136122 -0.070638963 0.23527323 0.060182803 -0.30611303 -0.21811936 0.72647791 0.18583277 -0.072337323 -0.051543609 0.17167341 0.043913992 -0.10291155 -0.073329126 0.24423321 0.062474761 -0.02578254 -0.018371224 0.061188005 0.015651868
