-0.0094556525 0.012034279 -0.0078049127 0.0034447826 -0.015156483 0.019289768 -0.012510509 0.0055216482 -0 0 -0 0 -0.012786389 0.016273331 -0.010554179 0.0046582008 -0 0 -0 0 -2.7075215 3.4458826 -2.2348504 0.98637537
-0.0090094609 0.012169262 -0.0082335593 0.0033588816 -0.014618378 0.01974534 -0.013359432 0.0054499821 -0 0 -0 0 -0.012319175 0.016639759 -0.011258238 0.0045927997 -0 0 -0 0 -2.646333 3.5744556 -2.4184288 0.98659834
-0.010018201 0.012470411 -0.0079062826 0.003738637 -0.01540587 0.019176849 -0.012158187 0.0057492314 -2.4067243e-05 2.9958312e-05 -1.8993671e-05 8.981521e-06 -0.013075209 0.016275698 -0.010318848 0.0048794647 -1.7831711e-05 2.2196475e-05 -1.407264e-05 6.6545173e-06 -2.6410988 3.2875749 -2.0843336 0.98561703
-0.0093479176 0.012567254 -0.0074617549 0.0034888882 -0.014883426 0.02000914 -0.011880344 0.005554885 -2.3436016e-06 3.1507163e-06 -1.8707247e-06 8.7469361e-07 -0.01256959 0.016898441 -0.010033379 0.0046913009 -8.8540767e-07 1.1903339e-06 -7.067558e-07 3.3045738e-07 -2.6425358 3.5526008 -2.1093419 0.98626372
-0.0095174726 0.012068466 -0.0088117493 0.0035998943 -0.014904044 0.018898814 -0.013798905 0.0056373141 -1.0750428e-05 1.3631893e-05 -9.9532805e-06 4.066248e-06 -0.012622791 0.016006111 -0.011686808 0.0047744518 -7.3878976e-06 9.3680952e-06 -6.8400829e-06 2.7944027e-06 -2.6067576 3.3054536 -2.4134657 0.98598148
-0.0089573899 0.012587633 -0.0078544654 0.0033999954 -0.014444203 0.020298136 -0.012665686 0.0054826488 -2.8669998e-06 4.028935e-06 -2.5139858e-06 1.0882396e-06 -0.012181768 0.017118784 -0.010681826 0.0046238867 -1.8230564e-06 2.5619031e-06 -1.5985833e-06 6.9198545e-07 -2.5989419 3.6522389 -2.2789339 0.98649169
-0.0097858646 0.012991631 -0.0076160586 0.0037575652 -0.01500643 0.019922411 -0.011679076 0.0057621522 -2.459835e-05 3.2656562e-05 -1.9144192e-05 9.4452464e-06 -0.012744162 0.016919042 -0.0099184168 0.0048934888 -1.8106307e-05 2.4037781e-05 -1.4091621e-05 6.9524393e-06 -2.5667308 3.4075702 -1.9976132 0.9855704
-0.010777971 0.013193295 -0.0093216074 0.0041395146 -0.015770918 0.019305152 -0.013639886 0.0060571644 -7.7526429e-05 9.4899962e-05 -6.7050737e-05 2.9775713e-05 -0.013489451 0.016512413 -0.011666701 0.0051809174 -6.3399594e-05 7.7607329e-05 -5.4832779e-05 2.4349995e-05 -2.5635007 3.1379766 -2.2171099 0.98456828
-0.009124044 0.012385217 -0.0093110641 0.0035286826 -0.014408436 0.01955839 -0.014703773 0.0055723974 -0 0 -0 0 -0.012203104 0.016564814 -0.012453237 0.004719495 -0 0 -0 0 -2.5499444 3.4613616 -2.6022119 0.98617943
-0.0088677984 0.013084518 -0.0091946682 0.0035230639 -0.014007892 0.020668774 -0.014524227 0.0055651579 -0 0 -0 0 -0.011867664 0.017510847 -0.01230511 0.0047148724 -0 0 -0 0 -2.4823266 3.6626959 -2.573826 0.98619691
-0.0087868038 0.013068861 -0.0086100772 0.0034926202 -0.013951668 0.02075071 -0.013671062 0.0055455749 -1.3685877e-06 2.035539e-06 -1.3410616e-06 5.4399268e-07 -0.011805488 0.017558634 -0.011568047 0.0046925009 -3.5840631e-07 5.3306781e-07 -3.5119778e-07 1.4246103e-07 -2.4812743 3.6904692 -2.4313691 0.98626862
-0.011100409 0.014182735 -0.0088841554 0.004431177 -0.015734178 0.020103195 -0.012592769 0.0062809335 -0.00010725135 0.00013703257 -8.583807e-05 4.2813713e-05 -0.013527418 0.017283669 -0.0108266 0.0054000159 -8.8231457e-05 0.00011273129 -7.0615597e-05 3.5221154e-05 -2.4645125 3.1488506 -1.97246 0.98380984
-0.010530471 0.0141872 -0.0084551481 0.0042608299 -0.015194756 0.020471169 -0.012200207 0.0061480891 -8.2169445e-05 0.00011070297 -6.5975668e-05 3.324733e-05 -0.013028878 0.017553185 -0.010461175 0.0052717333 -6.6711495e-05 8.987721e-05 -5.3564137e-05 2.6992747e-05 -2.432557 3.2772679 -1.9531539 0.98425911
-0.012063239 0.014937679 -0.010232624 0.0049005881 -0.016351019 0.020247156 -0.013869728 0.0066424626 -0.00017112409 0.0002118997 -0.00014515575 6.9517705e-05 -0.014161255 0.017535613 -0.012012264 0.0057528896 -0.00014374795 0.00017800034 -0.00012193398 5.839638e-05 -2.4186996 2.9950297 -2.0516583 0.98257615
-0.0099411525 0.013037989 -0.010708004 0.0040703393 -0.014628494 0.019185516 -0.015756923 0.0059895403 -4.2074293e-05 5.5181143e-05 -4.5319868e-05 1.7227042e-05 -0.012523254 0.016424459 -0.013489287 0.0051275639 -2.9802565e-05 3.9086566e-05 -3.2101509e-05 1.2202464e-05 -2.4051752 3.1544278 -2.5907084 0.98478313
-0.0088762632 0.013233128 -0.010176275 0.0036499744 -0.013746401 0.020493747 -0.01575969 0.0056526054 -0 0 -0 0 -0.011694888 0.017435259 -0.013407713 0.0048090103 -0 0 -0 0 -2.3975524 3.5743779 -2.7486963 0.98588841
-0.011541574 0.014528016 -0.011486221 0.00475132 -0.01584087 0.019939777 -0.015764898 0.0065212113 -0.00014054501 0.00017691177 -0.00013987097 5.7858169e-05 -0.013701862 0.01724729 -0.013636149 0.005640646 -0.00011584881 0.00014582529 -0.0001152932 4.7691482e-05 -2.3877893 3.0056422 -2.3763376 0.98298127
-0.0094865701 0.013266731 -0.011053655 0.0039464233 -0.014131707 0.019762839 -0.016466122 0.0058788053 -2.1122232e-05 2.9538912e-05 -2.461141e-05 8.7868708e-06 -0.012096366 0.016916465 -0.014094563 0.0050321011 -1.2482434e-05 1.7456371e-05 -1.4544406e-05 5.1927059e-06 -2.3680918 3.311717 -2.7592765 0.98512869
-0.008859908 0.013935777 -0.008500612 0.0037174959 -0.01362222 0.021426432 -0.013069798 0.0057156967 -1.1252318e-05 1.7698806e-05 -1.0796002e-05 4.7213182e-06 -0.011586334 0.018224181 -0.011116473 0.0048614669 -6.3317463e-06 9.9592235e-06 -6.0749749e-06 2.6567139e-06 -2.349214 3.695086 -2.2539462 0.98569796
-0.009121452 0.013999557 -0.0081258321 0.0038312229 -0.013831457 0.021228448 -0.012321733 0.0058095351 -1.846711e-05 2.8343223e-05 -1.6451397e-05 7.7566173e-06 -0.011779901 0.018079731 -0.010494108 0.0049478337 -1.1314729e-05 1.7365787e-05 -1.007971e-05 4.7524506e-06 -2.3460574 3.6007166 -2.0899818 0.9853989
-0.0087253344 0.014088718 -0.0092358545 0.0037223488 -0.013387296 0.021616345 -0.014170588 0.0057112063 -8.7491436e-06 1.4127162e-05 -9.2610568e-06 3.7325061e-06 -0.011401491 0.018409883 -0.012068593 0.0048640343 -5.5765244e-06 9.0043631e-06 -5.9028074e-06 2.3790227e-06 -2.3105116 3.7307619 -2.4456998 0.9856963
-0.013095188 0.016444176 -0.01245024 0.0056019079 -0.016785164 0.021077834 -0.015958482 0.0071804193 -0.00025679654 0.00032247018 -0.00024414912 0.00010985337 -0.014680795 0.01843529 -0.013957755 0.0062802048 -0.00021841447 0.00027427221 -0.0002076574 9.343415e-05 -2.2925936 2.878906 -2.1796817 0.98073418
-0.009982472 0.015059491 -0.0086249221 0.0042934625 -0.014333472 0.021623381 -0.012384215 0.006164828 -7.4119762e-05 0.00011181658 -6.4039967e-05 3.1878919e-05 -0.01231173 0.018573395 -0.010637417 0.0052952768 -5.9099301e-05 8.9156815e-05 -5.1062188e-05 2.5418617e-05 -2.2882791 3.4520828 -1.9770883 0.98418914
-0.0093887826 0.014267243 -0.01197841 0.0040963454 -0.013706132 0.02082791 -0.017486577 0.0059800139 -3.0498986e-05 4.6346419e-05 -3.8911261e-05 1.3306771e-05 -0.011787627 0.01791254 -0.015038907 0.0051429662 -1.959963e-05 2.97837e-05 -2.5005628e-05 8.5513592e-06 -2.2570574 3.4298362 -2.8796022 0.98475882
-0.0084783291 0.014000624 -0.0099886249 0.003727377 -0.012972258 0.02142164 -0.015283085 0.0057030692 -0 0 -0 0 -0.011068655 0.01827814 -0.013040382 0.0048661772 -0 0 -0 0 -2.2420908 3.7024596 -2.6414879 0.98570338
-0.011321524 0.016660459 -0.0097560971 0.0050039222 -0.015185889 0.022347158 -0.013086136 0.0067119062 -0.00016461376 0.0002422413 -0.00014185262 7.2756497e-05 -0.013188848 0.019408364 -0.011365226 0.0058292479 -0.00013837384 0.00020362732 -0.00011924089 6.1158895e-05 -2.2225308 3.2706182 -1.9152214 0.98232101
-0.70518427 -0.4788538 0.10750299 0.31267592 -0.67817602 -0.46051391 0.10338567 0.30070058 -0.19403124 -0.13175648 0.029579415 0.086032689 -0.3352502 -0.2276509 0.051107773 0.14864862 -0.10333252 -0.07016772 0.015752698 0.045817234 -0.23934574 -0.16252719 0.036487459 0.10612496
-0.2470611 -0.34992873 -0.10226961 0.10954786 -1.5898511 -2.2518097 -0.65811029 0.70494621 -0.065307179 -0.092498812 -0.027033555 0.028957459 -0.20434291 -0.28942418 -0.084586647 0.090606449 -0.039079778 -0.055351235 -0.016176863 0.017328127 -0.10963795 -0.15528737 -0.045384039 0.048613898
-0.64838995 -0.41233428 -0.010543136 0.28824889 -0.72449672 -0.46073329 -0.011780669 0.322083 -0.16252671 -0.10335653 -0.0026427633 0.07225304 -0.34905868 -0.22197885 -0.0056758637 0.15517788 -0.091715815 -0.058325356 -0.0014913437 0.040773276 -0.27322214 -0.1737517 -0.0044427247 0.12146391
-0.68101715 -0.53368845 0.10052923 0.30277791 -0.71440439 -0.55985282 0.10545773 0.31762176 -0.19754156 -0.15480616 0.029160354 0.087826306 -0.33184737 -0.26005675 0.04898608 0.14753821 -0.10461621 -0.081983935 0.015443058 0.046512013 -0.21980331 -0.17225188 0.03244655 0.097723802
-0.72143003 -0.41833939 0.1161102 0.3210808 -0.64336784 -0.37307306 0.10354652 0.28633832 -0.18927393 -0.10975526 0.0304626 0.084238557 -0.33587236 -0.19476405 0.054056812 0.14948389 -0.10173531 -0.058993782 0.016373739 0.045278478 -0.25520053 -0.14798446 0.041073125 0.11357996
-0.62431464 -0.45782147 -0.015015436 0.27797972 -0.76816341 -0.56330843 -0.018475152 0.34202921 -0.16346844 -0.11987443 -0.003931591 0.072785271 -0.3455878 -0.25342593 -0.0083117567 0.15387497 -0.091726114 -0.067264456 -0.0022061113 0.040841584 -0.2526396 -0.18526529 -0.0060762528 0.11248925
-0.34797592 -0.41522368 -0.14402491 0.1551919 -1.3091822 -1.5621869 -0.54186174 0.58387505 -0.088739563 -0.10588884 -0.036728712 0.039576477 -0.27635558 -0.32976241 -0.11438173 0.12325033 -0.05381631 -0.064216529 -0.022274211 0.024001244 -0.16616047 -0.19827165 -0.068772705 0.074105005
-0.59590643 -0.4999228 -0.018596532 0.26577219 -0.82110938 -0.68885194 -0.025624471 0.36621192 -0.16258061 -0.13639349 -0.005073675 0.072510387 -0.33977931 -0.2850505 -0.010603539 0.15154039 -0.091087574 -0.076415949 -0.0028425822 0.04062474 -0.23170669 -0.19438531 -0.0072309017 0.10334037
-0.66559227 -0.36226275 -0.0032447423 0.29689288 -0.68404846 -0.37230793 -0.0033347156 0.30512541 -0.16011876 -0.087148044 -0.00078057416 0.071422285 -0.35003226 -0.19051251 -0.0017063967 0.15613476 -0.091077829 -0.049571046 -0.00044400167 0.040626011 -0.29099042 -0.15837773 -0.0014185695 0.12979866
-0.012818512 0.017971464 -0.011118145 0.0057228311 -0.016279602 0.022823888 -0.014120123 0.0072680365 -0.00026307061 0.00036882314 -0.00022817446 0.000117448 -0.014266274 0.020001216 -0.012373862 0.0063691853 -0.0002256111 0.00031630517 -0.00019568393 0.00010072419 -2.1960369 3.0788283 -1.904734 0.98042177
-0.65312106 -0.58458238 0.093608132 0.29186507 -0.75183989 -0.67294164 0.10775694 0.33598029 -0.19966274 -0.17871009 0.028616527 0.089224776 -0.32628255 -0.29204239 0.046764226 0.14580831 -0.10493787 -0.093925669 0.015040149 0.046894368 -0.20190589 -0.18071784 0.028938024 0.090227186
-0.75883729 -0.54591063 0.24363063 0.33980731 -0.61310967 -0.44107359 0.19684364 0.27455049 -0.22869219 -0.16452209 0.07342341 0.10240835 -0.31444601 -0.22621374 0.10095534 0.14080891 -0.11490629 -0.082664051 0.036891559 0.051455031 -0.20314855 -0.14614589 0.065222425 0.090969912
-0.14393761 -0.24065629 -0.060218077 0.064520842 -1.8410886 -3.0782056 -0.77024215 0.82527831 -0.03889307 -0.065027215 -0.016271396 0.017434037 -0.12386757 -0.20710021 -0.051821525 0.055524332 -0.022867652 -0.03823354 -0.0095669647 0.010250554 -0.060215479 -0.10067719 -0.025191889 0.026991927
-0.73515937 -0.6114455 0.2336821 0.33011494 -0.63737202 -0.53011397 0.20259883 0.28620465 -0.23690707 -0.19703994 0.075304678 0.10638042 -0.31208908 -0.2595702 0.099202477 0.14014005 -0.11748411 -0.097713684 0.037344193 0.052754902 -0.18796834 -0.15633671 0.059748726 0.084405043
-0.55850023 -0.53755051 -0.020222836 0.25086477 -0.88496078 -0.85176531 -0.032043705 0.39750293 -0.15933527 -0.1533585 -0.0057693998 0.071569543 -0.32808366 -0.31577702 -0.011879641 0.14736723 -0.088921365 -0.085585865 -0.0032197698 0.039941322 -0.2064987 -0.1987528 -0.007477149 0.092754213
-0.50694636 -0.45883098 -0.11242033 0.2278298 -0.94218187 -0.85275735 -0.20893808 0.42343159 -0.12967544 -0.11736766 -0.028756803 0.058278216 -0.33662611 -0.3046762 -0.074650146 0.15128515 -0.076213539 -0.068979947 -0.016901101 0.034251582 -0.23346668 -0.21130786 -0.051773531 0.10492366
-0.77674441 -0.47590068 0.25494911 0.34935926 -0.58154636 -0.3563055 0.19087968 0.26156429 -0.22062564 -0.13517431 0.072415469 0.099231625 -0.31396068 -0.19235941 0.10305062 0.14121127 -0.11170891 -0.068442521 0.03666597 0.050243737 -0.218754 -0.13402758 0.071801145 0.09838981
-0.45803597 -0.48376288 -0.10373763 0.20631043 -1.0567608 -1.1161169 -0.23933898 0.47599052 -0.12344125 -0.13037469 -0.027957418 0.055600912 -0.31352828 -0.3311385 -0.071009008 0.14122068 -0.072180364 -0.076234583 -0.016347668 0.032511774 -0.1961833 -0.2072025 -0.044432297 0.088365681
-0.23318311 -0.33109982 -0.13846929 0.10515111 -1.570731 -2.2303021 -0.93273489 0.70830224 -0.05843272 -0.082969403 -0.034698643 0.026349531 -0.20582906 -0.29225945 -0.12222586 0.092816135 -0.035812766 -0.050851028 -0.021266414 0.016149336 -0.1136113 -0.16131821 -0.067464906 0.051231647
-0.41731442 -0.42254299 -0.17241897 0.18821346 -1.1069715 -1.1208409 -0.45735991 0.49925652 -0.10174463 -0.10301939 -0.042037137 0.045887963 -0.31468589 -0.31862862 -0.13001663 0.14192685 -0.06144116 -0.062210961 -0.025385227 0.027710649 -0.21508237 -0.21777716 -0.088864122 0.09700455
-0.54295672 -0.42548846 -0.11620607 0.2448939 -0.85186076 -0.66756135 -0.18231913 0.38422124 -0.13354641 -0.10465375 -0.028582213 0.060234455 -0.34801537 -0.27272252 -0.074483839 0.15696802 -0.078778116 -0.061734533 -0.016860452 0.035531893 -0.26195263 -0.20527938 -0.056064296 0.11815049
-0.013145911 0.017482864 -0.015045319 0.0059337966 -0.016443803 0.021868759 -0.018819713 0.0074223979 -0.00028114626 0.00037389891 -0.00032176814 0.0001269037 -0.014466641 0.019239315 -0.016556878 0.0065299474 -0.00023879161 0.00031757108 -0.0002732938 0.00010778567 -2.1708537 2.8870376 -2.484513 0.97987917
-0.73242679 -0.35400066 0.12929063 0.33069957 -0.60199539 -0.29095982 0.10626641 0.27180821 -0.18186897 -0.087901938 0.03210417 0.082116042 -0.33114364 -0.16005022 0.058454677 0.14951536 -0.098948039 -0.047824126 0.017466667 0.044676238 -0.26839718 -0.12972324 0.047378444 0.12118458
-0.014512474 0.019466103 -0.01306769 0.0065552806 -0.017512611 0.023490295 -0.01576915 0.0079104421 -0.00038188247 0.00051223269 -0.00034386431 0.00017249622 -0.015484356 0.020769723 -0.013942816 0.0069942795 -0.00033178258 0.0004450319 -0.00029875209 0.00014986611 -2.1656369 2.9048466 -1.9500377 0.97821764
-0.70805347 -0.6726356 0.22337712 0.3200314 -0.66200781 -0.62889321 0.20885061 0.29921933 -0.24268465 -0.23054521 0.076562293 0.10969046 -0.30798709 -0.29258112 0.097163944 0.13920635 -0.1195474 -0.11356746 0.037714882 0.054033943 -0.17216958 -0.16355741 0.054316159 0.077818518
-0.67751421 -0.30765616 0.0090831528 0.30623219 -0.63827088 -0.28983594 0.0085570337 0.28849444 -0.15605329 -0.070863098 0.0020921419 0.07053511 -0.34611599 -0.15716972 0.0046402339 0.15644226 -0.089525567 -0.040653158 0.0012002322 0.040464996 -0.30494007 -0.13847192 0.0040882054 0.137831
-0.61797791 -0.6302131 0.087330853 0.27972548 -0.79020363 -0.80584867 0.11166929 0.35768282 -0.19812563 -0.20204827 0.027998542 0.089680854 -0.31705972 -0.3233371 0.044805963 0.14351594 -0.10411023 -0.10617148 0.014712557 0.047125121 -0.18175288 -0.18535136 0.025684792 0.082269787
-0.014046875 0.018352387 -0.014927277 0.0063612905 -0.01712637 0.022375779 -0.018199783 0.0077558758 -0.0003430574 0.00044820805 -0.00036455889 0.00015535754 -0.015127412 0.01976412 -0.016075538 0.0068506243 -0.00029450013 0.00038476747 -0.00031295824 0.00013336781 -2.1612418 2.8236847 -2.2966999 0.97874348
-0.38183351 -0.47583051 -0.088317391 0.17299531 -1.2240794 -1.5254143 -0.28312731 0.55458722 -0.10669826 -0.13296446 -0.024679111 0.04834122 -0.27636397 -0.34439724 -0.063922479 0.12521077 -0.062633499 -0.078052158 -0.014487013 0.028377031 -0.1555814 -0.1938813 -0.035985692 0.070488449
-0.011479131 0.015972811 -0.01435266 0.0052024632 -0.015098073 0.021008442 -0.018877517 0.0068426057 -0.00017008155 0.00023666254 -0.00021265743 7.708275e-05 -0.013189987 0.018353407 -0.016491788 0.0059778413 -0.00013904191 0.00019347198 -0.00017384776 6.3015261e-05 -2.1664037 3.0144752 -2.7087115 0.98183699
-0.56804185 -0.38706205 -0.11582099 0.25746122 -0.7843372 -0.53444508 -0.15992257 0.35549567 -0.13446257 -0.091622401 -0.027416269 0.060944273 -0.35289543 -0.24046192 -0.071953676 0.15994753 -0.079581664 -0.054226713 -0.016226317 0.036069865 -0.28700129 -0.19556184 -0.058518178 0.13008144
-0.13806435 -0.23119417 -0.082325332 0.06267106 -1.8193784 -3.0466206 -1.0848632 0.82586401 -0.035419866 -0.059311956 -0.02112024 0.016078014 -0.12598348 -0.21096429 -0.075121727 0.057187238 -0.021084737 -0.03530722 -0.012572456 0.0095709202 -0.063069151 -0.10561177 -0.037607021 0.028628757
-0.59016631 -0.34820418 -0.1133987 0.26790913 -0.73339011 -0.43270769 -0.14091873 0.33292634 -0.13492108 -0.079604823 -0.025924685 0.061248142 -0.35576283 -0.20990372 -0.068358771 0.16150043 -0.080381421 -0.047425863 -0.015445051 0.036489573 -0.30823824 -0.18186373 -0.059227062 0.13992639
-0.810475 -0.61263979 0.39941752 0.36917131 -0.53266721 -0.40264428 0.26250855 0.24262988 -0.26805608 -0.20262417 0.13210314 0.12209953 -0.28823624 -0.21787839 0.14204831 0.13129159 -0.12498112 -0.094473498 0.061593077 0.056928893 -0.17097434 -0.12923987 0.084259413 0.077878802
-0.60650602 -0.30659038 -0.10684645 0.27638683 -0.69214657 -0.3498819 -0.1219335 0.31541352 -0.13428822 -0.067883048 -0.023657176 0.061195593 -0.35620099 -0.18006053 -0.06275092 0.16232198 -0.080544624 -0.040715518 -0.014189318 0.036704455 -0.32472358 -0.16414862 -0.057205634 0.14797763
-0.26413042 -0.39191236 -0.063208254 0.1205365 -1.5017511 -2.2282735 -0.35937952 0.68532739 -0.075127205 -0.11147251 -0.017978465 0.034284465 -0.20297749 -0.30117465 -0.04857393 0.092629221 -0.044415027 -0.065902285 -0.010628826 0.020268895 -0.1028888 -0.1526647 -0.024622008 0.046953528
-0.78570067 -0.40066253 0.26936166 0.35876907 -0.54747707 -0.27918208 0.18769149 0.24999067 -0.20888188 -0.10651784 0.071610948 0.095380288 -0.30947218 -0.15781316 0.10609631 0.14131214 -0.10731712 -0.054725611 0.036791515 0.049003476 -0.23114108 -0.11786877 0.079242069 0.10554436
-0.78462546 -0.68706145 0.38452667 0.35830919 -0.55102338 -0.48250655 0.27004373 0.25163183 -0.28063347 -0.24573819 0.13753193 0.12815484 -0.28697947 -0.2512951 0.14064196 0.13105282 -0.12886031 -0.11283722 0.063151438 0.058845698 -0.15767791 -0.1380715 0.077274274 0.072005623
-0.32684408 -0.39052748 -0.19452527 0.14933729 -1.2825984 -1.5325042 -0.76335419 0.58602798 -0.078798026 -0.094151297 -0.046897612 0.036003356 -0.27806251 -0.33224115 -0.16549232 0.12704866 -0.049207018 -0.058794678 -0.02928616 0.022483023 -0.17311994 -0.20685121 -0.10303446 0.079099683
-0.010381602 0.015303208 -0.013833658 0.0047447688 -0.014164964 0.020880149 -0.018875052 0.0064739028 -0.00010038742 0.00014797809 -0.00013376792 4.5880695e-05 -0.012320072 0.018160649 -0.016416702 0.0056307201 -7.6822056e-05 0.00011324109 -0.00010236668 3.5110468e-05 -2.1509662 3.1706748 -2.8661985 0.98306962
-0.50422609 -0.56326572 -0.018937514 0.23062354 -0.96193684 -1.0745696 -0.036128024 0.43997184 -0.14902967 -0.16647949 -0.0055971943 0.068163371 -0.30825298 -0.34434619 -0.011577237 0.14098912 -0.083947547 -0.093776931 -0.0031528671 0.038396031 -0.17896688 -0.19992204 -0.0067215636 0.081856089
-0.46647102 -0.40350559 -0.19145821 0.21345662 -0.94921248 -0.82108539 -0.38959445 0.43435858 -0.10950645 -0.094724996 -0.044945792 0.050110031 -0.33908187 -0.29331175 -0.13917265 0.15516349 -0.066925969 -0.057892133 -0.027469072 0.030625249 -0.2541222 -0.21982015 -0.10430183 0.11628604
-0.83000028 -0.53285342 0.41486529 0.37984718 -0.51164959 -0.32847487 0.25574167 0.23415493 -0.25318011 -0.16253957 0.12654892 0.11586713 -0.28725755 -0.18441701 0.14358211 0.13146257 -0.12012562 -0.077119671 0.060043294 0.054975136 -0.18287685 -0.11740545 0.091408713 0.083693051
-0.0088302568 0.014813952 -0.011555497 0.0040413445 -0.012956436 0.021736177 -0.016955119 0.0059297732 -2.0265836e-05 3.3998686e-05 -2.6520385e-05 9.2750671e-06 -0.01114448 0.018696375 -0.014583948 0.005100495 -1.1987125e-05 2.0110026e-05 -1.5686655e-05 5.4861486e-06 -2.1520166 3.6102994 -2.8161832 0.98491363
-0.67594389 -0.72754304 0.21341254 0.3101656 -0.67902569 -0.73086009 0.21438554 0.31157972 -0.24444776 -0.26310803 0.077178327 0.11216802 -0.30197296 -0.3250245 0.095340482 0.1385642 -0.12048772 -0.12968533 0.038041015 0.055287351 -0.15742198 -0.16943901 0.049702091 0.072235111
-0.75604667 -0.75651943 0.36925457 0.34762205 -0.56372842 -0.56408092 0.27532598 0.2591962 -0.29158067 -0.291763 0.14240853 0.13406562 -0.28512553 -0.28530382 0.13925583 0.13109762 -0.13274104 -0.13282404 0.064830965 0.061032889 -0.14568768 -0.14577878 0.071154127 0.066985612
-0.61740041 -0.26047212 -0.094399519 0.28469606 -0.64824118 -0.27348339 -0.099115022 0.29891737 -0.13229893 -0.055814968 -0.020228292 0.061005766 -0.3521892 -0.14858343 -0.053849156 0.1624017 -0.079847614 -0.03368653 -0.01220857 0.036819381 -0.33865267 -0.14287256 -0.051779442 0.15615973
-0.0098949247 0.015315929 -0.013607265 0.0045724104 -0.013705556 0.021214241 -0.018847554 0.0063332898 -7.6088426e-05 0.000117774 -0.00010463499 3.5160198e-05 -0.011901428 0.018421708 -0.01636656 0.0054996084 -5.5795643e-05 8.6363678e-05 -7.6728839e-05 2.5782973e-05 -2.1284162 3.294484 -2.9269473 0.98353375
-0.85907297 -0.67550594 0.57324826 0.39871206 -0.45273301 -0.35599285 0.30210287 0.21012198 -0.31063535 -0.24425868 0.20728294 0.14417176 -0.25838742 -0.2031751 0.17241858 0.1199225 -0.13278008 -0.10440758 0.088602425 0.061625752 -0.14101117 -0.11087985 0.094094924 0.065445956
-0.83972982 -0.44789102 0.43214865 0.39014557 -0.48436388 -0.25834766 0.24926731 0.22503955 -0.23720209 -0.1265177 0.12207088 0.11020609 -0.28306011 -0.15097723 0.14567072 0.13151212 -0.1150024 -0.06133942 0.059183476 0.053431085 -0.19299169 -0.10293697 0.099318967 0.089665572
-0.57436417 -0.67082948 0.08239986 0.26689165 -0.81879409 -0.95631177 0.11746645 0.38047168 -0.19104285 -0.22312878 0.027407531 0.088772494 -0.3032642 -0.35419787 0.043507114 0.14091875 -0.10146842 -0.11851019 0.014556938 0.047149656 -0.16311629 -0.19051191 0.02340111 0.075795769
-0.49602958 -0.36869241 -0.20055736 0.2305538 -0.83661359 -0.62184413 -0.33826414 0.38885673 -0.11138426 -0.082790492 -0.045035489 0.051771237 -0.35033553 -0.2603999 -0.14164956 0.16283543 -0.068932657 -0.051236758 -0.027871225 0.032039795 -0.28817437 -0.21419631 -0.11651622 0.13394301
-0.15259452 -0.26710585 -0.038784555 0.07093823 -1.7473147 -3.0585501 -0.44411047 0.8122927 -0.04352523 -0.076187818 -0.011062695 0.020234035 -0.12397316 -0.21700619 -0.031509938 0.057632716 -0.025688017 -0.044965046 -0.006529057 0.011941861 -0.057994373 -0.10151502 -0.01474028 0.026960459
-0.67796102 -0.24356805 0.028984913 0.31529845 -0.58606671 -0.21055359 0.025056149 0.27256128 -0.14959424 -0.053744059 0.0063956126 0.069571597 -0.33605016 -0.12073125 0.014367175 0.15628641 -0.087024384 -0.031264864 0.0037205593 0.040472316 -0.31352348 -0.11263819 0.01340409 0.14580996
-0.7312298 -0.28150002 0.1487561 0.34012745 -0.55334293 -0.21301928 0.11256808 0.25738437 -0.17165835 -0.066082959 0.034920933 0.07984592 -0.32138683 -0.12372362 0.065380612 0.14949129 -0.095163526 -0.036634905 0.019359379 0.044264782 -0.27708857 -0.10667021 0.056368894 0.1288862
-0.82723004 -0.75481752 0.54966284 0.38505008 -0.46359163 -0.42301062 0.30803898 0.21578761 -0.33069406 -0.30174638 0.2197336 0.15392789 -0.25796995 -0.23538826 0.1714112 0.12007706 -0.13834639 -0.12623608 0.091925903 0.064395979 -0.13053793 -0.11911114 0.086737478 0.06076138
-0.88281141 -0.5880281 0.59549446 0.41136956 -0.43713615 -0.29117016 0.29486723 0.20369526 -0.2901765 -0.19328243 0.19573659 0.13521549 -0.25742142 -0.17146474 0.17364187 0.11995239 -0.1274089 -0.084865254 0.085942812 0.059369581 -0.15107562 -0.10062932 0.10190704 0.070397723
-0.065764472 -0.12919567 -0.028471174 0.030680739 -1.9651898 -3.8606562 -0.85078248 0.91680925 -0.017846422 -0.035059666 -0.0077261865 0.0083257935 -0.057916885 -0.11377892 -0.025073747 0.027019647 -0.010101281 -0.019844177 -0.004373111 0.0047124955 -0.026691148 -0.052435316 -0.011555302 0.012452075
-0.72610573 -0.82105468 0.35595432 0.33899443 -0.56875563 -0.64312875 0.27881755 0.26553294 -0.29604366 -0.33475571 0.14512765 0.13821286 -0.28143477 -0.31823649 0.13796603 0.13139246 -0.13495373 -0.1526009 0.066157532 0.063005373 -0.13464648 -0.15225348 0.066006911 0.062861928
-0.38965094 -0.39429976 -0.23372906 0.18194979 -1.0636601 -1.0763503 -0.63802818 0.49668233 -0.089511183 -0.090579117 -0.053692582 0.041797772 -0.31744892 -0.32123632 -0.19041925 0.14823464 -0.056323024 -0.056994999 -0.033784925 0.026300367 -0.22493583 -0.22761948 -0.134926 0.1050351
-0.015825973 0.021040173 -0.015574011 0.007391101 -0.018303614 0.024334126 -0.018012206 0.0085482176 -0.00048612789 0.00064629295 -0.00047838833 0.00022703313 -0.016319372 0.021696133 -0.016059554 0.0076215298 -0.00042513822 0.00056520896 -0.00041836967 0.00019854953 -2.0898598 2.7784081 -2.0565875 0.97601357
-0.79556294 -0.82961556 0.52716503 0.37285255 -0.47179153 -0.49198571 0.31262391 0.2211122 -0.34529768 -0.36007752 0.2288051 0.16182895 -0.25727181 -0.26828386 0.1704764 0.12057431 -0.14285263 -0.14896718 0.09465865 0.066950038 -0.12094341 -0.12612017 0.080140909 0.05668195
-0.78348039 -0.31984863 0.28919952 0.36860472 -0.50586378 -0.20651422 0.18672524 0.23799419 -0.19458229 -0.079436425 0.071824525 0.091545306 -0.30049823 -0.12267563 0.11092038 0.14137567 -0.10248615 -0.041839023 0.037829849 0.048216749 -0.23861916 -0.09741407 0.088079483 0.11226337
-0.51457697 -0.32969897 -0.20276172 0.242212 -0.76078638 -0.48744989 -0.29977703 0.35810306 -0.11094283 -0.071083122 -0.043715441 0.052220924 -0.353458 -0.22646707 -0.13927509 0.16637311 -0.069402838 -0.044467681 -0.027347199 0.032667999 -0.31532298 -0.20203326 -0.12424853 0.14842291
-0.90477073 -0.73056085 0.75994026 0.42609729 -0.37993213 -0.30677776 0.31911479 0.17892715 -0.35824762 -0.28926851 0.30090141 0.16871494 -0.22750048 -0.1836962 0.19108352 0.10714023 -0.1377355 -0.1112151 0.1156876 0.064865851 -0.11520354 -0.093021577 0.096762427 0.054254539
-0.93816156 -0.64027012 0.79418542 0.44252695 -0.36970245 -0.25231201 0.3129656 0.17438712 -0.32848838 -0.22418451 0.2780765 0.15494662 -0.22773057 -0.15542001 0.19278161 0.10741957 -0.13274774 -0.090596771 0.11237544 0.062616561 -0.12317931 -0.084066578 0.10427544 0.058103174
-0.070265014 -0.13780345 -0.042405143 0.033153883 -1.9229733 -3.7713271 -1.16052 0.90733677 -0.018070859 -0.035440493 -0.010905817 0.0085265641 -0.066439547 -0.13030096 -0.040096462 0.031348873 -0.010487619 -0.020568275 -0.006329309 0.004948484 -0.031123699 -0.061039669 -0.018783244 0.014685423
-0.64103018 -0.77941021 0.20554396 0.30276118 -0.67832857 -0.82476025 0.21750355 0.32037736 -0.23994276 -0.29173952 0.07693676 0.11332595 -0.29359393 -0.35697244 0.094139809 0.13866562 -0.11964127 -0.14546839 0.038362531 0.056507062 -0.14474327 -0.17598919 0.046411396 0.06836284
-0.89676899 -0.49522912 0.61873551 0.42377984 -0.41710783 -0.23034243 0.28778808 0.19710973 -0.26795521 -0.14797481 0.18487861 0.12662572 -0.25389673 -0.1402112 0.17517881 0.1199822 -0.12119639 -0.066929142 0.083620764 0.057272927 -0.15919485 -0.087913304 0.10983822 0.075229595
-0.8660054 -0.81235284 0.72552447 0.40978044 -0.38615444 -0.3622306 0.32351356 0.18272234 -0.38310184 -0.35936713 0.32095615 0.1812779 -0.22733873 -0.21325417 0.19046049 0.10757319 -0.14415989 -0.1352286 0.12077469 0.068214245 -0.1065797 -0.099976656 0.089290646 0.050431876
-0.53181962 -0.29348897 -0.20154191 0.25166911 -0.70857851 -0.3910348 -0.26852764 0.33531543 -0.11128505 -0.06141356 -0.042173327 0.052662613 -0.35480653 -0.19580286 -0.13445985 0.1679025 -0.069897227 -0.038573352 -0.02648872 0.033076954 -0.33678306 -0.18585646 -0.12762955 0.15937339
-0.62157771 -0.20574067 -0.073563231 0.29414468 -0.59513335 -0.19698765 -0.070433561 0.28163061 -0.12827375 -0.042458291 -0.015181097 0.060702049 -0.34210157 -0.11323476 -0.04048745 0.16189022 -0.078350698 -0.025933885 -0.0092727432 0.037077328 -0.34773293 -0.11509873 -0.041153918 0.16455511
-0.54586128 -0.25731774 -0.19500779 0.25943237 -0.66797398 -0.31488138 -0.2386323 0.31746907 -0.11146763 -0.052545583 -0.039821577 0.052977402 -0.35305701 -0.16643026 -0.12612887 0.16779798 -0.070265296 -0.033122897 -0.025102129 0.033395101 -0.3554348 -0.16755114 -0.12697833 0.16892807
-0.76234777 -0.89725132 0.5072346 0.36263421 -0.47323068 -0.55697264 0.31486808 0.22510676 -0.35485592 -0.41765052 0.23610642 0.16879816 -0.25420808 -0.29919224 0.16913952 0.12092191 -0.1453051 -0.17101801 0.096679992 0.06911885 -0.11230245 -0.13217527 0.074721393 0.05342012
-0.98890881 -0.68617932 1.0050048 0.47105701 -0.31095992 -0.21576738 0.31602127 0.14812271 -0.36728626 -0.25485083 0.37326441 0.1749532 -0.19786115 -0.13729095 0.20108165 0.094249219 -0.13455368 -0.093363463 0.13674375 0.064093324 -0.099770172 -0.06922805 0.10139409 0.047524542
-0.82740311 -0.88628581 0.691638 0.39447109 -0.39062154 -0.41842038 0.32652608 0.18623196 -0.40529613 -0.4341393 0.33879278 0.19322819 -0.22633481 -0.24244207 0.18919647 0.10790694 -0.14878651 -0.159375 0.12437276 0.070935166 -0.099057906 -0.10610743 0.082803908 0.047226653
-0.94768038 -0.77912088 0.95874828 0.45212033 -0.31710313 -0.26070147 0.32080656 0.15128389 -0.40222379 -0.33068211 0.40692134 0.19189334 -0.1967921 -0.1617896 0.19909042 0.093885776 -0.13947973 -0.11467112 0.1411087 0.066543132 -0.092800874 -0.076294814 0.09388469 0.044273536
-0.9573586 -0.54044238 0.82525747 0.45684442 -0.35520532 -0.20051839 0.30619231 0.16950134 -0.30184476 -0.17039561 0.26019471 0.14403808 -0.22488681 -0.12695176 0.1938558 0.10731432 -0.12617324 -0.071226567 0.10876323 0.060208934 -0.13012127 -0.073455285 0.11216649 0.062092904
-0.83813923 -0.35908672 0.45384074 0.4009123 -0.44929879 -0.19249455 0.24328905 0.21491586 -0.21916933 -0.093899432 0.11867715 0.10483662 -0.2749522 -0.11779867 0.14888279 0.13151958 -0.10887201 -0.046644391 0.058952681 0.05207742 -0.20014843 -0.085750242 0.10837759 0.095738228
-0.41898388 -0.56830169 -0.012940442 0.20071757 -1.0573722 -1.4341993 -0.032657256 0.50654258 -0.12974254 -0.17598029 -0.004007137 0.062154197 -0.26792508 -0.36340844 -0.0082749462 0.12835165 -0.073937554 -0.10028748 -0.0022835835 0.035420375 -0.13946878 -0.18917278 -0.004307535 0.066813632
-0.42469658 -0.36555914 -0.25681789 0.20353619 -0.8991867 -0.77397825 -0.5437464 0.43093598 -0.092053297 -0.079235213 -0.055665468 0.044116619 -0.33956096 -0.29227834 -0.20533561 0.16273487 -0.059070208 -0.050844898 -0.035720293 0.028309447 -0.27202226 -0.23414416 -0.16449434 0.13036689
-0.0093064549 0.0156946 -0.013374682 0.0044632707 -0.013004613 0.021931252 -0.018689454 0.0062368657 -5.6901783e-05 9.5960358e-05 -8.1775847e-05 2.7289453e-05 -0.011292039 0.019043131 -0.016228245 0.0054155345 -3.9257977e-05 6.6205473e-05 -5.6419221e-05 1.8827682e-05 -2.0514207 3.4595589 -2.9481794 0.98383821
-0.55578938 -0.21765226 -0.18147255 0.2667294 -0.63019254 -0.24678922 -0.20576616 0.30243629 -0.1110944 -0.043505592 -0.036273782 0.053315415 -0.34817762 -0.13634957 -0.11368457 0.16709424 -0.070224769 -0.027500668 -0.022929311 0.033701634 -0.3682413 -0.14420669 -0.12023563 0.17672302
-0.69286049 -0.87885053 0.34524892 0.33276684 -0.5615158 -0.71224795 0.27980052 0.26968465 -0.29457616 -0.37365158 0.14678583 0.14147895 -0.27392794 -0.34746059 0.13649692 0.13156203 -0.13464723 -0.17079165 0.067094041 0.064668332 -0.12459239 -0.15803772 0.062083766 0.059839198
-1.0163831 -0.58225234 1.0476617 0.48827011 -0.30145105 -0.17269137 0.31072803 0.14481699 -0.33292843 -0.19072372 0.3431741 0.15993871 -0.19669035 -0.11267742 0.20274338 0.094489983 -0.12888394 -0.073833357 0.13285026 0.061915804 -0.10526317 -0.060301798 0.10850258 0.050568393
-0.89879534 -0.85852866 0.90896456 0.43181419 -0.31874715 -0.30446705 0.32235355 0.15313781 -0.4366982 -0.41713381 0.44163913 0.20980581 -0.19579768 -0.18702581 0.19801299 0.094068377 -0.14601794 -0.13947623 0.14767003 0.070152367 -0.085383686 -0.081558436 0.086349742 0.04102145
-1.0335048 -0.72704224 1.2266169 0.49776276 -0.26025449 -0.18308188 0.30888346 0.12534532 -0.39849599 -0.28033098 0.47295561 0.19192602 -0.16992266 -0.11953592 0.20167299 0.081839167 -0.13448725 -0.094608087 0.15961641 0.064772554 -0.079634791 -0.056020887 0.09451468 0.038354183
-0.0090759271 0.01668478 -0.010932976 0.0043827274 -0.012818676 0.023565283 -0.015441539 0.0061900852 -5.8022045e-05 0.00010666514 -6.9894088e-05 2.8018604e-05 -0.011094804 0.020396193 -0.01336494 0.0053576344 -4.5149391e-05 8.3000629e-05 -5.4387526e-05 2.1802453e-05 -2.0377474 3.7461041 -2.4546963 0.98401973
-0.98293677 -0.81937551 1.1651713 0.47551026 -0.2613113 -0.21782895 0.30975791 0.12641322 -0.44161086 -0.36812655 0.52348465 0.21363581 -0.16783342 -0.13990584 0.19894941 0.081191911 -0.13989593 -0.11661717 0.16583237 0.067676736 -0.073531707 -0.061295987 0.087164341 0.035572055
-0.78869799 -0.95258413 0.66248691 0.38186765 -0.39023644 -0.47132495 0.32778901 0.18894263 -0.41818738 -0.5050839 0.35126711 0.20247577 -0.22409823 -0.27066433 0.188237 0.1085027 -0.15209609 -0.18370063 0.12775697 0.073641084 -0.092053878 -0.11118206 0.077322994 0.044570163
-0.074821066 -0.15253358 -0.021008024 0.036229102 -1.865515 -3.8031225 -0.52379346 0.90330087 -0.021298525 -0.043420126 -0.005980133 0.010312957 -0.06341549 -0.12928166 -0.017805603 0.030706409 -0.012348806 -0.025174829 -0.0034672591 0.0059794144 -0.027821096 -0.056717333 -0.0078115202 0.013471251
-0.85229989 -0.92762871 0.86057116 0.41273802 -0.31950533 -0.34774417 0.32260602 0.15472488 -0.46787755 -0.50922997 0.47241813 0.22657618 -0.19461061 -0.21181088 0.19649924 0.094242885 -0.15146267 -0.1648494 0.15293257 0.073347897 -0.079233939 -0.086236872 0.080002876 0.038370132
-1.067272 -0.61938553 1.2799842 0.51684373 -0.25443944 -0.14766256 0.30515039 0.12321642 -0.35963603 -0.20871283 0.43131314 0.17415957 -0.17001939 -0.098669837 0.20390504 0.082334644 -0.12895538 -0.074838559 0.15465678 0.062448731 -0.084657778 -0.049130685 0.10153046 0.0409969
-0.01678672 0.02276788 -0.018592352 0.0081353081 -0.018823553 0.025530442 -0.020848272 0.0091224134 -0.00057611246 0.0007813831 -0.00063808091 0.00027920001 -0.016883777 0.022899518 -0.018699848 0.0081823444 -0.0005062087 0.00068657241 -0.00056065808 0.00024532271 -2.0098636 2.7259842 -2.2260508 0.97403541
-0.21389351 -0.32362534 -0.16767672 0.10366925 -1.4593236 -2.207987 -1.1440019 0.70730048 -0.051962057 -0.078619675 -0.040734416 0.025184811 -0.19607842 -0.29667073 -0.153711 0.095034687 -0.032454965 -0.049105038 -0.025442296 0.015730173 -0.10951748 -0.16570223 -0.085853619 0.053080597
-0.89569625 -0.39786153 0.64316774 0.43513141 -0.38909215 -0.17283181 0.27939329 0.18902191 -0.24616968 -0.10934672 0.17676572 0.11958983 -0.24698927 -0.10971078 0.17735424 0.11998799 -0.11460815 -0.050908079 0.082296054 0.055676919 -0.16589449 -0.073689086 0.11912296 0.080591947
-0.12755824 -0.22733148 -0.10067727 0.062089356 -1.6943845 -3.0196949 -1.3373186 0.82474677 -0.031785291 -0.056647048 -0.025087023 0.015471586 -0.12069711 -0.21510374 -0.095262024 0.058749684 -0.019168172 -0.034161095 -0.01512877 0.0093301656 -0.060836672 -0.10842178 -0.048016265 0.029612434
-0.0093166633 0.017130788 -0.010531884 0.0045389792 -0.012960806 0.023831367 -0.014651352 0.0063143668 -7.2015898e-05 0.00013241748 -8.1409306e-05 3.5085379e-05 -0.01123944 0.020666248 -0.012705459 0.0054757358 -5.5458436e-05 0.00010197285 -6.2692168e-05 2.701876e-05 -2.0189456 3.7122872 -2.2822872 0.98360881
-0.9267639 -0.89632023 1.1006031 0.45222334 -0.26125535 -0.25267325 0.31026072 0.12748205 -0.48478255 -0.46885771 0.57571639 0.2365543 -0.16498735 -0.15956761 0.19593511 0.080507161 -0.14446322 -0.13971768 0.17156113 0.070492213 -0.067097634 -0.064893514 0.079683576 0.032740934
-0.72699819 -0.95738091 0.49190631 0.35540823 -0.46436736 -0.61152346 0.31420331 0.22701567 -0.35388199 -0.46602572 0.23944596 0.17300259 -0.24925902 -0.32824817 0.16865528 0.12185547 -0.14648041 -0.19289945 0.099112542 0.071610004 -0.10454304 -0.13767229 0.0707366 0.051108044
-0.6698627 -0.16785968 0.059830339 0.32765255 -0.51636464 -0.12939488 0.046120303 0.25257144 -0.13959251 -0.034980234 0.012468028 0.068279428 -0.3173979 -0.079536163 0.028349128 0.15525007 -0.083113872 -0.020827354 0.0074235079 0.040653812 -0.31809838 -0.079711695 0.028411693 0.1555927
-1.064927 -0.76113048 1.4526119 0.52120801 -0.21565101 -0.15413128 0.29415841 0.10554623 -0.42327173 -0.3025231 0.57736311 0.2071622 -0.14379647 -0.102775 0.19614534 0.070378411 -0.13268863 -0.094835948 0.18099371 0.064941895 -0.06285518 -0.0449242 0.085737507 0.030763258
-0.71818872 -0.19963982 0.17798796 0.35153117 -0.49276741 -0.13697792 0.12212204 0.24119441 -0.15764218 -0.043820872 0.039068297 0.07716097 -0.30454019 -0.084655115 0.075473878 0.149063 -0.089691237 -0.024932086 0.022228086 0.043901087 -0.28020026 -0.077889181 0.06944174 0.13714936
-0.96045046 -0.43572848 0.85637956 0.47022818 -0.3354766 -0.15219599 0.29912558 0.16424642 -0.27368729 -0.12416398 0.24403154 0.13399492 -0.21946238 -0.099563706 0.19568223 0.10744687 -0.11912085 -0.05404167 0.10621335 0.05832053 -0.13432242 -0.060938182 0.11976774 0.065763088
-0.51585382 -0.69640431 0.080610683 0.2529923 -0.83142474 -1.1224261 0.12992385 0.40775903 -0.17656143 -0.2383585 0.027590641 0.086591745 -0.27892062 -0.37654372 0.043585955 0.13679218 -0.094698348 -0.12784307 0.014798181 0.046443297 -0.14155103 -0.19109435 0.022119688 0.069421452
-0.56315839 -0.17027012 -0.15954704 0.27623271 -0.57971896 -0.17527718 -0.16423878 0.28435577 -0.1094013 -0.033077324 -0.030994218 0.053662022 -0.33853028 -0.10235414 -0.095908196 0.16605122 -0.069689168 -0.021070418 -0.01974347 0.034182972 -0.3782119 -0.11435182 -0.1071503 0.1855153
-1.1059224 -0.65277192 1.5193767 0.54303986 -0.21387407 -0.12623941 0.29383189 0.10501835 -0.37756385 -0.22285748 0.51871786 0.18539476 -0.14520556 -0.085707744 0.19949134 0.071300127 -0.1265589 -0.074701529 0.17387353 0.062144076 -0.06741523 -0.039791914 0.092618729 0.033102826
-0.87076726 -0.95566589 1.0327337 0.42791649 -0.2585832 -0.28379472 0.30668077 0.12707416 -0.53104181 -0.58281766 0.62981783 0.26096703 -0.16305835 -0.17895632 0.19338789 0.08013089 -0.14974452 -0.16434441 0.17759763 0.073588146 -0.061704861 -0.067721001 0.073182225 0.030323289
-0.44738704 -0.32841199 -0.27120745 0.21994132 -0.78494029 -0.57619862 -0.4758333 0.38588691 -0.093074104 -0.068322612 -0.056421817 0.045756447 -0.34326211 -0.25197733 -0.20808658 0.16875214 -0.060133435 -0.044141959 -0.036453079 0.029562383 -0.30532301 -0.22412749 -0.18508778 0.15010079
-1.0229505 -0.47021389 1.0860846 0.50310111 -0.28729305 -0.13205838 0.30502412 0.14129467 -0.30000802 -0.137903 0.31852383 0.14754807 -0.19234272 -0.088413097 0.20421367 0.094596795 -0.12122541 -0.055723005 0.12870717 0.059620326 -0.10947035 -0.05031962 0.11622661 0.053839023
-0.80758727 -0.99034226 0.81975399 0.39721574 -0.31623129 -0.38779364 0.32099548 0.1555399 -0.48846139 -0.59899899 0.49582031 0.24025212 -0.19247831 -0.23603567 0.1953781 0.094671397 -0.15474779 -0.18976683 0.15707914 0.076113455 -0.073613954 -0.090272609 0.074722986 0.036207383
-1.0067659 -0.85117301 1.3752871 0.49572401 -0.21422824 -0.18111985 0.29264533 0.10548438 -0.47403944 -0.40077795 0.64755902 0.23341348 -0.14088211 -0.11910916 0.19245124 0.069369298 -0.13759219 -0.1163277 0.18795707 0.067749368 -0.057392126 -0.048522331 0.078400204 0.028259454
-0.30016988 -0.38159866 -0.23517794 0.14783999 -1.1792505 -1.4991525 -0.9239225 0.58080571 -0.069881453 -0.088838591 -0.054750917 0.034418088 -0.26695773 -0.33937688 -0.2091568 0.13148231 -0.044727079 -0.056860448 -0.035042898 0.022029029 -0.16938336 -0.21533295 -0.13270895 0.083424874
-0.2649277 -0.4351242 -0.023812391 0.13057186 -1.348225 -2.21436 -0.12118197 0.6644841 -0.07957356 -0.1306937 -0.0071522786 0.039218504 -0.1959446 -0.32182456 -0.01761201 0.096572958 -0.047596317 -0.07817344 -0.0042780807 0.023458248 -0.092712871 -0.15227405 -0.008333274 0.045694325
-0.76877194 -0.23287099 0.31766269 0.38013981 -0.45262754 -0.13710675 0.1870293 0.22381377 -0.17836665 -0.054029571 0.073702522 0.088198152 -0.28494107 -0.086312344 0.11773992 0.14089672 -0.096392196 -0.029198446 0.039830024 0.047663695 -0.24124061 -0.073074907 0.099682541 0.11928786
-0.01536112 0.021668568 -0.019219386 0.0075969554 -0.017597 0.024822526 -0.022016854 0.0087027266 -0.00048554007 0.00068490827 -0.00060749359 0.00024012743 -0.015737482 0.022199469 -0.019690279 0.0077830883 -0.00042261176 0.00059614089 -0.00052875952 0.00020900577 -1.9724062 2.7822984 -2.4678172 0.9754681
-1.0795537 -0.50229871 1.3290019 0.53410464 -0.24417202 -0.11360926 0.30059189 0.12080308 -0.32072019 -0.14922587 0.39482775 0.15867497 -0.16714143 -0.077768179 0.20576214 0.082692518 -0.12206984 -0.056797107 0.15027604 0.060393542 -0.087582861 -0.040750876 0.10782029 0.043331252
-0.6174413 -0.13653678 -0.041020826 0.30631759 -0.52549664 -0.11620476 -0.034912317 0.2607031 -0.12120273 -0.026801948 -0.0080523218 0.060129647 -0.32291344 -0.071406885 -0.021453337 0.16019995 -0.075260308 -0.016642554 -0.0050000543 0.037337243 -0.35337559 -0.078143078 -0.023477144 0.17531247
-0.93950612 -0.91827882 1.2874658 0.46653397 -0.21109349 -0.20632402 0.28927502 0.10482346 -0.5327928 -0.52075483 0.73012033 0.26457086 -0.1370798 -0.13398261 0.18784929 0.068070216 -0.14128031 -0.13808821 0.19360552 0.07015608 -0.052047477 -0.050871511 0.071324013 0.025845405
-0.59676127 -0.82153839 0.19952265 0.29656713 -0.65970198 -0.90818646 0.22056641 0.32784621 -0.23031274 -0.31706273 0.077003335 0.11445647 -0.27855811 -0.38348029 0.093133815 0.13843254 -0.11588364 -0.15953257 0.038744825 0.057589659 -0.13101226 -0.18035957 0.043802967 0.065107996
-0.0099336433 0.016491652 -0.015061136 0.0049452603 -0.013247139 0.021992657 -0.020084974 0.0065948162 -0.00010978544 0.00018226376 -0.00016645388 5.4654426e-05 -0.011603926 0.019264625 -0.017593577 0.0057767763 -8.3576429e-05 0.00013875205 -0.00012671645 4.1606809e-05 -1.9737419 3.2767701 -2.9925371 0.98258689
-0.81490818 -1.0070276 0.97058405 0.40596622 -0.25181446 -0.31118122 0.2999198 0.12544746 -0.57248681 -0.70745399 0.68185175 0.28519815 -0.15915911 -0.19668182 0.18956405 0.079288963 -0.1524243 -0.18835924 0.18154266 0.075933853 -0.056537132 -0.069866098 0.067337695 0.02816534
-0.74887373 -1.0124523 0.64123274 0.37323505 -0.38099847 -0.51509724 0.32623483 0.1898878 -0.41773923 -0.56476951 0.35769458 0.20819921 -0.21998346 -0.2974103 0.18836366 0.10963869 -0.15282098 -0.20660888 0.13085493 0.076165239 -0.086024126 -0.11630175 0.073659262 0.042874009
-0.88010717 -0.96972456 1.2034116 0.43874175 -0.20602172 -0.227 0.28170311 0.10270378 -0.59363793 -0.65408543 0.81170882 0.29593412 -0.13325577 -0.14682461 0.18220683 0.066429261 -0.14602435 -0.16089336 0.19966591 0.072794521 -0.046933053 -0.051712037 0.064173752 0.023396571
-0.01288943 0.019172499 -0.017872058 0.0064375048 -0.01558352 0.023179847 -0.021607595 0.0077830429 -0.00031238788 0.00046466418 -0.00043314674 0.0001560192 -0.013834654 0.020578482 -0.019182676 0.0069095885 -0.00026521383 0.00039449471 -0.00036773675 0.00013245856 -1.9593548 2.91446 -2.7167768 0.97858139
-0.0090365707 0.017029 -0.012078864 0.0045132531 -0.01256287 0.023674149 -0.016792344 0.0062744391 -6.6996966e-05 0.00012625269 -8.9552474e-05 3.3461174e-05 -0.010919706 0.020577682 -0.014595985 0.0054537722 -5.255858e-05 9.9044218e-05 -7.0253195e-05 2.6250021e-05 -1.9695913 3.7116039 -2.632683 0.98369882
-0.59827499 -0.90195371 1.0255518 0.29935602 -0.093666211 -0.14121029 0.16056087 0.046867318 -1.1140238 -1.6794917 1.9096388 0.5574188 -0.062245666 -0.093840978 0.10670036 0.031145569 -0.11770326 -0.17744832 0.20176473 0.058894624 -0.012626108 -0.019035001 0.021643439 0.0063176658
-1.120745 -0.5310575 1.5755255 0.56125646 -0.20682488 -0.098002584 0.29075113 0.10357557 -0.33543861 -0.15894534 0.47155427 0.16798388 -0.14371218 -0.068097053 0.2020283 0.071969441 -0.12006818 -0.056893504 0.16878994 0.060128794 -0.070061179 -0.03319802 0.098490892 0.03508585
-0.46072874 -0.28869122 -0.2766165 0.23100657 -0.70435736 -0.44134816 -0.42288847 0.35316047 -0.092336876 -0.057858004 -0.055438052 0.046297144 -0.3438626 -0.21546325 -0.20645135 0.1724106 -0.060513482 -0.037917563 -0.036331634 0.030341089 -0.33264095 -0.2084318 -0.19971399 0.16678413
-0.42273696 -0.73052554 0.72992546 0.21204278 -0.065277258 -0.11280467 0.11271201 0.032742751 -1.368895 -2.3655673 2.3636241 0.68663097 -0.042512019 -0.073464396 0.073404049 0.021323819 -0.087308175 -0.15087598 0.15075204 0.043793351 -0.0069106135 -0.01194213 0.01193232 0.0034663297
-0.82042479 -0.2660545 0.48116293 0.41160568 -0.40718782 -0.13204642 0.23880761 0.20428541 -0.19839005 -0.064335656 0.11635185 0.099531943 -0.26240331 -0.085094434 0.15389436 0.13164728 -0.10239827 -0.033206605 0.060054564 0.051373035 -0.20242574 -0.065644385 0.1187187 0.10155664
-1.0798344 -0.78993424 1.6812227 0.54200121 -0.17965858 -0.13142613 0.27971518 0.090176017 -0.43260736 -0.31646645 0.67353781 0.21713858 -0.121491 -0.088874646 0.18915255 0.060979969 -0.12921838 -0.094527474 0.2011835 0.06485857 -0.049500255 -0.036211057 0.077068253 0.024845659
-0.81398467 -1.0055993 1.1140929 0.40903958 -0.19679495 -0.24312111 0.26935134 0.098892433 -0.66302671 -0.81910531 0.90747822 0.33318092 -0.12756826 -0.15759823 0.17460143 0.064104973 -0.14693965 -0.18152972 0.20111488 0.073839393 -0.041675763 -0.05148637 0.057041212 0.0209427
-0.010975928 0.017363809 -0.016331179 0.0055170666 -0.014021261 0.022181495 -0.020862357 0.0070478079 -0.00018478717 0.00029233146 -0.00027494644 9.2883546e-05 -0.012356872 0.019548448 -0.018385897 0.0062112 -0.00015007872 0.00023742304 -0.00022330344 7.5437294e-05 -1.9517611 3.0876665 -2.9040423 0.9810556
-1.1235362 -0.68120962 1.7576025 0.56540364 -0.17931037 -0.10871741 0.28050396 0.090235399 -0.38467025 -0.23322887 0.60175843 0.19357984 -0.12327656 -0.074743634 0.19284753 0.062037179 -0.12253946 -0.074296722 0.19169445 0.061666242 -0.053807171 -0.032623749 0.084173181 0.027077695
-0.65132642 -0.92436939 0.33623119 0.32784172 -0.54048292 -0.76705912 0.27901097 0.27204923 -0.28478226 -0.40416602 0.14701181 0.14334365 -0.26334518 -0.37374229 0.13594545 0.13255341 -0.13258676 -0.18816854 0.068444642 0.066736846 -0.11418646 -0.16205463 0.058945939 0.05747515
-0.72115936 -0.97102585 1.2409196 0.36340516 -0.11430423 -0.15390823 0.19668656 0.057599954 -0.9230038 -1.2428051 1.5882391 0.46511819 -0.076010796 -0.10234693 0.13079396 0.038303206 -0.13196459 -0.17768753 0.22707525 0.066499326 -0.018007224 -0.024246347 0.030985547 0.0090741639
-0.06556221 -0.13590506 -0.051925329 0.033054299 -1.7971077 -3.7252564 -1.4233109 0.90604231 -0.016228165 -0.03363965 -0.012852721 0.0081817042 -0.064376466 -0.13344711 -0.050986218 0.032456486 -0.0094228255 -0.019532741 -0.0074628861 0.0047506771 -0.030772596 -0.063789058 -0.024371924 0.015514526
-0.8127513 -0.9953395 1.2582319 0.40984086 -0.1560967 -0.19116452 0.24165554 0.078713876 -0.73971292 -0.90589273 1.1451602 0.37301026 -0.10259072 -0.12563818 0.15882216 0.051732759 -0.14155347 -0.17335408 0.21914095 0.071380253 -0.03038489 -0.037210991 0.047039283 0.015321992
-1.0189203 -0.87795281 1.5905893 0.51412323 -0.17564083 -0.15134095 0.27418478 0.088624236 -0.49114917 -0.42319877 0.76671026 0.24782234 -0.1175317 -0.10127121 0.1834733 0.059303736 -0.13403886 -0.1154946 0.20924186 0.067632858 -0.044579181 -0.038411659 0.069590499 0.022493608
-0.47240915 -0.252431 -0.27557817 0.23885225 -0.65514766 -0.35007701 -0.38217803 0.33124569 -0.092250687 -0.049293993 -0.053814106 0.046642374 -0.34264856 -0.18309366 -0.1998828 0.1732447 -0.060779474 -0.032477406 -0.035455487 0.030730383 -0.35459447 -0.18947694 -0.20685141 0.17928461
-0.88601899 -0.97899378 1.3794375 0.44817924 -0.16383086 -0.18102252 0.25506724 0.082871351 -0.64232058 -0.70972277 1.0000249 0.32490811 -0.10818105 -0.11953308 0.16842641 0.054721742 -0.14172993 -0.15660242 0.22065844 0.071691931 -0.034848581 -0.038505432 0.054255539 0.017627625
-0.35504657 -0.38233324 -0.28269169 0.17964762 -0.96162851 -1.0355333 -0.76565842 0.48656792 -0.078109372 -0.084112374 -0.062191477 0.039522034 -0.30667818 -0.33024756 -0.24418029 0.15517402 -0.050901862 -0.054813864 -0.040528581 0.02575549 -0.22398551 -0.24119964 -0.17833954 0.11333291
-0.7223253 -0.98973263 1.1195373 0.36576026 -0.14239912 -0.19511577 0.22070544 0.072105932 -0.85502997 -1.171565 1.3252172 0.43295726 -0.093453186 -0.12804988 0.14484378 0.047321423 -0.13620053 -0.18662244 0.2110982 0.068967182 -0.025451894 -0.034874273 0.039448077 0.012887949
-0.14752513 -0.28491723 -0.017058773 0.074732975 -1.587833 -3.0666027 -0.18360588 0.80436113 -0.043585781 -0.08417779 -0.0050399544 0.022079594 -0.11689222 -0.22575548 -0.013516597 0.059215017 -0.025999913 -0.050213972 -0.0030064478 0.013170982 -0.05219395 -0.10080286 -0.0060353427 0.026440302
-0.75549752 -1.0409318 0.78309399 0.38307154 -0.3058729 -0.42143463 0.31704568 0.15509144 -0.50227137 -0.69203435 0.52061811 0.25467438 -0.18652872 -0.25700108 0.19334216 0.09457853 -0.1541087 -0.21233245 0.15973791 0.078140105 -0.067930798 -0.09359571 0.070412144 0.034443998
-0.95071605 -0.94101359 1.4878815 0.4822298 -0.16995651 -0.16822203 0.26598388 0.0862067 -0.56073171 -0.55500921 0.87755153 0.28441883 -0.11253913 -0.11139062 0.17612503 0.057082999 -0.1381129 -0.1367034 0.21614826 0.070054728 -0.039443698 -0.039041158 0.061729838 0.020006948
-0.48418062 -0.218589 -0.26847483 0.24573455 -0.61916855 -0.27953087 -0.34332471 0.31424452 -0.092592933 -0.041802161 -0.051342146 0.046993378 -0.3400686 -0.15352794 -0.1885657 0.17259387 -0.061163628 -0.027613034 -0.033914812 0.031042169 -0.37316566 -0.16847 -0.2069178 0.18939151
-0.022059997 -0.051456996 -0.010382373 0.011210601 -1.9074295 -4.4492569 -0.8977175 0.96933068 -0.0059321668 -0.013837331 -0.0027919301 0.0030146494 -0.020004506 -0.046662372 -0.0094149718 0.010166028 -0.0033441766 -0.0078006032 -0.0015739118 0.0016994667 -0.0090096188 -0.021015774 -0.00424031 0.0045785702
-0.87889042 -0.2991338 0.67250726 0.44691995 -0.35637791 -0.12129462 0.2726924 0.18121986 -0.22067186 -0.075106534 0.16885317 0.11221269 -0.23638875 -0.080455838 0.18087938 0.1202048 -0.10714568 -0.036467454 0.081985477 0.054484088 -0.16707536 -0.056864755 0.12784233 0.084958615
-0.41361545 -0.71915667 0.79654142 0.21051918 -0.055012885 -0.095651367 0.10594392 0.028000084 -1.3709642 -2.383707 2.6402054 0.69778403 -0.035862254 -0.062354003 0.069063596 0.018252926 -0.084560938 -0.14702682 0.16284761 0.043039251 -0.0047242794 -0.0082141444 0.0090980261 0.0024045316
-0.58588399 -0.89063019 1.1227553 0.29880301 -0.078826857 -0.11982847 0.15105938 0.040201991 -1.1215978 -1.7049943 2.1493673 0.57201904 -0.052346689 -0.079574699 0.10031427 0.026697006 -0.1129877 -0.171758 0.21652332 0.05762415 -0.009126988 -0.01387437 0.01749045 0.0046547979
-0.81622278 -0.9981056 1.4195184 0.41664639 -0.12666933 -0.15489566 0.22029457 0.064659208 -0.77094119 -0.94273369 1.3407678 0.3935321 -0.0845412 -0.10337992 0.14702823 0.043154623 -0.13833311 -0.16915854 0.24057942 0.070613065 -0.022322389 -0.027296594 0.038821561 0.011394613
-0.49512761 -0.18274937 -0.25394888 0.25287416 -0.58560547 -0.21614435 -0.30035459 0.29908349 -0.09311013 -0.034366531 -0.047755796 0.047553693 -0.33539801 -0.1237939 -0.17202423 0.17129622 -0.061576655 -0.022727666 -0.031582408 0.031448751 -0.38718213 -0.14290718 -0.19858409 0.19774368
-0.56178376 -0.10652337 -0.12468223 0.28727366 -0.51465412 -0.097586824 -0.11422228 0.26317346 -0.10479346 -0.019870552 -0.02325785 0.053587171 -0.32034771 -0.060743155 -0.071097936 0.16381296 -0.067529441 -0.012804685 -0.014987477 0.034531845 -0.38646151 -0.073279413 -0.085771228 0.19762091
-0.60434709 -0.94132001 0.9462216 0.30905307 -0.11557309 -0.18001453 0.18095189 0.059102158 -1.0170479 -1.5841352 1.592384 0.52010139 -0.076664594 -0.11941137 0.12003317 0.039205 -0.12368936 -0.1926563 0.19365949 0.063252687 -0.018157991 -0.028282556 0.028429827 0.0092856951
-0.68729095 -1.0086496 0.48219269 0.3515267 -0.44361964 -0.65104421 0.31123668 0.22689685 -0.34166318 -0.50141566 0.2397056 0.17474947 -0.24089669 -0.35353348 0.16900939 0.12321073 -0.14470755 -0.21236889 0.10152458 0.074013151 -0.096981979 -0.14232813 0.068041055 0.049603091
-0.24742018 -0.49430709 0.43816851 0.12666649 -0.035886375 -0.071695404 0.063552939 0.01837199 -1.59252 -3.1816077 2.8202717 0.81528885 -0.022828162 -0.045607123 0.04042751 0.011686852 -0.051992798 -0.10387353 0.09207659 0.026617655 -0.002672464 -0.0053391681 0.0047327974 0.001368165
-0.94303432 -0.32902225 0.88905477 0.48282245 -0.30893465 -0.10778651 0.29125114 0.1581709 -0.2431249 -0.084825653 0.22920836 0.12447708 -0.21024333 -0.073353357 0.19820894 0.1076421 -0.11138523 -0.038862019 0.1050095 0.057027922 -0.13644758 -0.047606212 0.12863729 0.069859554
-1.1404185 -0.55773404 1.8198837 0.5846471 -0.17485138 -0.085512968 0.27902843 0.089639335 -0.34051702 -0.16653355 0.54339821 0.1745695 -0.12265857 -0.059987508 0.19573897 0.062882162 -0.11608386 -0.05677207 0.18524701 0.059511566 -0.056080677 -0.027426864 0.089493734 0.028750328
-0.031651395 -0.07329812 -0.020427866 0.016228821 -1.8604931 -4.3085193 -1.2007656 0.95394247 -0.0079925724 -0.018509154 -0.0051584204 0.0040980826 -0.031531014 -0.073019343 -0.020350172 0.016167098 -0.0045731104 -0.010590383 -0.0029514936 0.0023448 -0.014078821 -0.032603655 -0.0090864964 0.0072187238
-0.74986319 -1.0487272 0.91032295 0.38450973 -0.24012275 -0.33582561 0.29150551 0.12312851 -0.60684915 -0.84871378 0.73670599 0.31117597 -0.15191437 -0.21246108 0.18442183 0.077897617 -0.15047026 -0.21044139 0.18266869 0.077157112 -0.05096028 -0.071270911 0.061865035 0.026131065
-0.72711481 -1.0182384 1.0082481 0.37318751 -0.18134044 -0.25394587 0.25145433 0.093071944 -0.74550212 -1.0439876 1.0337448 0.38262469 -0.11753896 -0.16459943 0.1629845 0.060326199 -0.14124418 -0.19779579 0.19585516 0.072492768 -0.035649486 -0.049922893 0.049433085 0.018296894
-1.0065918 -0.35564966 1.1255733 0.51758112 -0.26730931 -0.094445897 0.2989059 0.13744822 -0.26393944 -0.093255256 0.29513772 0.13571547 -0.18478966 -0.065290002 0.20663224 0.095017307 -0.11174044 -0.039480206 0.12494843 0.057456007 -0.11042938 -0.03901698 0.12348239 0.056781869
-0.01824216 0.011005689 -0.036678266 0.0094011883 -0.019865986 0.011985361 -0.039943182 0.010238035 -0.0009847563 0.00059411395 -0.0019799823 0.00050749908 -0.017478506 0.010544969 -0.03514284 0.0090076357 -0.00085857693 0.0005179886 -0.0017262821 0.00044247192 -1.88298 1.1360219 -3.7859794 0.97040317
-1.0629805 -0.37980336 1.3749552 0.54986111 -0.22830469 -0.081573357 0.29530995 0.118098 -0.27981778 -0.099979006 0.36194164 0.14474481 -0.16056323 -0.057369306 0.20768701 0.083056532 -0.11258991 -0.040228421 0.14563398 0.05824078 -0.088923899 -0.031772545 0.11502222 0.045998768
-0.71172163 -0.97210148 1.3751889 0.36838212 -0.095478395 -0.1304087 0.1844834 0.049418948 -0.91865468 -1.25474 1.775025 0.47548922 -0.06415863 -0.087630749 0.12396734 0.033208057 -0.1286725 -0.1757467 0.24862106 0.066599982 -0.013334168 -0.018212407 0.025764285 0.0069016716
-0.88215699 -0.98589822 1.5545324 0.45709037 -0.13358109 -0.14929016 0.23539589 0.069215153 -0.66113301 -0.73888193 1.1650451 0.34256661 -0.089576139 -0.10011025 0.1578506 0.04641395 -0.13736037 -0.15351388 0.24205571 0.071173388 -0.026132398 -0.029205555 0.046050373 0.013540524
-0.24691036 -0.49562963 0.48601663 0.12801972 -0.030666074 -0.061556815 0.060362888 0.01589995 -1.5792357 -3.1700412 3.1085566 0.81881261 -0.019306593 -0.038754631 0.038002964 0.010010211 -0.051003394 -0.10238045 0.10039473 0.026444578 -0.0015678918 -0.0031472704 0.0030862274 0.00081293097
-0.42332147 -0.76349529 0.67707416 0.21954913 -0.0798756 -0.14406225 0.12775564 0.041426245 -1.2679392 -2.2868332 2.0279833 0.65759705 -0.052901067 -0.09541145 0.084611691 0.02743632 -0.093685166 -0.16896895 0.14984311 0.048588363 -0.010417532 -0.01878888 0.01666214 0.0054028918
-0.50463472 -0.13913328 -0.23031549 0.26189893 -0.54235262 -0.14953252 -0.24752996 0.28147404 -0.093117333 -0.025673462 -0.042498789 0.048326699 -0.32526913 -0.08968024 -0.14845297 0.1688105 -0.061588134 -0.016980519 -0.02810885 0.03196345 -0.39986806 -0.11024797 -0.18249994 0.20752638
-0.023677442 0.011527038 -0.045490835 0.012296648 -0.024803 0.012075 -0.047653339 0.012881196 -0.0014574377 0.00070953354 -0.0028001359 0.00075690601 -0.022176286 0.01079622 -0.042606704 0.011517037 -0.0012945534 0.00063023558 -0.0024871908 0.00067231368 -1.8521113 0.90167497 -3.5584118 0.9618759
-0.011458529 0.020999823 -0.012134806 0.0059678593 -0.014235448 0.02608903 -0.015075619 0.0074141416 -0.00022930618 0.00042024498 -0.00024283974 0.00011942781 -0.012575885 0.023047581 -0.013318109 0.0065498038 -0.00019409099 0.00035570679 -0.00020554617 0.00010108695 -1.8813467 3.4479076 -1.9923831 0.97984768
-0.027440904 0.019720481 -0.050045421 0.014305027 -0.027977798 0.020106321 -0.051024582 0.014584911 -0.0017087911 0.0012280274 -0.0031164122 0.00089079799 -0.025129113 0.018059106 -0.045829286 0.013099883 -0.0015048434 0.0010814598 -0.0027444621 0.00078447944 -1.8345086 1.3183746 -3.3456898 0.9563349
-1.0780447 -0.81564311 1.9144705 0.56291235 -0.14636355 -0.11073792 0.25992309 0.076425265 -0.42710681 -0.32314683 0.75848748 0.2230183 -0.10087221 -0.076319398 0.17913624 0.052671483 -0.12471321 -0.094357377 0.22147483 0.065120311 -0.038019503 -0.028765362 0.067517811 0.019852282
-0.3830896 -0.35101431 -0.312174 0.20020779 -0.80509758 -0.73768845 -0.65606201 0.42075485 -0.079548573 -0.072888137 -0.064822945 0.041573157 -0.32391961 -0.2967985 -0.26395726 0.16928476 -0.05291379 -0.048483429 -0.043118658 0.02765346 -0.26889085 -0.24637718 -0.21911514 0.14052598
-0.010134264 0.019544031 -0.011451671 0.0052995158 -0.013171844 0.025402034 -0.014884121 0.0068879588 -0.0001425153 0.0002748422 -0.00016104161 7.4525595e-05 -0.011562487 0.022298374 -0.013065556 0.0060463772 -0.0001157214 0.00022316989 -0.00013076463 6.0514249e-05 -1.8771732 3.6201475 -2.1211968 0.98163111
-0.70069999 -1.0593436 0.62570149 0.36681254 -0.3620972 -0.54743166 0.32334061 0.18955587 -0.40747992 -0.61604289 0.36386585 0.21331347 -0.21082867 -0.31873842 0.1882629 0.11036763 -0.14979887 -0.22647136 0.13376535 0.078418876 -0.079335355 -0.11994206 0.0708438 0.041531616
-1.1256009 -0.70904187 2.0045992 0.58926738 -0.14729814 -0.092786484 0.26232543 0.077112581 -0.37530878 -0.23641563 0.66839295 0.19647925 -0.10264136 -0.064656155 0.18279552 0.053734152 -0.11786991 -0.074248964 0.20991626 0.061706501 -0.04145094 -0.0261109 0.073820591 0.021700131
-1.1048661 -0.40294312 1.628269 0.57846088 -0.19499013 -0.07111263 0.28736188 0.10208854 -0.28947994 -0.10557293 0.4266139 0.15155938 -0.13883307 -0.050632229 0.20460181 0.072687092 -0.11087587 -0.040436276 0.16340057 0.05804989 -0.070964919 -0.025880807 0.10458279 0.037154213
-1.0154178 -0.90041054 1.8071805 0.53172699 -0.14285684 -0.12667674 0.25424817 0.074807476 -0.49025075 -0.43472446 0.87251931 0.25672148 -0.097350029 -0.086324067 0.17325783 0.050977676 -0.12988087 -0.11517043 0.23115429 0.068012561 -0.033903743 -0.030063771 0.060339877 0.017753811
-0.94627398 -0.95703312 1.6838672 0.49558449 -0.13909762 -0.14067916 0.24752021 0.072848483 -0.56537536 -0.57180369 1.0060691 0.29609951 -0.093905481 -0.094973187 0.16710209 0.049180365 -0.13475076 -0.13628287 0.23978508 0.070571933 -0.030006794 -0.030347971 0.053396224 0.015715218
-0.64876291 -0.080767644 0.097922608 0.34004566 -0.44465133 -0.055356803 0.06711453 0.23306165 -0.12569203 -0.015648012 0.018971633 0.065880817 -0.29405182 -0.036607939 0.044383427 0.15412571 -0.077394923 -0.0096352697 0.011681791 0.040566141 -0.31731699 -0.039504333 0.047895012 0.16632003
-0.6943758 -0.1097346 0.21425292 0.36431623 -0.42615486 -0.067346719 0.13149208 0.22358949 -0.14100801 -0.022283982 0.043508685 0.073982284 -0.28272231 -0.044679579 0.087235296 0.14833513 -0.083548695 -0.013203488 0.025779342 0.043835262 -0.27816032 -0.043958633 0.085827675 0.14594161
-0.033852857 -0.080997691 -0.010637173 0.017782384 -1.8129334 -4.3376966 -0.5696561 0.95230597 -0.0097360106 -0.023294766 -0.0030592286 0.0051141762 -0.029652559 -0.070947891 -0.0093173643 0.015576032 -0.0055701327 -0.013327321 -0.0017502353 0.0029259048 -0.011984996 -0.028675778 -0.0037659001 0.0062955337
-0.013528069 0.023687026 -0.013874522 0.007109634 -0.015796893 0.027659631 -0.01620145 0.0083020071 -0.00037669284 0.00065957179 -0.00038633991 0.00019796973 -0.014094599 0.024678992 -0.01445556 0.0074073716 -0.0003276806 0.00057375361 -0.00033607247 0.0001722115 -1.8586561 3.254421 -1.9062561 0.97681081
-0.011877658 0.0062376722 -0.026389981 0.00624476 -0.013972666 0.0073378866 -0.031044704 0.0073462245 -0.000520398 0.00027329226 -0.001156229 0.0002736028 -0.011943328 0.0062721594 -0.026535888 0.0062792864 -0.00044352677 0.00023292256 -0.00098543523 0.00023318723 -1.8632624 0.97851107 -4.1398278 0.97962294
-0.035276034 0.02108943 -0.061086662 0.018555981 -0.034972445 0.020907932 -0.060560944 0.018396287 -0.0024287903 0.0014520284 -0.0042058779 0.0012775979 -0.031718956 0.018962865 -0.054926955 0.016684879 -0.0021674816 0.0012958075 -0.0037533758 0.0011401437 -1.7944963 1.0728219 -3.1074862 0.94394511
-0.016181047 0.026611036 -0.016285016 0.0085150411 -0.017849541 0.029355007 -0.01796423 0.0093930613 -0.00057217746 0.00094099193 -0.00057585389 0.00030110007 -0.016078933 0.026443101 -0.016182246 0.008461305 -0.00050574339 0.00083173575 -0.00050899296 0.00026614011 -1.8491026 3.0409981 -1.8609837 0.97306335
-0.018957828 0.029272833 -0.019262605 0.0099795902 -0.020000604 0.030882985 -0.020322144 0.010528518 -0.00078461225 0.0012115218 -0.00079722612 0.00041302773 -0.018155301 0.028033649 -0.018447176 0.009557132 -0.00069991512 0.0010807408 -0.00071116735 0.00036844231 -1.8410617 2.8427883 -1.8706597 0.96915329
-0.077971864 -0.17336508 -0.01208373 0.041144365 -1.6897438 -3.7570292 -0.26186892 0.89164776 -0.023029535 -0.051204586 -0.003569014 0.012152276 -0.063811036 -0.14187945 -0.0098891482 0.033671948 -0.013544919 -0.030116195 -0.0020991308 0.0071474127 -0.02697881 -0.059985528 -0.004181055 0.014236238
-0.79996964 -1.0004096 1.5707929 0.42320838 -0.10538546 -0.13179078 0.20693127 0.055752127 -0.76335344 -0.95461886 1.4988946 0.40383729 -0.071334681 -0.08920826 0.14007033 0.037738226 -0.13329083 -0.1666881 0.26172529 0.07051492 -0.016915951 -0.021154402 0.03321558 0.0089490546
-0.74040568 -0.14023657 0.35146825 0.3916993 -0.39798128 -0.075379664 0.18892046 0.21054537 -0.15819708 -0.029963325 0.075095656 0.083691529 -0.26573948 -0.0503324 0.1261457 0.14058505 -0.088952335 -0.016848021 0.042225394 0.047058752 -0.23896415 -0.045261017 0.11343553 0.12642001
-0.016144459 0.0065954577 -0.034445425 0.0085416351 -0.017931989 0.007325713 -0.038259255 0.009487373 -0.00086168065 0.00035202036 -0.0018384609 0.00045589398 -0.015726564 0.0064247361 -0.033553815 0.0083205373 -0.00075702449 0.00030926543 -0.001615169 0.00040052299 -1.8386683 0.75114681 -3.9229379 0.97279404
-0.60420431 -0.054610601 -0.00055967156 0.31994213 -0.45055971 -0.040723537 -0.0004173513 0.23858325 -0.11185601 -0.01011003 -0.00010361169 0.059230709 -0.29862002 -0.026990571 -0.0002766103 0.15812718 -0.071535063 -0.0064656487 -6.6262587e-05 0.037879704 -0.3517049 -0.031788612 -0.00032578257 0.18623703
-0.021328334 0.031516631 -0.022802541 0.011296608 -0.021817792 0.032239897 -0.02332583 0.01155585 -0.00097643987 0.0014428739 -0.0010439311 0.00051717392 -0.019909257 0.029419678 -0.021285378 0.01054499 -0.00087529087 0.0012934072 -0.00093579068 0.00046360009 -1.8231229 2.6940075 -1.9491365 0.96562178
-0.039783602 -0.092827136 -0.03138661 0.021140462 -1.7680599 -4.1254167 -1.3948814 0.93952287 -0.0098713726 -0.023032888 -0.0077878551 0.0052455125 -0.040298046 -0.094027488 -0.031792472 0.021413831 -0.0056698771 -0.013229533 -0.0044731552 0.0030128952 -0.018187195 -0.042436208 -0.014348484 0.0096644267
-0.2487125 -0.51957054 0.41307287 0.13235443 -0.042096247 -0.087940775 0.069915336 0.022401869 -1.5000558 -3.1336776 2.4913599 0.79826717 -0.027618569 -0.057696315 0.045870158 0.014697451 -0.05658155 -0.11820116 0.093973176 0.030110343 -0.0040753635 -0.0085136003 0.0067685465 0.0021687386
-1.1433536 -0.58476695 2.0704323 0.6090707 -0.14565047 -0.074492773 0.26374993 0.077588799 -0.32994679 -0.16875093 0.59748138 0.17576445 -0.10304286 -0.052701159 0.1865943 0.054891495 -0.11122027 -0.056883484 0.20140229 0.059247642 -0.043995998 -0.022501705 0.079669785 0.023436908
-0.021770668 0.031723143 -0.025452645 0.011637463 -0.022144007 0.032267155 -0.025889126 0.011837031 -0.0010207775 0.0014874265 -0.0011934171 0.00054565438 -0.020223255 0.029468329 -0.023643525 0.010810297 -0.00091402028 0.0013318652 -0.0010686045 0.00048858756 -1.8046673 2.6296721 -2.1098827 0.96468097
-0.012540675 0.0095410066 -0.02740365 0.0067112677 -0.014526038 0.011051481 -0.031742029 0.0077737548 -0.0005381107 0.00040939724 -0.0011758695 0.00028797533 -0.012479241 0.0094942677 -0.027269406 0.0066783909 -0.00045052904 0.00034276469 -0.00098448769 0.00024110513 -1.8280654 1.3908011 -3.9946546 0.97830751
-0.78939778 -0.1708111 0.51307433 0.42255815 -0.36082016 -0.078074819 0.23451746 0.19314407 -0.17643873 -0.038178083 0.11467752 0.094446203 -0.2456899 -0.053162759 0.15968778 0.13151579 -0.094833666 -0.020520254 0.061637771 0.050763683 -0.20095977 -0.043483983 0.13061514 0.10757211
-1.1292847 -0.42887271 1.8831534 0.60485624 -0.16510027 -0.06270075 0.27531509 0.088429361 -0.28925568 -0.10985172 0.48235204 0.15492824 -0.11914897 -0.045249652 0.1986884 0.063817383 -0.10723531 -0.040725156 0.17882163 0.057436307 -0.057005024 -0.021649012 0.095059465 0.030532463
-0.69749223 -1.0858138 0.75846415 0.37390026 -0.28676781 -0.44642282 0.31183588 0.15372581 -0.49215732 -0.76616082 0.5351797 0.26382767 -0.17672017 -0.2751073 0.19216833 0.094733267 -0.15057195 -0.23440132 0.16373433 0.080716153 -0.061740512 -0.096113904 0.067137615 0.033096847
-0.0089198818 0.017593173 -0.013789977 0.00478817 -0.012012013 0.023691952 -0.018570356 0.0064480179 -7.8975085e-05 0.0001557669 -0.00012209406 4.2393625e-05 -0.010535246 0.020779244 -0.016287301 0.0056552934 -5.8142733e-05 0.00011467811 -8.9887622e-05 3.1210872e-05 -1.8312957 3.6119652 -2.8311504 0.98303491
-0.50874935 -0.079237711 -0.19348517 0.27309976 -0.4840918 -0.075397297 -0.18410753 0.25986344 -0.09024952 -0.014056363 -0.034323275 0.048446494 -0.31010491 -0.048298839 -0.11793765 0.16646621 -0.060567944 -0.0094334572 -0.023034917 0.032513243 -0.40910648 -0.063718333 -0.15558946 0.21961086
-0.11331442 -0.26292693 0.21136049 0.060883433 -0.015635581 -0.036279719 0.029164373 0.0084009417 -1.6982188 -3.9404293 3.1676142 0.91244691 -0.0095335523 -0.022120995 0.017782523 0.0051223436 -0.023781001 -0.055179789 0.044357675 0.012777447 -0.00068663351 -0.0015932168 0.0012807478 0.00036892573
-0.39496013 -0.30814679 -0.3283019 0.21303365 -0.69602411 -0.54303606 -0.5785547 0.37542159 -0.078001438 -0.060856503 -0.064836975 0.042072427 -0.32687607 -0.25502779 -0.27170853 0.17631046 -0.052835381 -0.041222016 -0.043918245 0.028498355 -0.30528286 -0.23818083 -0.25375965 0.16466351
-0.018723488 0.028008546 -0.02470937 0.010103437 -0.019726725 0.029509294 -0.026033342 0.010644797 -0.0007842819 0.0011732107 -0.0010350161 0.0004232087 -0.017919515 0.02680588 -0.023648368 0.0096696031 -0.00069527673 0.0010400675 -0.00091755608 0.00037518035 -1.7953307 2.685643 -2.3692963 0.96878377
-0.017962977 0.015926694 -0.035935944 0.0096979751 -0.019361329 0.017166528 -0.038733425 0.010452927 -0.00090350596 0.00080108449 -0.0018075143 0.00048779098 -0.017100422 0.015161917 -0.034210353 0.0092322927 -0.00077043318 0.00068309684 -0.0015412948 0.00041594673 -1.7961413 1.5925307 -3.5932815 0.96971307
-0.0092085179 0.017364156 -0.015163477 0.0049748613 -0.01217958 0.022966577 -0.020055864 0.0065799646 -0.00010082831 0.00019012815 -0.0001660319 5.447205e-05 -0.010724451 0.020222694 -0.017659732 0.0057938374 -7.558932e-05 0.00014253594 -0.00012447137 4.0836797e-05 -1.818721 3.4294939 -2.9948504 0.98255603
-0.53865763 -0.84887864 0.19565388 0.29116157 -0.61835515 -0.97447515 0.224602 0.33424061 -0.21201168 -0.33411238 0.077007924 0.11459905 -0.25707961 -0.4051356 0.09337772 0.1389597 -0.10914503 -0.17200329 0.039644196 0.058996359 -0.1147809 -0.18088494 0.041691282 0.062042722
-0.040930487 0.035899608 -0.066667667 0.022125425 -0.039178666 0.034363108 -0.063814296 0.021178459 -0.002873076 0.0025199383 -0.0046796724 0.0015530728 -0.03581186 0.031410125 -0.058330435 0.019358494 -0.0025665855 0.0022511194 -0.0041804601 0.001387396 -1.7285693 1.5161061 -2.8154975 0.93439715
-0.86619853 -0.99834848 1.7325143 0.46893276 -0.11028964 -0.12711577 0.22059421 0.05970736 -0.64361176 -0.74180317 1.2873106 0.34843125 -0.07508645 -0.086541872 0.15018306 0.040649453 -0.13214217 -0.15230219 0.26430223 0.071537633 -0.019841444 -0.022868516 0.039685573 0.010741536
-0.84615445 -0.19977734 0.70431102 0.45809145 -0.32056895 -0.075686434 0.26683101 0.17354975 -0.19451497 -0.045925047 0.16190783 0.10530659 -0.22180025 -0.052367112 0.1846192 0.12007831 -0.098790728 -0.023324523 0.082230139 0.053483365 -0.16530065 -0.039027538 0.1375908 0.089490534
-0.59991247 -0.95620449 0.32975145 0.32481427 -0.50279137 -0.80140253 0.27636729 0.2722294 -0.26648387 -0.42475043 0.14647711 0.14428399 -0.24747204 -0.39444734 0.13602695 0.1339903 -0.12710648 -0.20259588 0.069866105 0.06882004 -0.10317375 -0.16444934 0.056711098 0.055861996
-0.55481048 -0.030542445 -0.082377087 0.30063533 -0.44356402 -0.024418302 -0.065859449 0.24035418 -0.098097589 -0.0054002949 -0.014565323 0.053156172 -0.29750295 -0.016377606 -0.04417261 0.16120802 -0.064878038 -0.003571551 -0.009632954 0.035155483 -0.38660692 -0.0212828 -0.057402578 0.20949081
-0.45398737 -0.72392281 0.086256714 0.24633866 -0.76949542 -1.2270282 0.14620263 0.41753688 -0.16039329 -0.25576121 0.030474411 0.087031203 -0.25286082 -0.40320883 0.048043062 0.13720513 -0.088692666 -0.14142826 0.016851433 0.048125639 -0.11751044 -0.18738073 0.022326754 0.063762487
-0.59293647 -0.9900857 0.86118282 0.32224107 -0.14906471 -0.24890834 0.21650206 0.081011666 -0.84543393 -1.4117061 1.227911 0.45946497 -0.098031989 -0.16369388 0.14238198 0.053277097 -0.12751577 -0.21292592 0.18520431 0.069300542 -0.02705714 -0.04518003 0.039297877 0.014704648
-0.12197076 -0.28367658 0.25096433 0.066384426 -0.01404112 -0.032656489 0.028890696 0.0076420911 -1.6678628 -3.8790742 3.4317576 0.9077595 -0.0083334129 -0.019381646 0.017146645 0.0045355856 -0.024828483 -0.057745472 0.051086535 0.013513276 -0.00030337519 -0.00070558253 0.00062421806 0.00016511652
-0.014930849 0.023595857 -0.022176818 0.0081324921 -0.016703237 0.026396837 -0.024809349 0.0090978714 -0.00050597375 0.00079961187 -0.00075152376 0.00027559234 -0.015043475 0.023773845 -0.022344102 0.0081938372 -0.0004398708 0.00069514657 -0.00065334093 0.00023958757 -1.7883266 2.8261687 -2.6562049 0.97406062
-0.90768197 -0.22258913 0.92307303 0.49473046 -0.28049329 -0.068784838 0.28524946 0.15288237 -0.21209102 -0.052010678 0.21568733 0.11559984 -0.19766605 -0.04847327 0.20101776 0.10773753 -0.10241223 -0.025114357 0.10414878 0.055819607 -0.13435544 -0.03294773 0.13663363 0.073230197
-0.67190974 -1.0791758 0.85739767 0.36630907 -0.2176696 -0.34960615 0.27775964 0.11866825 -0.61563509 -0.98879131 0.7855878 0.33562948 -0.13968946 -0.22435972 0.17825223 0.07615534 -0.14480998 -0.23258396 0.18478633 0.078946925 -0.044556127 -0.071563027 0.056856325 0.024290931
-0.05154033 0.038528896 -0.079048749 0.028140741 -0.048284952 0.036095342 -0.07405589 0.026363322 -0.0039341762 0.0029409874 -0.0060339486 0.0021480389 -0.044306206 0.033121037 -0.067953584 0.024190949 -0.0035395837 0.0026460104 -0.0054287518 0.0019325935 -1.6799148 1.2558177 -2.5765291 0.91722436
-0.0086546717 0.0058399161 -0.020724783 0.0047260748 -0.010843973 0.0073171914 -0.02596736 0.0059215909 -0.0002995422 0.0002021222 -0.00071729435 0.00016357164 -0.0090366319 0.0060976515 -0.021639439 0.0049346526 -0.00024711804 0.00016674793 -0.00059175759 0.00013494427 -1.8021781 1.2160564 -4.3155594 0.98411917
-0.3859903 -0.71772375 0.85910034 0.21148647 -0.04706786 -0.08751961 0.10475915 0.025788771 -1.277958 -2.3762794 2.8443568 0.70020107 -0.030882975 -0.057424875 0.068736376 0.016920973 -0.079761537 -0.14831137 0.17752561 0.043701839 -0.0034693505 -0.0064510305 0.0077217488 0.0019008785
-0.96941698 -0.24080292 1.165298 0.53127472 -0.24360607 -0.060511684 0.29282926 0.13350473 -0.2266683 -0.056304346 0.27246903 0.12422223 -0.1739544 -0.043210227 0.20910373 0.09533315 -0.10325732 -0.025649091 0.12412156 0.056588655 -0.10779693 -0.02677673 0.12957845 0.059076524
-0.55332208 -0.8967506 1.2212944 0.30356444 -0.067872472 -0.10999865 0.14980835 0.037236303 -1.0409437 -1.6870227 2.2975746 0.57108421 -0.045574922 -0.073861752 0.10059312 0.025003386 -0.10790218 -0.17487345 0.23816205 0.059197463 -0.0071346049 -0.011562816 0.015747524 0.0039141983
-0.63628575 -1.0426772 0.47602827 0.34909159 -0.41151348 -0.6743444 0.30786805 0.22577261 -0.32081259 -0.52571346 0.24001145 0.17601051 -0.2267954 -0.37164812 0.1696738 0.12442895 -0.13896537 -0.22772163 0.10396499 0.076241911 -0.088317415 -0.14472516 0.066073438 0.048454436
-0.011837437 0.020078412 -0.01928068 0.0065051941 -0.014174727 0.024042875 -0.023087632 0.0077896385 -0.0002918096 0.00049496131 -0.00047529609 0.00016036226 -0.012657485 0.02146936 -0.020616364 0.0069558467 -0.00024582559 0.00041696421 -0.00040039788 0.00013509202 -1.7804827 3.0200174 -2.9000296 0.97845387
-0.009843988 0.017820203 -0.016729132 0.0054099142 -0.012570451 0.022755817 -0.021362554 0.0069082835 -0.00015536038 0.00028124308 -0.00026402351 8.5380672e-05 -0.011136939 0.020160784 -0.018926407 0.0061204752 -0.00012330119 0.00022320753 -0.00020954128 6.7762055e-05 -1.78579 3.2327487 -3.0348183 0.98140818
-0.35545915 -0.6040191 0.020895028 0.1954103 -0.94403885 -1.6041717 0.055493628 0.51897641 -0.11597797 -0.19707723 0.0068175564 0.063757787 -0.22845324 -0.38820246 0.013429213 0.12559 -0.067647761 -0.11495143 0.0039765521 0.037188715 -0.10746304 -0.18260812 0.0063170217 0.059076787
-0.92606224 -0.97346468 1.8797912 0.5103621 -0.1136283 -0.1194446 0.23065131 0.062621683 -0.54544322 -0.57336288 1.1071819 0.30059918 -0.077980864 -0.081972478 0.15829146 0.042976029 -0.12861291 -0.13519623 0.26106821 0.070879851 -0.022792466 -0.023959146 0.046265871 0.012561154
-0.030433039 0.012435771 -0.058234319 0.016772412 -0.030754653 0.012567191 -0.058849735 0.016949662 -0.0021194194 0.00086605267 -0.0040555578 0.0011680653 -0.027922766 0.011410005 -0.053430854 0.015388938 -0.001915021 0.00078252988 -0.0036644366 0.0010554162 -1.7213251 0.70338045 -3.2937951 0.94866551
-0.0093872232 0.01976758 -0.012858087 0.0051825602 -0.012241121 0.025777309 -0.016767196 0.0067581592 -0.00011937094 0.00025137089 -0.00016350757 6.5903099e-05 -0.010786366 0.022713891 -0.014774554 0.0059550083 -9.5594699e-05 0.00020130297 -0.00013094021 5.2776553e-05 -1.7786803 3.7455385 -2.4363357 0.98198559
-1.0234311 -0.25639125 1.4209982 0.56511932 -0.20873468 -0.052292476 0.28982079 0.11525935 -0.23840512 -0.05972555 0.33101715 0.1316428 -0.15084243 -0.037789235 0.20943942 0.08329234 -0.10245899 -0.025668156 0.14226072 0.056575921 -0.08712768 -0.021827336 0.12097373 0.04811026
-0.40118626 -0.26555521 -0.33519473 0.22162661 -0.62461715 -0.4134497 -0.52187324 0.34505613 -0.07619336 -0.050434289 -0.063660237 0.042091361 -0.32254071 -0.21349775 -0.26948566 0.17818058 -0.052193245 -0.034548013 -0.043607925 0.02883302 -0.33345927 -0.22072502 -0.27860821 0.1842123
-0.044292566 -0.10926748 -0.0093084542 0.024486589 -1.6910803 -4.1718082 -0.35539471 0.9348925 -0.013038876 -0.032166237 -0.0027402291 0.0072083787 -0.037854948 -0.093386213 -0.007955535 0.020927633 -0.0075845872 -0.018710787 -0.0015939646 0.0041930438 -0.014998725 -0.037001083 -0.0031521078 0.0082918565
-0.98944765 -0.91724181 2.0177762 0.54846823 -0.11774703 -0.10915434 0.240121 0.06526925 -0.46547243 -0.43150416 0.94923588 0.25801955 -0.081563498 -0.075611327 0.16633208 0.045212081 -0.12341825 -0.11441169 0.25168629 0.068412906 -0.026371137 -0.024446679 0.053778543 0.014617985
-1.0509631 -0.83461306 2.1429487 0.58287105 -0.1210032 -0.096093615 0.24672953 0.067109166 -0.39884757 -0.31674127 0.81326345 0.22120348 -0.084627794 -0.067206412 0.17255888 0.04693513 -0.11779925 -0.093549229 0.24019658 0.065332236 -0.02983905 -0.023696417 0.060842815 0.016548933
-1.0963768 -0.72765139 2.2371554 0.60941307 -0.12225015 -0.08113588 0.24945128 0.06795186 -0.34960713 -0.23202983 0.7133729 0.19432659 -0.08658322 -0.057464188 0.17667295 0.048126654 -0.11137337 -0.073917097 0.22725722 0.061906079 -0.032879357 -0.021821614 0.067090286 0.018275752
-1.1285558 -0.45388194 2.1280493 0.62745996 -0.13937388 -0.056053312 0.26280889 0.077489772 -0.28164989 -0.1132738 0.53109014 0.15659308 -0.10128179 -0.040733456 0.19098094 0.056311147 -0.10217661 -0.041093333 0.19266824 0.056808651 -0.045572085 -0.018328156 0.085932522 0.025337391
-0.027642346 0.029099457 -0.050003798 0.015384979 -0.027644836 0.029102079 -0.050008303 0.015386365 -0.0016557585 0.0017430385 -0.0029951948 0.0009215502 -0.025025371 0.026344534 -0.045269804 0.013928442 -0.0014499967 0.0015264304 -0.0026229808 0.00080702881 -1.7132917 1.8036045 -3.0992699 0.95357163
-0.67510017 -0.98147314 1.4997423 0.37592236 -0.081508092 -0.11849797 0.1810711 0.045386915 -0.8507654 -1.2368585 1.8899844 0.47373968 -0.055533072 -0.080735008 0.12336731 0.030923001 -0.12235743 -0.1778855 0.27181835 0.068133437 -0.010585837 -0.015389886 0.02351655 0.0058946109
-0.12521764 -0.30100318 0.22089409 0.069768071 -0.020052804 -0.048203734 0.035374775 0.01117291 -1.6065454 -3.8618781 2.8340765 0.89512605 -0.012834664 -0.03085248 0.02264139 0.0071511471 -0.028754468 -0.069121142 0.050725216 0.016021255 -0.0013650493 -0.0032813602 0.0024080578 0.00076057061
-0.40845459 -0.22734689 -0.33385302 0.2276312 -0.58128427 -0.32354433 -0.47511648 0.32394895 -0.075490343 -0.042018121 -0.061702524 0.042070667 -0.31984515 -0.17802664 -0.26142751 0.17824927 -0.052067561 -0.02898094 -0.04255776 0.029017182 -0.35722809 -0.19883408 -0.2919827 0.19908273
-0.41915157 -0.19264186 -0.32626629 0.23379717 -0.55068853 -0.25309618 -0.42865426 0.30716674 -0.075885003 -0.03487671 -0.059068653 0.042327646 -0.31726456 -0.14581463 -0.24695775 0.17696595 -0.052442067 -0.024102348 -0.040820743 0.029251487 -0.37736827 -0.17343827 -0.2937423 0.210491
-0.23171835 -0.49753443 0.52731336 0.12930495 -0.026292661 -0.056454327 0.059833288 0.014671998 -1.4683032 -3.1526695 3.3413663 0.81935191 -0.016527184 -0.035486368 0.037610334 0.0092226044 -0.048217958 -0.10353126 0.10972792 0.026906892 -0.00097063075 -0.0020840913 0.0022088304 0.00054163755
-0.43026776 -0.15602441 -0.30997836 0.24013694 -0.52367203 -0.18989482 -0.37726972 0.29226684 -0.076709386 -0.027816486 -0.055263843 0.042812311 -0.31327753 -0.11360122 -0.22569494 0.17484347 -0.052995863 -0.019217448 -0.038179879 0.029577545 -0.39483744 -0.14317661 -0.28445325 0.22036291
-0.020798562 0.0067512276 -0.044222834 0.011623334 -0.022071477 0.0071644168 -0.046929364 0.012334706 -0.0012885001 0.00041824804 -0.0027396667 0.00072008188 -0.019743741 0.0064088322 -0.041980028 0.011033845 -0.0011544465 0.00037473413 -0.0024546359 0.00064516563 -1.7243233 0.55971654 -3.6663335 0.96364287
-0.0089722614 0.0043293041 -0.022449488 0.0050158832 -0.011026644 0.0053205869 -0.027589758 0.0061643724 -0.00035848139 0.00017297478 -0.00089695599 0.00020040664 -0.0092834343 0.0044794516 -0.023228074 0.0051898424 -0.00030696006 0.00014811466 -0.00076804452 0.00017160398 -1.7588222 0.84866857 -4.4007477 0.98325789
-1.0634193 -0.27296657 1.6797096 0.59492653 -0.17850897 -0.045821044 0.28196145 0.099866276 -0.24381543 -0.062584404 0.38511539 0.13640177 -0.13091542 -0.033604369 0.20678569 0.073240215 -0.10051903 -0.02580199 0.15877348 0.056235049 -0.070301873 -0.018045621 0.11104438 0.039330159
-0.043724014 0.022844588 -0.075318377 0.024495932 -0.042261124 0.022080268 -0.072798423 0.023676363 -0.0033385893 0.0017443206 -0.0057510075 0.0018704106 -0.038676116 0.020207201 -0.066622939 0.021667899 -0.0030192515 0.0015774754 -0.0052009206 0.0016915048 -1.6539309 0.86413315 -2.8490383 0.92659789
-0.011863332 0.004272679 -0.028611491 0.0066647933 -0.013728706 0.0049445092 -0.033110323 0.0077127563 -0.00058013013 0.00020893875 -0.0013991337 0.0003259158 -0.011869087 0.0042747519 -0.028625372 0.0066680267 -0.00050896502 0.00018330804 -0.0012275007 0.0002859354 -1.7414498 0.62719781 -4.1999562 0.97834257
-0.44138558 -0.11221422 -0.28417959 0.2483154 -0.4892071 -0.12437197 -0.31496877 0.2752189 -0.076954861 -0.019564368 -0.049546251 0.043293387 -0.30523557 -0.07760057 -0.19652141 0.17171991 -0.053189585 -0.013522481 -0.034245329 0.02992348 -0.4115473 -0.10462839 -0.26496865 0.23152893
-0.1830991 -0.32144834 -0.18323098 0.10303195 -1.2532246 -2.200158 -1.2541272 0.70520371 -0.043738577 -0.07678734 -0.043770081 0.024612195 -0.17316582 -0.30400949 -0.17329055 0.097442375 -0.027885602 -0.048955894 -0.027905687 0.015691545 -0.095996336 -0.16853093 -0.096065479 0.05401823
-0.50690372 -0.0088778273 -0.14887706 0.28533682 -0.4240038 -0.0074259319 -0.12452944 0.23867234 -0.086016405 -0.001506477 -0.025262922 0.048418756 -0.28940547 -0.0050685992 -0.084998063 0.16290675 -0.058712767 -0.0010282856 -0.017243874 0.0330495 -0.41146783 -0.007206379 -0.12084764 0.23161583
-0.10706527 -0.22145705 -0.10819382 0.060414788 -1.4659742 -3.0322654 -1.4814267 0.82721987 -0.026184774 -0.054161379 -0.026460782 0.014775543 -0.10451816 -0.21618852 -0.10561986 0.058977502 -0.016106576 -0.033315328 -0.016276351 0.0090886178 -0.052320981 -0.1082223 -0.052872483 0.029523681
-0.22487019 -0.4378703 -6.6134304e-05 0.12692555 -1.1947987 -2.3265282 -0.00035139019 0.6743912 -0.069074719 -0.13450323 -2.0314869e-05 0.038988479 -0.16597961 -0.32319777 -4.881459e-05 0.0936854 -0.041886791 -0.081562532 -1.2318902e-05 0.023642547 -0.075060033 -0.14615792 -2.2075149e-05 0.042366825
-1.1161376 -0.6054838 2.3067424 0.63011631 -0.12129604 -0.065800833 0.25068478 0.068477766 -0.30700223 -0.16654297 0.63448722 0.17331833 -0.087179223 -0.047293099 0.18017492 0.049217094 -0.10455338 -0.056718252 0.21608241 0.059025684 -0.035151513 -0.019069039 0.072648285 0.019844812
-0.39668844 -0.79165027 0.62511274 0.22423558 -0.082846245 -0.1653319 0.13055143 0.046830394 -1.1285743 -2.2522364 1.7784389 0.63794778 -0.055785483 -0.11132816 0.087908326 0.031533791 -0.093348073 -0.18628984 0.1471005 0.052766749 -0.011827475 -0.023603469 0.018638065 0.0066857019
-0.0097002831 0.020814837 -0.01290856 0.0054914619 -0.012345167 0.026490221 -0.016428214 0.0069887666 -0.00014867715 0.00031903096 -0.00019785071 8.4168151e-05 -0.010929087 0.0234516 -0.014543779 0.0061871043 -0.00012182001 0.000261401 -0.00016211083 6.8963962e-05 -1.733185 3.7190629 -2.3064195 0.98117954
-0.64168883 -1.092624 0.6179904 0.36330578 -0.33135745 -0.56421287 0.31911997 0.18760507 -0.38147582 -0.649551 0.3673874 0.21598065 -0.19669644 -0.33492128 0.18943218 0.11136387 -0.14354479 -0.24441828 0.13824349 0.081270938 -0.071486655 -0.1217226 0.068846556 0.04047369
-0.76248814 -1.0149492 1.7213474 0.43446865 -0.088341431 -0.11759142 0.19943431 0.050337284 -0.70503037 -0.93846706 1.5916342 0.401729 -0.060483527 -0.08050972 0.13654398 0.034463745 -0.1254818 -0.16702903 0.28328018 0.071500011 -0.013164725 -0.017523586 0.029719891 0.0075013103
-0.61647004 0.013513997 0.13863482 0.35159554 -0.37793021 0.0082848269 0.084990812 0.2155475 -0.11041929 0.0024205651 0.024831634 0.062976181 -0.26798194 0.0058745872 0.060265101 0.15283996 -0.071039747 0.0015573034 0.015975769 0.040516581 -0.30950877 0.0067849209 0.06960386 0.17652424
-0.25941153 -0.38302151 -0.25908567 0.14811751 -1.0002288 -1.4768393 -0.99897235 0.57110568 -0.058851818 -0.086894799 -0.058777892 0.03360292 -0.24082123 -0.35557291 -0.24051872 0.13750291 -0.038780039 -0.057258787 -0.038731326 0.022142435 -0.15329661 -0.22634267 -0.15310404 0.087528539
-0.65628997 -0.014020512 0.25229595 0.37493714 -0.36625879 -0.0078244921 0.14079997 0.20924291 -0.1227229 -0.0026217647 0.047178066 0.070111347 -0.25864615 -0.0055255323 0.099430709 0.14776403 -0.076284916 -0.0016296967 0.029326024 0.043581419 -0.27019727 -0.0057723022 0.10387128 0.15436316
-1.0849806 -0.29559515 1.9330407 0.62069831 -0.15195881 -0.041400082 0.27073531 0.086932956 -0.24488225 -0.066716403 0.43629106 0.14009282 -0.11258559 -0.030673132 0.20058655 0.064408231 -0.097430669 -0.026544284 0.173586 0.055738369 -0.056162049 -0.015300945 0.10006034 0.032129319
-0.0091637175 0.019868471 -0.013712456 0.0052446516 -0.011856154 0.025706124 -0.01774138 0.0067856084 -0.00012042487 0.00026110124 -0.00018020206 6.8922517e-05 -0.010482605 0.022728039 -0.01568602 0.0059994876 -9.6257696e-05 0.00020870277 -0.00014403864 5.5090969e-05 -1.7155308 3.7195576 -2.5670959 0.98184624
-0.5775045 0.036018275 0.04229796 0.33117208 -0.38236255 0.023847502 0.028005247 0.21926721 -0.09960879 0.0062124829 0.0072956119 0.057121027 -0.27232168 0.016984382 0.019945562 0.15616387 -0.066143195 0.0041252732 0.004844503 0.037930059 -0.34587929 0.021572084 0.025333116 0.19834575
-0.69972658 -0.044531018 0.38741233 0.40237296 -0.34492437 -0.021951193 0.19097167 0.19834639 -0.13677171 -0.0087042337 0.075725362 0.078649634 -0.24398636 -0.015527438 0.13508608 0.14030268 -0.081392971 -0.0051798974 0.045064232 0.046804469 -0.23219801 -0.01477722 0.12855932 0.13352387
-0.053444726 0.057129753 -0.076329353 0.030757253 -0.048346451 0.05167995 -0.069048035 0.027823214 -0.0040194913 0.0042966362 -0.005740607 0.0023132032 -0.044648164 0.047726666 -0.06376617 0.025694863 -0.0036208006 0.0038704557 -0.0051712 0.0020837581 -1.5835504 1.6927365 -2.2616146 0.91132771
-0.45188346 -0.053701515 -0.24673018 0.26024606 -0.44024556 -0.052318476 -0.24037585 0.25354364 -0.076611647 -0.0091044747 -0.041830267 0.044121729 -0.2910362 -0.034586539 -0.15890694 0.16761186 -0.05331623 -0.0063360635 -0.029110876 0.030705569 -0.4232769 -0.050301932 -0.23111089 0.24377114
-0.052997022 -0.12711372 -0.053456539 0.030695864 -1.5736812 -3.7744851 -1.587326 0.91147581 -0.012894386 -0.030927272 -0.013006188 0.0074684253 -0.054148039 -0.12987444 -0.054617536 0.031362532 -0.0075867709 -0.018196922 -0.0076525529 0.004394256 -0.025212569 -0.060472518 -0.025431177 0.014603114
-0.0063781179 0.0040308605 -0.017050621 0.0036960027 -0.0084799355 0.005359173 -0.02266941 0.0049139675 -0.00018757925 0.00011854685 -0.00050145558 0.00010869875 -0.0069109011 0.0043675703 -0.01847491 0.0040047408 -0.00015463106 9.7724165e-05 -0.00041337519 8.9605873e-05 -1.7035688 1.0766261 -4.5541502 0.98718698
-0.74917849 -0.075355665 0.54927003 0.43477265 -0.31602759 -0.031787444 0.23169977 0.18340109 -0.15146461 -0.015234976 0.11104826 0.087899841 -0.22564376 -0.022696241 0.16543368 0.13094841 -0.085896156 -0.0086398129 0.062975892 0.049848334 -0.19493939 -0.019607861 0.14292237 0.11312967
-0.0091577798 0.0088977769 -0.022634473 0.0053257459 -0.011122958 0.010807161 -0.027491631 0.0064686037 -0.00033483718 0.00032533065 -0.00082758739 0.00019472599 -0.0094330468 0.0091652287 -0.023314826 0.0054858286 -0.0002763901 0.00026854297 -0.00068312892 0.00016073584 -1.689205 1.641246 -4.1750584 0.98236436
-0.5369278 0.052733841 -0.038055298 0.31225628 -0.37970082 0.037291947 -0.026911678 0.2208192 -0.089167166 0.0087574664 -0.0063198126 0.051856149 -0.27291793 0.026804368 -0.019343332 0.15871843 -0.060905857 0.0059818094 -0.0043167638 0.035420473 -0.37989043 0.037310568 -0.026925116 0.22092947
-0.012797851 0.014231981 -0.029225669 0.0074465425 -0.014433798 0.016051252 -0.03296158 0.0083984324 -0.00055018164 0.0006118351 -0.0012564161 0.00032012803 -0.012635608 0.014051557 -0.028855165 0.0073521401 -0.00046194271 0.0005137081 -0.0010549103 0.00026878544 -1.6777506 1.8657597 -3.8313763 0.97621397
-0.06105583 0.040989529 -0.092994651 0.035557113 -0.056222521 0.037744711 -0.085632997 0.032742337 -0.0050284954 0.0033758554 -0.0076589439 0.0029284473 -0.051706492 0.034712897 -0.078754596 0.030112335 -0.0045477179 0.0030530878 -0.0069266676 0.0026484566 -1.5385589 1.0329039 -2.3433921 0.89601131
-0.06651904 0.062051574 -0.088838928 0.038753169 -0.05909817 0.055129096 -0.078928049 0.034429862 -0.0053996017 0.0050369607 -0.0072113913 0.0031457411 -0.054560718 0.050896382 -0.072868094 0.031786399 -0.0048740966 0.0045467489 -0.0065095575 0.0028395884 -1.5260284 1.4235392 -2.038074 0.88904524
-0.23153281 -0.53445094 0.38409632 0.13501794 -0.042894582 -0.099014262 0.071159036 0.025013898 -1.3512282 -3.119062 2.2415907 0.78796627 -0.028702446 -0.066254324 0.0476153 0.016737779 -0.055794107 -0.12879045 0.092558422 0.032536232 -0.0046778621 -0.010797985 0.0077602377 0.0027278868
-0.018010047 0.02956935 -0.027897425 0.01050798 -0.018786327 0.030843866 -0.029099877 0.010960901 -0.00077503131 0.001272466 -0.0012005176 0.00045219279 -0.017135378 0.028133297 -0.02654257 0.0099976533 -0.00068528814 0.0011251234 -0.0010615061 0.00039983205 -1.6585479 2.7230459 -2.5690781 0.96768144
-0.024446524 0.038565387 -0.033217839 0.01426926 -0.023804161 0.037552032 -0.032344997 0.013894317 -0.0012897765 0.0020346748 -0.001752543 0.00075283322 -0.021930205 0.03459579 -0.029798674 0.012800502 -0.0011604433 0.0018306465 -0.0015768057 0.0006773424 -1.6405989 2.5881115 -2.2292391 0.95760574
-0.12026263 -0.29735072 0.2838682 0.070225122 -0.012220849 -0.030216189 0.028846122 0.0071361372 -1.5488178 -3.8294697 3.6558333 0.9044033 -0.0070956017 -0.017543956 0.016748476 0.0041433444 -0.024064708 -0.059500266 0.056802396 0.014052138 -6.8420703e-05 -0.00016917097 0.00016150039 3.9952995e-05
-0.82578074 -1.0145172 1.9024636 0.48268972 -0.092105859 -0.11315714 0.21219682 0.053838203 -0.58785313 -0.72221004 1.3543173 0.34361502 -0.063823258 -0.078410397 0.14703833 0.037306307 -0.12562346 -0.15433536 0.28941588 0.073430088 -0.01560355 -0.019169823 0.035948024 0.0091206695
-0.12546438 -0.28527699 -0.0038360938 0.073365408 -1.3834197 -3.1455763 -0.042298279 0.80895584 -0.038061637 -0.086543356 -0.0011637407 0.022256575 -0.098281421 -0.22346921 -0.0030049703 0.057470146 -0.02308252 -0.052484312 -0.00070575178 0.013497524 -0.041820384 -0.095089878 -0.001278665 0.024454506
-0.8002472 -0.10186835 0.73782744 0.468828 -0.28425776 -0.036184907 0.26208549 0.16653354 -0.16729176 -0.02129559 0.1542429 0.098008542 -0.20516027 -0.026116104 0.18915765 0.12019396 -0.090149982 -0.011475742 0.083118229 0.052814725 -0.15980302 -0.020342302 0.14733829 0.093621233
-0.036725665 0.046803866 -0.058458729 0.021518524 -0.034375696 0.043809021 -0.054718123 0.020141616 -0.002422349 0.0030870863 -0.003855817 0.0014193174 -0.031629989 0.040309842 -0.050347597 0.018532835 -0.0021626554 0.002756128 -0.0034424451 0.0012671561 -1.5993836 2.0382841 -2.5458473 0.93712055
-0.30406354 -0.38265494 -0.31178518 0.17832906 -0.81172093 -1.0215267 -0.83233446 0.47606311 -0.064721434 -0.081450005 -0.066365026 0.037958227 -0.2764936 -0.34795899 -0.28351512 0.16215968 -0.04371614 -0.055015465 -0.044826305 0.025638912 -0.20435436 -0.25717389 -0.20954391 0.11985101
-1.1022331 -0.4766308 2.3642087 0.64870058 -0.11655506 -0.050401075 0.25000202 0.068596504 -0.26269864 -0.1135969 0.56346922 0.15460683 -0.085534083 -0.036986894 0.1834643 0.050339632 -0.095648515 -0.041360606 0.20515901 0.05629231 -0.036470592 -0.015770718 0.078226731 0.021464148
-0.040476018 -0.11077197 0.082994804 0.023827924 -0.005278838 -0.014446759 0.010824092 0.0031076118 -1.6412038 -4.4915331 3.3652369 0.9661642 -0.003112613 -0.0085183841 0.0063823152 0.0018323716 -0.0084975685 -0.023255558 0.017423997 0.005002454 -0.00011115972 -0.00030421423 0.00022792951 6.5438881e-05
-0.017124451 0.021748517 -0.03576448 0.010095774 -0.01820579 0.023121848 -0.038022861 0.010733281 -0.0008359641 0.0010616971 -0.0017459141 0.00049284524 -0.016323905 0.020731802 -0.034092536 0.0096238092 -0.00071756778 0.00091133054 -0.001498643 0.00042304432 -1.6429923 2.0866448 -3.4313956 0.96863125
-0.62236794 -1.1146171 0.74072218 0.36695574 -0.25535476 -0.45732235 0.30391497 0.15056028 -0.46178397 -0.8270225 0.54960033 0.27227347 -0.1607219 -0.28784159 0.19128601 0.094763598 -0.14176811 -0.25389668 0.16872782 0.08358821 -0.054033307 -0.096769838 0.064308693 0.031858698
-0.85738384 -0.11866105 0.95813703 0.50604315 -0.24941929 -0.034519374 0.27872914 0.14721169 -0.18144112 -0.025111265 0.2027627 0.10708977 -0.18295568 -0.025320878 0.20445523 0.10798369 -0.093184543 -0.012896645 0.10413488 0.05499917 -0.12990552 -0.017978792 0.14517103 0.076672544
-0.01531119 0.0040893828 -0.036800964 0.009042006 -0.016815452 0.004491148 -0.040416508 0.0099303461 -0.00087989271 0.00023500577 -0.0021148519 0.00051961963 -0.014892945 0.0039776758 -0.035795696 0.0087950114 -0.00078704234 0.00021020687 -0.0018916829 0.00046478695 -1.6446535 0.43926158 -3.9529803 0.97124823
-0.012900881 0.022910958 -0.022562459 0.0076324829 -0.014618485 0.025961291 -0.025566393 0.0086486608 -0.00040908592 0.0007265047 -0.00071545381 0.00024202544 -0.013201175 0.023444258 -0.023087647 0.0078101447 -0.00035159404 0.00062440361 -0.00061490579 0.00020801181 -1.6487788 2.9281026 -2.8835631 0.97545867
-1.0878011 -0.32239992 2.1804761 0.64469927 -0.12912971 -0.038271159 0.25883799 0.076530379 -0.2359355 -0.069926009 0.47292812 0.1398302 -0.09630871 -0.028543749 0.19304893 0.057078593 -0.092727674 -0.02748241 0.18587082 0.054956246 -0.045397322 -0.013454751 0.090998048 0.026905305
-0.54446514 -0.97828307 0.32520521 0.32293498 -0.45504337 -0.81761198 0.27179421 0.26989684 -0.24408244 -0.438562 0.14578873 0.14477099 -0.22995498 -0.41317808 0.1373505 0.13639166 -0.12039043 -0.21631489 0.071908358 0.071406372 -0.092053641 -0.16539997 0.054982994 0.054599162
-0.028527259 0.045396234 -0.034740202 0.016929923 -0.026801728 0.042650348 -0.032638868 0.015905881 -0.0016309948 0.0025954482 -0.0019862087 0.00096793796 -0.024856607 0.039555023 -0.030270121 0.014751521 -0.0014817862 0.0023580084 -0.001804504 0.00087938792 -1.6017216 2.5488649 -1.9505601 0.95056535
-0.0059187619 0.005122353 -0.015856089 0.003514913 -0.0080215754 0.0069422188 -0.021489429 0.0047636887 -0.0001472965 0.00012747677 -0.00039460048 8.7473423e-05 -0.0065102546 0.0056342563 -0.01744067 0.0038661765 -0.00011727489 0.00010149477 -0.00031417398 6.9644804e-05 -1.6631848 1.4393922 -4.455595 0.9876981
-0.025965853 -0.069626565 -0.024557607 0.015439598 -1.605854 -4.3060439 -1.5187613 0.95485948 -0.0061939426 -0.01660885 -0.005858017 0.0036829903 -0.02794919 -0.074944818 -0.026433379 0.016618913 -0.0035056772 -0.0094003561 -0.0033155485 0.0020845164 -0.012301309 -0.032985549 -0.011634153 0.0073145015
-0.91525489 -0.12858114 1.2056094 0.54429564 -0.2162534 -0.030380726 0.2848574 0.12860438 -0.190964 -0.026827901 0.25154522 0.11356495 -0.16080227 -0.022590579 0.21181501 0.095627975 -0.092905593 -0.013052 0.12237887 0.055250302 -0.10535985 -0.014801658 0.1387841 0.062656763
-0.010282728 -0.028987435 -0.0079488331 0.0061224934 -1.6487375 -4.6478593 -1.2745198 0.98168355 -0.0023304254 -0.0065695657 -0.0018014834 0.001387571 -0.011782598 -0.033215633 -0.0091082748 0.0070155394 -0.0012829985 -0.0036168259 -0.00099179338 0.00076391695 -0.0050837206 -0.014331219 -0.0039298568 0.003026925
-0 -0 -0 0 -1.67828 -4.81959 -0.936285 1 -0 -0 -0 0 -0 -0 -0 0 -0 -0 -0 0 -0 -0 -0 0
-0.49753939 0.063478581 -0.10363319 0.29648618 -0.37073496 0.047300233 -0.077220911 0.22092279 -0.08042248 0.010260705 -0.016751313 0.047924153 -0.26822209 0.034221125 -0.05586836 0.15983487 -0.056276956 0.0071800974 -0.011722007 0.033535716 -0.40492413 0.051662259 -0.084342222 0.24129629
-0.052801093 -0.14433627 0.11877413 0.031471934 -0.0052419365 -0.014329278 0.011791545 0.0031244406 -1.6062646 -4.3908605 3.6132336 0.9574092 -0.0028602582 -0.0078187584 0.0064340465 0.0017048483 -0.010552148 -0.028845191 0.023736672 0.0062895762 -0 -0 0 0
-0.4559663 0.013196023 -0.19956378 0.27181786 -0.39110094 0.011318768 -0.17117401 0.23314929 -0.074457419 0.0021548562 -0.032587943 0.044386737 -0.2731565 0.0079053638 -0.11955301 0.16283838 -0.052375634 0.001515792 -0.022923359 0.031222993 -0.4304132 0.012456496 -0.1883799 0.25658474
-0.8826301 -0.9914059 2.071618 0.52732113 -0.094089781 -0.10568546 0.22083779 0.056213276 -0.49185165 -0.55246771 1.1544232 0.2938533 -0.065792311 -0.07390059 0.1544209 0.039307152 -0.12155687 -0.1365376 0.2853057 0.072623295 -0.017879287 -0.02008274 0.041964411 0.010681854
-0.57860378 -1.0608983 0.47033112 0.34626199 -0.3745175 -0.6866961 0.30443499 0.22412777 -0.29599289 -0.54271741 0.24060449 0.17713518 -0.21070755 -0.38634258 0.17127838 0.12609668 -0.132124 -0.24225581 0.10739997 0.079068823 -0.079054265 -0.14494985 0.06426104 0.047309554
-0.96296515 -0.13523491 1.4640809 0.57838176 -0.18614964 -0.026142099 0.28301972 0.11180629 -0.19936015 -0.027997329 0.30310483 0.11974086 -0.13981158 -0.01963457 0.21256788 0.083974448 -0.092628826 -0.013008416 0.14083178 0.055635268 -0.08401466 -0.011798677 0.1277349 0.050461377
-0.0098889784 0.019150373 -0.018649363 0.0059424671 -0.012089081 0.023410954 -0.02279848 0.0072645491 -0.00020893721 0.00040461465 -0.00039402918 0.00012555417 -0.010836659 0.020985591 -0.020436569 0.0065119454 -0.00017177518 0.000332649 -0.00032394628 0.00010322283 -1.6309246 3.1583458 -3.0757176 0.98005226
-0.020502676 0.029632572 -0.039632294 0.012343202 -0.020890468 0.030193049 -0.040381907 0.012576664 -0.0010747439 0.0015533303 -0.0020775126 0.00064702684 -0.019054425 0.027539412 -0.036832782 0.011471314 -0.00094759393 0.00136956 -0.0018317278 0.00057047887 -1.5985801 2.3104321 -3.0901038 0.96239131
-0.47769284 -0.86977092 0.1925305 0.28808088 -0.5547864 -1.0101409 0.22360248 0.33457348 -0.18977638 -0.34553998 0.07648794 0.11444791 -0.23452046 -0.42700887 0.094521708 0.1414316 -0.10153638 -0.18487484 0.040923472 0.061233258 -0.09987755 -0.18185449 0.040254895 0.060232874
-0.0088267182 0.018283779 -0.016553106 0.0053256415 -0.011241173 0.023285112 -0.021081031 0.0067824139 -0.00013635884 0.00028245548 -0.00025571931 8.227274e-05 -0.010023352 0.020762503 -0.018797203 0.0060476363 -0.00010769209 0.0002230748 -0.00020195938 6.4976524e-05 -1.6270647 3.3703231 -3.051301 0.98169706
-0.94300318 -0.93634654 2.2365514 0.56991785 -0.095774191 -0.095098123 0.22715078 0.057882542 -0.41349189 -0.41057306 0.98069221 0.24989991 -0.067415478 -0.066939593 0.15989149 0.040743536 -0.11463312 -0.11382393 0.27187912 0.069280215 -0.020312141 -0.020168758 0.048174969 0.012275942
-0.059708322 -0.16695196 0.11553524 0.036169982 -0.0094371711 -0.026387514 0.018260869 0.0057168298 -1.5610195 -4.3648064 3.0205634 0.94563114 -0.005971836 -0.016698003 0.011555467 0.0036176063 -0.014186196 -0.039666382 0.027450203 0.0085936839 -0.00044696151 -0.0012497604 0.00086486782 0.00027075941
-0.32381379 -0.35005682 -0.3454325 0.19619489 -0.68019824 -0.73532394 -0.72561017 0.41212396 -0.064747552 -0.069994926 -0.06907028 0.039229766 -0.29038296 -0.31391664 -0.30976974 0.17593956 -0.044811695 -0.048443395 -0.047803449 0.027150869 -0.24651577 -0.26649429 -0.26297385 0.14936095
-0.99840166 -0.85029415 2.375713 0.60595494 -0.097327903 -0.082889833 0.23159333 0.059070739 -0.35223869 -0.29998598 0.8381577 0.21378247 -0.069182424 -0.058919584 0.1646207 0.041988544 -0.10758536 -0.091625648 0.25600111 0.065296244 -0.02291397 -0.019514806 0.054524165 0.013907062
-1.041089 -0.7418229 2.4707479 0.63201638 -0.099440683 -0.070855977 0.23599603 0.060367694 -0.30741752 -0.21904886 0.72957376 0.18662469 -0.071586096 -0.051008326 0.16989057 0.043457943 -0.10192618 -0.072627008 0.2418947 0.061876572 -0.025790541 -0.018376925 0.061206993 0.015656725
