-0 0 -0 0 7.9379756e-12 -2.9443437e-12 4.5599904e-12 -7.5509157e-14 -104.96394 38.933089 -60.296804 0.99845842 -0.019760622 0.0073295845 -0.01135154 0.00018797084 -0 0 -0 0 -0.14229909 0.052781396 -0.08174408 0.0013536051
-0 0 -0 0 1.821756e-11 -7.175542e-12 1.0600368e-11 -1.7459972e-13 -104.1222 41.011707 -60.58625 0.99792217 -0.026439267 0.010413912 -0.015384385 0.00025339774 -0 0 -0 0 -0.19035977 0.074979007 -0.11076586 0.0018244355
-0 0 -0 0 -0 0 -0 0 -104.029 37.3755 -62.2312 1 -0 0 -0 0 -0 0 -0 0 -0 0 -0 0
-0 0 -0 0 3.3306164e-12 -1.2713909e-12 1.8712966e-12 -3.1992242e-14 -103.54485 39.526011 -58.176357 0.99460025 -0.068680456 0.026217282 -0.038587904 0.00065971026 -0 0 -0 0 -0.49347119 0.18837198 -0.27725528 0.0047400385
-0 0 -0 0 7.5051842e-12 -2.8484336e-12 4.5807224e-12 -7.2318214e-14 -103.78 39.3875 -63.3412 1 -0 0 -0 0 -0 0 -0 0 -0 0 -0 0
-0 0 -0 0 6.0452675e-12 -2.2118625e-12 3.4798705e-12 -5.8295733e-14 -103.39202 37.829414 -59.516113 0.99703004 -0.037593476 0.013754826 -0.021640139 0.00036252146 -0 0 -0 0 -0.27039124 0.098931645 -0.15564679 0.0026074372
-0 0 -0 0 -8.0359662e-14 3.1918014e-14 -4.5120309e-14 7.7772181e-16 -102.57828 40.743017 -57.59561 0.9927539 -0.091495011 0.036340858 -0.05137258 0.00088548987 -6.7309284e-07 2.6734541e-07 -3.7792788e-07 6.5142009e-09 -0.65722229 0.2610418 -0.36901689 0.0063606056
-0 0 -0 0 1.5950363e-11 -6.4249423e-12 9.6650731e-12 -1.5473921e-13 -102.94658 41.467759 -62.380158 0.99871532 -0.016141843 0.0065020721 -0.0097810998 0.00015659682 -0 0 -0 0 -0.11628195 0.046839362 -0.070460689 0.0011280858
-0 0 -0 0 -2.6487801e-11 1.0293891e-11 -1.4534538e-11 2.5726303e-13 -101.7149 39.529219 -55.813581 0.98790694 -0.15224663 0.059167245 -0.083541641 0.0014786969 -4.4424642e-06 1.7264643e-06 -2.4376943e-06 4.3147476e-08 -1.0928501 0.42471173 -0.59967494 0.010614317
-0 0 -0 0 1.4431745e-11 -5.8847145e-12 8.3022893e-12 -1.404946e-13 -102.15145 41.653461 -58.765651 0.9944554 -0.069563596 0.028365377 -0.04001852 0.0006772091 -0 0 -0 0 -0.49998331 0.20387409 -0.28763022 0.0048673914
-0 0 -0 0 -5.4703917e-11 2.2347845e-11 -3.0081401e-11 5.4017356e-13 -99.422468 40.616431 -54.671902 0.98174668 -0.22612118 0.092375854 -0.12434287 0.0022328325 -8.6989787e-06 3.5537386e-06 -4.7835235e-06 8.5898023e-08 -1.6224023 0.66278972 -0.89215063 0.016020403
-0 0 -0 0 -2.0415178e-12 7.6970433e-13 -1.1292088e-12 2.0066227e-14 -100.05405 37.72293 -55.342115 0.98343847 -0.20609348 0.077702502 -0.11399488 0.0020257077 -7.4691727e-06 2.8160688e-06 -4.1313653e-06 7.341504e-08 -1.4788523 0.55756507 -0.81798605 0.014535746
-0 0 -0 0 -0 0 -0 0 -99.18014 38.846288 -53.558469 0.97770293 -0.27673516 0.10838998 -0.14944031 0.0027280136 -1.1836332e-05 4.6359843e-06 -6.3917617e-06 1.1668078e-07 -1.9851127 0.77751717 -1.0719848 0.019568943
-0 0 -0 0 1.0932522e-11 -4.027372e-12 6.5450778e-12 -1.0780942e-13 -100.92457 37.179048 -60.421476 0.99525243 -0.058816698 0.021667161 -0.035212355 0.00058001201 -4.7802917e-07 1.7609854e-07 -2.8618629e-07 4.7140126e-09 -0.42261502 0.15568483 -0.25301098 0.0041675544
-0 0 -0 0 1.3195462e-11 -5.1461704e-12 8.2107008e-12 -1.3017898e-13 -101.15208 39.448851 -62.940534 0.99790929 -0.025861127 0.010085722 -0.016091742 0.00025513128 -0 0 -0 0 -0.18606168 0.072563211 -0.1157744 0.0018355795
-0 0 -0 0 1.675307e-11 -6.948451e-12 1.0001024e-11 -1.6547713e-13 -100.67019 41.753652 -60.096745 0.99436185 -0.069731097 0.028921452 -0.041627139 0.00068876342 -7.8411574e-07 3.2521739e-07 -4.6809094e-07 7.7450415e-09 -0.50107973 0.20782626 -0.29912789 0.0049493756
-0 0 -0 0 1.000607e-11 -3.7454872e-12 6.2634094e-12 -9.9181947e-14 -100.596 37.655247 -62.969171 0.99712547 -0.035403714 0.013252372 -0.022161344 0.00035092792 -0 0 -0 0 -0.25459641 0.095300915 -0.15936742 0.002523605
-0 0 -0 0 1.321828e-11 -5.3958691e-12 8.0892275e-12 -1.3093369e-13 -100.59083 41.062451 -61.558852 0.99640265 -0.044335379 0.018098263 -0.027132045 0.00043916416 -0 0 -0 0 -0.31883171 0.13015114 -0.19511633 0.003158188
-0 0 -0 0 7.1963263e-12 -2.6723382e-12 4.1047333e-12 -7.1341875e-14 -99.347725 36.892535 -56.667235 0.98489878 -0.18630913 0.069185442 -0.1062694 0.0018470039 -6.4632012e-06 2.400094e-06 -3.686564e-06 6.4073929e-08 -1.3369598 0.49647675 -0.76259232 0.013254154
-0 0 -0 0 -0 0 -0 0 -98.975495 41.5218 -57.156912 0.98697169 -0.15974124 0.067014 -0.092248248 0.0015929204 -5.1362696e-06 2.1547471e-06 -2.9661212e-06 5.121826e-08 -1.146759 0.48108371 -0.66223669 0.011435342
-0 0 -0 0 -0 0 -0 0 -96.478865 36.52697 -52.259574 0.96495365 -0.42896313 0.16240576 -0.23235587 0.0042903649 -1.9902152e-05 7.5349695e-06 -1.0780371e-05 1.9905556e-07 -3.0750524 1.1642171 -1.6656594 0.030755783
-0 0 -0 0 -0 0 -0 0 -95.998162 39.752112 -52.222391 0.96683065 -0.403175 0.16695171 -0.21932464 0.0040605147 -1.8161473e-05 7.5205283e-06 -9.8797258e-06 1.8291046e-07 -2.8902445 1.1968284 -1.5722747 0.029108651
-0 0 -0 0 -1.0134453e-12 3.7777917e-13 -5.713716e-13 1.0200296e-14 -96.52385 35.980926 -54.419304 0.97150959 -0.34644479 0.12914326 -0.19532255 0.0034869562 -1.5554236e-05 5.7981091e-06 -8.7693423e-06 1.5655291e-07 -2.48419 0.92602459 -1.4005647 0.025003297
-0 0 -0 0 -6.9670461e-11 2.9379826e-11 -3.9444458e-11 7.0409123e-13 -96.497553 40.692731 -54.632819 0.97520642 -0.30022631 0.12660454 -0.16997539 0.0030340937 -1.29365e-05 5.4552837e-06 -7.3240975e-06 1.3073656e-07 -2.1531075 0.90795904 -1.2189981 0.021759353
-0 0 -0 0 -0 0 -0 0 -93.355338 36.070271 -48.740027 0.94382789 -0.6806618 0.26299145 -0.35536773 0.0068815304 -2.8683545e-05 1.1082636e-05 -1.4975435e-05 2.8999231e-07 -4.8753712 1.8837269 -2.5453898 0.049290286
-0 0 -0 0 2.3332434e-11 -8.7875106e-12 1.3863242e-11 -2.3623547e-13 -97.028753 36.543174 -57.650784 0.98239357 -0.21272125 0.080115527 -0.12639085 0.0021537532 -7.6069353e-06 2.8649401e-06 -4.5197508e-06 7.7018451e-08 -1.5262181 0.5748075 -0.90682059 0.015452604
-0 0 -0 0 3.9342665e-12 -1.6690494e-12 2.3455563e-12 -3.9888378e-14 -97.089698 41.188746 -57.88356 0.98436406 -0.18861482 0.08001681 -0.1124496 0.0019123105 -6.5687803e-06 2.7866996e-06 -3.9162176e-06 6.6598943e-08 -1.3535806 0.57423485 -0.80698639 0.013723558
-0 0 -0 0 1.2576296e-09 -5.1077598e-10 6.6691579e-10 -1.275454e-11 -93.874571 38.12639 -49.781299 0.95205062 -0.57904888 0.23517597 -0.30706724 0.0058725578 -2.5967385e-05 1.0546441e-05 -1.3770397e-05 2.6335423e-07 -4.1488541 1.6850232 -2.2001202 0.04207656
-0 0 -0 0 -0 0 -0 0 -97.733796 37.771741 -62.070283 0.99196749 -0.096743635 0.037389068 -0.061441436 0.00098191767 -0 0 -0 0 -0.69466082 0.26846956 -0.44117588 0.0070505903
-0 0 -0 0 -0 0 -0 0 -92.126175 33.917782 -49.639996 0.94079645 -0.71024968 0.26149022 -0.38270113 0.0072531002 -3.0320064e-05 1.1162835e-05 -1.6337245e-05 3.0962979e-07 -5.0871448 1.8729168 -2.7410868 0.05195014
-0 0 -0 0 -0 0 -0 0 -96.527336 37.699211 -60.387209 0.98776173 -0.14624663 0.057117316 -0.091491446 0.0014965379 -3.0280463e-06 1.1826179e-06 -1.8943366e-06 3.0985919e-08 -1.0497141 0.40997083 -0.65669795 0.010741697
-0 0 -0 0 -0 0 -0 0 -89.372588 33.300266 -45.599022 0.9167162 -0.99522368 0.37082079 -0.50777568 0.010208249 -3.6838926e-05 1.37262e-05 -1.8795685e-05 3.7786576e-07 -7.1242518 2.6544994 -3.6348832 0.07307517
-0 0 -0 0 -5.6717202e-13 2.339546e-13 -3.4586983e-13 5.8161348e-15 -95.850547 39.537699 -58.451072 0.98291115 -0.20383079 0.084078814 -0.12429901 0.0020902077 -6.9513698e-06 2.8673928e-06 -4.2390475e-06 7.1283671e-08 -1.4626157 0.60331906 -0.89192458 0.014998572
-0 0 -0 0 9.0738925e-10 -3.8435661e-10 4.9994361e-10 -9.3307878e-12 -92.981782 39.385702 -51.230106 0.95614233 -0.52227803 0.22122922 -0.28775915 0.0053706449 -2.3904142e-05 1.012544e-05 -1.3170448e-05 2.4580904e-07 -3.7427159 1.5853589 -2.0621215 0.038486777
-0 0 -0 0 -0 0 -0 0 -89.419372 35.45886 -45.418703 0.92068173 -0.94413999 0.37439457 -0.47955619 0.0097210752 -3.6765106e-05 1.4579042e-05 -1.8674068e-05 3.785417e-07 -6.7594515 2.6804309 -3.4333223 0.069596816
-0 0 -0 0 3.0158466e-09 -1.2672258e-09 1.6129993e-09 -3.1146559e-11 -91.314831 38.369495 -48.838943 0.94306614 -0.67531625 0.28376051 -0.36118702 0.006974419 -2.9601619e-05 1.2438277e-05 -1.5832169e-05 3.0571469e-07 -4.8374233 2.0326325 -2.5872538 0.049959137
-0 0 -0 0 -7.7698241e-11 3.3336843e-11 -4.6348342e-11 8.0704483e-13 -93.574052 40.148444 -55.818538 0.97194549 -0.33054515 0.14182215 -0.19717589 0.0034333435 -1.4900191e-05 6.3930063e-06 -8.8882215e-06 1.5476699e-07 -2.3703875 1.0170273 -1.4139771 0.024621007
-0 0 -0 0 5.809734e-11 -2.2022632e-11 3.397708e-11 -6.0183293e-13 -92.690178 35.135544 -54.208017 0.96018167 -0.47065235 0.17840754 -0.27525172 0.0048755087 -2.1369123e-05 8.100273e-06 -1.2497309e-05 2.2136369e-07 -3.3731486 1.2786404 -1.9727192 0.034942596
-0 0 -0 0 -0 0 -0 0 -92.682448 39.861923 -53.350593 0.96253451 -0.4416635 0.18995567 -0.25423379 0.0045868055 -2.0508039e-05 8.8203311e-06 -1.1804997e-05 2.1298203e-07 -3.1658683 1.3616127 -1.8223618 0.032878474
-0 0 -0 0 1.1098908e-08 -3.9964168e-09 5.4282305e-09 -1.1584253e-10 -83.860689 30.195968 -41.014409 0.87527843 -1.4660373 0.52788042 -0.71700644 0.015301458 -2.9125278e-05 1.0487226e-05 -1.424453e-05 3.0398901e-07 -10.483545 3.7748411 -5.12727 0.10941981
-0 0 -0 0 -0 0 -0 0 -86.460136 31.094577 -44.679389 0.90011541 -1.1764637 0.42310413 -0.60795277 0.012247877 -3.5348393e-05 1.2712718e-05 -1.8266738e-05 3.6800351e-07 -8.417865 3.0274062 -4.3500401 0.087636341
-0 0 -0 0 -0 0 -0 0 -88.048148 32.176881 -47.143388 0.91698673 -0.97703436 0.35705371 -0.52313093 0.010175427 -3.5423906e-05 1.294554e-05 -1.8966928e-05 3.68926e-07 -6.9937818 2.5558525 -3.7446622 0.072837478
-0 0 -0 0 2.1016313e-11 -8.2572968e-12 1.3003955e-11 -2.1906712e-13 -93.579967 36.767513 -57.903102 0.9754467 -0.28825317 0.11325449 -0.17835818 0.0030046559 -1.1886398e-05 4.6701585e-06 -7.3547717e-06 1.2389989e-07 -2.0672678 0.81222827 -1.2791329 0.021548518
-0 0 -0 0 -0 0 -0 0 -86.040378 34.102444 -42.732033 0.8981016 -1.1971041 0.47447696 -0.59454287 0.012495542 -3.4034913e-05 1.3489872e-05 -1.6903471e-05 3.5526122e-07 -8.5649834 3.3947651 -4.2538069 0.089402504
-0 0 -0 0 -0 0 -0 0 -83.255275 31.804226 -39.748456 0.87245537 -1.4932339 0.57042812 -0.71291271 0.015648017 -2.8850586e-05 1.102117e-05 -1.3774097e-05 3.0233338e-07 -10.677862 4.0790346 -5.0979176 0.11189631
-0 0 -0 0 5.7416338e-09 -2.4180137e-09 3.0703857e-09 -6.0183579e-11 -88.744975 37.373781 -47.457101 0.93022133 -0.81574774 0.34354145 -0.43622778 0.0085506356 -3.3033384e-05 1.3911576e-05 -1.7664873e-05 3.4625463e-07 -5.8412441 2.4599633 -3.1236531 0.061227691
-0 0 -0 0 2.750564e-09 -1.1788366e-09 1.5297511e-09 -2.8841733e-11 -90.122037 38.6245 -50.122188 0.94499738 -0.64252676 0.2753741 -0.35734709 0.0067373766 -2.8658291e-05 1.2282369e-05 -1.5938568e-05 3.0050374e-07 -4.6029072 1.9727138 -2.5599486 0.048264945
-0 0 -0 0 -0 0 -0 0 -91.28517 36.383771 -55.451212 0.96188473 -0.44288597 0.17652223 -0.26903126 0.0046667521 -1.997645e-05 7.9620664e-06 -1.2134702e-05 2.1049468e-07 -3.1743242 1.2651988 -1.9282445 0.033448303
-0 0 -0 0 -0 0 -0 0 -80.558259 30.149602 -37.682722 0.85182565 -1.7198285 0.64366019 -0.80448385 0.018185522 -2.2631446e-05 8.470008e-06 -1.0586307e-05 2.3930565e-07 -12.29319 4.6008291 -5.7503832 0.12998859
-0 0 -0 0 8.1808014e-10 -3.5161741e-10 4.7192187e-10 -8.6201443e-12 -90.374429 38.843655 -52.133853 0.9522791 -0.55463833 0.23838801 -0.31995149 0.005844247 -2.540503e-05 1.0919286e-05 -1.4655275e-05 2.6769385e-07 -3.9742069 1.708146 -2.2925812 0.041876382
-0 0 -0 0 -0 0 -0 0 -85.793638 35.573994 -44.349334 0.90734014 -1.0741285 0.44538314 -0.5552496 0.011359815 -3.6416886e-05 1.5100118e-05 -1.8824993e-05 3.8513931e-07 -7.6872974 3.1875076 -3.9737972 0.081299659
-0 0 -0 0 -0 0 -0 0 -78.755203 27.284391 -36.744196 0.83487526 -1.9122824 0.66250177 -0.89219857 0.020271896 -2.3782351e-05 8.2392902e-06 -1.1095945e-05 2.5211409e-07 -13.664191 4.7338986 -6.3751943 0.14485259
-0 0 -0 0 -0 0 -0 0 -87.656825 33.155965 -50.408284 0.93108317 -0.79502591 0.30071647 -0.45719078 0.0084446961 -3.263213e-05 1.2343018e-05 -1.8765563e-05 3.4661564e-07 -5.6931169 2.1534066 -3.2739065 0.060471792
-0 0 -0 0 -0 0 -0 0 -89.220028 37.309766 -52.397037 0.94813956 -0.59773553 0.24995926 -0.35103744 0.0063521242 -2.660085e-05 1.1123864e-05 -1.5622117e-05 2.8268673e-07 -4.2823103 1.7907638 -2.5149103 0.045508032
-0 0 -0 0 1.4343381e-07 -4.9791773e-08 7.2507046e-08 -1.5246378e-09 -81.156657 28.172813 -41.025402 0.86265929 -1.5855201 0.55039925 -0.80149433 0.016853376 -2.4588842e-05 8.5357985e-06 -1.2429875e-05 2.613685e-07 -11.335098 3.9348788 -5.7299916 0.12048707
-0 0 -0 0 -0 0 -0 0 -83.384545 33.917645 -42.220877 0.88855938 -1.2826081 0.52171595 -0.64943497 0.013667683 -3.4153105e-05 1.3892177e-05 -1.7293061e-05 3.6394109e-07 -9.1752126 3.7321256 -4.6457712 0.09777257
-0 0 -0 0 -0 0 -0 0 -88.378182 35.037742 -53.232711 0.94499683 -0.63013048 0.24981674 -0.37954564 0.0067377637 -2.7377018e-05 1.0853684e-05 -1.6489962e-05 2.9273283e-07 -4.51386 1.7895306 -2.7188271 0.048265117
-0 0 -0 0 2.8231809e-09 -1.2035517e-09 1.5910742e-09 -3.035179e-11 -86.198255 36.747222 -48.579184 0.9267105 -0.83541496 0.35614618 -0.47081901 0.008981479 -3.3114725e-05 1.4117155e-05 -1.8662632e-05 3.5601374e-07 -5.9815968 2.5500176 -3.3710785 0.064307665
-0 0 -0 0 -0 0 -0 0 -77.993501 26.38987 -37.805613 0.83494807 -1.8927369 0.64042618 -0.91746208 0.020262419 -1.3945278e-05 4.7185223e-06 -6.7596632e-06 1.4928915e-07 -13.524948 4.5762996 -6.5559177 0.14478937
-0 0 -0 0 -0 0 -0 0 -77.642483 29.347113 -35.409947 0.8315161 -1.931659 0.7301237 -0.88096028 0.0206872 -1.5019786e-05 5.6771414e-06 -6.8499846e-06 1.6085516e-07 -13.800443 5.2162573 -6.2938862 0.14779654
-0 0 -0 0 -0 0 -0 0 -84.873422 35.950132 -45.699861 0.91103636 -1.0159899 0.43034642 -0.547057 0.010905696 -3.6096006e-05 1.5289311e-05 -1.9435795e-05 3.8745667e-07 -7.2719515 3.0802059 -3.9155623 0.078057559
-0 0 -0 0 -1.8997219e-06 6.4701442e-07 -8.4332632e-07 2.0463225e-08 -74.146985 25.253259 -32.915399 0.79868871 -2.2959645 0.78196823 -1.0192267 0.024731429 -0 0 -0 0 -16.392949 5.5831721 -7.2771732 0.17657984
-0 0 -0 0 -0 0 -0 0 -83.110315 34.828437 -43.575855 0.89524282 -1.1925734 0.49976308 -0.62528225 0.012846092 -3.5528405e-05 1.4888631e-05 -1.862802e-05 3.8270279e-07 -8.5325763 3.5756849 -4.4737444 0.091910705
-0 0 -0 0 -0 0 -0 0 -74.287478 26.822503 -32.632341 0.8024971 -2.2459417 0.81092775 -0.98657725 0.024261985 -0 0 -0 0 -16.036981 5.7903697 -7.0445819 0.17324091
-0 0 -0 0 -0 0 -0 0 -85.971137 35.968617 -49.80205 0.92896075 -0.80563515 0.33706175 -0.4666948 0.0087052871 -3.2371227e-05 1.3543479e-05 -1.8752264e-05 3.4978716e-07 -5.7686951 2.4135075 -3.341736 0.06233361
-0 0 -0 0 -0 0 -0 0 -78.19287 26.846534 -39.800641 0.84518213 -1.7582004 0.6036559 -0.89493457 0.019004285 -1.3698523e-05 4.7032148e-06 -6.9726304e-06 1.4806653e-07 -12.564916 4.3140051 -6.3956176 0.13581344
-0 0 -0 0 -0 0 -0 0 -83.091055 30.833419 -46.473147 0.89818457 -1.1550251 0.4286066 -0.64601002 0.012485409 -3.3845774e-05 1.2559486e-05 -1.8930072e-05 3.6586071e-07 -8.2638865 3.066562 -4.6220236 0.089329656
-0 0 -0 0 -3.0963014e-07 1.2726166e-07 -1.5566622e-07 3.3503048e-09 -80.54017 33.102966 -40.491483 0.87147238 -1.4572762 0.59895782 -0.73264403 0.015768231 -2.9611652e-05 1.217074e-05 -1.4887225e-05 3.2040827e-07 -10.421024 4.2831643 -5.2391582 0.11275906
-0 0 -0 0 2.3865864e-08 -9.1429608e-09 1.379643e-08 -2.5827208e-10 -84.713641 32.453612 -48.971442 0.91675576 -0.94290097 0.36122332 -0.54507421 0.010203904 -3.3873616e-05 1.2976909e-05 -1.9581732e-05 3.6657417e-07 -6.7493244 2.5856515 -3.9016638 0.073039972
-0 0 -0 0 -6.3098412e-06 2.0377743e-06 -2.8497607e-06 6.8643129e-08 -72.223846 23.324818 -32.618995 0.78570453 -2.4205865 0.78173266 -1.0932276 0.026332934 -0 0 -0 0 -17.277961 5.5799476 -7.8033744 0.18796246
-0 0 -0 0 3.8795381e-07 -1.3764835e-07 2.0520535e-07 -4.2345131e-09 -78.35881 27.802179 -41.447324 0.85528586 -1.6271514 0.57732313 -0.86066992 0.017760346 -2.2887453e-05 8.1206064e-06 -1.2106152e-05 2.4981639e-07 -11.631116 4.12679 -6.1521942 0.12695355
-0 0 -0 0 -0 0 -0 0 -82.618863 34.474447 -45.853423 0.902463 -1.0948613 0.45685375 -0.60764739 0.011959397 -3.3650558e-05 1.4041399e-05 -1.8676041e-05 3.6757204e-07 -7.8344422 3.2690848 -4.348111 0.085577239
-0 0 -0 0 -4.9475498e-06 1.8475338e-06 -2.177242e-06 5.4403713e-08 -72.070119 26.912711 -31.715515 0.79248965 -2.3187155 0.86586398 -1.0203848 0.025496809 -4.3263096e-05 1.6155478e-05 -1.9038561e-05 4.7572498e-07 -16.552518 6.1811071 -7.2841787 0.18201301
-0 0 -0 0 -8.4726853e-07 2.8235464e-07 -4.2051721e-07 9.2590469e-09 -75.000683 24.99419 -37.224418 0.819616 -2.0270512 0.67552056 -1.0060682 0.022151847 -0 0 -0 0 -14.479365 4.8252893 -7.1864136 0.15823215
-0 0 -0 0 -2.1942668e-05 7.1313052e-06 -9.3081249e-06 2.3995455e-07 -69.626292 22.628349 -29.535617 0.76139993 -2.6824732 0.87179623 -1.1379107 0.029334247 -0.00072751816 0.00023644135 -0.0003086147 7.9557916e-06 -19.135585 6.2190112 -8.1173546 0.20925763
-0 0 -0 0 -0 0 -0 0 -84.373453 33.344031 -50.558478 0.92360109 -0.85534339 0.33802808 -0.51254107 0.0093630882 -3.3257374e-05 1.3143173e-05 -1.9928569e-05 3.6405463e-07 -6.1238703 2.4201276 -3.6695613 0.06703546
-0 0 -0 0 -2.507865e-05 8.5697825e-06 -1.0315395e-05 2.7570287e-07 -68.722687 23.48366 -28.267139 0.75550487 -2.7345194 0.93442977 -1.1247674 0.030062019 -0.00076346837 0.00026088956 -0.00031403118 8.3932118e-06 -19.504605 6.6650407 -8.0226691 0.21442444
-0 0 -0 0 -0 0 -0 0 -74.193775 28.494469 -33.976174 0.81332134 -2.0915376 0.80326487 -0.95779523 0.022927694 -2.2078904e-06 8.479507e-07 -1.0110776e-06 2.4203167e-08 -14.937885 5.7369651 -6.8406301 0.16375094
-0 0 -0 0 3.4664395e-08 -1.4292584e-08 2.0001601e-08 -3.8032726e-10 -83.075708 34.253203 -47.93527 0.91148153 -0.98905612 0.40780079 -0.57069236 0.010851624 -3.344193e-05 1.3788546e-05 -1.9296229e-05 3.6691474e-07 -7.0788022 2.9186829 -4.0845188 0.077666476
-0 0 -0 0 -1.1649853e-05 4.1983055e-06 -4.9703334e-06 1.2791873e-07 -70.811605 25.51867 -30.211307 0.77753175 -2.4901578 0.89738842 -1.0624095 0.027342647 -0.00016941088 6.1051298e-05 -7.2278043e-05 1.8601801e-06 -17.770356 6.4039766 -7.5816061 0.19512362
-0 0 -0 0 1.3457468e-07 -5.6447029e-08 7.3001132e-08 -1.4822535e-09 -80.348531 33.701999 -43.585715 0.88498733 -1.2808031 0.5372298 -0.69478208 0.014107222 -3.0180369e-05 1.2659083e-05 -1.6371587e-05 3.3241733e-07 -9.1612359 3.8426585 -4.969587 0.10090511
-0 0 -0 0 8.4094795e-08 -3.3691962e-08 4.8341509e-08 -9.2827342e-10 -81.568336 32.679755 -46.889186 0.90038531 -1.1065652 0.44333722 -0.63610395 0.012214728 -3.3118031e-05 1.3268496e-05 -1.9037749e-05 3.6557063e-07 -7.9177653 3.1721945 -4.5514913 0.087399596
-0 0 -0 0 -1.9858915e-07 8.2600315e-08 -1.0180352e-07 2.1894972e-09 -78.146993 32.504124 -40.060794 0.861591 -1.5404783 0.64073992 -0.78970133 0.016984176 -2.1553863e-05 8.9650207e-06 -1.1049239e-05 2.3763696e-07 -11.013307 4.5808273 -5.6457938 0.12142458
-0 0 -0 0 -1.0260036e-05 3.2513362e-06 -4.7708906e-06 1.1316986e-07 -70.5972 22.371776 -32.827517 0.77869855 -2.4657726 0.78138669 -1.1465779 0.027197871 -8.6000279e-05 2.7252907e-05 -3.9989909e-05 9.48597e-07 -17.597431 5.576507 -8.1827602 0.19410251
-0 0 -0 0 3.1824152e-07 -1.1509474e-07 1.7486003e-07 -3.511309e-09 -78.135895 28.258508 -42.932314 0.86211023 -1.5335673 0.55462758 -0.84262924 0.016920572 -2.6782794e-05 9.6862242e-06 -1.4715993e-05 2.9550722e-07 -10.963811 3.965155 -6.0241425 0.1209689
-0 0 -0 0 -4.0928142e-05 1.2700828e-05 -1.7000888e-05 4.5389926e-07 -66.174836 20.535386 -27.487956 0.73388891 -2.9514423 0.91589206 -1.2259814 0.03273194 -0.00189666 0.00058857184 -0.00078784186 2.1034245e-05 -21.041884 6.5297208 -8.7404579 0.23335766
-0 0 -0 0 -3.9749957e-05 1.1977969e-05 -1.7118818e-05 4.4318039e-07 -65.937991 19.869285 -28.397023 0.73515612 -2.9217684 0.88042492 -1.2582962 0.032575393 -0.0017446464 0.00052571933 -0.00075135384 1.9451419e-05 -20.830957 6.2770523 -8.9711127 0.23224859
-0 0 -0 0 -4.8783281e-05 1.6216617e-05 -1.9343381e-05 5.4416353e-07 -65.006895 21.609697 -25.776313 0.72513329 -3.0313437 1.0076842 -1.2019781 0.033813771 -0.0031616371 0.0010509965 -0.0012536416 3.5267156e-05 -21.606751 7.1825513 -8.5674357 0.24101712
-0 0 -0 0 -0 0 -0 0 -73.863074 30.252667 -36.602182 0.82898329 -1.8709805 0.76631188 -0.92714757 0.02099847 -1.323016e-06 5.4187784e-07 -6.5560867e-07 1.4848531e-08 -13.366744 5.4747201 -6.6237697 0.15001823
-0 0 -0 0 4.5894354e-07 -1.8880401e-07 2.5137142e-07 -5.1269214e-09 -77.811139 32.010592 -42.618523 0.86923892 -1.4361696 0.59082338 -0.78661525 0.016043648 -2.5878618e-05 1.0646161e-05 -1.4174172e-05 2.890936e-07 -10.269066 4.2245737 -5.6245474 0.11471715
-0 0 -0 0 1.0663521e-06 -3.7782584e-07 5.763961e-07 -1.1914549e-08 -75.020613 26.581019 -40.550947 0.83821914 -1.7775552 0.6298166 -0.9608232 0.019860952 -1.9550412e-05 6.9270277e-06 -1.0567598e-05 2.1844036e-07 -12.701813 4.5004582 -6.8657203 0.1419197
-0 0 -0 0 -1.6783224e-05 5.2569525e-06 -7.9555383e-06 1.8801152e-07 -68.536598 21.467486 -32.487531 0.76777082 -2.5483234 0.79820269 -1.2079493 0.028547205 -0.00029244 9.1599991e-05 -0.00013862161 3.2760147e-06 -18.181769 5.6950141 -8.6184728 0.20367851
-0 0 -0 0 -3.1236613e-05 1.1189174e-05 -1.3035018e-05 3.510142e-07 -66.442697 23.800241 -27.726492 0.7466344 -2.7727051 0.99320246 -1.157048 0.031157631 -0.0012656742 0.00045337338 -0.00052816498 1.422272e-05 -19.772901 7.0827922 -8.2512184 0.22219339
-0 0 -0 0 -1.5659451e-05 5.8300839e-06 -6.9037311e-06 1.7612323e-07 -68.498601 25.502337 -30.198755 0.77040982 -2.5092557 0.93420716 -1.1062474 0.02822182 -0.00027861346 0.00010372904 -0.00012283141 3.1335902e-06 -17.903749 6.6656462 -7.8931675 0.20136505
-0 0 -0 0 -0 0 -0 0 -72.369429 24.894095 -37.892194 0.81444276 -2.0250309 0.69658295 -1.0602939 0.022789619 -0 0 -0 0 -14.46314 4.9751224 -7.5728122 0.16276762
-0 0 -0 0 8.0708034e-07 -3.2254073e-07 4.5315184e-07 -9.1008052e-09 -76.57856 30.603774 -42.996607 0.86351572 -1.4851898 0.59353968 -0.83389035 0.016747308 -2.531264e-05 1.0115916e-05 -1.4212302e-05 2.8543057e-07 -10.618525 4.2435762 -5.9619893 0.11973669
-0 0 -0 0 6.8050217e-07 -2.8111221e-07 3.6571085e-07 -7.6651426e-09 -75.862804 31.338564 -40.769673 0.85451487 -1.5851425 0.65481485 -0.85187655 0.017854967 -1.8350498e-05 7.5805036e-06 -9.8618002e-06 2.066991e-07 -11.330835 4.6807142 -6.0893406 0.12762997
-0 0 -0 0 -8.4232445e-06 2.7623555e-06 -4.2457499e-06 9.499682e-08 -70.055176 22.9742 -35.311423 0.79007785 -2.2872242 0.75008226 -1.152879 0.02579517 -6.9379003e-05 2.2752453e-05 -3.4970598e-05 7.8245202e-07 -16.326223 5.3540926 -8.2292586 0.18412611
-0 0 -0 0 -4.8540472e-05 1.6957026e-05 -1.9438875e-05 5.4797837e-07 -64.228776 22.437545 -25.721529 0.72508524 -2.9957895 1.0465428 -1.199716 0.033819776 -0.0032301293 0.0011284066 -0.0012935614 3.6465261e-05 -21.353156 7.4594665 -8.5512422 0.24105797
-0 0 -0 0 -7.7515942e-05 2.5050746e-05 -2.9216751e-05 8.7541353e-07 -61.570884 19.897798 -23.206855 0.69534064 -3.320122 1.0729604 -1.2513965 0.037495252 -0.008914643 0.0028809358 -0.0033600431 0.00010067605 -23.647802 7.6422353 -8.9131593 0.26706255
-0 0 -0 0 -3.142723e-06 1.2621149e-06 -1.4979023e-06 3.5547627e-08 -71.102946 28.554883 -33.889486 0.8042519 -2.1259099 0.85376365 -1.0132632 0.024046361 -0 0 -0 0 -15.179941 6.0962517 -7.2351491 0.1717017
-0 0 -0 0 -1.0428238e-05 4.1004149e-06 -4.8031577e-06 1.1885915e-07 -68.544837 26.952037 -31.571168 0.78126149 -2.3585506 0.92738925 -1.0863283 0.026882328 -7.4007951e-06 2.910015e-06 -3.4087431e-06 8.4352907e-08 -16.832695 6.6186666 -7.7529959 0.19185597
-0 0 -0 0 -8.5015277e-05 2.4855721e-05 -3.3296769e-05 9.6197571e-07 -60.818027 17.781227 -23.819764 0.68817591 -3.3919159 0.99168663 -1.3284652 0.038380639 -0.010823121 0.0031643308 -0.0042389434 0.00012246716 -24.154849 7.0620975 -9.4603987 0.27332003
-0 0 -0 0 -4.0956422e-05 1.2180934e-05 -1.852716e-05 4.6404443e-07 -64.675929 19.235402 -29.256981 0.73279117 -2.9008851 0.86275823 -1.3122523 0.032867606 -0.00163595 0.00048655127 -0.00074004282 1.8535639e-05 -20.681209 6.1508412 -9.3554085 0.23432222
-0 0 -0 0 9.0666603e-07 -3.6893255e-07 4.828697e-07 -1.0307509e-08 -73.837932 30.045481 -39.324403 0.83943275 -1.7338629 0.7055282 -0.92341591 0.019711566 -9.0052966e-06 3.6643559e-06 -4.796016e-06 1.0237747e-07 -12.389897 5.0415877 -6.5985772 0.14085559
-0 0 -0 0 -2.6314109e-05 9.8923081e-06 -1.1402825e-05 2.996761e-07 -66.232193 24.898782 -28.70073 0.75427997 -2.6530189 0.99735396 -1.1496461 0.030213692 -0.00096532461 0.00036289614 -0.00041830898 1.0993521e-05 -18.922297 7.1134914 -8.1996941 0.21549504
-0 0 -0 0 -8.6996461e-05 2.438506e-05 -3.5975927e-05 9.9703811e-07 -59.811241 16.765058 -24.733935 0.68547716 -3.3779948 0.94685006 -1.3969131 0.038714098 -0.011649084 0.0032652319 -0.0048172834 0.00013350636 -24.053928 6.7423027 -9.9470984 0.27567424
-0 0 -0 0 -0.00011202333 3.198848e-05 -4.2207428e-05 1.2832555e-06 -57.834068 16.514631 -21.790348 0.66250384 -3.6273901 1.0358083 -1.3667047 0.041552669 -0.019197638 0.0054819229 -0.0072331624 0.00021991379 -25.815432 7.371647 -9.7265723 0.29572229
-0 0 -0 0 -0 0 -0 0 -72.061078 29.156413 -37.126666 0.8230416 -1.9025997 0.76980505 -0.98024043 0.021730436 -0 0 -0 0 -13.590923 5.4989818 -7.0021939 0.15522797
-0 0 -0 0 8.7846099e-07 -3.4742499e-07 4.8696056e-07 -1.0045685e-08 -73.612372 29.113162 -40.805821 0.84179799 -1.6982475 0.67164464 -0.94139586 0.019420395 -1.24308e-05 4.9162919e-06 -6.8908119e-06 1.4215304e-07 -12.135969 4.7996883 -6.7273771 0.13878149
-0 0 -0 0 -8.1088882e-05 2.7379322e-05 -3.0848022e-05 9.3012104e-07 -60.227655 20.335616 -22.911945 0.69083464 -3.3174156 1.1201115 -1.262019 0.038052048 -0.010040337 0.0033900776 -0.0038195683 0.00011516657 -23.625808 7.9771554 -8.9877853 0.27099722
-0 0 -0 0 -0 0 -0 0 -71.815509 27.017158 -39.237812 0.82427184 -1.8801015 0.70729848 -1.0272304 0.02157911 -5.7614594e-06 2.1674742e-06 -3.1478864e-06 6.61279e-08 -13.430384 5.0525412 -7.337954 0.15414898
-0 0 -0 0 -4.3220725e-05 1.2955113e-05 -2.0223131e-05 4.9683277e-07 -63.504324 19.034982 -29.713899 0.72999769 -2.8892666 0.86603768 -1.3518981 0.033212824 -0.0021786537 0.00065303637 -0.0010193998 2.5044155e-05 -20.596687 6.1737145 -9.6372631 0.23676394
-0 0 -0 0 -1.9948409e-05 6.446844e-06 -1.0023152e-05 2.3044854e-07 -65.979782 21.323072 -33.151785 0.76221339 -2.5305486 0.81781218 -1.2714835 0.02923347 -0.00029234751 9.4479655e-05 -0.00014689109 3.3772647e-06 -18.052757 5.834215 -9.0706744 0.20854954
-0 0 -0 0 -1.1280696e-06 4.0918262e-07 -6.0448342e-07 1.2995535e-08 -70.137797 25.440954 -37.583793 0.80799817 -2.047187 0.74257237 -1.0969984 0.023583908 -0 0 -0 0 -14.619415 5.3028735 -7.8339083 0.1684179
-0 0 -0 0 -0.00011970726 3.7232884e-05 -4.2921764e-05 1.3830116e-06 -56.681512 17.62981 -20.3235 0.65485743 -3.6783758 1.1440955 -1.318904 0.042497309 -0.022174341 0.0068969475 -0.0079507446 0.00025618639 -26.173318 8.1407605 -9.384602 0.30238769
-0 0 -0 0 -4.9738738e-06 1.9660252e-06 -2.4996036e-06 5.7575847e-08 -68.762617 27.179828 -34.556422 0.79597233 -2.1655144 0.85596378 -1.088272 0.025067247 -0 0 -0 0 -15.460064 6.1109059 -7.7694032 0.17896037
-0 0 -0 0 -6.8059613e-05 2.4387073e-05 -2.755473e-05 7.9409817e-07 -60.222183 21.57877 -24.381655 0.7026535 -3.1361512 1.1237435 -1.2697075 0.036591627 -0.0071281958 0.0025541701 -0.0028859334 8.3169548e-05 -22.34127 8.0053081 -9.0451243 0.26067091
-0 0 -0 0 -4.9703418e-05 1.8484403e-05 -2.0773931e-05 5.7714341e-07 -62.244191 23.148241 -26.015445 0.72276367 -2.9372615 1.0923499 -1.2276513 0.034106732 -0.0036163908 0.0013449141 -0.0015114987 4.1992608e-05 -20.934582 7.7854454 -8.7497716 0.24308703
-0 0 -0 0 -3.8167493e-05 1.4543636e-05 -1.6763691e-05 4.4633191e-07 -62.907542 23.970775 -27.629863 0.73564285 -2.7805083 1.0595063 -1.2212377 0.032515354 -0.0018976384 0.00072309076 -0.00083346902 2.2191045e-05 -19.823714 7.5537808 -8.7068493 0.23181916
-0 0 -0 0 -1.6673921e-06 6.5649732e-07 -9.1149486e-07 1.9422021e-08 -70.21986 27.647455 -38.386316 0.81793092 -1.9197095 0.75584149 -1.0494264 0.022361049 -4.9545547e-06 1.950742e-06 -2.7084517e-06 5.7711358e-08 -13.711024 5.3984005 -7.4952541 0.15970796
-0 0 -0 0 -0.00015105778 4.1321638e-05 -5.454056e-05 1.7617712e-06 -53.755977 14.70487 -19.409004 0.62695035 -3.9393743 1.0776101 -1.422341 0.045944512 -0.035400581 0.0096837777 -0.012781649 0.00041287328 -28.011097 7.6623951 -10.113619 0.3266905
-0 0 -0 0 -4.0654564e-05 1.2613752e-05 -1.9858801e-05 4.7506026e-07 -62.776178 19.47735 -30.664691 0.73355767 -2.8046516 0.87018965 -1.3700065 0.032773159 -0.0023503631 0.00072923912 -0.0011480973 2.7464668e-05 -19.994479 6.2036187 -9.7668344 0.23364123
-0 0 -0 0 -0.00011114656 3.6932707e-05 -4.08755e-05 1.3001361e-06 -56.512908 18.778581 -20.78331 0.66105937 -3.5675294 1.1854485 -1.3120024 0.041731151 -0.019153534 0.0063644964 -0.0070439454 0.00022404834 -25.388698 8.4363688 -9.3370029 0.29698413
-0 0 -0 0 -6.22603e-06 2.4173731e-06 -3.2175769e-06 7.2845136e-08 -67.670209 26.27423 -34.971579 0.79174779 -2.1870164 0.84915018 -1.1302376 0.025588297 -2.1334977e-06 8.2837057e-07 -1.1025795e-06 2.4962124e-08 -15.612166 6.0617169 -8.0682789 0.18266381
-0 0 -0 0 -0.00015809819 4.7348327e-05 -5.3551388e-05 1.8530982e-06 -52.906486 15.844797 -17.920609 0.62012675 -3.9916947 1.1954601 -1.3520762 0.046787395 -0.03837778 0.01149364 -0.012999411 0.00044983308 -28.378883 8.4991023 -9.6125619 0.33263416
-0 0 -0 0 -0.00014717955 3.8615477e-05 -5.6279871e-05 1.7283805e-06 -53.581928 14.058283 -20.489151 0.62923117 -3.8884086 1.0202012 -1.4868855 0.045662931 -0.033565367 0.0088065404 -0.012835034 0.00039416974 -27.65055 7.2546709 -10.573272 0.32471
-0 0 -0 0 -0.00014298073 4.5875011e-05 -5.0475441e-05 1.6945744e-06 -53.297399 17.100337 -18.81519 0.63166839 -3.8274358 1.2280232 -1.3511716 0.045361879 -0.03203576 0.010278594 -0.01130935 0.00037968039 -27.218586 8.7330152 -9.6087781 0.32258836
-0 0 -0 0 -1.5820703e-05 6.2075016e-06 -7.8081002e-06 1.8623306e-07 -65.463607 25.685676 -32.308704 0.77060341 -2.3954457 0.9398908 -1.1822408 0.028197937 -0.0002284943 8.9653333e-05 -0.00011277036 2.6897156e-06 -17.091803 6.7062375 -8.4354347 0.20119578
-0 0 -0 0 -3.1471403e-05 1.2151592e-05 -1.4597526e-05 3.7181298e-07 -63.083805 24.357625 -29.260452 0.74529176 -2.6513326 1.0237202 -1.2297799 0.031323671 -0.001304814 0.0005038087 -0.00060521789 1.541548e-05 -18.906626 7.3001386 -8.7695478 0.22336878
-0 0 -0 0 -0.00018424126 4.9369678e-05 -6.261735e-05 2.1755657e-06 -50.598847 13.558574 -17.19683 0.59748351 -4.1990116 1.125176 -1.4271015 0.049582951 -0.052807032 0.014150284 -0.017947317 0.0006235583 -29.83575 7.9948505 -10.140158 0.3523078
-0 0 -0 0 -5.7537103e-06 2.1748761e-06 -3.1119243e-06 6.7963604e-08 -67.161483 25.386732 -36.324639 0.79332051 -2.1498478 0.81263259 -1.1627564 0.025394292 -8.998124e-06 3.4012496e-06 -4.8666824e-06 1.0628706e-07 -15.347355 5.8012297 -8.300697 0.18128503
-0 0 -0 0 -0.00018216194 4.638863e-05 -6.4585288e-05 2.153884e-06 -50.654348 12.899433 -17.959436 0.59893735 -4.1782502 1.0640165 -1.4813934 0.049403658 -0.051338851 0.013073746 -0.018202126 0.00060703092 -29.689581 7.5606299 -10.526404 0.35104981
-0 0 -0 0 -0.00010505628 2.8794418e-05 -4.638837e-05 1.2492155e-06 -55.900759 15.321596 -24.68339 0.66471131 -3.4715576 0.9515041 -1.5328917 0.041280005 -0.017041565 0.0046708483 -0.0075248278 0.00020263984 -24.708337 6.7722006 -10.910147 0.2938048
-0 0 -0 0 -0.00018904738 5.4157644e-05 -6.1765648e-05 2.2461706e-06 -49.877454 14.288722 -16.295986 0.59262008 -4.2236306 1.2099712 -1.3799466 0.05018316 -0.056171812 0.016091908 -0.018352481 0.00066740663 -30.006854 8.5962607 -9.8038536 0.3565271
-0 0 -0 0 -7.3337236e-05 2.152127e-05 -3.4762472e-05 8.7211857e-07 -58.568162 17.187193 -27.761806 0.69648633 -3.1411098 0.9217783 -1.4889127 0.037353742 -0.0087501226 0.0025677781 -0.0041476323 0.00010405552 -22.372804 6.5654392 -10.604899 0.266055
-0 0 -0 0 -0.00017303635 4.3376903e-05 -6.4988697e-05 2.0578938e-06 -50.928203 12.766726 -19.127528 0.60568101 -4.0840517 1.0237936 -1.5338811 0.048570976 -0.046885995 0.011753422 -0.017609362 0.00055760767 -29.024886 7.2759835 -10.901117 0.34518835
-0 0 -0 0 -3.0893608e-05 1.1919904e-05 -1.4898569e-05 3.6914469e-07 -62.486671 24.109682 -30.134452 0.74664709 -2.607473 1.0060601 -1.2574645 0.031156438 -0.0014739062 0.00056868784 -0.00071079728 1.761156e-05 -18.594052 7.1742769 -8.9670574 0.22217849
-0 0 -0 0 -1.2500848e-05 4.6424146e-06 -6.6647102e-06 1.4907198e-07 -65.072333 24.16578 -34.692704 0.77598426 -2.3088935 0.85744908 -1.230965 0.027533438 -8.3729516e-05 3.1094459e-05 -4.4639607e-05 9.9847022e-07 -16.476477 6.1188357 -8.7842793 0.19648115
-0 0 -0 0 -6.4511076e-05 2.3998669e-05 -2.7764132e-05 7.7039557e-07 -59.03791 21.962605 -25.408603 0.70503466 -3.0394583 1.1307044 -1.3081152 0.036297414 -0.0066454951 0.0024721807 -0.0028600732 7.9360945e-05 -21.653521 8.0552942 -9.3191938 0.25858779
-0 0 -0 0 -9.0380485e-05 3.2542809e-05 -3.6206566e-05 1.0796715e-06 -56.791507 20.448609 -22.750768 0.67842266 -3.3137758 1.1931732 -1.3275039 0.03958586 -0.012733595 0.0045849162 -0.0051010985 0.00015211358 -23.592993 8.4950007 -9.4513907 0.28183829
-0 0 -0 0 -0.00022486845 5.6974343e-05 -7.1758112e-05 2.7029472e-06 -46.703528 11.833153 -14.903634 0.56138231 -4.4955667 1.1390302 -1.4345871 0.054037281 -0.081108955 0.020550368 -0.025882802 0.0009749399 -31.913372 8.0858093 -10.183925 0.38360277
-0 0 -0 0 -3.3064315e-05 1.2328325e-05 -1.6413144e-05 3.9757249e-07 -61.841471 23.058145 -30.69814 0.74359525 -2.6224978 0.97782175 -1.3018094 0.031533482 -0.0016949493 0.00063197699 -0.00084137376 2.0380438e-05 -18.699804 6.9723889 -9.2825928 0.22485049
-0 0 -0 0 -0.00019308411 5.8568408e-05 -6.2432756e-05 2.322604e-06 -48.819148 14.808364 -15.785421 0.58724433 -4.2270365 1.2821915 -1.3667906 0.050846918 -0.058786839 0.017831874 -0.019008423 0.00070714544 -30.027435 9.1082539 -9.7092173 0.36119928
-0 0 -0 0 -0.0002181419 6.1465601e-05 -6.7161164e-05 2.6258934e-06 -47.071908 13.263399 -14.492421 0.56663033 -4.4352751 1.2497225 -1.3655251 0.053389834 -0.076568471 0.021574613 -0.023573773 0.00092169661 -31.48943 8.8727419 -9.6949133 0.37905551
-0 0 -0 0 -4.8322713e-05 1.8190193e-05 -2.2641034e-05 5.834491e-07 -59.839007 22.525289 -28.036857 0.72249699 -2.827536 1.0643737 -1.3248085 0.034139709 -0.0035638496 0.0013415454 -0.0016697995 4.3029969e-05 -20.152345 7.5859779 -9.4421421 0.24331969
-0 0 -0 0 -9.1429971e-05 2.6474743e-05 -4.3000634e-05 1.103956e-06 -56.054048 16.231182 -26.362904 0.67681533 -3.2949609 0.95409899 -1.5496604 0.03978446 -0.013379572 0.00387423 -0.0062925765 0.00016154943 -23.45782 6.7925182 -11.0325 0.28323756
-0 0 -0 0 -0.00012337927 4.261081e-05 -4.7144881e-05 1.4928951e-06 -53.418269 18.448769 -20.41184 0.64636362 -3.5988928 1.2429295 -1.3751854 0.043546776 -0.024156713 0.0083428691 -0.0092306055 0.00029229739 -25.602858 8.8423161 -9.783197 0.30979582
-0 0 -0 0 -4.7014154e-05 1.6424746e-05 -2.3846021e-05 5.7336362e-07 -59.338927 20.730498 -30.097261 0.72367104 -2.7874684 0.97382293 -1.4138302 0.033994719 -0.0032973142 0.0011519414 -0.0016724288 4.0212571e-05 -19.867361 6.940811 -10.076912 0.24229346
-0 0 -0 0 -0.00015291944 3.8809961e-05 -6.4611277e-05 1.8554356e-06 -51.096584 12.967982 -21.589248 0.61997627 -3.8575892 0.97903111 -1.6299024 0.046805746 -0.037589303 0.0095399212 -0.015882172 0.00045608676 -27.425085 6.9603086 -11.587603 0.33276005
-0 0 -0 0 -5.1169406e-05 1.8502774e-05 -2.4741239e-05 6.2133631e-07 -59.200836 21.406926 -28.624566 0.71885979 -2.8485478 1.0300302 -1.3773191 0.034589148 -0.0040066348 0.0014487926 -0.001937273 4.8651487e-05 -20.300359 7.3405767 -9.8155532 0.24650179
-0 0 -0 0 -8.6278367e-05 3.14003e-05 -3.6713632e-05 1.0489669e-06 -56.022513 20.388931 -23.838999 0.68111815 -3.2285736 1.1750127 -1.3738399 0.039252793 -0.011894391 0.0043288653 -0.0050613647 0.00014461125 -22.987733 8.3661957 -9.7818629 0.27948339
-0 0 -0 0 -0.00021810806 5.054453e-05 -7.7671693e-05 2.6500427e-06 -46.503315 10.776714 -16.560558 0.56502163 -4.4104861 1.0220895 -1.5706431 0.05358801 -0.077782999 0.018025492 -0.027699743 0.00094507407 -31.311798 7.2562204 -11.150621 0.38044263
-0 0 -0 0 -0.00013530692 3.5550535e-05 -5.9850108e-05 1.6474064e-06 -52.15648 13.703591 -23.070298 0.63502233 -3.6916744 0.96995038 -1.6329328 0.044947353 -0.029909223 0.0078583482 -0.013229702 0.00036415465 -26.255101 6.8982642 -11.61338 0.31966451
-0 0 -0 0 -0.00014945483 5.0454776e-05 -5.5263401e-05 1.8309507e-06 -50.762353 17.136971 -18.770222 0.62188265 -3.8013852 1.2833178 -1.4056252 0.046570251 -0.036487715 0.012317966 -0.013491938 0.00044700601 -27.026525 9.1239425 -9.9935058 0.33109827
-0 0 -0 0 -0.00024539862 5.5840658e-05 -8.0321628e-05 2.9955667e-06 -44.367669 10.0959 -14.522019 0.54159355 -4.6266723 1.0528031 -1.51436 0.05647752 -0.098463949 0.022405553 -0.032228317 0.0012019437 -32.82755 7.469936 -10.744813 0.40072399
-0 0 -0 0 -6.3706401e-05 2.3755743e-05 -2.9390811e-05 7.7839958e-07 -57.660949 21.50143 -26.601755 0.70453295 -2.9757569 1.1096423 -1.372859 0.036359421 -0.0066800426 0.0024909487 -0.0030818233 8.1620407e-05 -21.19935 7.9051132 -9.7802746 0.25902523
-0 0 -0 0 -0.00026306301 6.1115117e-05 -7.9525465e-05 3.2246808e-06 -42.933732 9.9744167 -12.979115 0.52629057 -4.7611196 1.1061091 -1.4393139 0.058362788 -0.11587462 0.026920133 -0.035029566 0.0014204151 -33.767011 7.8447929 -10.207962 0.413923
-0 0 -0 0 -0.00011353346 3.2229774e-05 -5.2719064e-05 1.3930332e-06 -53.312682 15.134355 -24.75565 0.65413611 -3.4708321 0.9852966 -1.6116748 0.042586427 -0.02113479 0.0059997246 -0.0098139026 0.00025931971 -24.696138 7.0107168 -11.467608 0.30301675
-0 0 -0 0 -0.00024285606 7.0036944e-05 -7.0945464e-05 2.9856061e-06 -44.119473 12.723557 -12.888607 0.54239274 -4.5859115 1.322525 -1.3396808 0.056377942 -0.099018195 0.028555728 -0.028926154 0.0012173026 -32.537655 9.3834918 -9.5052146 0.40000903
-0 0 -0 0 -0.00012107249 4.2475269e-05 -4.8784436e-05 1.491564e-06 -52.481803 18.411934 -21.146795 0.64655455 -3.5328369 1.2394079 -1.4235063 0.043523119 -0.023853405 0.0083683733 -0.0096113899 0.00029386429 -25.132886 8.8172474 -10.126938 0.30962697
-0 0 -0 0 -0.0001952514 4.5905151e-05 -7.8693031e-05 2.4076338e-06 -47.157509 11.087104 -19.006098 0.58149654 -4.1810012 0.98298649 -1.6850873 0.051555686 -0.062737844 0.014750164 -0.025285509 0.00077361676 -29.695357 6.9816136 -11.96825 0.36617175
-0 0 -0 0 -0.00020717354 6.4681879e-05 -6.8878325e-05 2.5756128e-06 -45.857078 14.317089 -15.245957 0.57010214 -4.2600243 1.3300269 -1.4163167 0.052961268 -0.071813961 0.022421116 -0.023875759 0.00089280204 -30.247477 9.4435982 -10.056282 0.37604121
-0 0 -0 0 -8.8887974e-05 3.1725966e-05 -3.9918087e-05 1.0987728e-06 -54.786295 19.554368 -24.603599 0.677231 -3.2143064 1.1472528 -1.4434907 0.039733075 -0.012983147 0.0046339553 -0.005830512 0.00016048886 -22.883827 8.1677137 -10.27674 0.28287434
-0 0 -0 0 -0.00027407174 7.4414008e-05 -7.550422e-05 3.4133144e-06 -41.244518 11.198418 -11.362482 0.51366299 -4.8111464 1.3062882 -1.3254262 0.059918456 -0.12849267 0.034887415 -0.035398538 0.0016002594 -34.110468 9.2614317 -9.3971176 0.42481488
-0 0 -0 0 -0.00024091075 5.251268e-05 -8.5510144e-05 2.9798317e-06 -43.875955 9.5638902 -15.573565 0.54270289 -4.5549532 0.99286892 -1.6167593 0.056340341 -0.096897429 0.021121281 -0.034393289 0.001198527 -32.319054 7.0447671 -11.471497 0.39975526
-0 0 -0 0 -0.00017669822 5.7847024e-05 -6.2642429e-05 2.1863883e-06 -48.236761 15.791631 -17.100727 0.59686108 -4.0133427 1.3138782 -1.4227961 0.049659389 -0.05166694 0.016914595 -0.018316782 0.00063930465 -28.515453 9.3353183 -10.109198 0.35283804
-0 0 -0 0 -6.5685898e-05 2.3191353e-05 -3.2559297e-05 8.1333786e-07 -56.69248 20.016097 -28.101425 0.7019793 -2.9619075 1.0457442 -1.4681634 0.036675019 -0.00743027 0.0026233639 -0.0036830488 9.2003308e-05 -21.099017 7.449312 -10.458396 0.26125287
-0 0 -0 0 -7.982383e-05 2.8078549e-05 -3.759472e-05 9.887753e-07 -55.42797 19.497147 -26.104974 0.68658454 -3.1143452 1.0954911 -1.4667667 0.038577297 -0.010693342 0.0037614524 -0.0050362556 0.0001324581 -22.176912 7.8008722 -10.444685 0.27470471
-0 0 -0 0 -0.00017023004 4.3481797e-05 -7.416818e-05 2.1249192e-06 -48.15579 12.300416 -20.981181 0.60111108 -3.9362269 1.005429 -1.7149898 0.049134478 -0.048893532 0.012488857 -0.021302611 0.00061032004 -27.97022 7.1444229 -12.186452 0.349142
-0 0 -0 0 -0.00010820264 3.8349316e-05 -4.7414927e-05 1.3518655e-06 -52.599999 18.642557 -23.049576 0.6571755 -3.3785456 1.1974284 -1.4804952 0.042210978 -0.019414982 0.0068810824 -0.0085077401 0.00024256751 -24.041433 8.5207947 -10.535073 0.3003696
-0 0 -0 0 -8.5999581e-05 2.8809679e-05 -4.2641011e-05 1.0798473e-06 -54.059465 18.109807 -26.804203 0.67879364 -3.1489807 1.0549019 -1.5613532 0.039539941 -0.012425709 0.0041625863 -0.0061610159 0.00015602249 -22.419542 7.5104995 -11.11624 0.28150931
-0 0 -0 0 -9.6660251e-05 3.2836612e-05 -4.5088495e-05 1.2067492e-06 -53.572211 18.199103 -24.98949 0.66881912 -3.2658502 1.1094473 -1.5234004 0.040772314 -0.015859371 0.0053876129 -0.0073978204 0.00019799539 -23.245683 7.8968288 -10.843266 0.29020936
-0 0 -0 0 -0.00027782134 5.8600511e-05 -8.7689652e-05 3.4722937e-06 -40.778952 8.6014539 -12.871193 0.50966746 -4.8334248 1.0195083 -1.5255896 0.060409579 -0.13454006 0.028378368 -0.042465315 0.0016815216 -34.263705 7.2272008 -10.814764 0.42823797
-0 0 -0 0 -0.00014017785 4.8147759e-05 -5.6483683e-05 1.7544513e-06 -50.114881 17.21327 -20.19344 0.6272326 -3.6681081 1.2599079 -1.4780384 0.045909657 -0.032550433 0.011180299 -0.013115969 0.00040739781 -26.08272 8.958794 -10.509849 0.32644859
-0 0 -0 0 -0.00029816949 6.828389e-05 -8.241225e-05 3.7456879e-06 -39.103945 8.955207 -10.808095 0.49123461 -4.9893436 1.1426112 -1.3790245 0.062677518 -0.15974904 0.036584179 -0.044153672 0.0020068118 -35.350064 8.0955294 -9.7705446 0.44407731
-0 0 -0 0 -0.0002328851 5.0917566e-05 -8.9716377e-05 2.9280133e-06 -43.442194 9.4981207 -16.735619 0.54618918 -4.4469397 0.97227063 -1.7131337 0.055910397 -0.092202665 0.020159019 -0.035520044 0.0011592439 -31.55533 6.8991988 -12.156338 0.39673825
-0 0 -0 0 -0.00030281846 7.6820072e-05 -7.7524892e-05 3.8118998e-06 -38.67406 9.8109741 -9.9009893 0.48683174 -5.0221841 1.2740457 -1.285735 0.063219601 -0.16501344 0.0418612 -0.042245274 0.0020772006 -35.57874 9.0257422 -9.1085529 0.44786764
-0 0 -0 0 -0.00020071266 4.7829981e-05 -8.5141251e-05 2.5359734e-06 -45.334038 10.803136 -19.230459 0.57278856 -4.1654368 0.99262679 -1.7669563 0.05262965 -0.068853859 0.016407927 -0.029207443 0.00086995787 -29.577671 7.0483815 -12.546692 0.37370929
-0 0 -0 0 -0.00030185993 6.2167324e-05 -8.8342036e-05 3.8149995e-06 -38.493367 7.9276161 -11.265432 0.48649113 -5.0054764 1.0308658 -1.4648979 0.063260765 -0.16603923 0.034195379 -0.048592881 0.0020984553 -35.459315 7.3027605 -10.377489 0.44814584
-0 0 -0 0 -0.00018832617 6.1693824e-05 -6.8861837e-05 2.386156e-06 -46.01231 15.073186 -16.824493 0.58299147 -4.0544482 1.3281979 -1.482517 0.051371224 -0.059947763 0.019638305 -0.021920018 0.00075955835 -28.797605 9.433816 -10.529902 0.36487536
-0 0 -0 0 -0.00026228624 7.5247971e-05 -7.7781553e-05 3.3266565e-06 -40.956824 11.750208 -12.145835 0.51946791 -4.6677604 1.3391458 -1.3842345 0.059202631 -0.12085592 0.034672665 -0.035840085 0.0015328526 -33.098098 9.4955981 -9.8153127 0.41979328
-0 0 -0 0 -0.00011879173 3.968654e-05 -5.4656506e-05 1.5075494e-06 -50.872674 16.9958 -23.406702 0.64560951 -3.4387138 1.1488228 -1.5821647 0.043639663 -0.024127144 0.008060518 -0.011100987 0.00030619019 -24.462266 8.1724774 -11.255178 0.31044313
-0 0 -0 0 -0.00027564003 5.4800671e-05 -9.6448956e-05 3.5114229e-06 -39.80129 7.9129923 -13.926834 0.50703508 -4.7674662 0.94783166 -1.6681798 0.060733523 -0.13560204 0.026959375 -0.04744839 0.0017274564 -33.793466 6.7185619 -11.824641 0.43050043
-0 0 -0 0 -0.00013550842 4.6414444e-05 -5.866448e-05 1.7263297e-06 -49.393792 16.918398 -21.383624 0.62925956 -3.5840304 1.2276048 -1.5516031 0.045659288 -0.031016244 0.010623707 -0.013427593 0.00039513606 -25.486126 8.7295269 -11.033487 0.32468429
-0 0 -0 0 -0.00011700704 3.7473062e-05 -5.6257091e-05 1.4913049e-06 -50.751955 16.25399 -24.401587 0.64685545 -3.4118666 1.0926957 -1.6404286 0.043485704 -0.02361868 0.0075641969 -0.011355883 0.00030103021 -24.271943 7.773413 -11.669972 0.30935633
-0 0 -0 0 -0.00023587522 7.310538e-05 -7.6391601e-05 3.0112897e-06 -42.346663 13.124604 -13.714579 0.54061664 -4.4332725 1.3740149 -1.4357794 0.05659716 -0.096568405 0.02992968 -0.031275074 0.0012328359 -31.45356 9.7484782 -10.18669 0.40155036
1.7787757e-12 -3.866618e-13 4.7447178e-13 -2.2739863e-14 -0.00031874728 6.9287767e-05 -8.5022855e-05 4.0748641e-06 -36.670576 7.9712754 -9.7815331 0.46879652 -5.118597 1.1126563 -1.3653379 0.065436126 -0.19140674 0.041607086 -0.051055956 0.0024469431 -36.241901 7.878092 -9.667188 0.46331634
-9.4549897e-13 2.4543954e-13 -2.3438931e-13 1.2095265e-14 -0.00031382206 8.1464226e-05 -7.7796526e-05 4.0145586e-06 -36.982683 9.6002354 -9.1680114 0.47309978 -5.0739471 1.3171323 -1.2578321 0.064908304 -0.18272766 0.047433782 -0.045298207 0.0023375377 -35.931329 9.3273171 -8.9073805 0.45965036
-0 0 -0 0 -0.00014252674 4.5894023e-05 -6.3762494e-05 1.825008e-06 -48.607388 15.65172 -21.745592 0.62240161 -3.6319433 1.1694963 -1.6248303 0.04650584 -0.035282512 0.011361071 -0.015784414 0.00045178096 -25.821744 8.3146766 -11.551929 0.33063894
-0 0 -0 0 -0.00033008358 7.9607339e-05 -7.7049126e-05 4.2340501e-06 -35.695604 8.6088258 -8.3321778 0.45787486 -5.2059632 1.2555392 -1.215192 0.066777963 -0.20887267 0.050374507 -0.048755703 0.0026792528 -36.84853 8.8868809 -8.6012975 0.47266369
-0 0 -0 0 -0.00014033931 4.3459658e-05 -6.6497832e-05 1.8112342e-06 -48.301917 14.957924 -22.887192 0.62338969 -3.5939486 1.1129581 -1.7029426 0.046383884 -0.034377217 0.010645785 -0.016289166 0.00044367604 -25.552317 7.9129286 -12.10761 0.32978093
-0 0 -0 0 -0.00021970318 5.0808379e-05 -9.2894668e-05 2.8230485e-06 -43.059249 9.9578469 -18.206266 0.55328442 -4.2830931 0.99050463 -1.8109729 0.055035067 -0.084557244 0.01955464 -0.035752405 0.0010865077 -30.397681 7.029743 -12.852715 0.39059119
1.2213173e-12 -2.3705778e-13 3.4963384e-13 -1.5729504e-14 -0.00032109383 6.2324335e-05 -9.1921457e-05 4.135409e-06 -36.073309 7.0018319 -10.326923 0.46459282 -5.1208785 0.99396288 -1.4659846 0.065952457 -0.19720076 0.038276681 -0.056453844 0.002539774 -36.25329 7.0367662 -10.378447 0.46691082
-2.5662766e-13 4.8328318e-14 -7.9449315e-14 3.309864e-15 -0.00031140844 5.8644677e-05 -9.6408888e-05 4.0164011e-06 -36.648078 6.9015942 -11.345872 0.47266984 -5.0365745 0.94849158 -1.5592723 0.064959393 -0.18474953 0.034792173 -0.057196576 0.0023828134 -35.664486 6.7163634 -11.041362 0.45998393
-0 0 -0 0 -0.00019439452 5.0323781e-05 -8.6081273e-05 2.508488e-06 -44.533143 11.528494 -19.720049 0.57466049 -4.0606203 1.051191 -1.7981132 0.052398684 -0.065992322 0.017083728 -0.029222547 0.00085157206 -28.83475 7.464581 -12.768529 0.37208674
5.1792696e-14 -1.4929081e-14 1.5090678e-14 -6.6941748e-16 -0.00027818665 8.0186421e-05 -8.1054385e-05 3.5955456e-06 -38.78979 11.181034 -11.302061 0.5013557 -4.7530004 1.3700373 -1.3848671 0.061432244 -0.14143658 0.040768647 -0.04120994 0.0018280593 -33.685295 9.7096797 -9.8147805 0.43538041
-0 0 -0 0 -0.00022567444 7.0793364e-05 -7.9076931e-05 2.9239561e-06 -42.181326 13.232149 -14.78045 0.54652332 -4.3120078 1.3526633 -1.5109391 0.055868628 -0.090191456 0.028292776 -0.031603329 0.0011685677 -30.59745 9.5983238 -10.721429 0.39643656
-0 0 -0 0 -0.00025873067 7.7751786e-05 -8.1463811e-05 3.3565641e-06 -39.884084 11.985663 -12.557883 0.51742409 -4.5828246 1.3771958 -1.4429458 0.059453887 -0.12128119 0.036446507 -0.038186536 0.0015734048 -32.493552 9.7647166 -10.230903 0.42154526
-0 0 -0 0 -0.00019528614 6.2858683e-05 -7.8309897e-05 2.562178e-06 -43.516507 14.007089 -17.450154 0.57094191 -4.0287554 1.2967754 -1.6155341 0.052857765 -0.067159888 0.021617418 -0.026931169 0.00088114596 -28.606182 9.2077552 -11.471102 0.37531662
-0 0 -0 0 -0.00017050956 5.33383e-05 -7.4266405e-05 2.2179471e-06 -45.723682 14.303148 -19.915209 0.59476258 -3.8375395 1.2004479 -1.6714621 0.049917785 -0.051689024 0.016169209 -0.022513447 0.00067235831 -27.264119 8.5286818 -11.875042 0.35464506
-0 0 -0 0 -0.00031376725 8.3796784e-05 -8.090981e-05 4.0955794e-06 -35.813616 9.564624 -9.2351027 0.46747232 -5.0256538 1.3421847 -1.2959437 0.065599465 -0.18861724 0.050373383 -0.048637915 0.0024620061 -35.583 9.5030341 -9.1756348 0.46446211
-0 0 -0 0 -0.00035226239 7.8013644e-05 -7.6752177e-05 4.5988578e-06 -33.108431 7.3323449 -7.2137822 0.43223736 -5.3560471 1.1861747 -1.1669945 0.069924294 -0.25241 0.055899876 -0.054995985 0.0032952643 -37.88056 8.3892025 -8.2535506 0.49453848
-0 0 -0 0 -0.00026347394 5.4614377e-05 -0.00010332182 3.4472897e-06 -39.076293 8.0999562 -15.323845 0.51127372 -4.6018808 0.95390403 -1.8046366 0.060210951 -0.1280483 0.026542579 -0.050214391 0.0016753823 -32.622815 6.7622425 -12.793101 0.4268365
-0 0 -0 0 -0.00016598896 4.9823694e-05 -7.7177939e-05 2.1726617e-06 -45.680487 13.711578 -21.23952 0.59792075 -3.7838997 1.1357855 -1.7593554 0.049528196 -0.048941623 0.01469045 -0.022755812 0.00064060638 -26.885405 8.0699958 -12.500591 0.35190828
1.2954701e-12 -2.2972045e-13 3.6451355e-13 -1.7009022e-14 -0.00033905355 6.0122991e-05 -9.5401366e-05 4.4516423e-06 -33.692177 5.9744972 -9.4801536 0.44236529 -5.2309636 0.92758556 -1.4718651 0.068680534 -0.23383188 0.041464458 -0.065794564 0.0030701223 -37.006388 6.5621927 -10.412691 0.4858796
-0 0 -0 0 -0.00032252333 5.6292569e-05 -0.00010197865 4.2366651e-06 -34.81495 6.0765308 -11.008138 0.45732903 -5.0885579 0.88814659 -1.608951 0.066843274 -0.20769445 0.036250568 -0.065670903 0.0027282733 -36.015175 6.2860158 -11.387638 0.47309519
4.2900306e-12 -8.1570456e-13 1.0538122e-12 -5.6379522e-14 -0.00035247018 6.7018527e-05 -8.658152e-05 4.6321581e-06 -32.698384 6.2172567 -8.0321003 0.42972171 -5.3441138 1.0161275 -1.3127394 0.070232268 -0.25654032 0.048778467 -0.063017109 0.0033714494 -37.792609 7.1858704 -9.2834565 0.49666994
-0 0 -0 0 -0.00035420789 7.3691785e-05 -8.1229622e-05 4.6642142e-06 -32.467824 6.754824 -7.4457662 0.42753674 -5.3539337 1.1138683 -1.2278044 0.070500671 -0.25957874 0.054004502 -0.059528552 0.0034181363 -37.859909 7.8766295 -8.6823196 0.49853978
-0 0 -0 0 -0.00024476745 7.6030429e-05 -8.4586903e-05 3.228249e-06 -39.884918 12.389177 -13.783457 0.52604398 -4.4273001 1.3752217 -1.5299894 0.058391861 -0.11018594 0.034226299 -0.038078131 0.0014532473 -31.397852 9.7528986 -10.850491 0.41410768
1.3230369e-11 -3.0700974e-12 2.7347433e-12 -1.7525688e-13 -0.00035770526 8.300524e-05 -7.3938381e-05 4.7383641e-06 -31.871035 7.3956499 -6.5878055 0.42218156 -5.371738 1.2465078 -1.1103488 0.071157048 -0.26893726 0.062406692 -0.05558986 0.0035624935 -37.979232 8.8130526 -7.8503819 0.50309416
-0 0 -0 0 -0.00024006162 5.5697474e-05 -0.00010225921 3.1718018e-06 -40.097982 9.3032624 -17.080563 0.52979251 -4.3845018 1.0172624 -1.8676691 0.057930003 -0.10606384 0.024608215 -0.045180084 0.001401363 -31.097413 7.2150113 -13.246585 0.41087295
1.0869262e-12 -3.0694588e-13 3.0344445e-13 -1.4367771e-14 -0.00030110602 8.5031765e-05 -8.4061781e-05 3.9802357e-06 -35.952075 10.152797 -10.036981 0.47524035 -4.8903289 1.3810195 -1.3652658 0.06464388 -0.17558861 0.049585887 -0.049020245 0.0023210563 -34.632006 9.7800124 -9.6684488 0.45779073
-0 0 -0 0 -0.00022778323 7.0074656e-05 -8.6802065e-05 3.023809e-06 -40.662246 12.509231 -15.495289 0.53978893 -4.271089 1.313947 -1.6275972 0.056698456 -0.094924527 0.029202342 -0.036173186 0.0012601175 -30.301412 9.3218499 -11.547054 0.40224947
-0 0 -0 0 -0.00022166518 5.8141288e-05 -9.9399977e-05 2.9665436e-06 -40.620673 10.65453 -18.215283 0.54362619 -4.2012481 1.1019592 -1.8839403 0.056225275 -0.090847302 0.023828637 -0.040738106 0.0012158088 -29.80871 7.8186243 -13.366939 0.39892976
-0 0 -0 0 -0.00026670418 8.0307023e-05 -8.6637179e-05 3.5358073e-06 -38.116055 11.477086 -12.381761 0.50532026 -4.5969409 1.3841802 -1.4932874 0.060943542 -0.13409872 0.040378331 -0.04356113 0.0017778021 -32.582139 9.8107747 -10.584103 0.43195486
-0 0 -0 0 -0.00020289941 5.836989e-05 -9.0388421e-05 2.7062564e-06 -42.083857 12.10664 -18.747681 0.56131119 -4.0519564 1.1656626 -1.8050814 0.054044676 -0.075649634 0.021762808 -0.033700695 0.0010090089 -28.762534 8.2743759 -12.813246 0.38363242
-0 0 -0 0 -0.00020716415 6.1642202e-05 -8.7426047e-05 2.7531254e-06 -41.995273 12.495797 -17.722568 0.5580997 -4.096502 1.2189242 -1.7287787 0.054440808 -0.078465241 0.023347525 -0.033113383 0.0010427704 -29.076453 8.65177 -12.270653 0.38641397
-8.8620556e-14 1.7487688e-14 -3.4315816e-14 1.1779949e-15 -0.00028145996 5.5541107e-05 -0.00010898745 3.741326e-06 -36.963268 7.2940423 -14.312985 0.49133681 -4.7141984 0.93026305 -1.8254406 0.062663809 -0.15271856 0.030136286 -0.059135962 0.002030022 -33.399534 6.5908028 -12.933029 0.44396562
-0 0 -0 0 -0.00025861835 5.7204449e-05 -0.00010589691 3.4400207e-06 -38.471735 8.5096606 -15.753089 0.51173308 -4.5223345 1.0003066 -1.8517682 0.060153985 -0.12607884 0.027887699 -0.051625725 0.001677042 -32.058893 7.0911878 -13.127211 0.42643245
2.0403004e-13 -5.9689689e-14 6.0876341e-14 -2.7154511e-15 -0.00028945368 8.4680669e-05 -8.6364151e-05 3.8523608e-06 -36.362843 10.638075 -10.849564 0.48395582 -4.7766257 1.3974183 -1.4251994 0.063572471 -0.16141077 0.047221277 -0.048160052 0.0021482281 -33.835531 9.8987009 -10.095491 0.45031963
-0 0 -0 0 -0.00034241698 5.6326938e-05 -0.00010212364 4.5724e-06 -32.467765 5.3408853 -9.6833 0.43355212 -5.2242237 0.85937481 -1.5580908 0.069760678 -0.24800281 0.040795988 -0.073965226 0.0033116583 -36.947466 6.0777876 -11.019342 0.49337097
-1.2121089e-12 2.1999562e-13 -4.4219533e-13 1.6338694e-14 -0.0003076855 5.5844372e-05 -0.00011224824 4.147465e-06 -34.38411 6.2406549 -12.543834 0.46348266 -4.9027942 0.88984844 -1.7886121 0.066087506 -0.19237402 0.034915544 -0.0701809 0.0025931171 -34.706814 6.2992252 -12.661561 0.46783257
-0 0 -0 0 -0.00025156557 7.6506355e-05 -9.0210867e-05 3.3696857e-06 -38.559704 11.726813 -13.827426 0.51650185 -4.4469857 1.3524214 -1.5946794 0.059566753 -0.11968566 0.036398913 -0.042919016 0.0016031727 -31.528873 9.5885902 -11.306185 0.42232485
-0 0 -0 0 -0.00032970191 5.4709003e-05 -0.00010815359 4.4210367e-06 -33.144071 5.499753 -10.872398 0.44443526 -5.1029505 0.8467568 -1.6739436 0.068426451 -0.22546105 0.037411822 -0.073958995 0.0030232509 -36.102888 5.9907236 -11.842992 0.48411062
-0 0 -0 0 -0.00023335138 6.8254346e-05 -9.3211046e-05 3.1342401e-06 -39.634285 11.59287 -15.831718 0.53234467 -4.2896218 1.2546972 -1.7134681 0.057615706 -0.10144176 0.029671309 -0.040520406 0.0013625067 -30.426718 8.8996933 -12.153801 0.40867398
2.2486628e-13 -3.7591896e-14 5.5424084e-14 -3.0207153e-15 -0.00036640765 6.1253997e-05 -9.0310602e-05 4.9220951e-06 -30.385754 5.0797216 -7.4893514 0.40818353 -5.4245195 0.90684105 -1.3370125 0.07286966 -0.29801781 0.049820962 -0.073454162 0.004003388 -38.332743 6.4082551 -9.4480916 0.5149385
-0 0 -0 0 -0.00037369672 6.4043323e-05 -8.5062722e-05 5.0493415e-06 -29.505777 5.0566353 -6.716253 0.39867823 -5.4791228 0.93900004 -1.2471854 0.074033196 -0.31733961 0.054384966 -0.072234434 0.0042878516 -38.706387 6.6334157 -8.8105421 0.52299568
-0 0 -0 0 -0.00024685101 5.8478898e-05 -0.00011147427 3.3458575e-06 -38.221731 9.0547115 -17.260369 0.51806336 -4.3805186 1.037743 -1.9781775 0.059374239 -0.1169138 0.027696828 -0.052796544 0.0015846681 -31.05869 7.3577903 -14.025646 0.42097438
2.8481173e-11 -5.90282e-12 5.0951074e-12 -3.8843542e-13 -0.00038321231 7.9422056e-05 -6.8554335e-05 5.2263731e-06 -28.250629 5.8550392 -5.0538647 0.3852912 -5.5484205 1.149929 -0.99257846 0.075671149 -0.34473185 0.07144685 -0.061670417 0.0047015642 -39.178635 8.1199055 -7.0088179 0.53433086
-0 0 -0 0 -0.00031430693 8.9733326e-05 -8.6689581e-05 4.264142e-06 -33.58546 9.5885099 -9.2632687 0.45564753 -4.9422693 1.4109974 -1.3631366 0.067050825 -0.20221176 0.05773062 -0.055772404 0.0027433683 -34.979044 9.9863723 -9.6476357 0.47455401
-0 0 -0 0 -0.0003510707 8.6856767e-05 -7.8565257e-05 4.7685246e-06 -30.911338 7.6476302 -6.9175731 0.41986265 -5.2596398 1.301263 -1.177042 0.071440657 -0.26778913 0.066252463 -0.059927878 0.0036373273 -37.183382 9.1993674 -8.3211785 0.5050546
-0 0 -0 0 -0.00024001971 6.5669607e-05 -0.00010159323 3.2615141e-06 -38.544597 10.545836 -16.314785 0.52376425 -4.3177979 1.1813534 -1.8275958 0.058672509 -0.10968156 0.030008974 -0.046424954 0.0014904108 -30.619184 8.3774359 -12.960193 0.41606957
-6.5102627e-13 9.9315901e-14 -2.0315525e-13 8.8486877e-15 -0.00034697784 5.2932451e-05 -0.00010827577 4.71609e-06 -31.13035 4.7490231 -9.7143455 0.42312079 -5.2265928 0.79733153 -1.6309784 0.071039357 -0.26436031 0.040328914 -0.082494652 0.0035931605 -36.95155 5.6370635 -11.530873 0.50224198
-1.4953796e-12 2.2710677e-13 -3.9920885e-13 2.0326937e-14 -0.00036631788 5.5633546e-05 -9.7792787e-05 4.9794183e-06 -29.704735 4.5113271 -7.930022 0.40378128 -5.4003894 0.82016967 -1.4416963 0.073408368 -0.30469028 0.04627402 -0.081340589 0.0041417044 -38.156219 5.7948736 -10.186243 0.51866367
-4.226533e-13 8.7137726e-14 -1.7007963e-13 5.7492743e-15 -0.00028365615 5.8480915e-05 -0.00011414588 3.8585219e-06 -35.527566 7.324659 -14.296624 0.48327488 -4.6795309 0.96477107 -1.8830869 0.063654789 -0.1611722 0.033228604 -0.064857198 0.0021923955 -33.145647 6.8335828 -13.338118 0.45087408
-0 0 -0 0 -0.00038397239 7.036356e-05 -7.5457669e-05 5.2559934e-06 -27.965993 5.1248133 -5.4958343 0.38281157 -5.5501889 1.0170811 -1.0907147 0.075973577 -0.35044385 0.0642194 -0.068868691 0.004797039 -39.18719 7.1811158 -7.7010069 0.53641256
-3.0530634e-13 9.0310564e-14 -9.7109016e-14 4.1654627e-15 -0.00029056429 8.5949819e-05 -9.242e-05 3.9643287e-06 -34.903652 10.324609 -11.101831 0.47620977 -4.7292774 1.3989349 -1.5042448 0.064524138 -0.16959708 0.050167342 -0.053943868 0.0023139064 -33.491883 9.9070029 -10.652788 0.45694822
-0 0 -0 0 -0.00025957336 7.8084352e-05 -9.6493344e-05 3.5473538e-06 -36.916105 11.105031 -13.723128 0.50449895 -4.4668384 1.3437056 -1.6604947 0.061044231 -0.1317502 0.039632838 -0.048976587 0.0018005105 -31.658847 9.5235526 -11.768804 0.43265276
-0 0 -0 0 -0.00025858456 7.1094968e-05 -0.00010370877 3.5596429e-06 -36.585777 10.058855 -14.673211 0.50363525 -4.4421672 1.2213248 -1.7815901 0.06115032 -0.13220813 0.036349165 -0.053023826 0.0018199607 -31.482989 8.6559 -12.626671 0.43339091
-0 0 -0 0 -0.00027521968 8.2432778e-05 -9.525625e-05 3.7680628e-06 -35.758444 10.710237 -12.376351 0.48957277 -4.5928238 1.3756256 -1.5896217 0.062880853 -0.15049795 0.045076587 -0.052088826 0.0020604839 -32.538059 9.7456788 -11.261744 0.44548212
-4.6322996e-12 1.27562e-12 -1.1847871e-12 6.355506e-14 -0.00033127816 9.1225758e-05 -8.4729858e-05 4.54513e-06 -31.766823 8.7477921 -8.1248893 0.43584019 -5.0642466 1.3945674 -1.2952647 0.069481366 -0.23504217 0.064724763 -0.060115916 0.0032247741 -35.819957 9.8639245 -9.1615454 0.49144912
-0 0 -0 0 -0.00038078986 5.6474095e-05 -9.010129e-05 5.2331531e-06 -27.945373 4.144516 -6.6123456 0.38405018 -5.5170713 0.81822454 -1.3054319 0.075820503 -0.34870679 0.051715926 -0.082509896 0.004792239 -38.953368 5.7770871 -9.2170224 0.53533184
-0 0 -0 0 -0.0002453813 6.4211845e-05 -0.00010948005 3.3792329e-06 -37.455001 9.8012958 -16.711034 0.51580609 -4.3316167 1.1335057 -1.9326069 0.059652228 -0.11754826 0.030760251 -0.052445678 0.0016187987 -30.710088 8.0362741 -13.701704 0.4229195
-0 0 -0 0 -0.00026492366 6.0269981e-05 -0.00011842993 3.6651654e-06 -35.888293 8.1645661 -16.043293 0.4965073 -4.4834703 1.0199869 -2.0042644 0.062027909 -0.13977181 0.031798008 -0.062482777 0.0019337149 -31.7697 7.2275887 -14.202141 0.43952741
-7.8992338e-12 1.7537858e-12 -1.5340131e-12 1.0989183e-13 -0.00037495159 8.3246651e-05 -7.2814739e-05 5.2162171e-06 -27.736233 6.1579909 -5.3863127 0.38585837 -5.4343362 1.2065299 -1.0553356 0.075600898 -0.33783114 0.075005179 -0.065606033 0.0046998082 -38.373125 8.5195908 -7.4519728 0.53383571
-1.9582912e-12 3.7489187e-13 -7.579392e-13 2.7076607e-14 -0.00030578703 5.8539338e-05 -0.00011835215 4.2280102e-06 -33.104855 6.3375358 -12.81294 0.45772923 -4.8307734 0.92479486 -1.8697079 0.066793411 -0.19790398 0.037886394 -0.076596977 0.0027363491 -34.190262 6.5453244 -13.233037 0.47273678
-0 0 -0 0 -0.0003899724 6.1365705e-05 -7.9322335e-05 5.3938389e-06 -26.838072 4.2232149 -5.458998 0.37120637 -5.5951961 0.88045502 -1.1380908 0.077389032 -0.3789452 0.059630475 -0.077079347 0.005241318 -39.486997 6.2136383 -8.0318525 0.54615789
-1.8169721e-11 2.4408239e-12 -4.7111344e-12 2.5216426e-13 -0.00037901445 5.0914791e-05 -9.8272727e-05 5.2600642e-06 -27.50341 3.6946623 -7.1312192 0.3816997 -5.4839144 0.73667998 -1.4218963 0.076107235 -0.35207875 0.047296392 -0.091288707 0.0048862433 -38.715317 5.2008104 -10.038298 0.53730156
-2.7653883e-11 3.9709033e-12 -8.4051414e-12 3.8393666e-13 -0.00035972568 5.1654081e-05 -0.00010933529 4.9943033e-06 -28.974259 4.1605001 -8.8064576 0.4022683 -5.3006473 0.76113572 -1.6110826 0.0735923 -0.30371599 0.043611483 -0.092311661 0.0042166847 -37.448218 5.377301 -11.382039 0.51991772
-0 0 -0 0 -0.00027011675 7.9002619e-05 -0.00010153889 3.7514183e-06 -35.32795 10.332571 -13.280038 0.4906394 -4.5181936 1.3214624 -1.6984225 0.06274929 -0.14752922 0.043148731 -0.055457329 0.002048906 -32.009957 9.3621386 -12.03278 0.44455866
-8.1500424e-12 1.3514319e-12 -2.9317832e-12 1.1372052e-13 -0.00033174663 5.5009895e-05 -0.00011933793 4.6289819e-06 -30.760294 5.1006411 -11.065281 0.42920961 -5.0376631 0.83534025 -1.812179 0.070292352 -0.24695663 0.040950102 -0.088836752 0.0034458761 -35.622055 5.9068135 -12.814184 0.49704754
1.167918e-13 -2.9455063e-14 4.939747e-14 -1.6280712e-15 -0.00026672015 6.7267213e-05 -0.00011281015 3.718064e-06 -35.358187 8.9173865 -14.954859 0.49289114 -4.4815501 1.1302535 -1.8954861 0.062472557 -0.14370419 0.036242407 -0.060780152 0.0020032284 -31.752592 8.0080503 -13.429862 0.44262936
5.9729426e-10 -1.2077013e-10 9.6859406e-11 -8.3266199e-12 -0.00039132338 7.9123772e-05 -6.3458421e-05 5.4552693e-06 -26.292316 5.3161843 -4.2636575 0.36652976 -5.5923729 1.1307519 -0.9068795 0.077960843 -0.38683015 0.078215262 -0.062729782 0.0053926312 -39.461189 7.9788694 -6.3991698 0.55011131
1.3757321e-14 -3.4393015e-15 6.1500129e-15 -1.9232133e-16 -0.0002599802 6.4994504e-05 -0.00011622041 3.6344093e-06 -35.664401 8.9160254 -15.943258 0.4985727 -4.4188435 1.1047016 -1.9753805 0.061773497 -0.13616393 0.034040697 -0.060870128 0.0019035121 -31.313332 7.8282673 -13.998175 0.43774666
2.3898158e-13 -5.0084968e-14 1.0376275e-13 -3.3508823e-15 -0.00028498545 5.9726308e-05 -0.00012373705 3.9959261e-06 -33.790983 7.0818023 -14.671614 0.47380057 -4.6228305 0.96883753 -2.0071741 0.06481906 -0.17045676 0.035723763 -0.07401015 0.002390061 -32.734445 6.8603767 -14.212878 0.45898631
1.0775791e-09 -1.8943018e-10 1.6404934e-10 -1.5169949e-11 -0.00040123563 7.0534162e-05 -6.1083628e-05 5.648517e-06 -24.876115 4.3730311 -3.7871097 0.3502011 -5.6792925 0.99837628 -0.86460864 0.079951973 -0.42787916 0.075217892 -0.065139807 0.0060235995 -40.050112 7.0405042 -6.0971808 0.56381768
-0 0 -0 0 -0.0003543331 9.2212657e-05 -8.0683884e-05 5.008808e-06 -28.428183 7.3982314 -6.4732767 0.40185721 -5.2097785 1.3558076 -1.1862994 0.073644772 -0.29560367 0.076928744 -0.067310823 0.0041786163 -36.808081 9.57904 -8.3814324 0.52031439
-0 0 -0 0 -0.00031784251 9.0415692e-05 -9.4871074e-05 4.4674433e-06 -31.389956 8.9294052 -9.3694162 0.4412023 -4.8965091 1.3928951 -1.4615322 0.068823006 -0.22083012 0.062818872 -0.065914375 0.0031038833 -34.638787 9.8535905 -10.339142 0.48686634
-0 0 -0 0 -0.00033901179 9.2816743e-05 -8.6194259e-05 4.7650623e-06 -29.864467 8.1764785 -7.5930859 0.41976726 -5.0833898 1.3917619 -1.2924595 0.071450817 -0.26118549 0.071508978 -0.066406806 0.003671156 -35.935918 9.8387579 -9.1367615 0.50510601
-0 0 -0 0 -0.00029533063 8.4729587e-05 -0.00010237693 4.1652535e-06 -32.772829 9.4024388 -11.360764 0.46221801 -4.6968129 1.3475033 -1.6281592 0.066242422 -0.18635487 0.053464724 -0.064600273 0.0026282924 -33.247108 9.5385084 -11.525174 0.46890711
-0 0 -0 0 -0.00039557673 5.1618226e-05 -8.3977009e-05 5.5815737e-06 -25.158829 3.2829386 -5.3409694 0.35499019 -5.6248003 0.73397192 -1.1940892 0.079365733 -0.41710626 0.054427583 -0.088547514 0.0058853546 -39.670769 5.1765803 -8.4217099 0.55975314
2.4788656e-13 -5.8111133e-14 1.1060239e-13 -3.5089145e-15 -0.00027346704 6.410787e-05 -0.00012201592 3.8710144e-06 -34.078182 7.9888226 -15.205053 0.48238769 -4.5045684 1.0559894 -2.0098549 0.063763623 -0.15649733 0.036687093 -0.069826208 0.0022152704 -31.905279 7.4794368 -14.235544 0.45162954
-0 0 -0 0 -0.00039034864 4.6605496e-05 -9.468212e-05 5.5297224e-06 -25.369763 3.0290112 -6.1536348 0.3593909 -5.5646641 0.66439051 -1.3497529 0.078829654 -0.40335124 0.048157935 -0.097836002 0.0057139187 -39.252831 4.6865737 -9.5210817 0.55606
-0 0 -0 0 -0.00039970111 5.8026244e-05 -7.236897e-05 5.6641363e-06 -24.550107 3.5640394 -4.4449863 0.34789784 -5.6615744 0.82191391 -1.0250717 0.080229773 -0.43512554 0.063168954 -0.078782837 0.0061661334 -39.919794 5.7953197 -7.2277867 0.56570059
2.555302e-13 -6.6232199e-14 9.766158e-14 -3.6230669e-15 -0.00029143916 7.553963e-05 -0.0001113857 4.1322067e-06 -32.762634 8.4919172 -12.521614 0.4645291 -4.6519958 1.2057749 -1.7779552 0.065958904 -0.18137608 0.047011807 -0.069320473 0.0025716634 -32.932403 8.5359205 -12.586499 0.4669362
-2.9627286e-11 4.4168502e-12 -1.0168089e-11 4.2041217e-13 -0.00034936379 5.2083323e-05 -0.0001199017 4.9574836e-06 -28.523588 4.2523104 -9.7892993 0.40475065 -5.1647261 0.76995988 -1.7725347 0.073287634 -0.29331981 0.04372826 -0.1006674 0.0041622178 -36.490017 5.4399494 -12.523379 0.51779454
-8.3509322e-11 1.0336143e-11 -2.3844947e-11 1.1874264e-12 -0.00037675477 4.6631813e-05 -0.00010757718 5.3571091e-06 -26.266065 3.2510119 -7.4999161 0.37347948 -5.4230126 0.67121887 -1.5484672 0.077110292 -0.36582029 0.045278428 -0.10445499 0.0052016308 -38.272725 4.7371042 -10.928254 0.54420324
-7.4416474e-11 9.9935915e-12 -2.3582884e-11 1.0587486e-12 -0.00036379108 4.8854497e-05 -0.00011528687 5.1757799e-06 -27.268897 3.6620146 -8.6416246 0.38796391 -5.2955042 0.71114772 -1.6781669 0.075340947 -0.33022991 0.044347476 -0.1046512 0.0046982937 -37.392205 5.0215013 -11.849742 0.53199167
-1.3106864e-10 2.8218425e-11 -2.3936955e-11 1.8650768e-12 -0.00038232621 8.2312925e-05 -6.982391e-05 5.4404144e-06 -25.823387 5.5596463 -4.7161031 0.36746088 -5.4706657 1.177807 -0.99910302 0.077846319 -0.37765674 0.081307611 -0.068971129 0.0053739689 -38.603109 8.3110567 -7.0500529 0.54931339
-8.7393597e-14 2.4748993e-14 -2.8350026e-14 1.2455582e-15 -0.00031204313 8.8367496e-05 -0.00010122516 4.4473269e-06 -31.050167 8.793097 -10.072512 0.44253576 -4.8174051 1.364241 -1.5627411 0.068659019 -0.21606747 0.061188146 -0.070091157 0.0030794546 -34.080248 9.6511855 -11.055454 0.48572132
-7.6220219e-13 1.4408251e-13 -3.1052202e-13 1.0879324e-14 -0.0003132418 5.9213506e-05 -0.00012761506 4.4710697e-06 -30.858911 5.8333986 -12.571955 0.44046593 -4.8279307 0.91264544 -1.9669044 0.068911667 -0.2214835 0.041868022 -0.090232627 0.0031613539 -34.151062 6.4557287 -13.913181 0.48745658
1.9689218e-13 -4.0270658e-14 8.6506621e-14 -2.8126289e-15 -0.00029390133 6.0112087e-05 -0.0001291286 4.1984165e-06 -32.181283 6.5820869 -14.13918 0.45971356 -4.6586523 0.95284127 -2.0468272 0.066549419 -0.18891847 0.038639782 -0.083003287 0.0026987234 -32.973753 6.744172 -14.48736 0.4710341
1.5194041e-10 -1.7479722e-11 3.0583018e-11 -2.172722e-12 -0.00040137386 4.6175365e-05 -8.0789727e-05 5.7395781e-06 -23.802828 2.7383554 -4.7911042 0.34037641 -5.6744559 0.65280801 -1.1421714 0.081143756 -0.45596098 0.052455246 -0.091777185 0.0065201646 -39.997253 4.6014152 -8.0507664 0.57195393
5.3978885e-13 -1.2254181e-13 2.3319311e-13 -7.7311494e-15 -0.00028866039 6.5531119e-05 -0.00012470361 4.1343511e-06 -32.414578 7.3586943 -14.003358 0.46425922 -4.6075271 1.0459918 -1.9904887 0.065991508 -0.18083711 0.041053287 -0.078123082 0.0025900474 -32.616769 7.4045951 -14.090706 0.46715509
-0 0 -0 0 -0.00040162989 6.1895666e-05 -6.5416631e-05 5.7541501e-06 -23.709637 3.6539207 -3.8617758 0.33968789 -5.6696178 0.87375162 -0.9234554 0.081228594 -0.45490955 0.070106658 -0.074094708 0.0065174875 -39.963734 6.1588591 -6.5092087 0.57256027
-0 0 -0 0 -0.00033165819 9.2106374e-05 -9.4724242e-05 4.7623574e-06 -29.24019 8.1204323 -8.351233 0.41986672 -4.975085 1.3816545 -1.4209242 0.071438407 -0.2559135 0.071070956 -0.073090951 0.0036747217 -35.17008 9.7672502 -10.044857 0.50501539
7.5109324e-13 -1.8300439e-13 2.8474248e-13 -1.0797356e-14 -0.00030613055 7.4588921e-05 -0.00011605533 4.4007859e-06 -30.998054 7.5526974 -11.751487 0.44561316 -4.7497928 1.1572903 -1.8006656 0.068280743 -0.2100976 0.051190426 -0.079648848 0.0030202623 -33.604449 8.1877473 -12.739582 0.48308144
-1.721842e-10 4.3159314e-11 -3.7277273e-11 2.4757108e-12 -0.00036348123 9.1109406e-05 -7.8692404e-05 5.2262309e-06 -26.763055 6.7083687 -5.7941071 0.38480641 -5.2668909 1.3201873 -1.1402633 0.075728776 -0.33045186 0.082830338 -0.071541663 0.0047513258 -37.188639 9.3216225 -8.0512092 0.53470826
8.6515491e-10 -1.6232499e-10 1.2635688e-10 -1.2510211e-11 -0.00039811034 7.4695593e-05 -5.8144481e-05 5.7567083e-06 -23.474639 4.4044373 -3.4284984 0.33944521 -5.619472 1.0543554 -0.82073046 0.081258028 -0.45147445 0.084708052 -0.065938371 0.0065283576 -39.609917 7.4318245 -5.7850746 0.57276265
-0 0 -0 0 -0.0003146168 8.7933449e-05 -0.00010657182 4.5642015e-06 -29.925633 8.3640295 -10.136869 0.43413645 -4.8037665 1.342623 -1.6272054 0.069689089 -0.22724511 0.063513604 -0.076975947 0.003296685 -33.97444 9.495646 -11.508343 0.49287321
2.0279388e-11 -5.4397505e-12 5.3126613e-12 -2.9269732e-13 -0.00034394283 9.2259352e-05 -9.0103892e-05 4.9642103e-06 -28.051515 7.5245488 -7.3487524 0.40487432 -5.0767715 1.3617951 -1.3299794 0.073274276 -0.28496845 0.076440042 -0.07465417 0.0041130188 -35.870901 9.6220238 -9.3972239 0.51773342
-1.1697119e-10 1.2445606e-11 -3.0044663e-11 1.6908091e-12 -0.00039028297 4.152568e-05 -0.00010024623 5.6415089e-06 -24.154531 2.5700156 -6.2042179 0.34915179 -5.5397337 0.58942159 -1.4229097 0.080076404 -0.42563158 0.045286734 -0.1093257 0.0061524702 -39.060314 4.1559746 -10.032846 0.56461369
-1.0470487e-11 1.7285767e-12 -3.9404258e-12 1.5164816e-13 -0.00033877747 5.5928905e-05 -0.00012749431 4.9066468e-06 -28.194166 4.654586 -10.610493 0.40834716 -5.0296746 0.83035094 -1.8928499 0.072846748 -0.28099982 0.046390371 -0.10575048 0.0040698306 -35.53942 5.8672168 -13.374779 0.51473135
-1.0118292e-10 1.1519886e-11 -2.9216517e-11 1.4681298e-12 -0.00038010556 4.327581e-05 -0.00010975529 5.5152027e-06 -24.804335 2.8240253 -7.1622394 0.35990249 -5.4285168 0.61804794 -1.5674815 0.078765935 -0.39521258 0.044995775 -0.11411743 0.0057344003 -38.291155 4.3595278 -11.056552 0.55559166
-9.5466183e-13 1.852131e-13 -4.1583589e-13 1.3854131e-14 -0.00030697802 5.9556536e-05 -0.00013371487 4.4548902e-06 -30.408319 5.8994912 -13.245392 0.44128801 -4.7415135 0.91989688 -2.0653298 0.068809233 -0.21866252 0.042422524 -0.095246005 0.0031732485 -33.539298 6.5069298 -14.609198 0.48672505
2.9802981e-10 -2.9264859e-11 5.8848212e-11 -4.3533868e-12 -0.0004041429 3.968457e-05 -7.9801033e-05 5.9034039e-06 -22.21859 2.1817412 -4.3872266 0.32455182 -5.6867322 0.55840526 -1.1228877 0.083067343 -0.49574466 0.04867935 -0.097888485 0.0072414509 -40.057829 3.9334545 -7.9097174 0.58513348
4.0030458e-13 -9.1432971e-14 1.6318269e-13 -5.8262053e-15 -0.00030574257 6.9834203e-05 -0.00012463483 4.4499091e-06 -30.36318 6.9352085 -12.377439 0.4419188 -4.7224892 1.0786567 -1.9251053 0.068733142 -0.21509816 0.049130249 -0.087683974 0.0031306313 -33.406527 7.6303347 -13.618048 0.48621298
-0 0 -0 0 -0.00040516763 5.964717e-05 -5.8460253e-05 5.9088781e-06 -22.240066 3.2740942 -3.2089432 0.32434437 -5.6975423 0.83876954 -0.8220789 0.083091737 -0.49624082 0.073054603 -0.071600892 0.00723707 -40.135046 5.908522 -5.7909486 0.58532092
2.7183165e-13 -7.5381843e-14 8.7007449e-14 -3.9956029e-15 -0.00032638834 9.0511001e-05 -0.00010446987 4.7975215e-06 -28.378924 7.8697812 -9.0834816 0.41713653 -4.8828779 1.3540746 -1.5629039 0.071772513 -0.25595516 0.07097912 -0.081925726 0.0037622373 -34.514616 9.5712746 -11.047384 0.50732392
-3.3197038e-10 8.3201775e-11 -7.3984693e-11 4.8731528e-12 -0.00036392017 9.1209355e-05 -8.1105195e-05 5.3421592e-06 -25.571151 6.4089005 -5.6989234 0.37537122 -5.2372972 1.3126244 -1.1672121 0.076880804 -0.34684203 0.086929058 -0.077299069 0.0050914609 -36.966646 9.2649548 -8.2385844 0.54265117
-1.145392e-09 2.7233651e-10 -2.2747684e-10 1.6826579e-11 -0.00037334413 8.8768943e-05 -7.4146795e-05 5.4846766e-06 -24.724137 5.8785857 -4.9102566 0.36321421 -5.3341853 1.2682936 -1.0593785 0.078362773 -0.37887829 0.090084783 -0.075245888 0.0055659771 -37.632826 8.9478471 -7.4739449 0.55285155
-0 0 -0 0 -0.0003214132 8.4271304e-05 -0.00011144105 4.7263241e-06 -28.706134 7.5264592 -9.9530503 0.42211861 -4.8393108 1.2688186 -1.6778959 0.071161207 -0.24767299 0.064937365 -0.085873695 0.0036419875 -34.211461 8.9699006 -11.861869 0.50307347
-4.0971854e-11 5.0349246e-12 -1.3345161e-11 6.0305937e-13 -0.00036892165 4.5335823e-05 -0.00012016344 5.4301097e-06 -24.91926 3.062263 -8.116585 0.36678333 -5.2943119 0.65060423 -1.7244386 0.077926287 -0.3728183 0.045814672 -0.12143264 0.0054874639 -37.353241 4.5902427 -12.166524 0.54979749
-3.9519543e-11 5.5196404e-12 -1.3990732e-11 5.8228723e-13 -0.00035745085 4.992467e-05 -0.00012654496 5.2667376e-06 -25.81018 3.6048725 -9.137335 0.3802913 -5.1769279 0.72305441 -1.832739 0.076277678 -0.33856558 0.047286991 -0.11985919 0.0049884791 -36.543469 5.1039762 -12.93714 0.53843728
-0 0 -0 0 -0.00034998335 9.2397885e-05 -9.1113355e-05 5.1629025e-06 -26.402269 6.9703709 -6.8734677 0.38948235 -5.0947227 1.34504 -1.326341 0.075156594 -0.31268448 0.08255074 -0.081403107 0.0046126751 -35.978074 9.498446 -9.3663971 0.53074322
-5.443438e-12 9.1151521e-13 -2.2406602e-12 8.0925025e-14 -0.00033476802 5.6057613e-05 -0.00013779919 4.9768382e-06 -27.102728 4.5384091 -11.156185 0.40292347 -4.944695 0.82799963 -2.0353646 0.073510448 -0.28533219 0.047779478 -0.11745012 0.004241899 -34.93211 5.8494558 -14.378962 0.51931921
1.9114987e-09 -3.1341582e-10 2.2011382e-10 -2.8221168e-11 -0.0004056631 6.6513899e-05 -4.6713112e-05 5.9891677e-06 -21.348309 3.5003413 -2.4583108 0.31518421 -5.7031345 0.93510531 -0.65673009 0.084200483 -0.52293212 0.085741726 -0.060216931 0.0077205153 -40.158019 6.5844452 -4.6242955 0.5928888
-5.3285844e-10 5.7360629e-11 -8.5460782e-11 7.8703315e-12 -0.00040773427 4.3891384e-05 -6.5393146e-05 6.0222446e-06 -21.137036 2.2753392 -3.3899953 0.31219451 -5.7254815 0.61633109 -0.9182629 0.084565496 -0.5313393 0.057197099 -0.085217141 0.0078478939 -40.310436 4.3392987 -6.4650592 0.59538607
1.5156419e-12 -3.5326696e-13 5.7094976e-13 -2.2399498e-14 -0.00032147615 7.4929907e-05 -0.00012110165 4.7510593e-06 -28.420359 6.624239 -10.706089 0.42002124 -4.8323851 1.126336 -1.8203833 0.071417266 -0.25190574 0.058714382 -0.094894133 0.0037228861 -34.159128 7.9618357 -12.867912 0.50483386
-0 0 -0 0 -0.00039056632 3.639038e-05 -0.00010389008 5.7934288e-06 -22.555631 2.1015841 -5.9997655 0.33457683 -5.5178905 0.51412045 -1.467751 0.08184911 -0.45916607 0.04278205 -0.12213752 0.0068109968 -38.882322 3.622797 -10.342642 0.57675727
3.9299993e-10 -3.2342745e-11 9.2394569e-11 -5.8437261e-12 -0.00039834727 3.2782815e-05 -9.3651732e-05 5.9232385e-06 -21.661705 1.782695 -5.0926827 0.32209948 -5.606448 0.46139427 -1.31808 0.083365273 -0.49615564 0.040832158 -0.11664655 0.0073776036 -39.486893 3.2496558 -9.2833971 0.58715172
-0 0 -0 0 -0.00033974764 9.0892345e-05 -0.00010018292 5.0536176e-06 -26.732433 7.1517011 -7.8827129 0.39763483 -4.9855804 1.3337873 -1.4701205 0.074158623 -0.29381811 0.078604865 -0.08663947 0.0043704333 -35.216429 9.4214159 -10.384427 0.52383106
3.3104978e-10 -6.0318607e-11 4.6230385e-11 -4.9337145e-12 -0.00039768567 7.2459936e-05 -5.5535944e-05 5.9268053e-06 -21.644124 3.9436468 -3.022555 0.32256758 -5.589903 1.0185029 -0.78061786 0.08330767 -0.49115498 0.089490421 -0.06858873 0.0073198009 -39.373921 7.1740874 -5.4984828 0.58679902
-2.6966529e-12 5.309046e-13 -1.1415509e-12 4.0377579e-14 -0.00032283527 6.355832e-05 -0.00013666308 4.8338837e-06 -27.628298 5.4393319 -11.695649 0.41368459 -4.821469 0.94922859 -2.041031 0.072192919 -0.26174459 0.051531068 -0.11080208 0.0039191594 -34.074066 6.7083449 -14.424281 0.51019849
-5.7244782e-10 7.6328627e-11 -7.5092636e-11 8.546472e-12 -0.00040638664 5.4186483e-05 -5.3309041e-05 6.0672291e-06 -20.562807 2.7417884 -2.6973906 0.30699645 -5.7063285 0.76086624 -0.74854552 0.08519375 -0.54420444 0.072562732 -0.071387722 0.0081248069 -40.166854 5.3557384 -5.2690129 0.59967892
-0 0 -0 0 -0.00040605643 3.6165013e-05 -7.2116965e-05 6.0632043e-06 -20.592194 1.8340233 -3.6572417 0.3074811 -5.7016592 0.50781262 -1.0126335 0.08513675 -0.54230631 0.048299973 -0.096315394 0.0080976773 -40.134035 3.574498 -7.1279373 0.59927841
-1.1429343e-09 2.4308295e-10 -1.9680788e-10 1.708639e-11 -0.00038541754 8.1971847e-05 -6.6367079e-05 5.7618314e-06 -22.650825 4.8174505 -3.9003649 0.33862037 -5.4421455 1.1574531 -0.93711172 0.081357803 -0.44021612 0.093626585 -0.075803135 0.0065810473 -38.357928 8.1580879 -6.6050539 0.57343501
1.3314343e-10 -1.4418779e-11 4.0276491e-11 -1.9905845e-12 -0.00037912519 4.1057395e-05 -0.00011468709 5.6681786e-06 -23.124663 2.5042873 -6.9953155 0.34572938 -5.3838157 0.58304078 -1.6286287 0.080491694 -0.42461515 0.045983734 -0.12844801 0.0063482843 -37.953127 4.1101371 -11.480993 0.56742497
6.4884257e-10 -4.9116324e-11 1.3814039e-10 -9.7494808e-12 -0.00040157166 3.0398319e-05 -8.5495726e-05 6.0339986e-06 -20.639346 1.5623648 -4.3941743 0.31012593 -5.6446751 0.4272927 -1.2017671 0.084816648 -0.5312969 0.040218309 -0.11311459 0.0079832446 -39.735781 3.0079338 -8.4598586 0.59706815
-0 0 -0 0 -0.00040787729 5.9584232e-05 -4.0911042e-05 6.1349692e-06 -19.886107 2.9050364 -1.9946228 0.29911117 -5.7274293 0.83668417 -0.57447449 0.086147483 -0.56816311 0.08299938 -0.056988082 0.0085458623 -40.301893 5.8874504 -4.0423737 0.60618935
-0 0 -0 0 -0.0003389197 7.3515244e-05 -0.00012284792 5.138339e-06 -25.764409 5.588571 -9.3388025 0.39061249 -4.9480267 1.073279 -1.7935068 0.075016702 -0.30516072 0.066192566 -0.11061133 0.0046265213 -34.941064 7.5790839 -12.665057 0.52973915
-5.0926341e-12 1.0690928e-12 -1.9565472e-12 7.6805954e-14 -0.00033284447 6.9873785e-05 -0.00012787604 5.0198848e-06 -26.501335 5.563405 -10.18159 0.39968713 -4.9003832 1.0287337 -1.882686 0.073906469 -0.28782439 0.060422755 -0.11057971 0.0043409023 -34.615325 7.2667687 -13.298917 0.52206048
-0 0 -0 0 -0.00033761594 8.0493005e-05 -0.00011726833 5.131846e-06 -25.747364 6.1385807 -8.9431509 0.39136632 -4.9292036 1.1752005 -1.7121214 0.074925118 -0.3016583 0.071920132 -0.10477871 0.004585281 -34.809837 8.2992182 -12.090932 0.52911815
-0 0 -0 0 -0.00040795797 3.6117725e-05 -6.0707719e-05 6.1652544e-06 -19.535447 1.7295309 -2.9070456 0.29522894 -5.7315671 0.50743258 -0.85290738 0.086618161 -0.58013176 0.05136078 -0.086328687 0.0087672264 -40.322946 3.5699097 -6.0004076 0.6093795
-7.8806665e-10 1.9314523e-10 -1.8152704e-10 1.1933226e-11 -0.00036566665 8.9620297e-05 -8.4229402e-05 5.5370731e-06 -23.667188 5.8005302 -5.4516132 0.35837819 -5.2139557 1.277875 -1.2010075 0.078951837 -0.38135769 0.093465973 -0.087843752 0.0057746732 -36.776833 9.0135393 -8.4713514 0.55688976
-0 0 -0 0 -0.00034780434 9.0407809e-05 -9.9596042e-05 5.2718075e-06 -25.090973 6.5221151 -7.1849639 0.38031378 -5.0322151 1.3080675 -1.4410076 0.076275269 -0.32737953 0.08509861 -0.093747264 0.0049622206 -35.523484 9.2339284 -10.172382 0.53844346
-7.9970862e-12 1.2140332e-12 -3.2256802e-12 1.2221495e-13 -0.00034756902 5.2764258e-05 -0.00014019437 5.3117008e-06 -24.605163 3.735296 -9.9246633 0.3760268 -5.0251831 0.76287023 -2.0269425 0.076797032 -0.33887423 0.051444307 -0.13668727 0.0051788233 -35.465032 5.3839267 -14.305067 0.54199204
1.1823056e-09 -9.3028966e-11 3.1279919e-10 -1.7981615e-11 -0.00039150172 3.0805064e-05 -0.00010357848 5.9543263e-06 -20.910364 1.6453187 -5.5321949 0.31802448 -5.5138389 0.43385292 -1.4587805 0.083859648 -0.50043067 0.03937607 -0.1323975 0.0076110202 -38.825775 3.0549815 -10.272024 0.5904989
-0 0 -0 0 -0.00033976289 8.7721268e-05 -0.00010924589 5.1779232e-06 -25.441789 6.5686574 -8.1804432 0.38772813 -4.9455655 1.2768648 -1.5901758 0.075369498 -0.30903687 0.079788308 -0.099366383 0.0047096644 -34.920868 9.0160018 -11.228305 0.53218753
-1.9730818e-09 4.5743104e-10 -4.0036643e-10 3.0070408e-11 -0.0003747766 8.688664e-05 -7.6047515e-05 5.7117171e-06 -22.512008 5.2190899 -4.5680074 0.34309032 -5.3026533 1.229345 -1.0759839 0.080814158 -0.41956386 0.09726993 -0.085135487 0.0063942894 -37.3808 8.6662083 -7.5850971 0.56969552
-0 0 -0 0 -0.00040614659 4.2698437e-05 -4.5934268e-05 6.2611626e-06 -18.378263 1.9321179 -2.0785403 0.28331961 -5.7119692 0.60050277 -0.6460109 0.088055812 -0.61185998 0.064325209 -0.069199991 0.0094324436 -40.165102 4.2225814 -4.5425829 0.61918587
-0 0 -0 0 -0.00038033859 3.7262359e-05 -0.00011851404 5.8068645e-06 -21.80784 2.1365477 -6.7953535 0.33295377 -5.373981 0.52649722 -1.67454 0.082047892 -0.45180193 0.044263733 -0.14078212 0.0068979395 -37.864097 3.7096041 -11.798506 0.57809459
-1.0867756e-10 2.7306412e-11 -2.8591373e-11 1.6618737e-12 -0.00035718646 8.9746958e-05 -9.397019e-05 5.4620176e-06 -23.833217 5.9883532 -6.2701478 0.36445236 -5.1145524 1.2850866 -1.345559 0.078210622 -0.36335432 0.0912967 -0.095592858 0.0055563352 -36.08312 9.0662738 -9.4929064 0.55177522
7.8893625e-11 -4.9689009e-12 1.5329537e-11 -1.2067176e-12 -0.00040290327 2.5375769e-05 -7.8286684e-05 6.1626075e-06 -19.280251 1.2143143 -3.7462762 0.2949011 -5.6656594 0.35683618 -1.1008739 0.086659101 -0.57578012 0.036263948 -0.11187776 0.0088068456 -39.856607 2.5102602 -7.7443939 0.60962679
-0 0 -0 0 -0.00039783544 6.7001441e-05 -5.0662314e-05 6.0878301e-06 -19.908943 3.352964 -2.5353024 0.30465427 -5.5858924 0.94074787 -0.71133491 0.085477464 -0.5389761 0.090771641 -0.068635858 0.0082476186 -39.31509 6.6212495 -5.0065762 0.60161456
5.6299799e-10 -3.5428221e-11 1.2275351e-10 -8.6174261e-12 -0.00039936007 2.5130847e-05 -8.7074646e-05 6.1127321e-06 -19.618779 1.2345665 -4.277589 0.30029127 -5.6190112 0.35359197 -1.2251435 0.086006371 -0.55751609 0.035083257 -0.12155826 0.0085335183 -39.536794 2.4879632 -8.6204221 0.60516273
-0 0 -0 0 -0.00040591961 2.93199e-05 -5.6678699e-05 6.2775312e-06 -18.135094 1.3099124 -2.5322096 0.28045853 -5.7162508 0.4128894 -0.79816214 0.088401601 -0.62204369 0.044930717 -0.086856183 0.009619882 -40.188506 2.9028481 -5.6115354 0.62151371
-1.4494846e-09 3.1456644e-10 -2.5467395e-10 2.2280601e-11 -0.0003822889 8.2964153e-05 -6.7168033e-05 5.8763141e-06 -21.272349 4.6165148 -3.7375446 0.32698569 -5.3847188 1.1685891 -0.94609331 0.082770646 -0.46439246 0.10078223 -0.081593602 0.0071383605 -37.934058 8.2324309 -6.6650014 0.58309942
-0 0 -0 0 -0.00038784364 7.8029571e-05 -5.9272939e-05 6.0005669e-06 -20.301569 4.0844365 -3.1026257 0.31409802 -5.4508822 1.0966533 -0.83304141 0.084333943 -0.50205849 0.10100825 -0.07672804 0.0077676549 -38.379603 7.721524 -5.8654356 0.59379438
-4.7142989e-12 8.8468535e-13 -1.9999568e-12 7.2616379e-14 -0.00033505231 6.2875918e-05 -0.00014213993 5.1609553e-06 -25.21784 4.73238 -10.698216 0.38844127 -4.887292 0.91714922 -2.0733459 0.075281066 -0.30682291 0.057578388 -0.13016412 0.0047261256 -34.50831 6.4758295 -14.639531 0.53154638
-4.377441e-12 5.6730696e-13 -1.6092609e-12 6.7631065e-14 -0.00036266237 4.7000265e-05 -0.0001333241 5.6031006e-06 -22.704892 2.9425052 -8.3469074 0.35078851 -5.1699233 0.67001097 -1.900598 0.079874845 -0.39976658 0.051808891 -0.14696457 0.0061763573 -36.450356 4.7238879 -13.400097 0.56315468
-4.1418956e-12 8.1027398e-13 -1.6353335e-12 6.403455e-14 -0.000340287 6.6569931e-05 -0.0001343546 5.2609064e-06 -24.597388 4.811957 -9.7117208 0.38028063 -4.9338138 0.96519598 -1.9480045 0.076277767 -0.32462385 0.063505768 -0.12817037 0.0050187509 -34.826034 6.8129747 -13.75027 0.53841759
3.2647477e-11 -8.2152991e-12 9.6120339e-12 -5.0740538e-13 -0.00035145603 8.843919e-05 -0.00010347529 5.4623113e-06 -23.430887 5.8960679 -6.8984955 0.36416161 -5.0344885 1.2668614 -1.4822485 0.078245757 -0.35917813 0.090382351 -0.10574882 0.0055823277 -35.517095 8.9373999 -10.456904 0.55200484
-5.9849321e-09 7.8014374e-10 -4.7304885e-10 9.2939645e-11 -0.00040592362 5.2912676e-05 -3.2084191e-05 6.3035631e-06 -17.908105 2.334345 -1.4154561 0.27809387 -5.7110697 0.74444543 -0.45140278 0.088686853 -0.62602356 0.081602993 -0.049480884 0.0097214817 -40.150296 5.2336437 -3.1734782 0.62349149
-0 0 -0 0 -0.00036814284 4.2464914e-05 -0.00013040856 5.7425682e-06 -21.641799 2.4963601 -7.6662518 0.33758501 -5.2236128 0.60253858 -1.850379 0.081481831 -0.43343726 0.04999656 -0.15353803 0.0067610795 -36.808483 4.2458223 -13.038801 0.57416634
-3.2823094e-10 7.9871379e-11 -8.0033806e-11 5.1238688e-12 -0.00036453532 8.870565e-05 -8.8886042e-05 5.6906005e-06 -22.047737 5.3650736 -5.3759841 0.34417752 -5.168334 1.2576571 -1.2602147 0.080680589 -0.40928531 0.099595067 -0.099797604 0.0063891729 -36.433479 8.8656855 -8.8837148 0.56874703
-3.3199205e-13 6.6191147e-14 -1.2152765e-13 5.1841843e-15 -0.00034761745 6.9306472e-05 -0.00012724742 5.4281809e-06 -23.461088 4.6775707 -8.5880695 0.36635396 -4.9936286 0.99560817 -1.8279472 0.077977441 -0.35463524 0.070705649 -0.12981632 0.0055377665 -35.229701 7.0239462 -12.89604 0.5501254
-0 0 -0 0 -0.00039579651 6.2580966e-05 -4.5038851e-05 6.2243606e-06 -18.260926 2.8873079 -2.0779645 0.2871743 -5.5696063 0.88063269 -0.63378191 0.087588539 -0.58757666 0.092904092 -0.066862079 0.0092403266 -39.169796 6.1932928 -4.4572464 0.61599061
-2.5944922e-12 4.0426712e-13 -1.0838506e-12 4.0870567e-14 -0.00034847977 5.4299224e-05 -0.00014557763 5.4895388e-06 -22.899464 3.5681358 -9.5662646 0.36073112 -4.9935747 0.77808601 -2.0860688 0.07866288 -0.36673769 0.057144127 -0.15320489 0.0057771525 -35.220575 5.4879798 -14.713416 0.55482336
-1.0677131e-12 1.4041965e-13 -4.1755891e-13 1.6800066e-14 -0.00035969142 4.7304605e-05 -0.00014066734 5.6596099e-06 -21.958975 2.8879216 -8.5876683 0.34551625 -5.1171949 0.67298487 -2.0012215 0.080517148 -0.40711277 0.053541196 -0.15921278 0.0064057672 -36.070458 4.743785 -14.106357 0.56755517
-0 0 -0 0 -0.00039472925 1.694423e-05 -8.5864839e-05 6.275385e-06 -17.552975 0.75348264 -3.8182712 0.27905628 -5.5714303 0.23916037 -1.2119445 0.088574308 -0.61337977 0.026330068 -0.13342755 0.0097514797 -39.163021 1.68112 -8.5190708 0.62261166
4.7726146e-11 -1.1454545e-11 1.468881e-11 -7.5905671e-13 -0.00035311561 8.4749745e-05 -0.00010867938 5.6160992e-06 -22.011669 5.2829251 -6.7745931 0.35008284 -5.0275557 1.2066418 -1.5473449 0.079960362 -0.38876217 0.093305123 -0.11965043 0.0061830372 -35.44726 8.5075432 -10.909703 0.56376814
-0 0 -0 0 -0.00037476409 3.4363959e-05 -0.00012405987 5.9604911e-06 -19.813134 1.8167636 -6.5588326 0.31512093 -5.294752 0.48550181 -1.752746 0.084211169 -0.4932772 0.045231009 -0.16329181 0.0078454005 -37.273162 3.4177593 -12.338706 0.59281654
6.6867859e-12 -1.4528291e-12 2.2505266e-12 -1.063767e-13 -0.00035217642 7.6516902e-05 -0.00011852965 5.6025966e-06 -22.079601 4.7972055 -7.431183 0.3512532 -5.0173425 1.0901113 -1.6886533 0.079818365 -0.38568937 0.083798216 -0.12980888 0.0061357371 -35.376515 7.6862084 -11.906436 0.56278709
-0 0 -0 0 -0.00040136658 3.1880186e-05 -3.7907518e-05 6.3863064e-06 -16.506346 1.3110842 -1.5589604 0.26263916 -5.6904254 0.45198536 -0.53743862 0.090542664 -0.67622313 0.053711794 -0.063866654 0.01075966 -39.974604 3.1751468 -3.7754464 0.63605213
-5.4745381e-13 9.5052172e-14 -2.2105128e-13 8.7199027e-15 -0.00034847361 6.0504052e-05 -0.00014070692 5.550525e-06 -22.305755 3.8728572 -9.0066331 0.35528844 -4.9802696 0.8647039 -2.0109367 0.079326266 -0.37673069 0.065410213 -0.15211658 0.0060006066 -35.118997 6.0975682 -14.180373 0.55937913
-0 0 -0 0 -0.00040041475 2.0229839e-05 -4.9425898e-05 6.3896549e-06 -16.358476 0.82646641 -2.0192372 0.26104188 -5.6860834 0.28727351 -0.70187169 0.090736195 -0.68224823 0.03446869 -0.084214507 0.010887038 -39.938892 2.0178012 -4.9299272 0.6373285
-0 0 -0 0 -0.00039816513 5.3052755e-05 -2.9123132e-05 6.3627217e-06 -16.706822 2.2260688 -1.221993 0.26697683 -5.6333154 0.7506004 -0.41203957 0.090020988 -0.65513294 0.087291943 -0.047918618 0.010469095 -39.582131 5.2740458 -2.8951697 0.63252673
-0 0 -0 0 -0.00039510373 4.630273e-05 -2.3749399e-05 6.4115132e-06 -15.817768 1.8537052 -0.95079456 0.25668152 -5.6234261 0.65901676 -0.33802007 0.091253683 -0.68925016 0.08077414 -0.041430328 0.01118475 -39.493261 4.6282676 -2.3739113 0.64087363
-0 0 -0 0 -0.00039707312 1.4316704e-05 -7.0011862e-05 6.3527024e-06 -16.700173 0.60213454 -2.9445716 0.26718311 -5.6255285 0.20283173 -0.9918922 0.090001833 -0.65577826 0.02364447 -0.11562671 0.01049168 -39.522723 1.4250149 -6.9686395 0.63231702
-0 0 -0 0 -0.00037242058 8.4245944e-05 -7.9072408e-05 5.9657928e-06 -19.818142 4.4830983 -4.2077916 0.31746615 -5.2392403 1.1851782 -1.1123965 0.083927214 -0.47521985 0.10750035 -0.10089877 0.0076125308 -36.893025 8.345639 -7.8331341 0.59098814
6.3942844e-10 -1.5336949e-10 1.780599e-10 -1.0379354e-11 -0.00035949921 8.6227338e-05 -0.00010010877 5.8354767e-06 -20.307165 4.8707555 -5.6548811 0.32963073 -5.0793414 1.2183006 -1.4144304 0.082449079 -0.43588652 0.10454914 -0.12138014 0.0070754137 -35.783048 8.5827086 -9.9644082 0.58083894
-1.9548057e-11 4.4184563e-12 -6.1390132e-12 3.1724691e-13 -0.00035549463 8.0352616e-05 -0.00011164211 5.7693496e-06 -20.675961 4.6733971 -6.4932285 0.33555176 -5.0359407 1.138276 -1.5815233 0.081728668 -0.42073947 0.095099939 -0.13213207 0.0068282131 -35.484803 8.0206466 -11.143904 0.57588559
-0 0 -0 0 -0.00038631385 1.8056076e-05 -0.00010052031 6.2715832e-06 -17.189014 0.80340413 -4.4726457 0.27905376 -5.4562012 0.25501955 -1.419724 0.088578289 -0.60151071 0.028114248 -0.15651534 0.0097651805 -38.350388 1.792474 -9.9789145 0.6225965
2.4779422e-09 -5.0429363e-10 4.2056599e-10 -4.0245935e-11 -0.00037835963 7.7001131e-05 -6.4216668e-05 6.1451945e-06 -18.221678 3.7083497 -3.0926541 0.29595059 -5.327599 1.084236 -0.90422083 0.086529137 -0.54087896 0.11007594 -0.091800081 0.0087847808 -37.479466 7.6275614 -6.3611608 0.60872935
-0 0 -0 0 -0.00035752909 4.8103377e-05 -0.00014538634 5.8312213e-06 -20.108274 2.7054467 -8.1768688 0.32796156 -5.0676019 0.6818152 -2.0606997 0.082651479 -0.44425896 0.059772357 -0.18065435 0.0072457666 -35.692407 4.8021976 -14.514032 0.58213536
-0 0 -0 0 -0.0003841047 7.0024115e-05 -5.2471464e-05 6.2412309e-06 -17.470636 3.1849801 -2.3866145 0.28387644 -5.4149634 0.98717359 -0.73972293 0.087986523 -0.58243797 0.10618121 -0.079565215 0.0094639037 -38.074679 6.9411951 -5.2012749 0.6186669
-0 0 -0 0 -0.00035141014 5.8181705e-05 -0.00014353167 5.7126577e-06 -20.902774 3.4607966 -8.5376305 0.33980349 -4.9956476 0.82711129 -2.0404466 0.081211159 -0.4116567 0.068156509 -0.16813906 0.0066920488 -35.203871 5.8285775 -14.37884 0.57228759
-0 0 -0 0 -0.00036660284 8.4541233e-05 -8.6967783e-05 5.9605759e-06 -19.482119 4.4927159 -4.6216683 0.31675874 -5.167064 1.1915619 -1.2257627 0.084011017 -0.47349371 0.10919103 -0.11232509 0.0076985088 -36.381556 8.3898467 -8.6306569 0.59152578
-0 0 -0 0 -0.00035660881 6.7044061e-05 -0.00012479831 5.8046806e-06 -20.381646 3.8318411 -7.1327318 0.33176114 -5.0493483 0.94930019 -1.7670627 0.082190493 -0.43107078 0.081043246 -0.15085691 0.0070167312 -35.572278 6.6877484 -12.448824 0.57902583
-0 0 -0 0 -0.00036755565 3.7909067e-05 -0.0001343393 5.9900433e-06 -19.119648 1.9719682 -6.9881125 0.31159234 -5.1936292 0.53566212 -1.8982391 0.084640418 -0.49305751 0.050853117 -0.18020945 0.0080353434 -36.554397 3.7701587 -13.360405 0.59572591
-1.4922527e-09 2.1702175e-10 -1.4505883e-10 2.4402234e-11 -0.00038917337 5.6598381e-05 -3.7830748e-05 6.3640022e-06 -16.228499 2.360148 -1.5775392 0.26537839 -5.5166643 0.80230121 -0.53626365 0.090211886 -0.64857879 0.094324309 -0.063047018 0.010605959 -38.758169 5.6366899 -3.7676023 0.6337974
-0 0 -0 0 -0.00038059453 2.2116678e-05 -0.00010985668 6.2272085e-06 -17.342246 1.007773 -5.0057513 0.28375023 -5.3790706 0.31258246 -1.5526414 0.088011234 -0.58246405 0.033847492 -0.16812529 0.0095301557 -37.813838 2.1973949 -10.914772 0.61870215
-4.8018965e-08 1.2352871e-09 -1.0182414e-08 7.8762483e-10 -0.00038844212 9.9926677e-06 -8.2369089e-05 6.3713714e-06 -15.980247 0.4110916 -3.3886087 0.26211391 -5.5244364 0.14211604 -1.1714558 0.090613848 -0.66232173 0.017038216 -0.14044522 0.010863646 -38.799407 0.99811415 -8.2274079 0.63640222
-3.3266499e-08 1.1199249e-09 -8.1264632e-09 5.4616631e-10 -0.00038540264 1.2974676e-05 -9.4147581e-05 6.3275051e-06 -16.387872 0.55170179 -4.0032899 0.26905458 -5.4684508 0.18409676 -1.3358534 0.089780522 -0.63499929 0.021377409 -0.15511997 0.01042536 -38.417392 1.2933311 -9.3847426 0.63073321
-7.1012238e-08 2.1648748e-09 -7.4575277e-09 1.1756487e-09 -0.00039074199 1.1912137e-05 -4.1034747e-05 6.4689599e-06 -14.624456 0.44584028 -1.5358238 0.24211634 -5.6174269 0.17125254 -0.58992813 0.092999754 -0.73947482 0.022543585 -0.077657797 0.012242434 -39.420851 1.2017817 -4.1398792 0.65263501
-7.7320599e-08 1.9116036e-09 -1.1590796e-08 1.2729682e-09 -0.00039105939 9.6681942e-06 -5.8622018e-05 6.4382091e-06 -15.17123 0.37507958 -2.2742532 0.24977164 -5.5935762 0.13829045 -0.83850876 0.092089881 -0.70995086 0.017552175 -0.10642566 0.011688281 -39.265252 0.97075812 -5.8860837 0.64644375
-0 0 -0 0 -0.00037109286 3.1543955e-05 -0.00012499469 6.1172951e-06 -17.959146 1.5265787 -6.049154 0.29604826 -5.2487764 0.446161 -1.767938 0.086523664 -0.53930505 0.045842472 -0.18165337 0.0088901957 -36.915302 3.1379062 -12.43413 0.60853177
-0 0 -0 0 -0.00039094761 3.0273743e-05 -2.9228496e-05 6.4545292e-06 -14.942333 1.1570869 -1.1171367 0.24669731 -5.5995592 0.4336121 -0.41864099 0.092448496 -0.72053336 0.055795819 -0.053869384 0.011895977 -39.306684 3.043785 -2.9386937 0.64895176
-1.0760663e-07 2.0840635e-09 -1.923185e-08 1.777074e-09 -0.00038878299 7.5297262e-06 -6.9484718e-05 6.4205724e-06 -15.289183 0.29611214 -2.7325388 0.25249383 -5.5566543 0.1076181 -0.99310557 0.09176559 -0.69742182 0.013507266 -0.12464578 0.011517601 -39.009052 0.75550496 -6.9718404 0.64421655
-0 0 -0 0 -0.00035648318 7.3922285e-05 -0.00011668301 5.9082999e-06 -19.373872 4.017471 -6.341398 0.3210997 -5.0371468 1.0445301 -1.6487439 0.083484931 -0.4543923 0.09422525 -0.14873034 0.0075310312 -35.470233 7.3552997 -11.610011 0.58787843
-6.1595322e-09 1.3870027e-09 -1.3929342e-09 1.0209209e-10 -0.0003666422 8.2560446e-05 -8.2913518e-05 6.0769661e-06 -18.268835 4.1137741 -4.1313667 0.30279954 -5.1706235 1.1643204 -1.1692996 0.085701273 -0.5102204 0.11489137 -0.1153827 0.0084567243 -36.383054 8.1927317 -8.2277681 0.60303638
-7.5822281e-08 7.7537237e-09 -3.910488e-09 1.2577597e-09 -0.00038910179 3.9790253e-05 -2.0067688e-05 6.4545215e-06 -14.804218 1.5139062 -0.76351856 0.24557622 -5.5810497 0.57072824 -0.28783924 0.092579901 -0.72306533 0.073941969 -0.037291655 0.011994395 -39.174877 4.0060938 -2.0204205 0.64984303
-1.07997e-07 5.0475449e-09 -8.7403557e-09 1.8005982e-09 -0.00038867717 1.8165926e-05 -3.1456215e-05 6.4802858e-06 -14.333904 0.66993553 -1.1600639 0.23898444 -5.6002342 0.26174277 -0.45323518 0.09337085 -0.7481688 0.034967783 -0.0605504 0.012473971 -39.295704 1.8365957 -3.180259 0.65516426
-0 0 -0 0 -0.00035432648 5.4335661e-05 -0.00014525542 5.9133454e-06 -19.124826 2.9327758 -7.8401837 0.31917374 -5.0164441 0.7692674 -2.056481 0.083719306 -0.46035373 0.070594851 -0.18872108 0.0076828316 -35.317821 5.4159577 -14.478469 0.58941821
-0 0 -0 0 -0.00035564512 5.963117e-05 -0.00013620396 5.9381766e-06 -18.980269 3.1824298 -7.2690094 0.31691195 -5.0305224 0.84346986 -1.9265752 0.08399421 -0.46592535 0.078121904 -0.17843877 0.0077795165 -35.414228 5.9379188 -13.56284 0.59130838
-2.3008355e-07 1.1729922e-09 -3.4833689e-08 3.8565733e-09 -0.00038603723 1.9680619e-06 -5.8444425e-05 6.4706099e-06 -14.36197 0.073218964 -2.1743423 0.24072991 -5.5587103 0.028338939 -0.84156552 0.093172996 -0.73722412 0.0037584527 -0.11161265 0.012357071 -39.001809 0.19883567 -5.904711 0.65373355
-0 0 -0 0 -0.00037310563 2.230136e-05 -0.0001183171 6.2603297e-06 -16.508938 0.98677627 -5.2352191 0.27700305 -5.2940355 0.31643637 -1.6788139 0.088828483 -0.59548083 0.035593225 -0.18883544 0.0099915574 -37.199572 2.2235018 -11.796513 0.62417065
-0 0 -0 0 -0.00035796956 6.344434e-05 -0.00012285758 6.0255613e-06 -18.25898 3.2361102 -6.2666057 0.30734625 -5.0588838 0.89660569 -1.7362432 0.085154209 -0.49101733 0.087024915 -0.16852048 0.0082651023 -35.599261 6.3093958 -12.217908 0.59922841
-0 0 -0 0 -0.00035845395 8.0022137e-05 -9.9990665e-05 6.0916801e-06 -17.680641 3.9470695 -4.9320115 0.30047041 -5.0596342 1.1295251 -1.411384 0.085985027 -0.50618654 0.11300232 -0.14120064 0.0086022946 -35.59638 7.9466231 -9.9296038 0.60493617
-2.4609966e-08 3.1472678e-09 -1.7095595e-09 4.146729e-10 -0.0003827884 4.8953241e-05 -2.6590836e-05 6.4499064e-06 -14.668376 1.8758786 -1.0189556 0.24715915 -5.4833222 0.70123962 -0.38090527 0.092392859 -0.7046286 0.090112068 -0.048947835 0.011872848 -38.49119 4.9224807 -2.6738347 0.64856869
-1.29937e-08 2.3470889e-09 -1.7805358e-09 2.189755e-10 -0.00037623272 6.7959986e-05 -5.1555434e-05 6.3404381e-06 -15.895007 2.8711603 -2.178104 0.2678696 -5.3354008 0.96374861 -0.73111371 0.089914504 -0.62181977 0.11232107 -0.0852084 0.010479178 -37.485996 6.771202 -5.1367323 0.63173038
-2.8288924e-07 1.9691226e-10 -4.9879841e-08 4.7775337e-09 -0.00038275434 2.6642592e-07 -6.7488342e-05 6.464091e-06 -14.26524 0.0099296838 -2.515288 0.24091643 -5.5158567 0.0038394526 -0.97257165 0.093153743 -0.73217765 0.00050965092 -0.12909966 0.012365276 -38.698743 0.026937246 -6.8234732 0.65355808
-0 0 -0 0 -0.00035970854 3.8316571e-05 -0.00014508903 6.076671e-06 -17.784279 1.894402 -7.1733179 0.30043549 -5.0903925 0.54223451 -2.0532181 0.085993623 -0.51308149 0.054654035 -0.20695226 0.0086676491 -35.806887 3.8141912 -14.442767 0.60489716
-5.383792e-08 9.015686e-09 -6.3913934e-09 9.1492002e-10 -0.00037607242 6.2977003e-05 -4.464561e-05 6.3909636e-06 -15.211591 2.5473296 -1.805851 0.25850533 -5.3570623 0.89709245 -0.63596611 0.091037759 -0.65342717 0.10942277 -0.077571907 0.011104322 -37.621944 6.3001622 -4.4663063 0.6393462
-0 0 -0 0 -0.00035460433 4.5534492e-05 -0.00014854113 6.0729174e-06 -17.554628 2.2541774 -7.3535038 0.30063876 -5.0198151 0.64459092 -2.1027634 0.085968839 -0.5059676 0.064970943 -0.21194608 0.0086651493 -35.310335 4.5341752 -14.791238 0.60472118
-3.3058346e-07 3.138789e-08 -1.4548544e-08 5.6251908e-09 -0.0003811836 3.6192218e-05 -1.6775389e-05 6.4862001e-06 -13.764653 1.3069117 -0.60576427 0.23421861 -5.5202938 0.52413503 -0.24294087 0.093933029 -0.75633726 0.071811912 -0.033285408 0.012869795 -38.726735 3.6769851 -1.7043127 0.65897208
-2.3148904e-07 2.988895e-09 -5.3695431e-08 3.9394745e-09 -0.00037735431 4.8722499e-06 -8.7529859e-05 6.421806e-06 -14.63316 0.18893759 -3.3942594 0.24902674 -5.4171152 0.069943652 -1.2565361 0.092188327 -0.69430961 0.0089646517 -0.16104976 0.011815743 -38.016438 0.49085323 -8.8181671 0.64696276
-0 0 -0 0 -0.00035658755 7.3441707e-05 -0.00011054397 6.0830357e-06 -17.637475 3.6325616 -5.4677075 0.30087811 -5.0375974 1.0375285 -1.561681 0.085936496 -0.50423557 0.10385085 -0.15631561 0.0086017668 -35.440336 7.2991856 -10.986685 0.60457754
-5.3961879e-07 1.0242433e-08 -4.5248646e-08 9.23932e-09 -0.00037968476 7.2067463e-06 -3.18377e-05 6.5009393e-06 -13.258076 0.25164979 -1.1117292 0.22700397 -5.5364701 0.10508701 -0.46424954 0.094795104 -0.78537915 0.014907178 -0.065856385 0.013447214 -38.824295 0.73691881 -3.255533 0.66474721
