-0 0 -0 0 1.6992304e-11 -6.3027333e-12 9.7612316e-12 -1.6163688e-13 0 -0 0 -0 -13.572196 5.0341575 -7.7965503 0.1291036 -0 0 -0 0 -91.554204 33.959005 -52.593327 0.8708964
-0 0 -0 0 1.6861189e-11 -6.6413116e-12 9.8111457e-12 -1.6160045e-13 0 -0 0 -0 -13.470353 5.3057235 -7.8380943 0.12910211 -0 0 -0 0 -90.868397 35.791386 -52.874271 0.87089789
-0 0 -0 0 1.6827799e-11 -6.045861e-12 1.0066531e-11 -1.6176011e-13 0 -0 0 -0 -13.431087 4.8254962 -8.0345886 0.12910863 -0 0 -0 0 -90.598263 32.549979 -54.196641 0.87089137
-0 0 -0 0 1.6784177e-11 -6.4069834e-12 9.4301124e-12 -1.6122014e-13 0 -0 0 -0 -13.438842 5.1299768 -7.5505515 0.12908658 -1.1242373e-06 4.2915238e-07 -6.3164753e-07 1.0798843e-08 -90.668357 34.610613 -50.941598 0.87091341
-0 0 -0 0 1.6792177e-11 -6.373117e-12 1.0248945e-11 -1.6180537e-13 0 -0 0 -0 -13.399098 5.0853453 -8.1780111 0.12911047 -0 0 -0 0 -90.381002 34.302205 -55.163179 0.87088953
-0 0 -0 0 1.6746127e-11 -6.1271329e-12 9.6396825e-12 -1.6148644e-13 0 -0 0 -0 -13.387393 4.8982272 -7.7062723 0.12909745 -0 0 -0 0 -90.312507 33.043863 -51.987178 0.87090255
-0 0 -0 0 1.6637559e-11 -6.6082478e-12 9.3416304e-12 -1.6101804e-13 0 -0 0 -0 -13.337315 5.2974287 -7.4886146 0.12907833 -1.7957785e-06 7.1326265e-07 -1.0082909e-06 1.7379516e-08 -89.989983 35.742991 -50.527434 0.87092166
-0 0 -0 0 1.666677e-11 -6.713548e-12 1.009923e-11 -1.6169007e-13 0 -0 0 -0 -13.308029 5.3606122 -8.0640004 0.12910577 -0 0 -0 0 -89.770471 36.160478 -54.39642 0.87089423
-0 0 -0 0 1.6516228e-11 -6.4186961e-12 9.0629201e-12 -1.6041481e-13 0 -0 0 -0 -13.287304 5.1638403 -7.2911182 0.12905369 -3.9388825e-06 1.5307665e-06 -2.1613759e-06 3.825662e-08 -89.672192 34.849273 -49.20566 0.87094627
-0 0 -0 0 1.6560933e-11 -6.7528976e-12 9.5271444e-12 -1.6122199e-13 0 -0 0 -0 -13.259949 5.4068862 -7.6281603 0.12908665 -1.0823363e-06 4.4133423e-07 -6.2264455e-07 1.053663e-08 -89.46135 36.478823 -51.465169 0.87091334
-2.7155798e-11 1.1093805e-11 -1.4932859e-11 2.6815006e-13 1.6173433e-11 -6.6072416e-12 8.8937026e-12 -1.5970465e-13 0 -0 0 -0 -13.066447 5.337962 -7.185184 0.1290247 -6.3018274e-06 2.57445e-06 -3.4653483e-06 6.2227426e-08 -88.204447 36.033665 -48.503253 0.87097524
-0 0 -0 0 1.6269673e-11 -6.1340876e-12 8.9991334e-12 -1.5991611e-13 0 -0 0 -0 -13.127696 4.9494811 -7.2612333 0.12903333 -5.4722079e-06 2.063164e-06 -3.0268051e-06 5.3786834e-08 -88.611098 33.408677 -49.012854 0.87096662
-7.3767005e-11 2.8892651e-11 -3.9835146e-11 7.2718478e-13 1.6152684e-11 -6.3265934e-12 8.72266e-12 -1.5923089e-13 0 -0 0 -0 -13.086548 5.1256664 -7.0669066 0.12900535 -8.0917167e-06 3.1693187e-06 -4.3696327e-06 7.9767007e-08 -88.355344 34.60653 -47.713039 0.87099457
-0 0 -0 0 1.6355475e-11 -6.025114e-12 9.7917048e-12 -1.6128737e-13 0 -0 0 -0 -13.090406 4.8223112 -7.8369716 0.12908932 -1.8461771e-07 6.8010423e-08 -1.1052703e-07 1.8205834e-09 -88.315394 32.534079 -52.872708 0.87091067
-0 0 -0 0 1.6380602e-11 -6.388343e-12 1.0192586e-11 -1.6160129e-13 0 -0 0 -0 -13.086348 5.1036026 -8.1427858 0.12910214 -0 0 -0 0 -88.277952 34.427907 -54.929644 0.87089786
-0 0 -0 0 1.6319668e-11 -6.7687124e-12 9.7423132e-12 -1.6119655e-13 0 -0 0 -0 -13.068731 5.4203605 -7.8016093 0.12908562 -1.3111988e-06 5.4383015e-07 -7.8274321e-07 1.2951288e-08 -88.172068 36.570069 -52.63587 0.87091437
-0 0 -0 0 1.6293023e-11 -6.098861e-12 1.0198848e-11 -1.6150007e-13 0 -0 0 -0 -13.024124 4.8752353 -8.1526342 0.12909801 -0 0 -0 0 -87.861426 32.888595 -54.998101 0.87090199
-0 0 -0 0 1.6298586e-11 -6.6532777e-12 9.9742862e-12 -1.6144551e-13 0 -0 0 -0 -13.032748 5.3201237 -7.9756833 0.12909578 -0 0 -0 0 -87.921352 35.890546 -53.805447 0.87090422
-0 0 -0 0 1.6149304e-11 -5.9970034e-12 9.2114402e-12 -1.6009842e-13 0 -0 0 -0 -13.016485 4.833639 -7.4245043 0.12904078 -4.4170238e-06 1.6402507e-06 -2.5194368e-06 4.3788794e-08 -87.854611 32.624589 -50.111603 0.87095918
-0 0 -0 0 1.6082457e-11 -6.7468663e-12 9.2874161e-12 -1.6037296e-13 0 -0 0 -0 -12.94154 5.4291977 -7.473576 0.12905199 -3.6849268e-06 1.5458899e-06 -2.1279988e-06 3.6745792e-08 -87.340057 36.640651 -50.437782 0.87094798
-5.2106446e-11 1.972753e-11 -2.8224421e-11 5.211536e-13 1.5757798e-11 -5.9659111e-12 8.5355028e-12 -1.5760494e-13 0 -0 0 -0 -12.89169 4.8808011 -6.9830225 0.12893896 -1.3154941e-05 4.9804679e-06 -7.1256171e-06 1.3157191e-07 -87.091192 32.972774 -47.174555 0.87106091
-0 0 -0 0 1.5671656e-11 -6.4895144e-12 8.525283e-12 -1.5783471e-13 0 -0 0 -0 -12.803483 5.3018258 -6.965015 0.12894834 -1.2114745e-05 5.0166247e-06 -6.590346e-06 1.2201182e-07 -86.488075 35.814059 -47.048973 0.87105154
-0 0 -0 0 1.574301e-11 -5.8684802e-12 8.8757663e-12 -1.5845293e-13 0 -0 0 -0 -12.814105 4.7766798 -7.2244759 0.12897358 -1.0284508e-05 3.8337287e-06 -5.7983122e-06 1.0351327e-07 -86.540375 32.259426 -48.790678 0.87102631
-1.0547766e-11 4.4479626e-12 -5.9716928e-12 1.0659593e-13 1.572107e-11 -6.6295302e-12 8.9005959e-12 -1.5887745e-13 0 -0 0 -0 -12.76377 5.3824453 -7.2262996 0.12899092 -8.7623854e-06 3.6950729e-06 -4.9608871e-06 8.8552844e-08 -86.187141 36.344871 -48.795465 0.87100899
3.9603281e-10 -1.530175e-10 2.0676557e-10 -4.0039165e-12 1.5307161e-11 -5.9143166e-12 7.9917465e-12 -1.5475635e-13 0 -0 0 -0 -12.742024 4.9232099 -6.6525092 0.12882266 -1.9694446e-05 7.6094575e-06 -1.0282313e-05 1.9911208e-07 -86.169311 33.293738 -44.988311 0.87117714
-4.1334637e-12 1.5567523e-12 -2.4559447e-12 4.1850351e-14 1.5780384e-11 -5.9432357e-12 9.3760958e-12 -1.5977269e-13 0 -0 0 -0 -12.74375 4.7995731 -7.5718445 0.12902748 -4.8636939e-06 1.8317728e-06 -2.8898193e-06 4.924376e-08 -86.023966 32.398495 -51.112123 0.87097248
-1.0262374e-12 4.3536486e-13 -6.1182893e-13 1.0404721e-14 1.5783584e-11 -6.6959336e-12 9.4099601e-12 -1.6002514e-13 0 -0 0 -0 -12.727242 5.3993293 -7.5878101 0.12903778 -4.4803968e-06 1.9007369e-06 -2.6711522e-06 4.5425434e-08 -85.904654 36.443679 -51.215197 0.87096217
1.8600306e-10 -7.5543511e-11 9.8636666e-11 -1.886392e-12 1.5370851e-11 -6.2427362e-12 8.1510997e-12 -1.5588695e-13 0 -0 0 -0 -12.706793 5.1607524 -6.7383605 0.12886881 -1.7426454e-05 7.0776012e-06 -9.2411774e-06 1.7673431e-07 -85.895739 34.8858 -45.55016 0.87113102
-0 0 -0 0 1.5851268e-11 -6.1261277e-12 1.0067057e-11 -1.6088538e-13 0 -0 0 -0 -12.716937 4.9147854 -8.07646 0.12907291 -0 0 -0 0 -85.808283 33.162805 -54.49639 0.87092709
-0 0 -0 0 1.5117954e-11 -5.5659229e-12 8.1459558e-12 -1.543852e-13 0 -0 0 -0 -12.613293 4.6437907 -6.7963777 0.12880749 -2.0909584e-05 7.6982065e-06 -1.126664e-05 2.1352957e-07 -85.310286 31.408382 -45.967451 0.8711923
-0 0 -0 0 1.5675155e-11 -6.1220102e-12 9.8063365e-12 -1.6040349e-13 0 -0 0 -0 -12.611505 4.9254864 -7.889725 0.12905323 -1.7431787e-06 6.8080715e-07 -1.0905281e-06 1.7837906e-08 -85.111773 33.240828 -53.245704 0.87094675
6.5901865e-10 -2.4555094e-10 3.3623965e-10 -6.7597151e-12 1.4724692e-11 -5.4864336e-12 7.5127243e-12 -1.5103476e-13 0 -0 0 -0 -12.544376 4.6740458 -6.4002993 0.12867073 -2.6757147e-05 9.9697369e-06 -1.3651835e-05 2.7445458e-07 -84.947672 31.651579 -43.341377 0.871329
-3.376901e-12 1.3929481e-12 -2.0592834e-12 3.4628855e-14 1.558862e-11 -6.4301969e-12 9.5061675e-12 -1.5985546e-13 0 -0 0 -0 -12.582698 5.1902752 -7.6731127 0.12903086 -4.2532961e-06 1.754455e-06 -2.593722e-06 4.3615959e-08 -84.934268 35.034793 -51.794155 0.8709691
4.7534509e-11 -2.0134911e-11 2.619005e-11 -4.8880291e-13 1.5213596e-11 -6.4442531e-12 8.3822228e-12 -1.5644319e-13 0 -0 0 -0 -12.534285 5.3093368 -6.906005 0.12889152 -1.5878754e-05 6.726004e-06 -8.7487042e-06 1.6328308e-07 -84.712479 35.882946 -46.673966 0.87110832
6.1784386e-10 -2.4500348e-10 3.1382101e-10 -6.3614564e-12 1.4721755e-11 -5.8378524e-12 7.4776113e-12 -1.5157843e-13 0 -0 0 -0 -12.499047 4.9564464 -6.3486324 0.12869294 -2.6097742e-05 1.0348954e-05 -1.3255808e-05 2.687081e-07 -84.623947 33.557283 -42.982984 0.87130679
1.199607e-10 -5.0406201e-11 6.4159916e-11 -1.2389105e-12 1.4976216e-11 -6.2928454e-12 8.0098962e-12 -1.5466891e-13 0 -0 0 -0 -12.47324 5.2411214 -6.6712013 0.12881908 -2.005758e-05 8.4279797e-06 -1.0727618e-05 2.0714738e-07 -84.35432 35.44478 -45.116158 0.87118071
-1.6932876e-11 7.2651342e-12 -1.0100741e-11 1.7588024e-13 1.5259971e-11 -6.5473662e-12 9.102826e-12 -1.5850393e-13 0 -0 0 -0 -12.417137 5.327634 -7.4070281 0.12897567 -9.5493883e-06 4.0972123e-06 -5.6963685e-06 9.9188625e-08 -83.857889 35.979642 -50.022621 0.87102423
-1.3205782e-11 5.0058446e-12 -7.7231361e-12 1.3679926e-13 1.5158024e-11 -5.7458703e-12 8.8648654e-12 -1.5702261e-13 0 -0 0 -0 -12.444701 4.7173455 -7.2780328 0.12891518 -1.4039431e-05 5.3218513e-06 -8.2106788e-06 1.4543506e-07 -84.089305 31.875279 -49.177939 0.87108467
-0 0 -0 0 1.5149219e-11 -6.515549e-12 8.720303e-12 -1.5732903e-13 0 -0 0 -0 -12.414453 5.3393495 -7.1460971 0.12892769 -1.3421405e-05 5.7724312e-06 -7.7257265e-06 1.3938519e-07 -83.875574 36.074165 -48.281065 0.87107217
4.7568525e-11 -1.7128162e-11 2.3264713e-11 -4.9648652e-13 1.3885689e-11 -4.9998675e-12 6.791183e-12 -1.4492897e-13 0 -0 0 -0 -12.304095 4.4303777 -6.0176607 0.12842142 -2.8346789e-05 1.0206926e-05 -1.3863787e-05 2.9586368e-07 -83.506181 30.068357 -40.841025 0.87157829
-0 0 -0 0 1.4277877e-11 -5.1349028e-12 7.3782802e-12 -1.4864345e-13 0 -0 0 -0 -12.350027 4.4415701 -6.3820389 0.12857309 -2.8160886e-05 1.0127795e-05 -1.4552508e-05 2.9317604e-07 -83.704474 30.10352 -43.255387 0.87142662
-0 0 -0 0 1.451034e-11 -5.3027611e-12 7.7692371e-12 -1.5111951e-13 0 -0 0 -0 -12.355163 4.5151578 -6.6152954 0.12867418 -2.6499373e-05 9.6841178e-06 -1.4188496e-05 2.759806e-07 -83.663781 30.574683 -44.7959 0.87132554
-8.211591e-12 3.2263344e-12 -5.0809646e-12 8.5594942e-14 1.5245906e-11 -5.9901169e-12 9.4334832e-12 -1.5891834e-13 0 -0 0 -0 -12.374965 4.8621241 -7.6570736 0.12899259 -7.5590812e-06 2.9699633e-06 -4.6772207e-06 7.8793393e-08 -83.560498 32.830923 -51.703492 0.87100733
-0 0 -0 0 1.4202021e-11 -5.629033e-12 7.0534452e-12 -1.4824269e-13 0 -0 0 -0 -12.316059 4.8815239 -6.1167808 0.12855676 -2.7672156e-05 1.096798e-05 -1.3743399e-05 2.8884587e-07 -83.486413 33.090205 -41.463595 0.87144295
-0 0 -0 0 1.3783127e-11 -5.265266e-12 6.5804543e-12 -1.4443722e-13 0 -0 0 -0 -12.252884 4.6807008 -5.849873 0.12840138 -2.8789187e-05 1.0997703e-05 -1.3744772e-05 3.016899e-07 -83.173507 31.772953 -39.709383 0.87159832
1.2432014e-11 -5.2355798e-12 6.6481238e-12 -1.3031185e-13 1.4584355e-11 -6.1420101e-12 7.7991063e-12 -1.5287261e-13 0 -0 0 -0 -12.282605 5.1726581 -6.568226 0.12874575 -2.3073489e-05 9.7170972e-06 -1.2338741e-05 2.4185535e-07 -83.119392 35.004642 -44.448792 0.871254
3.6456732e-11 -1.562463e-11 2.0275741e-11 -3.8227611e-13 1.4778833e-11 -6.3339139e-12 8.2193819e-12 -1.5496712e-13 0 -0 0 -0 -12.286319 5.265672 -6.8331476 0.12883125 -1.9362111e-05 8.2982154e-06 -1.0768413e-05 2.0302622e-07 -83.081201 35.60695 -46.206362 0.87116855
-0 0 -0 0 1.4917729e-11 -5.945796e-12 9.0617799e-12 -1.5719017e-13 0 -0 0 -0 -12.235013 4.8765393 -7.4321631 0.12892202 -1.307083e-05 5.2096727e-06 -7.9398801e-06 1.3772913e-07 -82.667404 32.94895 -50.216344 0.87107784
1.0025974e-08 -3.7523078e-09 4.6898483e-09 -1.0601494e-10 1.3351761e-11 -4.9970127e-12 6.2455515e-12 -1.4118192e-13 0 -0 0 -0 -12.130514 4.5399501 -5.6742886 0.12826841 -2.6954212e-05 1.0087848e-05 -1.2608368e-05 2.8501464e-07 -82.440784 30.85418 -38.563314 0.8717313
4.2659777e-12 -1.8335518e-12 2.4608927e-12 -4.4950793e-14 1.4803358e-11 -6.3626034e-12 8.5395374e-12 -1.5598363e-13 0 -0 0 -0 -12.230447 5.2567454 -7.0553155 0.12887275 -1.6888821e-05 7.2589524e-06 -9.742568e-06 1.7795825e-07 -82.672816 35.533447 -47.691045 0.87112707
-5.8097859e-11 2.4090078e-11 -3.0032565e-11 6.1443403e-13 1.4150051e-11 -5.8672702e-12 7.3145952e-12 -1.4964877e-13 0 -0 0 -0 -12.161123 5.0425678 -6.2864571 0.12861416 -2.7130433e-05 1.1249541e-05 -1.4024552e-05 2.8692729e-07 -82.39393 34.164361 -42.591949 0.87138555
1.924081e-08 -6.6658908e-09 8.9770408e-09 -2.039697e-10 1.3053625e-11 -4.5223688e-12 6.0903322e-12 -1.3838003e-13 0 -0 0 -0 -12.088988 4.1881748 -5.6402689 0.12815403 -2.389134e-05 8.2770455e-06 -1.1146804e-05 2.5326944e-07 -82.242698 28.492607 -38.37136 0.87184572
-0 0 -0 0 1.4404475e-11 -5.4484609e-12 8.2834846e-12 -1.5300303e-13 0 -0 0 -0 -12.121272 4.5848442 -6.9704982 0.12875105 -2.2691112e-05 8.582863e-06 -1.3048825e-05 2.4102294e-07 -82.023736 31.025297 -47.168839 0.87124871
-3.1658469e-11 1.3238855e-11 -1.8592362e-11 3.3643406e-13 1.4627574e-11 -6.1169206e-12 8.5904711e-12 -1.5544701e-13 0 -0 0 -0 -12.124873 5.0703477 -7.1206867 0.12885084 -1.7870051e-05 7.4728508e-06 -1.049471e-05 1.8990475e-07 -81.975179 34.280165 -48.142323 0.87114897
2.1549929e-09 -7.4808613e-10 1.0893687e-09 -2.2906624e-11 1.3436057e-11 -4.6642048e-12 6.7920506e-12 -1.4281937e-13 0 -0 0 -0 -12.073432 4.191182 -6.1032311 0.12833526 -2.6213183e-05 9.0996673e-06 -1.3251005e-05 2.7863457e-07 -82.003821 28.466879 -41.453686 0.87166446
-0 0 -0 0 1.3786636e-11 -5.6078761e-12 6.9807237e-12 -1.4691269e-13 0 -0 0 -0 -12.058978 4.9051308 -6.1059414 0.12850247 -2.8481512e-05 1.158519e-05 -1.4421326e-05 3.0350373e-07 -81.783374 33.266348 -41.410184 0.87149723
-0 0 -0 0 1.4490893e-11 -5.7449463e-12 8.7282745e-12 -1.5494605e-13 0 -0 0 -0 -12.048499 4.7766539 -7.2571517 0.12883039 -1.8629646e-05 7.3857638e-06 -1.1221162e-05 1.9920028e-07 -81.473667 32.300414 -49.073892 0.87116941
-1.1881259e-10 5.0651005e-11 -6.6959736e-11 1.2773444e-12 1.4176071e-11 -6.0434018e-12 7.9892708e-12 -1.5240578e-13 0 -0 0 -0 -11.973552 5.1044457 -6.7479873 0.12872667 -2.3407551e-05 9.9788747e-06 -1.3191897e-05 2.5165266e-07 -81.04174 34.548909 -45.673049 0.87127308
8.392456e-09 -2.8396708e-09 4.0680611e-09 -8.9844264e-11 1.2926173e-11 -4.3736988e-12 6.2656819e-12 -1.3837933e-13 0 -0 0 -0 -11.971018 4.0505127 -5.8026913 0.12815406 -2.2068896e-05 7.4672301e-06 -1.0697419e-05 2.3625548e-07 -81.44011 27.55607 -39.476328 0.87184571
2.749845e-08 -1.03938e-08 1.2541061e-08 -2.9449591e-10 1.2863406e-11 -4.8620803e-12 5.8665402e-12 -1.3776124e-13 0 -0 0 -0 -11.964039 4.5221399 -5.4563713 0.12812943 -2.1858391e-05 8.261984e-06 -9.9688319e-06 2.3409344e-07 -81.410579 30.771382 -37.128459 0.87187034
-2.6437951e-10 1.1198419e-10 -1.4235449e-10 2.8378656e-12 1.3991373e-11 -5.9263768e-12 7.53362e-12 -1.5018424e-13 0 -0 0 -0 -11.98391 5.0760685 -6.4527066 0.12863601 -2.6356465e-05 1.1163904e-05 -1.4191574e-05 2.8291189e-07 -81.177454 34.38463 -43.709799 0.8713637
4.4452322e-08 -1.513975e-08 1.9733312e-08 -4.7882675e-10 1.2267612e-11 -4.1781526e-12 5.4458487e-12 -1.3214295e-13 0 -0 0 -0 -11.873897 4.0440594 -5.2710703 0.12790197 -1.1359952e-05 3.8690182e-06 -5.0429197e-06 1.2236592e-07 -80.962012 27.574367 -35.940725 0.87209791
-0 0 -0 0 1.3727503e-11 -5.7526906e-12 7.1975093e-12 -1.478691e-13 0 -0 0 -0 -11.933216 5.000771 -6.2567411 0.12854151 -2.7782792e-05 1.1642744e-05 -1.4566881e-05 2.9926902e-07 -80.902266 33.903157 -42.418114 0.8714582
5.3482279e-08 -1.931049e-08 2.3493212e-08 -5.7774677e-10 1.2295649e-11 -4.439508e-12 5.4011215e-12 -1.3282477e-13 0 -0 0 -0 -11.842476 4.275884 -5.2020559 0.12792934 -1.3292663e-05 4.7994933e-06 -5.839081e-06 1.435951e-07 -80.72796 29.147906 -35.461448 0.87207052
-6.5840189e-11 2.7546227e-11 -3.814042e-11 7.1143603e-13 1.4133141e-11 -5.9130255e-12 8.1871567e-12 -1.5271563e-13 0 -0 0 -0 -11.914242 4.984682 -6.9017752 0.12873932 -2.2712683e-05 9.5025352e-06 -1.3157181e-05 2.4542185e-07 -80.631216 33.734498 -46.708682 0.87126044
-0 0 -0 0 1.2956679e-11 -4.448513e-12 6.5950337e-12 -1.4004805e-13 0 -0 0 -0 -11.862602 4.0728756 -6.0381417 0.12822224 -2.2302549e-05 7.6573001e-06 -1.1352142e-05 2.4106707e-07 -80.653325 27.691307 -41.053067 0.87177752
1.9380728e-11 -7.1918089e-12 1.0839717e-11 -2.094988e-13 1.371386e-11 -5.0889452e-12 7.670216e-12 -1.4824197e-13 0 -0 0 -0 -11.892774 4.4131759 -6.6516755 0.12855668 -2.6594346e-05 9.8686416e-06 -1.4874323e-05 2.8747546e-07 -80.617169 29.915454 -45.0895 0.87144303
-0 0 -0 0 1.3335472e-11 -5.4810371e-12 6.7043953e-12 -1.442944e-13 0 -0 0 -0 -11.86612 4.8771162 -5.9656802 0.12839551 -2.8299366e-05 1.1631375e-05 -1.4227479e-05 3.0620889e-07 -80.552352 33.107972 -40.497616 0.87160419
2.070364e-11 -7.9315105e-12 1.1968395e-11 -2.2405106e-13 1.3950981e-11 -5.3445847e-12 8.0648071e-12 -1.5097501e-13 0 -0 0 -0 -11.889706 4.5549154 -6.8732214 0.12866825 -2.4724009e-05 9.4717037e-06 -1.4292497e-05 2.6755877e-07 -80.516169 30.845535 -46.544924 0.87133148
3.5971642e-08 -1.161711e-08 1.624613e-08 -3.913261e-10 1.1934874e-11 -3.8543903e-12 5.3902326e-12 -1.2983638e-13 0 -0 0 -0 -11.748615 3.7942375 -5.306111 0.12781011 -1.1741359e-06 3.7918941e-07 -5.3028338e-07 1.2773118e-08 -80.173804 25.892282 -36.209468 0.87218987
-1.160762e-09 4.1184604e-10 -6.1397676e-10 1.2669714e-11 1.2983475e-11 -4.6066229e-12 6.8675163e-12 -1.417146e-13 0 -0 0 -0 -11.753566 4.1702431 -6.2169648 0.12829015 -2.4564715e-05 8.7157236e-06 -1.2993331e-05 2.6812381e-07 -79.863469 28.336088 -42.243212 0.87170959
-0 0 -0 0 1.3635781e-11 -5.6898246e-12 7.5678527e-12 -1.4894653e-13 0 -0 0 -0 -11.771762 4.9120224 -6.5333231 0.12858546 -2.653034e-05 1.1070358e-05 -1.4724327e-05 2.8979654e-07 -79.776371 33.288417 -44.275852 0.87141425
4.7179223e-08 -1.7617857e-08 2.0761906e-08 -5.1878696e-10 1.1912392e-11 -4.448374e-12 5.2422223e-12 -1.3098973e-13 0 -0 0 -0 -11.627547 4.3420059 -5.1168718 0.12785755 -7.0636057e-06 2.6377204e-06 -3.1084429e-06 7.7672041e-08 -79.313866 29.617707 -34.903225 0.87214238
5.6173155e-09 -1.8719857e-09 2.7879916e-09 -6.1386683e-11 1.2425991e-11 -4.1409953e-12 6.1672803e-12 -1.3579269e-13 0 -0 0 -0 -11.717382 3.9048493 -5.8155826 0.12804892 -1.49316e-05 4.9759963e-06 -7.4108665e-06 1.6317428e-07 -79.789673 26.590126 -39.60129 0.87195091
-0 0 -0 0 1.1449645e-11 -3.7211021e-12 4.8569585e-12 -1.252078e-13 0 -0 0 -0 -11.671417 3.7931772 -4.9510343 0.12763299 -0 0 -0 0 -79.773723 25.926233 -33.840146 0.87236701
-0 0 -0 0 1.3883935e-11 -5.4868661e-12 8.3195724e-12 -1.519817e-13 0 -0 0 -0 -11.757944 4.6466841 -7.0456294 0.12870935 -2.3656609e-05 9.3489809e-06 -1.4175583e-05 2.5895912e-07 -79.594713 31.455457 -47.694976 0.8712904
-0 0 -0 0 1.1286175e-11 -3.8566707e-12 4.6422471e-12 -1.2407487e-13 0 -0 0 -0 -11.605863 3.9659131 -4.7737413 0.12758936 -0 0 -0 0 -79.356757 27.117502 -32.641144 0.87241064
2.7718078e-08 -1.0645261e-08 1.269319e-08 -3.0384917e-10 1.2288642e-11 -4.719512e-12 5.6274485e-12 -1.3470968e-13 0 -0 0 -0 -11.67702 4.4846159 -5.3473633 0.12800501 -1.8378713e-05 7.0584332e-06 -8.4163298e-06 2.0146983e-07 -79.546111 30.550067 -36.427268 0.87199479
-0 0 -0 0 1.3686262e-11 -5.6430279e-12 7.8970679e-12 -1.5016152e-13 0 -0 0 -0 -11.724262 4.8340692 -6.7649804 0.12863505 -2.5252781e-05 1.0412058e-05 -1.457103e-05 2.7706587e-07 -79.419313 32.74564 -45.825495 0.87136467
5.0143828e-08 -1.8070556e-08 2.139352e-08 -5.505935e-10 1.1676431e-11 -4.2078876e-12 4.9816689e-12 -1.2821053e-13 0 -0 0 -0 -11.634396 4.1927395 -4.9637353 0.12774898 -0 0 -0 0 -79.437924 28.6274 -33.891645 0.87225102
-0 0 -0 0 1.328476e-11 -5.5722661e-12 7.2064295e-12 -1.4632303e-13 0 -0 0 -0 -11.66463 4.8927061 -6.3275767 0.12847835 -2.719587e-05 1.1407254e-05 -1.4752628e-05 2.995449e-07 -79.125973 33.189233 -42.922549 0.87152135
8.6244386e-12 -3.4553141e-12 4.9577159e-12 -9.520016e-14 1.3460751e-11 -5.392945e-12 7.7378462e-12 -1.485854e-13 0 -0 0 -0 -11.647567 4.6665068 -6.6955462 0.12857071 -2.6394417e-05 1.0574717e-05 -1.51727e-05 2.9135261e-07 -78.945097 31.628738 -45.381199 0.871429
-3.1193113e-09 1.2974317e-09 -1.5990644e-09 3.4391217e-11 1.2945756e-11 -5.3845971e-12 6.636432e-12 -1.4273032e-13 0 -0 0 -0 -11.639781 4.841396 -5.9669451 0.12833161 -2.708613e-05 1.1266078e-05 -1.3885265e-05 2.9863162e-07 -79.061002 32.884263 -40.529341 0.87166809
2.4252982e-08 -7.6856008e-09 1.1277577e-08 -2.6751432e-10 1.1652123e-11 -3.6924765e-12 5.4182086e-12 -1.285248e-13 0 -0 0 -0 -11.582699 3.6704765 -5.3859266 0.12775905 -5.0611628e-06 1.6038472e-06 -2.3534283e-06 5.5825445e-08 -79.077796 25.059202 -36.770981 0.8722409
-0 0 -0 0 1.2946753e-11 -4.6823035e-12 7.1136872e-12 -1.4284771e-13 0 -0 0 -0 -11.631547 4.2066479 -6.3910374 0.1283364 -2.541621e-05 9.1919886e-06 -1.396512e-05 2.8042917e-07 -79.001688 28.571633 -43.408049 0.87166332
-1.6128842e-07 5.0051105e-08 -6.6996596e-08 1.7887123e-09 1.0804253e-11 -3.3527813e-12 4.4879116e-12 -1.1982076e-13 0 -0 0 -0 -11.490315 3.5656803 -4.7728905 0.12742928 -8.2309687e-05 2.5542383e-05 -3.4190109e-05 9.1282653e-07 -78.679733 24.415934 -32.682285 0.8725698
-1.0121567e-07 3.0499631e-08 -4.3589801e-08 1.1284737e-09 1.0770519e-11 -3.2455137e-12 4.6384594e-12 -1.2008266e-13 0 -0 0 -0 -11.430297 3.4443266 -4.922601 0.12743866 -7.1963382e-05 2.1684948e-05 -3.0991935e-05 8.0233409e-07 -78.262171 23.582982 -33.704588 0.87256054
-5.0975059e-07 1.6945193e-07 -2.0212462e-07 5.6861232e-09 1.0578908e-11 -3.5166539e-12 4.1947137e-12 -1.1800472e-13 0 -0 0 -0 -11.417931 3.7955629 -4.5274002 0.12736378 -0.00028206113 9.3763113e-05 -0.00011184195 3.1463118e-06 -78.229967 26.005303 -31.019488 0.87263307
2.1190689e-09 -8.6792365e-10 1.0500866e-09 -2.3782835e-11 1.2243499e-11 -5.0146659e-12 6.0671621e-12 -1.3741182e-13 0 -0 0 -0 -11.415109 4.6753755 -5.6566603 0.12811459 -2.2137712e-05 9.0671161e-06 -1.0970155e-05 2.4845702e-07 -77.685639 31.818315 -38.496459 0.87188516
2.0832858e-10 -8.5703852e-11 1.1410512e-10 -2.3272667e-12 1.2887217e-11 -5.3016448e-12 7.0585485e-12 -1.4396484e-13 0 -0 0 -0 -11.4923 4.7277929 -6.2945287 0.12838203 -2.6359821e-05 1.0844111e-05 -1.4437724e-05 2.9446912e-07 -78.024094 32.098166 -42.735127 0.87161767
-1.739558e-09 6.163526e-10 -9.4028346e-10 1.9436396e-11 1.2431927e-11 -4.4048261e-12 6.7198306e-12 -1.3890416e-13 0 -0 0 -0 -11.471701 4.0646032 -6.2007999 0.12817539 -1.990485e-05 7.0525996e-06 -1.0759171e-05 2.2240049e-07 -78.028309 27.64665 -42.176649 0.87182439
-0 0 -0 0 1.1287039e-11 -3.5354032e-12 5.3502466e-12 -1.2644128e-13 0 -0 0 -0 -11.397484 3.5699974 -5.4025991 0.12767852 -0 0 -0 0 -77.869556 24.390833 -36.911481 0.87232148
-0 0 -0 0 1.0889163e-11 -3.9005738e-12 4.5440444e-12 -1.2236445e-13 0 -0 0 -0 -11.348341 4.0650545 -4.7356592 0.12752436 -9.2966709e-07 3.3301322e-07 -3.8794981e-07 1.044692e-08 -77.641248 27.811635 -32.39967 0.87247563
1.5184616e-08 -5.6533018e-09 6.6943955e-09 -1.707828e-10 1.1282274e-11 -4.200442e-12 4.9739817e-12 -1.2689279e-13 0 -0 0 -0 -11.35381 4.2270751 -5.0055195 0.12769736 -0 0 -0 0 -77.55805 28.875215 -34.19278 0.87230264
-0 0 -0 0 1.198688e-11 -4.1233195e-12 6.2762572e-12 -1.3489982e-13 0 -0 0 -0 -11.374907 3.9128094 -5.955832 0.1280127 -1.0318514e-05 3.5494251e-06 -5.4027113e-06 1.1612411e-07 -77.482723 26.652977 -40.569483 0.87198718
-0 0 -0 0 1.268958e-11 -5.0712558e-12 7.1248335e-12 -1.4309041e-13 0 -0 0 -0 -11.38204 4.5487113 -6.3906875 0.12834631 -2.5665703e-05 1.0257026e-05 -1.4410553e-05 2.8941195e-07 -77.300185 30.892198 -43.401828 0.8716534
-0 0 -0 0 1.2570519e-11 -5.1928209e-12 6.7555691e-12 -1.4159368e-13 0 -0 0 -0 -11.389007 4.7047442 -6.1206087 0.1282852 -2.4674846e-05 1.0193061e-05 -1.3260601e-05 2.7793622e-07 -77.389778 31.969346 -41.590328 0.87171452
-0 0 -0 0 1.1571159e-11 -3.7946945e-12 5.8324552e-12 -1.3049878e-13 0 -0 0 -0 -11.335305 3.7173476 -5.7135728 0.12783884 -0 0 -0 0 -77.333405 25.361042 -38.979987 0.87216116
-4.853708e-07 1.6955832e-07 -1.9437514e-07 5.4794014e-09 1.0449805e-11 -3.6505109e-12 4.1848052e-12 -1.1796893e-13 0 -0 0 -0 -11.281901 3.9411934 -4.5180324 0.12736255 -0.00030237763 0.00010563191 -0.00012109235 3.4135725e-06 -77.298786 27.003381 -30.955636 0.87263403
-2.0278705e-06 6.5534465e-07 -7.6432925e-07 2.2901409e-08 9.8900918e-12 -3.1961699e-12 3.7276968e-12 -1.1169206e-13 0 -0 0 -0 -11.257995 3.6382336 -4.2432762 0.12714024 -0.0020272253 0.00065513615 -0.00076408607 2.2894123e-05 -77.287826 24.977021 -29.130729 0.87283684
1.095128e-08 -4.3980254e-09 5.2196584e-09 -1.2387087e-10 1.1767975e-11 -4.7260094e-12 5.6089159e-12 -1.3310858e-13 0 -0 0 -0 -11.311128 4.5425402 -5.3911713 0.12794115 -1.4203275e-05 5.704024e-06 -6.7696418e-06 1.6065447e-07 -77.097697 30.962374 -36.746722 0.87205869
9.436401e-09 -3.7104269e-09 4.3463295e-09 -1.0755437e-10 1.1314902e-11 -4.4490601e-12 5.2115516e-12 -1.2896518e-13 0 -0 0 -0 -11.210648 4.4080673 -5.1635334 0.12777692 -4.6468187e-07 1.8271459e-07 -2.1402869e-07 5.296359e-09 -76.525449 30.090082 -35.246999 0.87222308
-2.4275151e-06 7.097282e-07 -9.5075282e-07 2.7468132e-08 9.7404064e-12 -2.8477849e-12 3.8148964e-12 -1.102159e-13 0 -0 0 -0 -11.231481 3.2837278 -4.3988861 0.12708791 -0.0024749674 0.00072360172 -0.00096933781 2.800507e-05 -77.141731 22.553788 -30.213084 0.87288406
-0 0 -0 0 1.0559513e-11 -3.1405223e-12 4.7767327e-12 -1.1964136e-13 0 -0 0 -0 -11.24619 3.3447481 -5.0873601 0.12742155 -0 0 -0 0 -77.01353 22.904722 -34.83807 0.87257845
1.605589e-09 -6.533314e-10 8.5510011e-10 -1.8253269e-11 1.2237212e-11 -4.9794529e-12 6.5172602e-12 -1.3911974e-13 0 -0 0 -0 -11.275302 4.5880415 -6.004969 0.12818419 -2.1908107e-05 8.914644e-06 -1.1667759e-05 2.4906409e-07 -76.686401 31.20452 -40.841429 0.87181556
-0 0 -0 0 1.0871014e-11 -4.0867595e-12 4.7107945e-12 -1.2380368e-13 0 -0 0 -0 -11.20259 4.2114093 -4.8544779 0.1275798 -2.4633305e-06 9.2604415e-07 -1.0674481e-06 2.8053443e-08 -76.605898 28.79859 -33.196041 0.87242017
-2.5678264e-06 7.1976085e-07 -1.0618805e-06 2.9429026e-08 9.5676689e-12 -2.6818142e-12 3.956545e-12 -1.0965195e-13 0 -0 0 -0 -11.087114 3.1077141 -4.5848854 0.12706582 -0.0026409936 0.00074026959 -0.0010921375 3.0267572e-05 -76.165133 21.34906 -31.496781 0.87290389
-4.4918628e-06 1.2826603e-06 -1.6924139e-06 5.1455416e-08 9.1087607e-12 -2.6010246e-12 3.4319377e-12 -1.0434314e-13 0 -0 0 -0 -11.076912 3.1630342 -4.1734847 0.12688881 -0.0063350545 0.0018089873 -0.0023868793 7.2569639e-05 -76.212958 21.762761 -28.715007 0.87303857
4.5601216e-09 -1.8450586e-09 2.3494265e-09 -5.2083193e-11 1.193864e-11 -4.8304613e-12 6.1509232e-12 -1.3635656e-13 0 -0 0 -0 -11.2133 4.5369833 -5.7772197 0.12807213 -1.8274131e-05 7.3938474e-06 -9.4150403e-06 2.0871705e-07 -76.341252 30.888229 -39.331881 0.87192766
1.2129001e-10 -4.7969289e-11 6.7235097e-11 -1.3870182e-12 1.2200846e-11 -4.8253431e-12 6.7633358e-12 -1.3952341e-13 0 -0 0 -0 -11.21071 4.4337518 -6.2144705 0.12820066 -2.1014254e-05 8.3109798e-06 -1.1648902e-05 2.4030959e-07 -76.235859 30.15071 -42.260078 0.8717991
-2.3177581e-06 7.8258035e-07 -8.8172622e-07 2.6585581e-08 9.6496721e-12 -3.2581674e-12 3.6709478e-12 -1.1068547e-13 0 -0 0 -0 -11.081248 3.7415325 -4.215551 0.1271062 -0.002586275 0.00087324384 -0.00098387596 2.9665574e-05 -76.097183 25.693863 -28.949044 0.8728641
-2.4619639e-10 9.2619573e-11 -1.3451414e-10 2.8257498e-12 1.1899283e-11 -4.4765341e-12 6.5014027e-12 -1.3657551e-13 0 -0 0 -0 -11.159191 4.1981101 -6.0970392 0.12808101 -1.478826e-05 5.5633731e-06 -8.0798509e-06 1.6973411e-07 -75.966834 28.578874 -41.505943 0.87191882
-2.1869279e-07 6.5551681e-08 -1.0232721e-07 2.5139281e-09 1.0356567e-11 -3.1043107e-12 4.845878e-12 -1.1905132e-13 0 -0 0 -0 -11.082851 3.3220094 -5.185709 0.12740013 -0.00011914689 3.5713473e-05 -5.5749294e-05 1.3696232e-06 -75.90949 22.753355 -35.518345 0.8725985
-1.8487716e-08 5.9747889e-09 -9.2892197e-09 2.1357437e-10 1.0853746e-11 -3.5076719e-12 5.453504e-12 -1.2538499e-13 0 -0 0 -0 -11.048801 3.570709 -5.55151 0.1276383 -0 0 -0 0 -75.514564 24.404506 -37.942565 0.8723617
-0 0 -0 0 1.1614695e-11 -4.2129822e-12 6.2238068e-12 -1.3380307e-13 0 -0 0 -0 -11.108244 4.0292779 -5.9524218 0.12796867 -8.804664e-06 3.1937036e-06 -4.7180342e-06 1.0143108e-07 -75.696147 27.457159 -40.562253 0.87203123
-5.1116614e-06 1.5898928e-06 -1.8328162e-06 5.9056466e-08 8.872881e-12 -2.7597543e-12 3.1814237e-12 -1.025109e-13 0 -0 0 -0 -10.977781 3.4144465 -3.9361478 0.1268294 -0.007671693 0.0023861458 -0.0027507306 8.8633234e-05 -75.570033 23.504736 -27.09608 0.87308191
2.9864567e-08 -1.1804568e-08 1.5008343e-08 -3.4570189e-10 1.1372667e-11 -4.4952745e-12 5.7152977e-12 -1.3164606e-13 0 -0 0 -0 -11.047567 4.3667721 -5.5519197 0.12788281 -1.1358112e-05 4.4895212e-06 -5.707983e-06 1.3147757e-07 -75.340632 29.779893 -37.862195 0.87211706
-1.5041847e-06 5.3897858e-07 -6.0898723e-07 1.755036e-08 9.7095353e-12 -3.479115e-12 3.931022e-12 -1.1328785e-13 0 -0 0 -0 -10.901511 3.9062231 -4.4136077 0.12719545 -0.0014494095 0.00051935157 -0.00058681084 1.691126e-05 -74.803808 26.803657 -30.28522 0.87278762
-4.8678327e-07 1.8103151e-07 -2.034547e-07 5.6524019e-09 1.0118564e-11 -3.7630276e-12 4.2291293e-12 -1.1749415e-13 0 -0 0 -0 -10.966947 4.0785357 -4.5837173 0.12734536 -0.00041543271 0.0001544967 -0.0001736332 4.8238975e-06 -75.152357 27.94867 -31.410489 0.87264981
-0 0 -0 0 1.027335e-11 -3.9146366e-12 4.5122025e-12 -1.2013693e-13 0 -0 0 -0 -10.897959 4.1526426 -4.7865399 0.12744113 -7.1142477e-05 2.710868e-05 -3.1246796e-05 8.3194274e-07 -74.61564 28.43212 -32.772259 0.87255803
-0 0 -0 0 1.1628222e-11 -4.5783519e-12 6.3566705e-12 -1.3544719e-13 0 -0 0 -0 -10.991957 4.3278367 -6.0088504 0.12803588 -1.3852098e-05 5.4539533e-06 -7.5723721e-06 1.6135121e-07 -74.858629 29.473908 -40.922132 0.87196396
-7.8594588e-06 2.1499409e-06 -2.8377177e-06 9.166409e-08 8.2102294e-12 -2.2458936e-12 2.9643661e-12 -9.5755093e-14 0 -0 0 -0 -10.855797 2.9695839 -3.9195685 0.12661009 -0.014987466 0.0040997945 -0.0054113391 0.00017479733 -74.871168 20.480874 -27.032807 0.87321502
-3.7399347e-07 1.1603763e-07 -1.8268702e-07 4.3702227e-09 1.0249964e-11 -3.1802199e-12 5.0068663e-12 -1.1977381e-13 0 -0 0 -0 -10.90497 3.3834462 -5.3268213 0.12742775 -0.00017756606 5.5092791e-05 -8.6736846e-05 2.0749111e-06 -74.672522 23.168379 -36.475772 0.87257017
-4.5142164e-06 1.5000208e-06 -1.6601583e-06 5.2804992e-08 8.8906209e-12 -2.9542484e-12 3.2696346e-12 -1.0399793e-13 0 -0 0 -0 -10.846669 3.6042201 -3.9889952 0.12687878 -0.0064460424 0.0021419439 -0.002370611 7.5402504e-05 -74.635321 24.800436 -27.448053 0.87304577
3.0357354e-08 -1.1786813e-08 1.5688517e-08 -3.5518377e-10 1.1188135e-11 -4.3440032e-12 5.7819675e-12 -1.3090218e-13 0 -0 0 -0 -10.927554 4.2428279 -5.647301 0.12785336 -9.213404e-06 3.577277e-06 -4.7614374e-06 1.0779765e-07 -74.541867 28.942279 -38.522834 0.87214653
-8.5389623e-06 2.557303e-06 -2.8923373e-06 1.0008673e-07 8.0082734e-12 -2.3983689e-12 2.7125811e-12 -9.3866427e-14 0 -0 0 -0 -10.797058 3.233572 -3.6572049 0.12655428 -0.017072109 0.0051128642 -0.0057827046 0.00020010529 -74.501491 22.312183 -25.23532 0.87324551
-7.5644644e-06 1.9846852e-06 -2.8925644e-06 8.8832108e-08 8.220894e-12 -2.1569123e-12 3.1435756e-12 -9.6540787e-14 0 -0 0 -0 -10.783032 2.8291394 -4.1233078 0.12662886 -0.014161069 0.0037154335 -0.0054150305 0.00016629831 -74.357419 19.509123 -28.433424 0.87320476
-7.2070222e-06 2.3123567e-06 -2.5442457e-06 8.5415952e-08 8.177646e-12 -2.6237792e-12 2.8868983e-12 -9.691956e-14 0 -0 0 -0 -10.685982 3.4285729 -3.7723988 0.12664777 -0.013128897 0.0042123768 -0.0046348045 0.00015560063 -73.676482 23.638932 -26.009504 0.87319654
5.9624973e-08 -2.3394776e-08 2.9427137e-08 -7.0187389e-10 1.0787868e-11 -4.2327861e-12 5.3242131e-12 -1.2698912e-13 0 -0 0 -0 -10.848298 4.2564966 -5.3540375 0.12770047 -6.4139242e-07 2.5166019e-07 -3.1655096e-07 7.550135e-09 -74.102822 29.075383 -36.572492 0.87229953
-0 0 -0 0 1.033067e-11 -3.9888318e-12 4.791726e-12 -1.220497e-13 0 -0 0 -0 -10.793068 4.167371 -5.0062026 0.12751261 -0 0 -0 0 -73.850072 28.514659 -34.254247 0.87248739
-1.09796e-05 2.9421134e-06 -3.7315991e-06 1.2964981e-07 7.4552004e-12 -1.9977089e-12 2.5337734e-12 -8.8032837e-14 0 -0 0 -0 -10.702326 2.8678145 -3.6373628 0.12637569 -0.025475137 0.0068263636 -0.0086581476 0.00030081667 -73.958773 19.818126 -25.136115 0.87332336
-0 0 -0 0 1.1105788e-11 -4.1979423e-12 6.0066237e-12 -1.3118307e-13 0 -0 0 -0 -10.824825 4.0917392 -5.8546631 0.12786429 -4.7771287e-06 1.805735e-06 -2.583735e-06 5.6428089e-08 -73.83387 27.908899 -39.933434 0.87213565
-1.0776447e-05 2.744283e-06 -3.820775e-06 1.2742084e-07 7.5076164e-12 -1.9118569e-12 2.6618155e-12 -8.8770149e-14 0 -0 0 -0 -10.689047 2.7220262 -3.7897876 0.12638742 -0.024395999 0.006212579 -0.0086495695 0.0002884586 -73.860206 18.808919 -26.187039 0.87332399
-4.1545363e-06 1.1386971e-06 -1.8344686e-06 4.940126e-08 8.83786e-12 -2.422327e-12 3.9024275e-12 -1.0509029e-13 0 -0 0 -0 -10.672481 2.9251694 -4.7125189 0.12690562 -0.0056986738 0.0015619223 -0.0025162948 6.7762475e-05 -73.419597 20.123228 -32.419008 0.87302657
-1.1516255e-05 3.2991365e-06 -3.7625982e-06 1.3683061e-07 7.2770159e-12 -2.0846941e-12 2.3775513e-12 -8.6462006e-14 0 -0 0 -0 -10.632815 3.0460517 -3.4739602 0.126334 -0.027696032 0.0079342624 -0.0090488652 0.00032907094 -73.503797 21.057111 -24.015207 0.87333679
-2.0308044e-06 5.9595155e-07 -9.6261993e-07 2.415012e-08 9.4204542e-12 -2.764488e-12 4.4653818e-12 -1.1202709e-13 0 -0 0 -0 -10.692024 3.1376377 -5.0681177 0.12714847 -0.0020959508 0.00061506915 -0.00099349992 2.4924835e-05 -73.396738 21.538707 -34.790728 0.87282658
-9.9721757e-06 2.4998372e-06 -3.7453321e-06 1.1859744e-07 7.6230095e-12 -1.9109453e-12 2.8630364e-12 -9.0659194e-14 0 -0 0 -0 -10.631752 2.6651805 -3.9930544 0.12644167 -0.021926813 0.0054966402 -0.0082352334 0.00026077197 -73.430552 18.40766 -27.578917 0.87329744
-6.6161911e-08 2.5527706e-08 -3.1906854e-08 7.9056202e-10 1.0238142e-11 -3.9502528e-12 4.937386e-12 -1.2233453e-13 0 -0 0 -0 -10.672398 4.1178051 -5.1468082 0.12752342 -1.0666743e-05 4.115623e-06 -5.1440808e-06 1.2745584e-07 -73.017306 28.172771 -35.212897 0.87247645
-0 0 -0 0 1.0732656e-11 -3.9857651e-12 5.7220119e-12 -1.2798639e-13 0 -0 0 -0 -10.711891 3.9780537 -5.7109413 0.12773877 -0 0 -0 0 -73.145899 27.164046 -38.997029 0.87226123
-1.3131665e-06 4.8850963e-07 -5.6515848e-07 1.5681923e-08 9.5358057e-12 -3.5474047e-12 4.1040048e-12 -1.1387724e-13 0 -0 0 -0 -10.652664 3.9628861 -4.5846766 0.12721484 -0.0011661706 0.00043382587 -0.00050189465 1.3926489e-05 -73.083758 27.18781 -31.453671 0.87277122
-3.093092e-06 1.1137139e-06 -1.239098e-06 3.6949617e-08 9.0383627e-12 -3.2543974e-12 3.6207838e-12 -1.0797094e-13 0 -0 0 -0 -10.632149 3.8282639 -4.2592573 0.12701007 -0.003783051 0.001362144 -0.0015154968 4.5191764e-05 -73.075135 26.311793 -29.274026 0.8729447
-1.5148529e-05 3.8381404e-06 -4.8340779e-06 1.8208732e-07 6.4530906e-12 -1.6350015e-12 2.0592589e-12 -7.7567003e-14 0 -0 0 -0 -10.489429 2.6576772 -3.3473029 0.12608432 -0.044670817 0.01131812 -0.014254995 0.00053694913 -72.659645 18.409571 -23.186567 0.87337855
-2.0744109e-07 7.7346201e-08 -1.029739e-07 2.4943178e-09 1.0122873e-11 -3.7744006e-12 5.025001e-12 -1.2171968e-13 0 -0 0 -0 -10.603664 3.9536678 -5.2636661 0.12750082 -5.1741271e-05 1.929218e-05 -2.5684402e-05 6.2214856e-07 -72.561744 27.055273 -36.019698 0.87249856
-1.1967995e-05 3.6302636e-06 -3.8697889e-06 1.4396279e-07 7.0718396e-12 -2.145108e-12 2.2866425e-12 -8.5067026e-14 0 -0 0 -0 -10.498962 3.1846602 -3.3947846 0.12629181 -0.029448708 0.0089327051 -0.0095220862 0.00035423795 -72.604138 22.023083 -23.476169 0.8733538
-1.4484117e-05 4.0811795e-06 -4.4593395e-06 1.7435327e-07 6.5284721e-12 -1.839523e-12 2.0099722e-12 -7.8586803e-14 0 -0 0 -0 -10.477684 2.9522896 -3.2258473 0.12612563 -0.041408005 0.011667504 -0.012748609 0.00049845089 -72.554283 20.443569 -22.33786 0.87337574
-6.3230622e-07 2.3802045e-07 -2.9625984e-07 7.6344786e-09 9.734196e-12 -3.6642652e-12 4.560846e-12 -1.1753089e-13 0 -0 0 -0 -10.54707 3.9702572 -4.9417088 0.12734555 -0.00037190974 0.00013999881 -0.00017425405 4.490446e-06 -72.275007 27.206643 -33.863627 0.87264996
-3.2650959e-06 9.4544992e-07 -1.5356138e-06 3.942384e-08 8.9248597e-12 -2.5843063e-12 4.1974686e-12 -1.0776169e-13 0 -0 0 -0 -10.517969 3.0456113 -4.946727 0.12699741 -0.0039934936 0.0011563667 -0.001878188 4.8218754e-05 -72.298374 20.934911 -34.002793 0.87295433
-5.7297313e-06 1.9788436e-06 -2.1894058e-06 6.9329991e-08 8.3078002e-12 -2.8692161e-12 3.1745198e-12 -1.0052473e-13 0 -0 0 -0 -10.476242 3.618118 -4.0031098 0.12676297 -0.0095631218 0.0033027592 -0.0036541947 0.00011571418 -72.15853 24.920967 -27.572724 0.87312125
-6.2765334e-07 2.1927503e-07 -3.1835131e-07 7.6545793e-09 9.6581665e-12 -3.3741472e-12 4.8987072e-12 -1.1778668e-13 0 -0 0 -0 -10.442659 3.6482149 -5.2966085 0.12735399 -0.00022047326 7.7023855e-05 -0.00011182598 2.6887932e-06 -71.554225 24.997963 -36.292934 0.87264331
-8.3096128e-06 2.1089223e-06 -3.5109626e-06 1.0082399e-07 7.8024151e-12 -1.980199e-12 3.2966623e-12 -9.466995e-14 0 -0 0 -0 -10.430194 2.6471112 -4.4069467 0.12655388 -0.017051857 0.0043276435 -0.0072047198 0.00020689728 -71.969766 18.265429 -30.408535 0.87323912
-8.1396329e-07 2.9432767e-07 -3.9356477e-07 9.8837393e-09 9.6168438e-12 -3.4774336e-12 4.6499037e-12 -1.1677477e-13 0 -0 0 -0 -10.485089 3.7913896 -5.0697147 0.12731764 -0.000494833 0.00017893073 -0.00023925997 6.0086252e-06 -71.868195 25.987411 -34.749466 0.87267634
-2.8510532e-06 1.0376185e-06 -1.2131962e-06 3.4662937e-08 8.9370054e-12 -3.2525533e-12 3.8029248e-12 -1.0865558e-13 0 -0 0 -0 -10.448494 3.8026479 -4.446102 0.12703218 -0.0034046704 0.0012391032 -0.0014487745 4.1393781e-05 -71.798868 26.130637 -30.552258 0.87292639
-1.4586615e-05 3.3803127e-06 -5.1945226e-06 1.7722933e-07 6.5555793e-12 -1.5191947e-12 2.3345446e-12 -7.9651167e-14 0 -0 0 -0 -10.379525 2.4053585 -3.6963116 0.12611262 -0.042835916 0.009926826 -0.015254542 0.00052046212 -71.881245 16.657811 -25.598039 0.87336674
-6.80201e-06 1.787158e-06 -3.0087217e-06 8.2816703e-08 8.0778679e-12 -2.1223765e-12 3.5730698e-12 -9.8350692e-14 0 -0 0 -0 -10.404146 2.7335821 -4.6020486 0.12667389 -0.012820933 0.0033685679 -0.0056710619 0.00015609907 -71.716336 18.842728 -31.722167 0.87316993
-7.9849856e-06 2.6956707e-06 -2.9525782e-06 9.7822943e-08 7.71407e-12 -2.6042116e-12 2.8524027e-12 -9.4503994e-14 0 -0 0 -0 -10.331587 3.4878654 -3.820272 0.12657082 -0.015920676 0.0053746997 -0.0058869287 0.00019504198 -71.279405 24.063387 -26.356718 0.87323404
-1.7398232e-05 3.9589852e-06 -5.6946389e-06 2.1237915e-07 5.8937997e-12 -1.3411401e-12 1.9291076e-12 -7.1945253e-14 0 -0 0 -0 -10.315638 2.3473339 -3.3764256 0.12592236 -0.057001115 0.012970661 -0.018657113 0.00069580912 -71.547963 16.280812 -23.418462 0.87338162
-1.4620611e-06 5.4519348e-07 -6.7451966e-07 1.7864261e-08 9.3095555e-12 -3.4714752e-12 4.2949491e-12 -1.1374923e-13 0 -0 0 -0 -10.411197 3.8822706 -4.8031899 0.12720969 -0.0012948329 0.00048283511 -0.00059736916 1.5820975e-05 -71.430306 26.635916 -32.954262 0.87277447
-1.9361608e-05 4.4981235e-06 -5.8531399e-06 2.3733869e-07 5.3126063e-12 -1.2342342e-12 1.6060354e-12 -6.5123051e-14 0 -0 0 -0 -10.262067 2.3841018 -3.1022895 0.12579459 -0.069430556 0.016130231 -0.020989308 0.00085109443 -71.246453 16.552103 -21.538265 0.87335408
-5.0529294e-06 1.434423e-06 -2.3463196e-06 6.1998433e-08 8.3727617e-12 -2.3768554e-12 3.8878783e-12 -1.0273211e-13 0 -0 0 -0 -10.336185 2.934231 -4.7995908 0.12682293 -0.0081153082 0.0023037696 -0.0037683302 9.957321e-05 -71.156614 20.199904 -33.041458 0.87307744
-1.7284855e-05 4.9847653e-06 -5.0494213e-06 2.1249528e-07 5.7213337e-12 -1.6499708e-12 1.6713721e-12 -7.0336513e-14 0 -0 0 -0 -10.242989 2.9539674 -2.9922824 0.12592451 -0.057918117 0.016702959 -0.016919608 0.0007120295 -71.041375 20.487565 -20.753303 0.87336325
-5.6183165e-06 1.9710449e-06 -2.2638205e-06 6.92154e-08 8.1721404e-12 -2.8669897e-12 3.2928474e-12 -1.0067748e-13 0 -0 0 -0 -10.289548 3.6098288 -4.1460265 0.12676309 -0.0093026207 0.0032635903 -0.0037483583 0.00011460455 -70.872624 24.863876 -28.557113 0.87312223
-1.2403999e-05 2.9162832e-06 -4.9992375e-06 1.5295293e-07 6.928753e-12 -1.6290073e-12 2.7925253e-12 -8.5438015e-14 0 -0 0 -0 -10.238123 2.4070677 -4.126315 0.12624565 -0.032875513 0.0077293059 -0.01324996 0.00040538587 -70.825829 16.65174 -28.54524 0.87334881
-1.3634389e-05 4.2568079e-06 -4.5329812e-06 1.695048e-07 6.4357391e-12 -2.0093094e-12 2.1396694e-12 -8.0010089e-14 0 -0 0 -0 -10.147468 3.1681524 -3.3736959 0.12615487 -0.038939014 0.012157194 -0.012945928 0.00048409576 -70.250174 21.932886 -23.355849 0.87336087
-3.1474505e-06 1.1233884e-06 -1.4134661e-06 3.8906629e-08 8.7221378e-12 -3.1131065e-12 3.9169627e-12 -1.0781709e-13 0 -0 0 -0 -10.274079 3.6670254 -4.6139128 0.12700113 -0.0039501904 0.0014099024 -0.0017739629 4.8829549e-05 -70.619508 25.205524 -31.714012 0.87295001
-2.0761623e-05 5.6370516e-06 -5.7196251e-06 2.5856713e-07 4.78726e-12 -1.2998036e-12 1.3188436e-12 -5.9620969e-14 0 -0 0 -0 -10.091948 2.7400957 -2.7802336 0.12568604 -0.079560581 0.021601736 -0.021918166 0.00099085466 -70.123375 19.039412 -19.318308 0.87332285
-1.7114987e-05 3.7306452e-06 -6.074884e-06 2.116958e-07 5.9724645e-12 -1.30185e-12 2.1198981e-12 -7.3873596e-14 0 -0 0 -0 -10.180797 2.2191628 -3.613626 0.12592659 -0.056127703 0.012234455 -0.019922263 0.00069424527 -70.610138 15.391269 -25.062736 0.87337895
-1.0581618e-05 3.4641766e-06 -3.7513545e-06 1.3093239e-07 7.1135101e-12 -2.3287983e-12 2.5218542e-12 -8.8019515e-14 0 -0 0 -0 -10.213114 3.3435368 -3.6207138 0.12637268 -0.02551135 0.0083518247 -0.0090441855 0.00031566648 -70.578784 23.105858 -25.021318 0.87331152
-1.6874947e-06 5.9579416e-07 -8.3645908e-07 2.0894933e-08 9.1458473e-12 -3.2290724e-12 4.5334229e-12 -1.1324591e-13 0 -0 0 -0 -10.27203 3.6266874 -5.0916504 0.12719056 -0.0016245281 0.00057356292 -0.00080524775 2.0115268e-05 -70.487294 24.886548 -34.939213 0.87278931
-2.5087126e-06 8.8245497e-07 -1.1815317e-06 3.1075356e-08 8.8766113e-12 -3.1224023e-12 4.1806293e-12 -1.0995435e-13 0 -0 0 -0 -10.258692 3.6085577 -4.8315498 0.12707415 -0.0027477595 0.00096654118 -0.0012941159 3.4036424e-05 -70.468527 24.787735 -33.188655 0.87289178
-1.0056686e-05 2.5687759e-06 -4.3816412e-06 1.2553391e-07 7.2578935e-12 -1.8538813e-12 3.1622232e-12 -9.0597614e-14 0 -0 0 -0 -10.126484 2.5866045 -4.412052 0.12640518 -0.023886975 0.0061014421 -0.01040742 0.00029817232 -69.960929 17.870097 -30.481581 0.87329653
-4.6442022e-06 1.6460053e-06 -2.0351097e-06 5.8023885e-08 8.2696055e-12 -2.9309264e-12 3.6237773e-12 -1.0331907e-13 0 -0 0 -0 -10.152733 3.5983474 -4.4489721 0.12684655 -0.0070665801 0.0025045483 -0.0030966063 8.828867e-05 -69.879686 24.766866 -30.621584 0.8730651
-2.9818178e-06 9.9890262e-07 -1.4784703e-06 3.7440995e-08 8.622995e-12 -2.8886849e-12 4.2755267e-12 -1.0827405e-13 0 -0 0 -0 -10.115358 3.3886233 -5.0154827 0.12701281 -0.0035913944 0.0012031094 -0.0017807157 4.5095101e-05 -69.521503 23.289555 -34.470743 0.87294206
-3.7708773e-06 1.2810112e-06 -1.7589775e-06 4.707729e-08 8.4932089e-12 -2.8852426e-12 3.961774e-12 -1.0603295e-13 0 -0 0 -0 -10.167547 3.4540349 -4.742792 0.12693613 -0.0053114515 0.0018043623 -0.0024775995 6.6310496e-05 -69.926848 23.754969 -32.618339 0.87299751
-2.1233573e-05 4.4787663e-06 -6.7020102e-06 2.6538337e-07 4.8625233e-12 -1.0256449e-12 1.5347714e-12 -6.077323e-14 0 -0 0 -0 -10.053536 2.1205775 -3.1732247 0.12565201 -0.083823753 0.017680821 -0.026457519 0.0010476536 -69.873559 14.738327 -22.054381 0.87330007
-7.2805022e-06 2.50068e-06 -2.9336299e-06 9.1122026e-08 7.6816398e-12 -2.6384612e-12 3.0952656e-12 -9.6142623e-14 0 -0 0 -0 -10.116184 3.4746696 -4.0762491 0.12661314 -0.01385222 0.0047579094 -0.0055816599 0.00017337298 -69.768336 23.96377 -28.112686 0.8732134
-2.365943e-05 5.4182545e-06 -6.539335e-06 2.9721629e-07 3.9057183e-12 -8.9444994e-13 1.0795188e-12 -4.9064711e-14 0 -0 0 -0 -9.9896157 2.2877254 -2.7610743 0.12549231 -0.10278875 0.023539687 -0.028410238 0.0012912606 -69.510982 15.918734 -19.212449 0.87321613
-1.6356227e-05 3.5760886e-06 -6.3010543e-06 2.0564335e-07 6.0799631e-12 -1.3293094e-12 2.3422381e-12 -7.6442081e-14 0 -0 0 -0 -10.018431 2.1904073 -3.8594891 0.1259596 -0.052993094 0.011586291 -0.020414999 0.00066627088 -69.465419 15.187763 -26.76078 0.87337392
-2.4162021e-05 6.1295141e-06 -6.185755e-06 3.0415319e-07 3.5301124e-12 -8.9553245e-13 9.0374935e-13 -4.4437299e-14 0 -0 0 -0 -9.9664062 2.5283161 -2.5515145 0.12545781 -0.10715251 0.02718286 -0.027432275 0.0013488432 -69.366717 17.597215 -17.758677 0.87319304
-1.3093646e-05 3.1202239e-06 -5.5542583e-06 1.6543618e-07 6.6407853e-12 -1.5825032e-12 2.8169874e-12 -8.3905285e-14 0 -0 0 -0 -9.9864797 2.3797842 -4.2362139 0.12617761 -0.036921636 0.0087984484 -0.01566197 0.00046649911 -69.122796 16.472004 -29.321539 0.87335572
-2.4121991e-05 4.967869e-06 -7.0595157e-06 3.0486122e-07 3.9986925e-12 -8.2352159e-13 1.170253e-12 -5.0536718e-14 0 -0 0 -0 -9.9264732 2.0443345 -2.9050708 0.12545385 -0.10785602 0.0222127 -0.031565024 0.0013631178 -69.090147 14.228958 -20.219847 0.87318273
-1.1855404e-05 3.8837214e-06 -4.3349475e-06 1.5021191e-07 6.6823107e-12 -2.1890635e-12 2.4433975e-12 -8.4667095e-14 0 -0 0 -0 -9.9651242 3.264483 -3.6437635 0.12626143 -0.031046986 0.010170707 -0.01135238 0.00039337562 -68.928347 22.580292 -25.20376 0.87334504
-1.9623823e-05 5.6299186e-06 -5.819492e-06 2.4889504e-07 4.93168e-12 -1.4148597e-12 1.4625016e-12 -6.2550028e-14 0 -0 0 -0 -9.9134848 2.8440999 -2.9398678 0.1257358 -0.073487449 0.021082964 -0.02179288 0.00093206412 -68.856778 19.754462 -20.419643 0.87333188
-5.6196997e-06 1.877454e-06 -2.585644e-06 7.1317859e-08 7.9429661e-12 -2.6536212e-12 3.6545872e-12 -1.0080171e-13 0 -0 0 -0 -9.9880814 3.3368623 -4.5955521 0.12675563 -0.0097634744 0.0032618246 -0.0044922096 0.00012390521 -68.800079 22.985034 -31.655163 0.87312039
-2.1150886e-05 4.2050629e-06 -7.4008732e-06 2.6944443e-07 5.0715625e-12 -1.0082906e-12 1.7745824e-12 -6.4607423e-14 0 -0 0 -0 -9.8618237 1.9606549 -3.4507351 0.1256313 -0.084316951 0.016763273 -0.029503211 0.0010741267 -68.551978 13.628998 -23.986914 0.8732943
-7.0122081e-06 2.4018281e-06 -3.0357356e-06 8.9333085e-08 7.608112e-12 -2.6059377e-12 3.2937153e-12 -9.6924693e-14 0 -0 0 -0 -9.9395776 3.4045134 -4.3030569 0.12662675 -0.013256744 0.0045407124 -0.0057391296 0.0001688863 -68.542244 23.477153 -29.673411 0.87320427
-5.4658622e-06 1.7505184e-06 -2.6279892e-06 6.9664751e-08 7.937624e-12 -2.5421346e-12 3.8164134e-12 -1.0116841e-13 0 -0 0 -0 -9.9460074 3.1853473 -4.7820451 0.12676612 -0.009305935 0.0029803552 -0.004474298 0.00011860812 -68.504191 21.939421 -32.936848 0.87311521
-1.6822221e-05 5.2137447e-06 -5.4481101e-06 2.1476005e-07 5.5898302e-12 -1.7324673e-12 1.8103442e-12 -7.1362289e-14 0 -0 0 -0 -9.8627129 3.0567704 -3.1941767 0.12591183 -0.056506912 0.0175133 -0.018300549 0.00072139267 -68.411073 21.202781 -22.155877 0.87336656
-2.6234253e-05 5.7026907e-06 -6.9977505e-06 3.3537871e-07 2.9069529e-12 -6.319011e-13 7.7540349e-13 -3.7162488e-14 0 -0 0 -0 -9.8014269 2.1305926 -2.6144423 0.12530145 -0.12748382 0.027711892 -0.03400516 0.0016297532 -68.293838 14.845425 -18.216766 0.87306846
-2.5642646e-05 6.6564909e-06 -6.356797e-06 3.2803264e-07 2.8543257e-12 -7.4094509e-13 7.0758566e-13 -3.651386e-14 0 -0 0 -0 -9.7978349 2.543388 -2.4288775 0.12533846 -0.12119819 0.031461443 -0.030044961 0.0015504236 -68.251961 17.717304 -16.919621 0.87311079
-7.677177e-06 2.4720759e-06 -3.4345594e-06 9.830379e-08 7.458155e-12 -2.4015501e-12 3.336575e-12 -9.5499283e-14 0 -0 0 -0 -9.8850051 3.1830037 -4.4222814 0.12657432 -0.015853261 0.0051048015 -0.0070923163 0.00020299593 -68.195584 21.959199 -30.508843 0.87322259
-2.7687298e-05 6.6774398e-06 -6.4628506e-06 3.5515086e-07 1.7739778e-12 -4.2783626e-13 4.1408712e-13 -2.275519e-14 0 -0 0 -0 -9.7607187 2.3540257 -2.2783757 0.12520281 -0.1425499 0.034379245 -0.033274418 0.0018285179 -68.055964 16.413288 -15.885823 0.87296831
-7.5032347e-06 2.3235678e-06 -3.5553048e-06 9.6837598e-08 7.4251345e-12 -2.2993821e-12 3.5182981e-12 -9.5829628e-14 0 -0 0 -0 -9.8079489 3.0372813 -4.647362 0.1265825 -0.01518882 0.004703605 -0.0071970137 0.00019602863 -67.659515 20.952493 -32.059532 0.87322137
-1.5156777e-05 3.5051386e-06 -6.4085676e-06 1.9475513e-07 6.1905446e-12 -1.4316181e-12 2.6174775e-12 -7.9544636e-14 0 -0 0 -0 -9.8073849 2.2680444 -4.1467449 0.12601878 -0.047873278 0.011071118 -0.020241713 0.00061514176 -67.969517 15.718551 -28.738777 0.87336589
-2.6649222e-05 5.1726233e-06 -7.6290507e-06 3.4321882e-07 3.3494863e-12 -6.5013647e-13 9.5887981e-13 -4.3138473e-14 0 -0 0 -0 -9.7259733 1.8878149 -2.7843194 0.12526208 -0.13325326 0.025864505 -0.038147301 0.0017161862 -67.785737 13.157235 -19.405476 0.87302139
-2.5483923e-05 4.79915e-06 -7.8895668e-06 3.2867964e-07 3.9537076e-12 -7.4456495e-13 1.2240282e-12 -5.0993059e-14 0 -0 0 -0 -9.7177213 1.830048 -3.0085091 0.12533459 -0.12289508 0.023143688 -0.038047086 0.001585043 -67.693588 12.748103 -20.957256 0.87308003
-1.2597736e-05 3.2612252e-06 -5.5784975e-06 1.6256244e-07 6.5611915e-12 -1.6985214e-12 2.9054103e-12 -8.4666271e-14 0 -0 0 -0 -9.779236 2.5315892 -4.3304166 0.12619224 -0.034828061 0.0090160769 -0.015422474 0.00044942478 -67.680673 17.520761 -29.970185 0.87335817
-2.1592078e-05 6.2238526e-06 -6.2912021e-06 2.7907613e-07 4.3265693e-12 -1.2471208e-12 1.2606161e-12 -5.5920611e-14 0 -0 0 -0 -9.7163574 2.8007112 -2.8310182 0.12558325 -0.089271037 0.025732112 -0.026010564 0.001153822 -67.5642 19.47518 -19.685925 0.87326265
-1.5872131e-05 4.9790452e-06 -5.5616282e-06 2.0564752e-07 5.7218288e-12 -1.7949225e-12 2.0049409e-12 -7.4134969e-14 0 -0 0 -0 -9.7218204 3.0497093 -3.4065465 0.12596093 -0.052057137 0.016330186 -0.018240931 0.00067447914 -67.407347 21.145506 -23.619677 0.87336439
-1.9458199e-05 5.847442e-06 -6.1266048e-06 2.5243499e-07 4.8932869e-12 -1.4704964e-12 1.5406994e-12 -6.348156e-14 0 -0 0 -0 -9.690653 2.9121673 -3.0511971 0.12571872 -0.074553779 0.022404381 -0.023473989 0.00096720064 -67.316794 20.229572 -21.195353 0.87331383
-1.2809024e-05 4.1229752e-06 -5.1364245e-06 1.6805604e-07 6.2963075e-12 -2.0266587e-12 2.5248223e-12 -8.2608367e-14 0 -0 0 -0 -9.615794 3.0951368 -3.855938 0.12616046 -0.03606437 0.011608418 -0.01446183 0.00047316919 -66.566891 21.426586 -26.693355 0.87336621
-1.0322018e-05 3.2289046e-06 -4.4958151e-06 1.3426636e-07 6.8519231e-12 -2.1433993e-12 2.9843951e-12 -8.9128192e-14 0 -0 0 -0 -9.7138928 3.0386726 -4.2309427 0.12635601 -0.025681309 0.0080335548 -0.011185644 0.00033405638 -67.137586 21.001791 -29.242167 0.8733098
-2.5871666e-05 6.9094528e-06 -6.671421e-06 3.3770079e-07 2.780497e-12 -7.4257732e-13 7.1699541e-13 -3.6293605e-14 0 -0 0 -0 -9.5986134 2.5634671 -2.4751552 0.12528993 -0.12597466 0.033643599 -0.032484572 0.0016443372 -66.886596 17.863162 -17.247774 0.87306539
-3.0621723e-05 6.7816348e-06 -6.6719491e-06 3.9977262e-07 1.5839481e-13 -3.507888e-14 3.4511517e-14 -2.0678754e-15 0 -0 0 -0 -9.5731427 2.1201144 -2.0858239 0.12497926 -0.17724304 0.0392531 -0.038618223 0.0023139427 -66.847434 14.804356 -14.564911 0.8727064
-2.0083259e-05 4.1629648e-06 -7.8756959e-06 2.6276897e-07 5.3080463e-12 -1.1002801e-12 2.0815625e-12 -6.9450375e-14 0 -0 0 -0 -9.6045317 1.9908784 -3.766439 0.12566551 -0.079581219 0.016496018 -0.031207956 0.0010412391 -66.745207 13.835301 -26.174285 0.87329299
-9.946806e-06 2.9856561e-06 -4.6248476e-06 1.3019572e-07 6.871821e-12 -2.0626615e-12 3.1951085e-12 -8.9946631e-14 0 -0 0 -0 -9.6552397 2.8981389 -4.4892815 0.12637935 -0.023995617 0.0072025795 -0.011156956 0.00031408341 -66.719625 20.026716 -31.021827 0.87330643
-2.9102678e-05 5.1606741e-06 -8.1887891e-06 3.8210714e-07 2.6890534e-12 -4.7684023e-13 7.5663451e-13 -3.5306252e-14 0 -0 0 -0 -9.5255422 1.6891304 -2.680257 0.12506676 -0.16285248 0.028878049 -0.045822745 0.0021381913 -66.475236 11.787816 -18.704522 0.87279467
-2.7109166e-05 4.7315763e-06 -8.5716278e-06 3.5610569e-07 3.7397222e-12 -6.527232e-13 1.1824601e-12 -4.9124949e-14 0 -0 0 -0 -9.5308376 1.6634922 -3.0135488 0.12519698 -0.14184987 0.024758175 -0.044851409 0.0018633382 -66.454025 11.598745 -21.012051 0.87293933
-3.0767768e-05 5.850161e-06 -7.5578475e-06 4.0434979e-07 1.0677267e-12 -2.0301678e-13 2.6227823e-13 -1.4032057e-14 0 -0 0 -0 -9.5080833 1.8078601 -2.3355819 0.12495516 -0.1817334 0.034554657 -0.044641306 0.0023883391 -66.402113 12.625649 -16.311129 0.87265609
-3.0986213e-05 6.446583e-06 -7.1059792e-06 4.0802708e-07 1.1319636e-13 -2.3550143e-14 2.5958997e-14 -1.490572e-15 0 -0 0 -0 -9.4879235 1.9739323 -2.1758383 0.12493717 -0.18356705 0.038190541 -0.042096905 0.0024172146 -66.270039 13.787271 -15.197518 0.87264521
-1.8085189e-05 5.6176691e-06 -6.2498948e-06 2.3852621e-07 5.1871181e-12 -1.6112364e-12 1.7925687e-12 -6.841309e-14 0 -0 0 -0 -9.5375082 2.9625661 -3.2959802 0.12579054 -0.066719874 0.020724704 -0.023057111 0.00087997086 -66.216304 20.568284 -22.883086 0.87332925
-3.1537273e-05 7.3182215e-06 -6.5188285e-06 4.1776048e-07 -0 0 -0 0 0 -0 0 -0 -9.4279576 2.1877567 -1.948781 0.12488803 -0.19127771 0.044385976 -0.039537552 0.0025337722 -65.872013 15.285595 -13.6159 0.87257778
-1.7601314e-05 4.0837279e-06 -7.4976421e-06 2.3255642e-07 5.6739547e-12 -1.3164294e-12 2.4169379e-12 -7.4966822e-14 0 -0 0 -0 -9.5229169 2.2094374 -4.0564826 0.12582103 -0.063848938 0.014813763 -0.02719777 0.00084360067 -66.099427 15.335905 -28.156412 0.87333514
-2.4544054e-05 6.9311939e-06 -6.8521276e-06 3.2444093e-07 3.3470205e-12 -9.4519219e-13 9.3441009e-13 -4.4243321e-14 0 -0 0 -0 -9.4832209 2.6780434 -2.6474942 0.12535603 -0.11608367 0.032781807 -0.032407855 0.0015344774 -66.050971 18.652668 -18.439891 0.87310917
-1.6323746e-05 5.0218084e-06 -6.2205431e-06 2.1669689e-07 5.6041361e-12 -1.7240465e-12 2.1355864e-12 -7.4394617e-14 0 -0 0 -0 -9.4842912 2.9177306 -3.6142097 0.12590348 -0.056037979 0.017239425 -0.021354575 0.00074390128 -65.789515 20.23937 -25.070624 0.87335241
-1.5730958e-05 4.1261356e-06 -7.0541401e-06 2.1052743e-07 5.8368821e-12 -1.530979e-12 2.6173983e-12 -7.8115001e-14 0 -0 0 -0 -9.4101374 2.4682223 -4.219732 0.12593588 -0.053012164 0.013904771 -0.023771929 0.00070946185 -65.25849 17.116909 -29.263477 0.87335445
-2.0589046e-05 6.1995306e-06 -6.6882171e-06 2.7295737e-07 4.6060127e-12 -1.3869082e-12 1.4962331e-12 -6.1063786e-14 0 -0 0 -0 -9.4750697 2.8530212 -3.0779145 0.12561486 -0.084596085 0.025472575 -0.027480486 0.0011215248 -65.869844 19.83395 -21.397388 0.87326334
-1.378031e-05 3.9642968e-06 -6.1389084e-06 1.8380064e-07 6.1258926e-12 -1.7622867e-12 2.7289875e-12 -8.1706653e-14 0 -0 0 -0 -9.45267 2.7193285 -4.2110138 0.12607894 -0.042219856 0.012145738 -0.018808273 0.00056312497 -65.479316 18.836982 -29.169992 0.87335775
-1.412072e-05 4.2016577e-06 -5.9591289e-06 1.8765837e-07 6.0683387e-12 -1.8056503e-12 2.5609185e-12 -8.0645644e-14 0 -0 0 -0 -9.4855023 2.8224364 -4.0030064 0.1260583 -0.043939785 0.0130744 -0.018543166 0.00058394108 -65.717494 19.554415 -27.733644 0.87335758
-2.2312096e-05 4.4028975e-06 -8.639737e-06 2.9658508e-07 4.9119276e-12 -9.6928204e-13 1.902007e-12 -6.5292139e-14 0 -0 0 -0 -9.4409884 1.8630121 -3.6557595 0.12549499 -0.098973197 0.01953061 -0.038324611 0.0013156081 -65.690016 12.962763 -25.436627 0.8731891
-1.9706802e-05 4.3590122e-06 -8.0693714e-06 2.6213079e-07 5.3233429e-12 -1.1774877e-12 2.1797566e-12 -7.0808654e-14 0 -0 0 -0 -9.4477281 2.0897741 -3.8685743 0.12566932 -0.078546963 0.017374061 -0.032162734 0.0010447955 -65.652975 14.521998 -26.883015 0.87328562
-2.3235165e-05 6.7975274e-06 -6.9326708e-06 3.0923856e-07 3.8594742e-12 -1.1291025e-12 1.1515504e-12 -5.1366033e-14 0 -0 0 -0 -9.4245412 2.7571819 -2.8119982 0.12543193 -0.10504356 0.030730854 -0.031341823 0.0013980326 -65.607092 19.19358 -19.575173 0.87316973
-2.9743827e-05 4.8927954e-06 -8.8709202e-06 3.9717859e-07 2.9457828e-12 -4.8457493e-13 8.7856229e-13 -3.9335956e-14 0 -0 0 -0 -9.360203 1.5397332 -2.7916251 0.12498971 -0.17457293 0.028716871 -0.052065344 0.0023311268 -65.352984 10.750425 -19.491141 0.87267877
-2.5577957e-05 4.6423703e-06 -9.3312256e-06 3.4477967e-07 4.3448802e-12 -7.8859084e-13 1.585078e-12 -5.8567083e-14 0 -0 0 -0 -9.2920836 1.6865027 -3.3898926 0.12525322 -0.1307408 0.023729307 -0.04769622 0.0017623287 -64.763535 11.754508 -23.626717 0.87298411
-1.8960782e-05 5.7663574e-06 -6.7992941e-06 2.5397689e-07 5.0274227e-12 -1.5289409e-12 1.8028226e-12 -6.7341589e-14 0 -0 0 -0 -9.3850577 2.8541859 -3.3654607 0.12571147 -0.073720768 0.022419977 -0.026436103 0.00098747886 -65.196743 19.827648 -23.379406 0.8733008
-2.8220369e-05 4.6827342e-06 -9.2572462e-06 3.7841255e-07 3.6668007e-12 -6.0844892e-13 1.202836e-12 -4.9168861e-14 0 -0 0 -0 -9.3282756 1.5478832 -3.0599934 0.1250847 -0.15661883 0.025988474 -0.051376331 0.002100133 -65.090747 10.800804 -21.351991 0.87281478
-1.7001237e-05 4.9727941e-06 -6.7910657e-06 2.2835064e-07 5.5007572e-12 -1.6089496e-12 2.1972521e-12 -7.3882942e-14 0 -0 0 -0 -9.3693081 2.7404853 -3.7425269 0.12584305 -0.060831252 0.017792899 -0.024298763 0.00081704968 -65.022174 19.018727 -25.972808 0.87333967
-3.2940736e-05 5.5068338e-06 -8.119087e-06 4.4250577e-07 1.095964e-12 -1.8321666e-13 2.7012836e-13 -1.4722512e-14 0 -0 0 -0 -9.2872215 1.5525818 -2.2890733 0.12475887 -0.2164707 0.036188268 -0.053354742 0.0029079355 -64.937645 10.855884 -16.005544 0.87233275
-3.401202e-05 5.8289015e-06 -7.742006e-06 4.5956605e-07 4.827043e-13 -8.272475e-14 1.0987585e-13 -6.5222388e-15 0 -0 0 -0 -9.2267445 1.5812582 -2.1002431 0.12467059 -0.23315866 0.039958194 -0.053072878 0.00315041 -64.549053 11.062268 -14.693016 0.87217854
-1.8581157e-05 4.4018788e-06 -8.3909849e-06 2.5185197e-07 5.4282411e-12 -1.2859511e-12 2.451316e-12 -7.3575246e-14 0 -0 0 -0 -9.2755479 2.1973786 -4.1887048 0.12572226 -0.072146091 0.017091419 -0.032580142 0.00097787962 -64.430377 15.263566 -29.095837 0.87329961
-3.5455599e-05 7.3482822e-06 -6.3427705e-06 4.835551e-07 -0 0 -0 0 0 -0 0 -0 -9.1320537 1.8926463 -1.6336636 0.12454595 -0.25647597 0.053155435 -0.045881842 0.0034979035 -63.934205 13.250561 -11.437403 0.87195567
-2.6438777e-05 7.5481506e-06 -7.2921393e-06 3.5868984e-07 2.8257564e-12 -8.0674059e-13 7.793783e-13 -3.8336497e-14 0 -0 0 -0 -9.227275 2.6343451 -2.5449957 0.12518468 -0.13817774 0.039449117 -0.038111118 0.001874631 -64.343821 18.369868 -17.746816 0.87294033
-3.1071762e-05 7.6873347e-06 -6.9534842e-06 4.2204177e-07 3.7421111e-13 -9.2582007e-14 8.3743918e-14 -5.0828377e-15 0 -0 0 -0 -9.1929376 2.2743863 -2.0572682 0.1248659 -0.19103307 0.047262693 -0.042750889 0.0025947655 -64.238478 15.892973 -14.375794 0.87253891
-1.7822825e-05 4.8763388e-06 -7.5438606e-06 2.4218582e-07 5.4116201e-12 -1.4806235e-12 2.2905745e-12 -7.353591e-14 0 -0 0 -0 -9.2557009 2.532367 -3.9176571 0.12577128 -0.066527621 0.018202009 -0.028159122 0.00090401192 -64.269284 17.584126 -27.203236 0.87332447
-3.0614803e-05 4.6703605e-06 -9.5534631e-06 4.1611335e-07 3.0980206e-12 -4.7261035e-13 9.6674884e-13 -4.2107986e-14 0 -0 0 -0 -9.1888021 1.4017735 -2.8673999 0.12489328 -0.18888184 0.02881437 -0.05894128 0.0025672631 -64.195515 9.7931775 -20.032449 0.87253904
-3.3110276e-05 5.0285275e-06 -8.8391605e-06 4.5007353e-07 1.5842389e-12 -2.4060171e-13 4.229304e-13 -2.1534825e-14 0 -0 0 -0 -9.1751457 1.3934488 -2.4494084 0.12471929 -0.22221938 0.033748927 -0.059323963 0.0030206653 -64.168972 9.7454773 -17.130629 0.87225959
-2.2827284e-05 4.7062562e-06 -9.1859076e-06 3.1051546e-07 4.8360756e-12 -9.9704422e-13 1.946081e-12 -6.5784274e-14 0 -0 0 -0 -9.2205058 1.9009736 -3.7104158 0.12542489 -0.10583939 0.021820699 -0.042590738 0.0014397143 -64.187792 13.233471 -25.829754 0.87313508
-3.5635914e-05 6.5303421e-06 -7.0031116e-06 4.878011e-07 -0 0 -0 0 0 -0 0 -0 -9.0968889 1.6670204 -1.7877057 0.12452248 -0.26170393 0.047957691 -0.051429628 0.003582326 -63.695562 11.67232 -12.517348 0.87189471
-2.3657086e-05 6.9978404e-06 -7.5246279e-06 3.2276671e-07 3.9553462e-12 -1.1700039e-12 1.2580801e-12 -5.3964977e-14 0 -0 0 -0 -9.1885252 2.7179947 -2.9226015 0.12536413 -0.11209606 0.033158367 -0.035654482 0.0015293885 -63.994045 18.92964 -20.354637 0.87310616
-2.0136045e-05 6.0572977e-06 -7.485328e-06 2.7518111e-07 4.8000279e-12 -1.4439379e-12 1.7843516e-12 -6.559764e-14 0 -0 0 -0 -9.1908714 2.7647854 -3.4165939 0.12560333 -0.08336483 0.025077695 -0.030989854 0.0011392717 -63.899534 19.222171 -23.753869 0.87325713
-2.0034669e-05 5.5083275e-06 -8.0351687e-06 2.7579491e-07 4.984094e-12 -1.3703258e-12 1.9989368e-12 -6.8610456e-14 0 -0 0 -0 -9.1240272 2.5085581 -3.6593117 0.12560029 -0.083633943 0.022994299 -0.033542499 0.0011512951 -63.435679 17.440992 -25.441718 0.87324814
-2.1903082e-05 6.5603104e-06 -7.5808768e-06 2.9987728e-07 4.4220648e-12 -1.3244765e-12 1.5305211e-12 -6.0542932e-14 0 -0 0 -0 -9.1650082 2.7450611 -3.1721014 0.12547904 -0.097580981 0.029227007 -0.033773758 0.001335991 -63.777539 19.102355 -22.074047 0.87318467
-2.8679016e-05 7.8974815e-06 -7.3351109e-06 3.9347527e-07 1.9077563e-12 -5.2534823e-13 4.8793879e-13 -2.6174362e-14 0 -0 0 -0 -9.1115497 2.5090922 -2.3304227 0.1250102 -0.16432219 0.045250208 -0.042027993 0.0022544957 -63.610549 17.51675 -16.269402 0.87273491
-3.5326217e-05 5.2391553e-06 -8.3587966e-06 4.8548457e-07 5.9548266e-13 -8.8314753e-14 1.4090154e-13 -8.183657e-15 0 -0 0 -0 -9.0615957 1.3439058 -2.144131 0.12453258 -0.26006147 0.038569158 -0.061535063 0.0035739981 -63.443167 9.4091198 -15.011756 0.87189294
-1.8548915e-05 4.8539185e-06 -8.2758349e-06 2.5544372e-07 5.3236924e-12 -1.3931148e-12 2.3752332e-12 -7.3314464e-14 0 -0 0 -0 -9.1279065 2.3886095 -4.0725318 0.12570365 -0.072780473 0.019045345 -0.032471935 0.0010022858 -63.413784 16.59425 -28.292868 0.87329381
-2.0797732e-05 4.7314597e-06 -9.2972848e-06 2.8773238e-07 5.056175e-12 -1.1502739e-12 2.2602801e-12 -6.9951149e-14 0 -0 0 -0 -9.0741868 2.0643669 -4.0564663 0.12553952 -0.08956345 0.02037558 -0.04003787 0.001239092 -63.117744 14.359213 -28.215752 0.8732211
-3.4664368e-05 7.6961674e-06 -6.7317295e-06 4.8224063e-07 -0 0 -0 0 0 -0 0 -0 -8.9530074 1.9877427 -1.7386506 0.12455164 -0.25126739 0.055786273 -0.04879547 0.003495559 -62.677581 13.915648 -12.171822 0.87195232
-2.5678983e-05 4.9159596e-06 -9.9388368e-06 3.5505445e-07 4.3674524e-12 -8.3610085e-13 1.6903861e-12 -6.0387259e-14 0 -0 0 -0 -9.0550672 1.7334933 -3.5046885 0.1252013 -0.13543249 0.025927066 -0.052418021 0.0018725784 -63.133545 12.086225 -24.435314 0.87292577
-3.675074e-05 5.7830582e-06 -7.4753095e-06 5.083118e-07 -0 0 -0 0 0 -0 0 -0 -8.9947822 1.4154096 -1.8295899 0.12440985 -0.28644772 0.045075116 -0.058265096 0.0039619545 -63.018333 9.9164995 -12.818288 0.87162769
-3.5236838e-05 4.7335294e-06 -9.136396e-06 4.8902608e-07 9.5736027e-13 -1.2860669e-13 2.482295e-13 -1.3286497e-14 0 -0 0 -0 -8.9717725 1.2052202 -2.3262492 0.12451261 -0.26289059 0.035315324 -0.06816368 0.0036484646 -62.820432 8.4389627 -16.288418 0.87183843
-3.2632814e-05 4.6858462e-06 -9.9184348e-06 4.5306269e-07 2.7412687e-12 -3.9362721e-13 8.3318267e-13 -3.8058826e-14 0 -0 0 -0 -8.98195 1.2897458 -2.7299786 0.12470228 -0.22231461 0.031922838 -0.067570419 0.003086539 -62.822853 9.0209266 -19.094411 0.87221073
-2.1423927e-05 6.2659961e-06 -8.0534146e-06 2.9753859e-07 4.6172975e-12 -1.3504512e-12 1.7356767e-12 -6.4125695e-14 0 -0 0 -0 -9.0357996 2.6427594 -3.3966247 0.12549049 -0.095235198 0.027854061 -0.035799624 0.0013226402 -62.872804 18.38882 -23.634358 0.87318657
-2.9023984e-05 4.8127418e-06 -1.0440691e-05 4.0498221e-07 3.9323492e-12 -6.5206009e-13 1.4145695e-12 -5.4869501e-14 0 -0 0 -0 -8.9547409 1.4848705 -3.2212559 0.12494876 -0.17550041 0.029101386 -0.063132114 0.0024488211 -62.537035 10.369858 -22.496217 0.87260201
-2.1080905e-05 5.3166416e-06 -8.9162438e-06 2.9386667e-07 4.9317427e-12 -1.2437943e-12 2.0858982e-12 -6.8748226e-14 0 -0 0 -0 -9.0035162 2.2707028 -3.8080693 0.12550853 -0.092834013 0.023412903 -0.039264477 0.0012941011 -62.639919 15.797899 -26.493777 0.87319708
-3.7034912e-05 7.4882771e-06 -6.0056901e-06 5.1628763e-07 -0 0 -0 0 0 -0 0 -0 -8.9212675 1.8038364 -1.4466989 0.12436752 -0.29363169 0.059370883 -0.047616176 0.0040933919 -62.518164 12.640865 -10.138129 0.87153858
-2.0335692e-05 5.0838889e-06 -9.0907597e-06 2.8428391e-07 5.032387e-12 -1.2580883e-12 2.2496515e-12 -7.0350526e-14 0 -0 0 -0 -8.9814852 2.2453562 -4.0150354 0.12555716 -0.087044802 0.021761054 -0.038912046 0.0012168475 -62.46449 15.616018 -27.923793 0.87322571
-2.3309902e-05 4.8852024e-06 -1.0120852e-05 3.2684001e-07 4.7091626e-12 -9.8692873e-13 2.0446563e-12 -6.6029565e-14 0 -0 0 -0 -8.9393379 1.8734731 -3.8813427 0.12534301 -0.11367384 0.023823339 -0.049355682 0.0015938787 -62.265965 13.049469 -27.035061 0.87306279
-3.867349e-05 6.798504e-06 -5.8876241e-06 5.4443782e-07 -0 0 -0 0 0 -0 0 -0 -8.8232059 1.5510522 -1.3432385 0.12421137 -0.32933296 0.057894218 -0.050137412 0.004636285 -61.881227 10.878247 -9.4207532 0.87115181
-3.2109864e-05 8.3563732e-06 -7.3116217e-06 4.5390132e-07 6.0049001e-13 -1.5627343e-13 1.3673542e-13 -8.4884572e-15 0 -0 0 -0 -8.8215593 2.2957506 -2.0087255 0.12470054 -0.21623341 0.056273269 -0.049237731 0.0030566504 -61.704125 16.058078 -14.050424 0.87224236
-2.7321683e-05 7.7721318e-06 -8.1550928e-06 3.8402081e-07 3.128886e-12 -8.900665e-13 9.3392328e-13 -4.397816e-14 0 -0 0 -0 -8.8973694 2.5310128 -2.6557249 0.12505727 -0.15339722 0.04363653 -0.045786659 0.0021560797 -62.095566 17.664173 -18.53455 0.87278627
-3.0028163e-05 8.2213183e-06 -7.6347195e-06 4.2206818e-07 1.6838107e-12 -4.6100534e-13 4.2811218e-13 -2.3667212e-14 0 -0 0 -0 -8.8834707 2.4321781 -2.2586399 0.12486379 -0.18724269 0.0512646 -0.047606823 0.0026318354 -62.074547 16.995199 -15.782576 0.87250395
-2.4618249e-05 7.0629044e-06 -8.5339753e-06 3.4720822e-07 4.0403454e-12 -1.1591634e-12 1.4005955e-12 -5.6983791e-14 0 -0 0 -0 -8.880052 2.5476613 -3.0782915 0.12524153 -0.12606069 0.036166447 -0.043699241 0.0017779212 -61.897278 17.75815 -21.456841 0.8729802
-3.7926212e-05 4.9489363e-06 -8.0513838e-06 5.3513781e-07 -0 0 -0 0 0 -0 0 -0 -8.8063563 1.1491286 -1.869508 0.12425745 -0.32022804 0.041786092 -0.06798145 0.0045184089 -61.745238 8.0570463 -13.107943 0.87122361
-2.2039283e-05 5.1665896e-06 -9.8335168e-06 3.119731e-07 4.7868325e-12 -1.1221598e-12 2.1357953e-12 -6.7759143e-14 0 -0 0 -0 -8.8601079 2.0770431 -3.9532148 0.12541766 -0.10298166 0.024141618 -0.045948494 0.0014577383 -61.681708 14.45982 -27.521227 0.87312429
-3.7246745e-05 4.447054e-06 -9.0344912e-06 5.2764133e-07 -0 0 -0 0 0 -0 0 -0 -8.774451 1.0476206 -2.1283122 0.1242998 -0.30854289 0.036838304 -0.074839508 0.0043708513 -61.507999 7.3437127 -14.919249 0.87132882
-3.8631864e-05 5.6083528e-06 -6.9946156e-06 5.4744959e-07 -0 0 -0 0 0 -0 0 -0 -8.7635902 1.2722478 -1.5867198 0.12418826 -0.33594125 0.048770027 -0.060824916 0.0047606012 -61.46741 8.9234865 -11.129178 0.87105059
-2.4178047e-05 6.266844e-06 -9.2406632e-06 3.4281166e-07 4.3341379e-12 -1.1233896e-12 1.6564741e-12 -6.1452151e-14 0 -0 0 -0 -8.8346415 2.2899004 -3.3765319 0.12526314 -0.12267081 0.031795738 -0.046883839 0.0017393045 -61.571323 15.959018 -23.532085 0.87299721
-3.1605821e-05 4.711826e-06 -1.0847121e-05 4.4848777e-07 3.4120374e-12 -5.086698e-13 1.1710116e-12 -4.8416937e-14 0 -0 0 -0 -8.7896171 1.3103645 -3.0165974 0.12472499 -0.21402273 0.031906713 -0.073452622 0.0030369905 -61.468309 9.1637541 -21.095929 0.87223757
-3.5387471e-05 4.37999e-06 -1.010442e-05 5.0317784e-07 1.782649e-12 -2.2064263e-13 5.0901162e-13 -2.5347657e-14 0 -0 0 -0 -8.7511849 1.0831546 -2.498784 0.12443394 -0.27612595 0.034176755 -0.078844079 0.0039262614 -61.300614 7.5873203 -17.503572 0.8716393
-3.3601473e-05 4.5124338e-06 -1.064847e-05 4.7805976e-07 2.8382681e-12 -3.811588e-13 8.99461e-13 -4.0381021e-14 0 -0 0 -0 -8.7556024 1.1758138 -2.7746931 0.12456898 -0.24597491 0.033032645 -0.077950649 0.0034995701 -61.285569 8.230207 -19.421696 0.87193097
-3.6129073e-05 7.7784132e-06 -6.5982415e-06 5.1410836e-07 -0 0 -0 0 0 -0 0 -0 -8.7406979 1.8818296 -1.596311 0.12437811 -0.28571223 0.06151245 -0.052179537 0.004065619 -61.248764 13.18656 -11.185843 0.87155575
-2.6799827e-05 7.5894415e-06 -8.6937112e-06 3.8195882e-07 3.5981266e-12 -1.0189533e-12 1.1672118e-12 -5.1281531e-14 0 -0 0 -0 -8.7752271 2.4850561 -2.8466337 0.12506705 -0.15075302 0.04269174 -0.048903422 0.0021485753 -61.238173 17.342035 -19.865314 0.87278399
-2.6969561e-05 5.0981603e-06 -1.0987438e-05 3.849513e-07 4.055442e-12 -7.6661586e-13 1.6521929e-12 -5.7885542e-14 0 -0 0 -0 -8.7609723 1.6561204 -3.5692327 0.12505015 -0.15503417 0.029306708 -0.063161143 0.0022128875 -61.143637 11.558218 -24.910005 0.87273658
-2.4590726e-05 5.0295825e-06 -1.0804198e-05 3.5128143e-07 4.416929e-12 -9.0340193e-13 1.9406249e-12 -6.3096354e-14 0 -0 0 -0 -8.765761 1.7928758 -3.8513306 0.12521993 -0.12869674 0.02632256 -0.056544284 0.0018384481 -61.108438 12.498612 -26.848644 0.87294127
-3.9094876e-05 4.4976024e-06 -7.8691376e-06 5.5905041e-07 -0 0 -0 0 0 -0 0 -0 -8.6795738 0.99852658 -1.7470515 0.1241165 -0.35421258 0.040749775 -0.071297005 0.0050651827 -60.897035 7.0057941 -12.257544 0.87081775
-2.3975419e-05 5.4428552e-06 -1.0357571e-05 3.4338914e-07 4.5261846e-12 -1.027526e-12 1.9553476e-12 -6.4826505e-14 0 -0 0 -0 -8.7456519 1.9854217 -3.7781909 0.12526004 -0.12223619 0.027749832 -0.052807001 0.0017507339 -60.952058 13.837223 -26.331772 0.87298889
-3.9157655e-05 6.0346532e-06 -6.3778967e-06 5.6101134e-07 -0 0 -0 0 0 -0 0 -0 -8.6624829 1.33499 -1.4109226 0.12410731 -0.35440764 0.054618367 -0.057724992 0.0050775948 -60.7814 9.3671256 -9.899916 0.87081454
-2.9384017e-05 8.1603844e-06 -8.3923203e-06 4.2193179e-07 2.6581784e-12 -7.382162e-13 7.5919791e-13 -3.8169388e-14 0 -0 0 -0 -8.6957195 2.4149323 -2.48357 0.12486381 -0.18397501 0.051092632 -0.052544795 0.002641739 -60.761906 16.874497 -17.354107 0.87249403
-2.6150054e-05 6.3714967e-06 -9.9135821e-06 3.7592058e-07 4.0333748e-12 -9.8273732e-13 1.5290673e-12 -5.7981853e-14 0 -0 0 -0 -8.7020243 2.1202602 -3.2989695 0.12509611 -0.14636558 0.035662176 -0.055487733 0.0021040811 -60.714294 14.793121 -23.017013 0.87279943
-3.3643859e-05 8.4330801e-06 -7.2837571e-06 4.8374011e-07 -0 0 -0 0 0 -0 0 -0 -8.6618094 2.1711461 -1.8752461 0.12454174 -0.24650746 0.061788904 -0.053367852 0.0035443481 -60.641099 15.200137 -13.128549 0.87191343
-3.8821481e-05 7.2839073e-06 -5.6699352e-06 5.6136197e-07 -0 0 -0 0 0 -0 0 -0 -8.5826327 1.6103224 -1.2535063 0.12410561 -0.35134021 0.065920451 -0.051313762 0.0050804098 -60.221868 11.29917 -8.7954938 0.87081342
-2.7351825e-05 7.6446701e-06 -9.2650259e-06 3.9679787e-07 3.7046249e-12 -1.0354203e-12 1.2548869e-12 -5.3743663e-14 0 -0 0 -0 -8.6158556 2.4080797 -2.9184936 0.12499178 -0.16024601 0.044787792 -0.054280963 0.0023247178 -60.155251 16.81303 -20.376701 0.87268311
-3.1065786e-05 8.3331082e-06 -8.1384171e-06 4.4838009e-07 1.8521379e-12 -4.9681876e-13 4.852113e-13 -2.6732359e-14 0 -0 0 -0 -8.6416825 2.318051 -2.263893 0.12472752 -0.20812879 0.055828613 -0.054524257 0.0030039738 -60.434648 16.211032 -15.832285 0.87226806
-3.7656485e-05 4.0066037e-06 -9.6722859e-06 5.4432106e-07 3.7089752e-12 -3.9463039e-13 9.5267172e-13 -5.3612898e-14 0 -0 0 -0 -8.5923624 0.91421678 -2.206998 0.12420182 -0.32892819 0.034997555 -0.084487109 0.0047546271 -60.259322 6.4115177 -15.477955 0.87104301
-3.0516882e-05 5.0380557e-06 -1.1484604e-05 4.4198822e-07 3.2068912e-12 -5.2942815e-13 1.2068689e-12 -4.6446688e-14 0 -0 0 -0 -8.6138014 1.4220592 -3.2416844 0.12475713 -0.20494696 0.033834853 -0.077128938 0.0029683289 -60.225781 9.942721 -22.665135 0.8722741
-3.6289828e-05 4.131671e-06 -1.0478655e-05 5.2655317e-07 1.6081808e-12 -1.8309467e-13 4.6436078e-13 -2.3334161e-14 0 -0 0 -0 -8.5669815 0.97536833 -2.4737083 0.12430401 -0.30185596 0.034366918 -0.087160639 0.0043798282 -60.050716 6.8368966 -17.339591 0.87131563
-2.6429257e-05 5.1275231e-06 -1.151216e-05 3.8354371e-07 3.8673326e-12 -7.502987e-13 1.6845481e-12 -5.6123073e-14 0 -0 0 -0 -8.6173714 1.6718506 -3.7535888 0.12505606 -0.15331011 0.029743596 -0.066779427 0.0022248499 -60.137362 11.667211 -26.19487 0.87271871
-4.0042154e-05 3.931913e-06 -7.9066258e-06 5.8490456e-07 -0 0 -0 0 0 -0 0 -0 -8.4862286 0.83329964 -1.6756699 0.12396021 -0.39017231 0.038312714 -0.077042471 0.0056993329 -59.582854 5.8506992 -11.765085 0.87033987
-2.6290914e-05 6.005061e-06 -1.0717384e-05 3.8264906e-07 4.0009658e-12 -9.138535e-13 1.6309774e-12 -5.8231746e-14 0 -0 0 -0 -8.592689 1.9626408 -3.5027747 0.12506162 -0.15053673 0.034383828 -0.061365687 0.0021909752 -59.964388 13.696359 -24.444239 0.87274702
-4.0157861e-05 5.9118716e-06 -5.7942442e-06 5.8565391e-07 -0 0 -0 0 0 -0 0 -0 -8.4994078 1.2512471 -1.2263513 0.1239536 -0.3924558 0.057775695 -0.056626143 0.0057234939 -59.677366 8.7854513 -8.6106488 0.87032232
-2.9029597e-05 8.0502119e-06 -9.2917567e-06 4.2670046e-07 3.4735029e-12 -9.632388e-13 1.1117944e-12 -5.105635e-14 0 -0 0 -0 -8.493137 2.355236 -2.7184725 0.12483899 -0.18428269 0.051103523 -0.058984969 0.0027087357 -59.355281 16.459842 -18.998363 0.87245185
-3.4080691e-05 8.5416575e-06 -7.5954249e-06 5.0028685e-07 -0 0 -0 0 0 -0 0 -0 -8.4779703 2.1248372 -1.8894508 0.1244522 -0.26120479 0.065465863 -0.058213649 0.0038343507 -59.383091 14.883208 -13.234468 0.87171295
-3.5473689e-05 8.4344779e-06 -7.0451082e-06 5.2113221e-07 -0 0 -0 0 0 -0 0 -0 -8.4635614 2.0123569 -1.6808713 0.12433538 -0.28886618 0.06868289 -0.057369098 0.0042436374 -59.317957 14.103862 -11.780603 0.87142046
-2.8432386e-05 7.4546895e-06 -9.8581233e-06 4.180932e-07 3.7603335e-12 -9.8592212e-13 1.303789e-12 -5.5295037e-14 0 -0 0 -0 -8.4926121 2.2266786 -2.9445724 0.12488236 -0.17728718 0.046482939 -0.0614693 0.0026069765 -59.334972 15.557041 -20.572718 0.87251025
-3.4974099e-05 4.2978747e-06 -1.1391595e-05 5.1477897e-07 2.6479014e-12 -3.2539361e-13 8.6246171e-13 -3.8974098e-14 0 -0 0 -0 -8.4495418 1.0383419 -2.7521441 0.12436765 -0.28393917 0.034892536 -0.092483303 0.0041792618 -59.206514 7.2757323 -19.284461 0.87145257
-3.3320544e-05 4.6538324e-06 -1.1796155e-05 4.9095005e-07 2.9307344e-12 -4.0933145e-13 1.03754e-12 -4.3181894e-14 0 -0 0 -0 -8.449605 1.1801441 -2.9913332 0.12449779 -0.25439484 0.035530961 -0.090060985 0.003748293 -59.165487 8.2635582 -20.945794 0.87175343
-3.2234524e-05 8.5100981e-06 -8.391827e-06 4.7551878e-07 1.7067408e-12 -4.5058929e-13 4.4432712e-13 -2.5177579e-14 0 -0 0 -0 -8.4453412 2.2296182 -2.1986316 0.12458438 -0.23231378 0.061332161 -0.060479783 0.0034270574 -59.110433 15.605491 -15.38861 0.87198808
-3.0360877e-05 5.0839967e-06 -1.2497307e-05 4.5136056e-07 2.4526377e-12 -4.1069967e-13 1.0095679e-12 -3.6462185e-14 0 -0 0 -0 -8.388503 1.4046736 -3.4529208 0.12470784 -0.20928722 0.035045613 -0.086147931 0.0031113725 -58.667419 9.8239907 -24.148999 0.87218033
-4.0615683e-05 6.6594583e-06 -4.6769993e-06 5.9964597e-07 -0 0 -0 0 0 -0 0 -0 -8.3893724 1.3755444 -0.9660576 0.12385987 -0.41648843 0.06828858 -0.047959703 0.0061489944 -58.926869 9.6618103 -6.785579 0.86999053
-4.0969336e-05 4.4102319e-06 -6.5707518e-06 6.051185e-07 -0 0 -0 0 0 -0 0 -0 -8.3838373 0.90249612 -1.3446182 0.12382956 -0.42436715 0.045681911 -0.068060933 0.0062679174 -58.896405 6.3400296 -9.4459343 0.86990191
-2.8491118e-05 6.640724e-06 -1.073275e-05 4.2106703e-07 3.5995596e-12 -8.3898716e-13 1.3559726e-12 -5.3197488e-14 0 -0 0 -0 -8.4489287 1.9692805 -3.1827548 0.12486577 -0.18079185 0.042139056 -0.068105219 0.0026719025 -59.034341 13.759754 -22.238539 0.87246191
-3.8359963e-05 3.5741248e-06 -1.0203674e-05 5.6900865e-07 -0 0 -0 0 0 -0 0 -0 -8.3631839 0.77922556 -2.2245903 0.12405445 -0.36061769 0.033599945 -0.095923588 0.0053491863 -58.69159 5.4684899 -15.611846 0.8705958
-3.9592431e-05 3.2583408e-06 -9.3081853e-06 5.8872137e-07 1.3507109e-12 -1.1115954e-13 3.1755229e-13 -2.0084454e-14 0 -0 0 -0 -8.3346757 0.68591935 -1.9594833 0.12393282 -0.39346754 0.032381224 -0.092504268 0.0058506828 -58.523377 4.8163022 -13.758853 0.8702159
-3.099621e-05 8.2923724e-06 -9.1400026e-06 4.6105697e-07 2.8294501e-12 -7.5695881e-13 8.3433367e-13 -4.2087007e-14 0 -0 0 -0 -8.380669 2.2420686 -2.4712485 0.1246593 -0.21655432 0.057934474 -0.063856423 0.0032211642 -58.631336 15.685559 -17.288906 0.87211907
-3.9479148e-05 7.1932641e-06 -5.5131778e-06 5.8836708e-07 -0 0 -0 0 0 -0 0 -0 -8.3161235 1.5152321 -1.1613287 0.12393715 -0.38851695 0.070789394 -0.054255552 0.0057901599 -58.39484 10.639781 -8.1547133 0.8702721
-2.8873345e-05 5.6844576e-06 -1.2222706e-05 4.3232664e-07 2.9133563e-12 -5.7356881e-13 1.2332862e-12 -4.3622293e-14 0 -0 0 -0 -8.3353315 1.6410235 -3.5285246 0.12480666 -0.18975082 0.03735731 -0.080325593 0.0028411788 -58.260839 11.470138 -24.663063 0.87235173
-4.1034365e-05 5.4714141e-06 -5.3828154e-06 6.1263078e-07 -1.0157247e-12 1.3543406e-13 -1.3324097e-13 1.5164466e-14 0 -0 0 -0 -8.2906249 1.1054501 -1.0875495 0.12377655 -0.43632509 0.058178437 -0.057236353 0.0065142028 -58.253589 7.76738 -7.6416028 0.86970864
-4.1010318e-05 3.6525461e-06 -7.2835602e-06 6.1236337e-07 1.5180097e-12 -1.3520013e-13 2.6960324e-13 -2.2666821e-14 0 -0 0 -0 -8.2897266 0.73831684 -1.4722813 0.12378165 -0.43479077 0.038724238 -0.077220194 0.0064922672 -58.246002 5.1876263 -10.344671 0.86972547
-3.7627537e-05 8.0027423e-06 -6.4792754e-06 5.6251571e-07 -0 0 -0 0 0 -0 0 -0 -8.3010416 1.7654915 -1.4293982 0.12409705 -0.34308814 0.07296906 -0.059078078 0.0051290222 -58.247363 12.388231 -10.029907 0.87077336
-3.6813943e-05 3.9867707e-06 -1.1136407e-05 5.5039339e-07 -7.7415753e-13 8.3837489e-14 -2.3418663e-13 1.157418e-14 0 -0 0 -0 -8.3049746 0.8993883 -2.5122975 0.124165 -0.32919214 0.035649906 -0.099582314 0.0049216456 -58.252396 6.3084508 -17.621649 0.87091281
-4.0474615e-05 3.0638607e-06 -8.6171563e-06 6.0817011e-07 -3.0837121e-12 2.3343185e-13 -6.5653075e-13 4.6335748e-14 0 -0 0 -0 -8.2395637 0.6237212 -1.7542257 0.12380739 -0.42611336 0.032256069 -0.090720699 0.006402764 -57.885752 4.3818547 -12.324035 0.86978924
-4.1516023e-05 6.0648162e-06 -4.1641547e-06 6.2445121e-07 -4.6495561e-12 6.7922458e-13 -4.6636141e-13 6.9934948e-14 0 -0 0 -0 -8.2237489 1.201356 -0.82486134 0.12369513 -0.45817942 0.066932567 -0.045956473 0.0068915727 -57.802045 8.4439393 -5.797681 0.86941267
-3.1163052e-05 6.7595936e-06 -1.1295634e-05 4.7246114e-07 2.8643314e-12 -6.213036e-13 1.0382308e-12 -4.3425954e-14 0 -0 0 -0 -8.2183006 1.7826358 -2.9788775 0.12459715 -0.22630141 0.049087156 -0.082027201 0.003430942 -57.514342 12.475465 -20.847154 0.87197143
-3.0322859e-05 6.3656736e-06 -1.1649762e-05 4.5732221e-07 2.7769462e-12 -5.8296394e-13 1.066877e-12 -4.1881248e-14 0 -0 0 -0 -8.2667392 1.7354354 -3.1760048 0.12467701 -0.21188648 0.044481299 -0.081404824 0.0031956219 -57.826584 12.139527 -22.216439 0.87212691
-3.1040847e-05 7.4006201e-06 -1.0781788e-05 4.7182847e-07 3.4916623e-12 -8.3246653e-13 1.2128007e-12 -5.3074122e-14 0 -0 0 -0 -8.1973556 1.9543769 -2.8472853 0.12460181 -0.22375574 0.053346843 -0.077719749 0.0034011419 -57.367273 13.677249 -19.926059 0.87199658
-4.1705349e-05 3.6922978e-06 -6.2061234e-06 6.3027112e-07 6.6471686e-12 -5.8849347e-13 9.8915725e-13 -1.0045518e-13 0 -0 0 -0 -8.1822626 0.72439988 -1.2175928 0.12365425 -0.46986712 0.041598725 -0.069920368 0.007100856 -57.518319 5.0922667 -8.5592327 0.86924426
-3.4961595e-05 8.5686512e-06 -8.0532037e-06 5.2940261e-07 5.7591627e-14 -1.411499e-14 1.3265902e-14 -8.7207571e-16 0 -0 0 -0 -8.2079518 2.0116667 -1.8906548 0.12428813 -0.29211339 0.071593353 -0.067286652 0.0044232991 -57.53961 14.102241 -13.25392 0.87128805
-3.2417738e-05 8.4266249e-06 -9.2830512e-06 4.9136874e-07 2.1819258e-12 -5.6716698e-13 6.2481006e-13 -3.307233e-14 0 -0 0 -0 -8.2136143 2.1350363 -2.3520272 0.12449707 -0.24580924 0.063895338 -0.070389236 0.0037258299 -57.514904 14.95035 -16.469804 0.87177661
-3.2581376e-05 4.9461566e-06 -1.3141917e-05 4.9792256e-07 7.3975952e-13 -1.1230239e-13 2.9838697e-13 -1.1305322e-14 0 -0 0 -0 -8.143776 1.2363011 -3.2848467 0.12445668 -0.25625973 0.038902615 -0.10336408 0.0039162711 -57.034557 8.6583773 -23.005271 0.87162655
-3.9097315e-05 3.0763509e-06 -1.0343848e-05 5.9462883e-07 -2.9994306e-12 2.3600856e-13 -7.9354949e-13 4.5618169e-14 0 -0 0 -0 -8.1461107 0.64097227 -2.1551897 0.12389373 -0.3974057 0.031269651 -0.10514032 0.0060441206 -57.207234 4.50132 -15.13513 0.87006155
-3.1372334e-05 8.0998265e-06 -1.0087342e-05 4.7810845e-07 3.3793445e-12 -8.7249179e-13 1.0865817e-12 -5.1500572e-14 0 -0 0 -0 -8.1738486 2.1103548 -2.6281886 0.12456791 -0.23016651 0.05942525 -0.074006875 0.0035076942 -57.213563 14.771612 -18.396234 0.87192392
-3.6425663e-05 8.4447862e-06 -7.3913106e-06 5.5513868e-07 -5.3285018e-14 1.2353395e-14 -1.0812325e-14 8.1208061e-16 0 -0 0 -0 -8.1454838 1.8884178 -1.6528402 0.12413976 -0.32643661 0.075679812 -0.066238859 0.0049749976 -57.143473 13.247924 -11.595264 0.87088469
-4.2024633e-05 4.4180728e-06 -4.7528908e-06 6.4785211e-07 -0 0 -0 0 0 -0 0 -0 -8.012959 0.8424068 -0.90624751 0.12352785 -0.49981204 0.052545516 -0.056527609 0.0077051069 -56.354819 5.9246133 -6.3736024 0.8687664
-3.7441383e-05 3.6681856e-06 -1.1666775e-05 5.716404e-07 -0 0 -0 0 0 -0 0 -0 -8.1244761 0.79596649 -2.5315954 0.12404133 -0.35428152 0.034709465 -0.1103945 0.0054090318 -57.019345 5.5862664 -17.767288 0.87054907
-3.3916101e-05 8.5217817e-06 -8.9227822e-06 5.1863796e-07 1.590793e-12 -3.9970369e-13 4.1851212e-13 -2.4326075e-14 0 -0 0 -0 -8.1316042 2.0431522 -2.1392946 0.1243468 -0.2767829 0.069544653 -0.072817142 0.0042325065 -56.986139 14.318375 -14.992139 0.87142018
-4.1237647e-05 2.5972399e-06 -8.0127579e-06 6.3075e-07 -0 0 -0 0 0 -0 0 -0 -8.084192 0.50916063 -1.570814 0.12365168 -0.46683008 0.029402011 -0.09070829 0.0071403947 -56.827687 3.5791358 -11.04201 0.8692073
-4.0262593e-05 6.7808386e-06 -5.1272347e-06 6.1611333e-07 -2.4177002e-12 4.0717781e-13 -3.0788172e-13 3.6996557e-14 0 -0 0 -0 -8.0872151 1.3620111 -1.0298654 0.1237536 -0.43243576 0.072828818 -0.055068476 0.0066172945 -56.829639 9.5709833 -7.236963 0.86962849
-4.0684816e-05 2.5602067e-06 -8.8707226e-06 6.2273453e-07 -0 0 -0 0 0 -0 0 -0 -8.0819669 0.50858055 -1.7621534 0.12370512 -0.45106273 0.028384394 -0.098347559 0.0069041073 -56.79945 3.5742655 -12.38428 0.86939015
-4.2102915e-05 3.0411261e-06 -5.8788443e-06 6.5112018e-07 2.7422397e-11 -1.9807409e-12 3.8289986e-12 -4.2408645e-13 0 -0 0 -0 -7.9857932 0.57682002 -1.115059 0.12350003 -0.50880086 0.036751079 -0.071044036 0.0078685883 -56.167644 4.0570324 -7.8427071 0.86863074
-3.7820063e-05 8.2076693e-06 -6.6449451e-06 5.8134681e-07 -0 0 -0 0 0 -0 0 -0 -8.0656569 1.7504002 -1.4171274 0.12398033 -0.3657566 0.079376102 -0.064263048 0.005622186 -56.624489 12.288586 -9.9488629 0.8703969
-3.8883538e-05 7.8229092e-06 -5.9424458e-06 6.0159079e-07 3.4634136e-12 -6.9679796e-13 5.2930234e-13 -5.3584572e-14 0 -0 0 -0 -8.0049967 1.6105109 -1.2233779 0.12385016 -0.39996455 0.08046815 -0.061125294 0.0061880941 -56.22953 11.312718 -8.5933779 0.86996115
-3.0944575e-05 5.8070504e-06 -1.3127673e-05 4.766527e-07 1.3181557e-12 -2.4736473e-13 5.5920357e-13 -2.0304123e-14 0 -0 0 -0 -8.0873665 1.517673 -3.4309182 0.12457321 -0.22884499 0.042944987 -0.097083324 0.0035249985 -56.604348 10.622356 -24.013365 0.87190131
-3.4996696e-05 4.5354951e-06 -1.2865672e-05 5.4069577e-07 1.3224371e-12 -1.7138495e-13 4.8616138e-13 -2.0431533e-14 0 -0 0 -0 -8.0398995 1.0419534 -2.9556707 0.12421572 -0.30952349 0.040113566 -0.11378868 0.0047821098 -56.375842 7.3061855 -20.725188 0.87100163
-3.1743899e-05 6.2100378e-06 -1.253336e-05 4.9076737e-07 1.1096512e-12 -2.1708034e-13 4.3812066e-13 -1.7155442e-14 0 -0 0 -0 -8.0526944 1.5753433 -3.179424 0.12449636 -0.24430191 0.04779262 -0.096457076 0.0037769591 -56.385142 11.030588 -22.262396 0.87172619
-3.3382075e-05 8.40018e-06 -9.8283068e-06 5.1882267e-07 1.411499e-12 -3.55186e-13 4.1557169e-13 -2.1937452e-14 0 -0 0 -0 -8.0005613 2.0132408 -2.3555148 0.12434435 -0.27396107 0.068938863 -0.08065926 0.0042578903 -56.067419 14.108662 -16.507296 0.87139724
-4.2210269e-05 5.5021681e-06 -3.3363016e-06 6.5548099e-07 -2.4039263e-11 3.1335518e-12 -1.9000644e-12 3.7330442e-13 0 -0 0 -0 -7.9512272 1.0364537 -0.62846536 0.12347418 -0.51233602 0.066783723 -0.040495063 0.0079560385 -55.932265 7.2908496 -4.4208887 0.86856913
-3.6037597e-05 4.1569061e-06 -1.2765733e-05 5.6214174e-07 4.8711039e-12 -5.6187768e-13 1.7255094e-12 -7.5983169e-14 0 -0 0 -0 -7.9550097 0.91760358 -2.8179329 0.12408827 -0.33931421 0.039139604 -0.12019654 0.0052928801 -55.81331 6.4380177 -19.770958 0.87061829
-3.5409426e-05 8.6164769e-06 -8.6340436e-06 5.5276098e-07 -1.0606362e-14 2.5809362e-15 -2.5861981e-15 1.6557125e-16 0 -0 0 -0 -7.9529877 1.9352681 -1.9392136 0.12415059 -0.31793622 0.077366125 -0.077523855 0.0049631626 -55.788241 13.575427 -13.603104 0.87088569
-3.2978002e-05 6.5750368e-06 -1.2071779e-05 5.1496457e-07 -0 0 -0 0 0 -0 0 -0 -7.9641226 1.5878584 -2.9153109 0.12436293 -0.27091511 0.054014091 -0.099169965 0.0042304468 -55.804289 11.126061 -20.427467 0.87140611
-4.0798929e-05 6.4509103e-06 -4.6426351e-06 6.4161093e-07 6.8307347e-12 -1.0800396e-12 7.7729023e-13 -1.074213e-13 0 -0 0 -0 -7.8575386 1.2423923 -0.89413339 0.123569 -0.47810033 0.075594689 -0.054404501 0.0075186875 -55.25259 8.7362465 -6.2873615 0.86891168
-3.3255869e-05 5.1818459e-06 -1.389265e-05 5.2387365e-07 -0 0 -0 0 0 -0 0 -0 -7.8913611 1.2296121 -3.2966186 0.12431118 -0.28161365 0.043880331 -0.11764419 0.0044362086 -55.307697 8.6179064 -23.104808 0.87125209
-3.4916884e-05 4.5920722e-06 -1.3655207e-05 5.4940429e-07 -1.5894166e-14 2.0903113e-15 -6.2158506e-15 2.5008884e-16 0 -0 0 -0 -7.891164 1.0378015 -3.0860566 0.12416455 -0.31697441 0.041686691 -0.12396156 0.0049874755 -55.345907 7.2787822 -21.644538 0.87084742
-4.1045989e-05 1.7619467e-06 -8.9286634e-06 6.5254699e-07 -0 0 -0 0 0 -0 0 -0 -7.7676282 0.33343445 -1.6896788 0.12348935 -0.50264046 0.021576425 -0.10933852 0.0079909518 -54.63089 2.3450944 -11.883764 0.86851905
-3.4144485e-05 8.1948426e-06 -1.0508717e-05 5.4304826e-07 -1.8892198e-12 4.5342194e-13 -5.8144898e-13 3.0046946e-14 0 -0 0 -0 -7.8094246 1.8742999 -2.4035223 0.12420438 -0.30124228 0.072299614 -0.092713944 0.004791084 -54.764899 13.143842 -16.855103 0.871004
-3.762095e-05 3.4496477e-06 -1.2453821e-05 5.9834817e-07 9.0333224e-12 -8.2830924e-13 2.9903387e-12 -1.4367186e-13 0 -0 0 -0 -7.7877939 0.71410068 -2.5780262 0.12386216 -0.39436107 0.036160884 -0.13054701 0.0062721762 -54.692487 5.01502 -18.105084 0.86986506
-3.396556e-05 7.3796475e-06 -1.1431537e-05 5.4034058e-07 -0 0 -0 0 0 -0 0 -0 -7.80834 1.6965066 -2.6279952 0.12421885 -0.29874563 0.064908024 -0.1005466 0.0047525901 -54.75242 11.895978 -18.427617 0.87102802
-4.2402984e-05 3.3680307e-06 -4.0047976e-06 6.7469063e-07 -0 0 -0 0 0 -0 0 -0 -7.7493897 0.61552702 -0.73189985 0.1233036 -0.56006342 0.044485331 -0.052895821 0.0089113904 -54.538544 4.3319473 -5.1509543 0.86778433
-3.3462902e-05 5.8100263e-06 -1.3511693e-05 5.330006e-07 -0 0 -0 0 0 -0 0 -0 -7.8012317 1.3544958 -3.1499912 0.12425883 -0.29078784 0.0504883 -0.11741468 0.0046316991 -54.690057 9.4956101 -22.082821 0.87110894
-4.2365699e-05 2.1404075e-06 -5.229483e-06 6.760545e-07 -0 0 -0 0 0 -0 0 -0 -7.7260532 0.39033705 -0.95367869 0.1232892 -0.5650309 0.028546593 -0.069745562 0.009016532 -54.374974 2.7471422 -6.7118685 0.86769359
-4.1889166e-05 5.5814427e-06 -3.0639176e-06 6.693936e-07 -3.7872315e-11 5.046225e-12 -2.7701113e-12 6.0520387e-13 0 -0 0 -0 -7.7191043 1.0285175 -0.56460183 0.12335216 -0.54022918 0.071981815 -0.039514219 0.0086329233 -54.318405 7.2375531 -3.9730349 0.86801425
-4.1996584e-05 4.9216354e-06 -2.5243875e-06 6.8149644e-07 -0 0 -0 0 0 -0 0 -0 -7.5943203 0.88998847 -0.45648968 0.12323627 -0.57256194 0.067099294 -0.034416328 0.0092912063 -53.457146 6.2647138 -3.2132745 0.86747185
-4.1792548e-05 1.5068555e-06 -7.368848e-06 6.6863156e-07 -0 0 -0 0 0 -0 0 -0 -7.7103855 0.27800259 -1.3594926 0.12335709 -0.54279886 0.01957094 -0.095706113 0.0086841427 -54.251374 1.956066 -9.5655839 0.8679581
-3.722518e-05 8.4207767e-06 -7.903664e-06 5.9630852e-07 -4.0627338e-14 9.1903852e-15 -8.6260114e-15 6.5080754e-16 0 -0 0 -0 -7.7337004 1.7494547 -1.6420222 0.12388581 -0.3775766 0.085412302 -0.080167205 0.0060483831 -54.314726 12.286635 -11.532123 0.87006521
-3.5501578e-05 8.5152264e-06 -9.8860179e-06 5.762703e-07 -3.2994466e-12 7.9138833e-13 -9.1878698e-13 5.3557424e-14 0 -0 0 -0 -7.6394975 1.8323707 -2.1273479 0.12400619 -0.34373891 0.082447452 -0.095719942 0.0055796541 -53.622503 12.861618 -14.932097 0.87041358
-3.491893e-05 7.892711e-06 -1.0966167e-05 5.667018e-07 -9.418069e-12 2.1287622e-12 -2.9577115e-12 1.5284651e-13 0 -0 0 -0 -7.644466 1.7278754 -2.4007177 0.12406258 -0.3307421 0.074757499 -0.1038684 0.0053676372 -53.642577 12.124809 -16.846263 0.87056921
-4.0148583e-05 1.876524e-06 -1.0446787e-05 6.517897e-07 -0 0 -0 0 0 -0 0 -0 -7.6069074 0.35554292 -1.9793412 0.12349387 -0.49365602 0.023073228 -0.12845085 0.0080142282 -53.496846 2.500415 -13.920048 0.86849125
-3.8658238e-05 7.8674356e-06 -6.5612298e-06 6.2787489e-07 -0 0 -0 0 0 -0 0 -0 -7.6139215 1.5495284 -1.292265 0.12366291 -0.43788295 0.089114664 -0.074319235 0.0071119565 -53.518127 10.891609 -9.0833092 0.86922451
-3.5399446e-05 4.7627842e-06 -1.4394901e-05 5.7735757e-07 -0 0 -0 0 0 -0 0 -0 -7.6022962 1.0228436 -3.0914128 0.12399186 -0.35161023 0.047307058 -0.14297948 0.0057346893 -53.358923 7.1791246 -21.697978 0.87027287
-3.9745632e-05 7.2458208e-06 -5.4295359e-06 6.4581753e-07 7.3214923e-12 -1.3347434e-12 1.0001679e-12 -1.1896522e-13 0 -0 0 -0 -7.6026226 1.3859948 -1.0385723 0.12353325 -0.4759844 0.086774255 -0.065022852 0.0077341597 -53.464483 9.7468337 -7.3036284 0.86873195
-3.4343069e-05 5.6860475e-06 -1.4027258e-05 5.5829417e-07 -0 0 -0 0 0 -0 0 -0 -7.6344287 1.2640024 -3.1182449 0.12410821 -0.32248711 0.053392927 -0.13171828 0.0052424747 -53.55734 8.8672789 -21.875233 0.87064875
-3.6701212e-05 8.4635464e-06 -8.7064664e-06 5.9672323e-07 -0 0 -0 0 0 -0 0 -0 -7.6189521 1.7569816 -1.8074104 0.12387617 -0.37747214 0.087047615 -0.089546049 0.0061373013 -53.508119 12.339332 -12.693495 0.86998593
-3.5136271e-05 6.6058043e-06 -1.229623e-05 5.7192912e-07 -1.0095119e-11 1.8979356e-12 -3.5328709e-12 1.6432286e-13 0 -0 0 -0 -7.6197224 1.432548 -2.6665852 0.1240297 -0.3396467 0.063855371 -0.11886219 0.0055285844 -53.475256 10.05363 -18.71411 0.87044114
-3.7000162e-05 3.8161298e-06 -1.3523332e-05 6.0299013e-07 5.8598332e-12 -6.043726e-13 2.1417331e-12 -9.5497463e-14 0 -0 0 -0 -7.5984805 0.78369354 -2.777198 0.12383213 -0.39425907 0.040663168 -0.14409927 0.0064252241 -53.368363 5.5043165 -19.505809 0.86974204
-4.1025018e-05 5.9663597e-06 -3.9879568e-06 6.7086587e-07 3.8755611e-11 -5.6363148e-12 3.7673524e-12 -6.3375515e-13 0 -0 0 -0 -7.5421365 1.0968697 -0.73315543 0.12333357 -0.53569487 0.077907298 -0.052073786 0.0087600061 -53.074468 7.718738 -5.1592588 0.86790575
-3.9389944e-05 2.2889827e-06 -1.1369689e-05 6.4448975e-07 -0 0 -0 0 0 -0 0 -0 -7.550785 0.43878245 -2.1794922 0.12354431 -0.47661184 0.027696314 -0.13757136 0.0077982199 -53.090594 3.0851389 -15.324305 0.86865682
-4.1130752e-05 1.0580875e-06 -8.721764e-06 6.7464192e-07 -1.0450485e-10 2.6883844e-12 -2.2160223e-11 1.7141275e-12 0 -0 0 -0 -7.5175144 0.19338785 -1.5940867 0.12330507 -0.54964047 0.014139486 -0.1165511 0.0090154077 -52.899594 1.3608406 -11.217343 0.86767885
-4.0523218e-05 1.3642278e-06 -9.8991896e-06 6.6530657e-07 -3.8175598e-11 1.2851943e-12 -9.3257027e-12 6.2676355e-13 0 -0 0 -0 -7.5150892 0.25299801 -1.835819 0.12338206 -0.52480469 0.017667727 -0.1282016 0.0086161966 -52.869156 1.7798579 -12.91511 0.86800107
-4.2110403e-05 1.2837711e-06 -4.4223269e-06 6.9716157e-07 -0 0 -0 0 0 -0 0 -0 -7.4338792 0.22662807 -0.78068701 0.12307208 -0.62145098 0.018945457 -0.065263195 0.010288473 -52.347273 1.5958507 -5.4973769 0.86663875
-4.1874338e-05 1.0352621e-06 -6.2772026e-06 6.8939846e-07 -0 0 -0 0 0 -0 0 -0 -7.481025 0.18495389 -1.1214484 0.12316391 -0.59363767 0.014676544 -0.088989678 0.0097733579 -52.665695 1.3020575 -7.8948887 0.86706205
-3.7990926e-05 3.2293366e-06 -1.2796441e-05 6.2626315e-07 -0 0 -0 0 0 -0 0 -0 -7.5022879 0.63771577 -2.5269872 0.12367181 -0.43722245 0.037165149 -0.14726915 0.0072074133 -52.723332 4.4816329 -17.758741 0.86912015
-4.1998999e-05 3.2522696e-06 -3.139976e-06 6.9340155e-07 -0 0 -0 0 0 -0 0 -0 -7.4573405 0.57747285 -0.557534 0.12312035 -0.60336016 0.046722302 -0.045109085 0.0099614486 -52.508777 4.0661136 -3.9257198 0.86691751
-4.1519776e-05 8.041326e-07 -7.4205867e-06 6.8568001e-07 -0 0 -0 0 0 -0 0 -0 -7.4599692 0.14448066 -1.3332767 0.12319796 -0.58188204 0.011269577 -0.10399637 0.0096095143 -52.510807 1.017001 -9.3849495 0.86719184
-3.556796e-05 7.3755731e-06 -1.1641993e-05 5.8949785e-07 -4.5410623e-11 9.4166034e-12 -1.4863663e-11 7.5262862e-13 0 -0 0 -0 -7.4768834 1.5504488 -2.44731 0.12392071 -0.3611568 0.074891515 -0.11821271 0.0059857568 -52.497954 10.886272 -17.183466 0.87009295
-3.7246518e-05 8.3871342e-06 -8.4230329e-06 6.1734789e-07 -0 0 -0 0 0 -0 0 -0 -7.4652134 1.6810094 -1.6882044 0.12373328 -0.41164848 0.092694597 -0.09309135 0.0068229282 -52.456211 11.812038 -11.862596 0.86944318
-4.1847956e-05 4.2794456e-06 -2.1582811e-06 6.9418441e-07 1.2451465e-10 -1.2733087e-11 6.4217619e-12 -2.0654802e-12 0 -0 0 -0 -7.4212173 0.75890673 -0.38274445 0.12310502 -0.60623749 0.061994912 -0.031266304 0.01005642 -52.256133 5.3438041 -2.6950761 0.86683787
-4.204135e-05 1.964922e-06 -3.4024717e-06 7.0094151e-07 -0 0 -0 0 0 -0 0 -0 -7.3794127 0.34489783 -0.59722732 0.1230345 -0.62905413 0.029400633 -0.050910327 0.010488011 -51.969891 2.4289606 -4.2060039 0.86647678
-3.5387122e-05 5.4265849e-06 -1.4506855e-05 5.9057477e-07 -0 0 -0 0 0 -0 0 -0 -7.4244758 1.138537 -3.0436438 0.12390689 -0.36714752 0.056301757 -0.15051113 0.0061273155 -52.128141 7.9938058 -21.369791 0.86996521
-3.560903e-05 5.9706041e-06 -1.3637425e-05 5.9456088e-07 -0 0 -0 0 0 -0 0 -0 -7.4195383 1.2440419 -2.8415095 0.12388339 -0.37217211 0.062402496 -0.14253321 0.0062141254 -52.099564 8.7355896 -19.952914 0.86990189
-4.1708856e-05 2.126364e-07 -6.3145442e-06 6.9910793e-07 2.0531379e-10 -1.0467126e-12 3.1083638e-11 -3.4413914e-12 0 -0 0 -0 -7.3419238 0.037429947 -1.1115362 0.12306253 -0.62036668 0.0031626986 -0.093920888 0.01039835 -51.697778 0.26356104 -7.8268246 0.86653843
-3.8940285e-05 2.3275488e-06 -1.2348496e-05 6.5337857e-07 -0 0 -0 0 0 -0 0 -0 -7.3588737 0.43985651 -2.3335993 0.12347445 -0.49024565 0.02930309 -0.15546358 0.0082258258 -51.749192 3.0931661 -16.410375 0.86829907
-3.6209532e-05 6.4175715e-06 -1.2427369e-05 6.0950055e-07 -4.3577923e-11 7.7235033e-12 -1.4956253e-11 7.3352974e-13 0 -0 0 -0 -7.3540687 1.3033933 -2.5239687 0.12378809 -0.39373394 0.069783165 -0.13513229 0.0066275658 -51.660691 9.1560471 -17.730317 0.86958373
-3.6520862e-05 8.1530097e-06 -1.0187508e-05 6.2064758e-07 -0 0 -0 0 0 -0 0 -0 -7.2796067 1.6251179 -2.030649 0.12371204 -0.40896178 0.091297664 -0.11408004 0.0069500315 -51.15455 11.419871 -14.269581 0.86933731
-4.1080958e-05 5.2536772e-06 -2.8537377e-06 6.9220552e-07 2.6249397e-10 -3.356929e-11 1.8234457e-11 -4.4229683e-12 0 -0 0 -0 -7.3072169 0.93449036 -0.50760453 0.12312507 -0.59038832 0.07550237 -0.041012029 0.0099479194 -51.450274 6.579767 -3.5740546 0.86692632
-3.9570028e-05 7.1476575e-06 -5.4223095e-06 6.6685116e-07 -0 0 -0 0 0 -0 0 -0 -7.3200459 1.3222427 -1.0030712 0.12336057 -0.51467718 0.092967744 -0.070526586 0.0086735616 -51.503857 9.3033024 -7.0576108 0.8679652
-4.1364518e-05 2.8792789e-08 -7.2935288e-06 6.985784e-07 1.2295187e-10 -8.5583671e-14 2.1679281e-11 -2.0764541e-12 0 -0 0 -0 -7.2871621 0.0050724083 -1.2848966 0.12306814 -0.6162074 0.0004289263 -0.10865173 0.010406725 -51.309009 0.035714897 -9.0469744 0.86652444
-3.6664652e-05 3.9055638e-06 -1.4788742e-05 6.1938797e-07 1.3552173e-12 -1.4435941e-13 5.4662893e-13 -2.2894129e-14 0 -0 0 -0 -7.3234591 0.78010387 -2.9539282 0.12371759 -0.41578722 0.044290166 -0.1677084 0.0070240295 -51.455687 5.4811231 -20.754729 0.86925776
-3.9929806e-05 6.6866413e-06 -4.7402902e-06 6.7856617e-07 -2.0650932e-11 3.458203e-12 -2.4515875e-12 3.5094145e-13 0 -0 0 -0 -7.252944 1.2145773 -0.86103749 0.12325636 -0.54393567 0.091087412 -0.064573641 0.0092436298 -51.04746 8.5484026 -6.0601291 0.86749933
-3.6143126e-05 4.6411171e-06 -1.51401e-05 6.1898369e-07 -0 0 -0 0 0 -0 0 -0 -7.2241274 0.92764586 -3.0261358 0.12371971 -0.40982305 0.052625131 -0.17167197 0.00701859 -50.757093 6.5176879 -21.261787 0.86926108
-4.1444544e-05 3.9350346e-06 -1.8239236e-06 7.0521824e-07 1.2045924e-09 -1.1437242e-10 5.3012636e-11 -2.0497283e-11 0 -0 0 -0 -7.2268809 0.68617057 -0.31804617 0.12297224 -0.63856353 0.060629683 -0.028102398 0.010865764 -50.902909 4.8330778 -2.2401746 0.86616129
-4.0467131e-05 5.2249576e-07 -9.3866012e-06 6.886686e-07 -3.3440461e-11 4.3177014e-13 -7.7567216e-12 5.690889e-13 0 -0 0 -0 -7.2374493 0.093447113 -1.6787711 0.12316673 -0.5817689 0.0075115723 -0.13494489 0.0099005282 -50.942141 0.65774499 -11.816345 0.86693206
-3.6334335e-05 7.4833382e-06 -1.1263849e-05 6.1982799e-07 -8.8191615e-11 1.8163747e-11 -2.7339898e-11 1.5044621e-12 0 -0 0 -0 -7.2523256 1.4936727 -2.2482619 0.12371753 -0.40703758 0.083832548 -0.12618395 0.0069436604 -50.96063 10.495737 -15.798083 0.86933818
-4.1604785e-05 7.8969734e-07 -3.488688e-06 7.1235484e-07 -0 0 -0 0 0 -0 0 -0 -7.1770199 0.13622648 -0.60181499 0.12288454 -0.66806231 0.012680441 -0.056019061 0.011438526 -50.559456 0.95966529 -4.2395645 0.86567622
-4.0845495e-05 -1.1295755e-07 -8.2088357e-06 7.0074922e-07 5.5188388e-11 1.5262259e-13 1.1091368e-11 -9.4681727e-13 0 0 0 -0 -7.1720597 -0.019834214 -1.4413893 0.12304454 -0.61799091 -0.0017090438 -0.1241994 0.010602311 -50.498229 -0.13965203 -10.148773 0.86635245
-3.5959625e-05 5.8634278e-06 -1.4109791e-05 6.1835606e-07 5.4034577e-12 -8.8106548e-13 2.1202017e-12 -9.291701e-14 0 -0 0 -0 -7.1949468 1.1731783 -2.8231439 0.12372318 -0.40708035 0.06637684 -0.15972966 0.0070000898 -50.551527 8.242723 -19.835342 0.86927612
-3.6835506e-05 3.9210682e-06 -1.4977728e-05 6.4057987e-07 -1.9823669e-12 2.1101911e-13 -8.0605251e-13 3.4473921e-14 0 -0 0 -0 -7.105406 0.75635669 -2.8891374 0.12356502 -0.45026424 0.047929755 -0.18308246 0.0078302224 -49.94767 5.3168326 -20.30928 0.86860412
-3.8706822e-05 7.530483e-06 -6.6955357e-06 6.6984307e-07 -0 0 -0 0 0 -0 0 -0 -7.12679 1.38653 -1.2327976 0.12333306 -0.51294273 0.099793947 -0.088729226 0.0088767591 -50.145139 9.7558285 -8.6741445 0.86778951
-3.7514455e-05 8.1096951e-06 -8.577619e-06 6.5083433e-07 -0 0 -0 0 0 -0 0 -0 -7.1174136 1.5386084 -1.627385 0.12347926 -0.47025884 0.1016583 -0.10752392 0.0081584711 -50.05285 10.820185 -11.444502 0.86836162
-4.1154558e-05 -3.2978929e-07 -4.9097336e-06 7.1628579e-07 -0 -0 -0 0 0 0 0 -0 -7.0577185 -0.056556555 -0.84198494 0.122838 -0.6782557 -0.0054351566 -0.080915821 0.011804887 -49.719485 -0.39842376 -5.9315283 0.8653564
-4.0850689e-05 3.7400295e-06 -1.1228677e-06 7.1741735e-07 -0 0 -0 0 0 -0 0 -0 -6.9923396 0.64017418 -0.19219927 0.12279905 -0.68038189 0.062291443 -0.018701738 0.011948826 -49.268555 4.5107159 -1.3542506 0.86525141
-4.1210355e-05 1.4963551e-06 -2.2120102e-06 7.1834815e-07 1.0722796e-09 -3.8934659e-11 5.7555764e-11 -1.8691178e-11 0 -0 0 -0 -7.04428 0.25577903 -0.37810932 0.12279063 -0.68895384 0.025016033 -0.036980339 0.012009329 -49.634945 1.8022534 -2.6642091 0.86519932
-3.9014059e-05 1.3752183e-06 -1.2239592e-05 6.8147316e-07 3.3776472e-10 -1.190597e-11 1.0596443e-10 -5.8998627e-12 0 -0 0 -0 -7.0554406 0.24869935 -2.2134511 0.12324002 -0.55117977 0.019428701 -0.17291755 0.0096276631 -49.642931 1.7498786 -15.574109 0.86713164
-3.6863403e-05 6.1338861e-06 -1.2361962e-05 6.5118326e-07 8.286345e-11 -1.3788064e-11 2.7787853e-11 -1.4637632e-12 0 -0 0 -0 -6.9902617 1.1631446 -2.3441501 0.12348131 -0.46742964 0.077777958 -0.15675025 0.0082570336 -49.152147 8.1786718 -16.482932 0.868261
-3.6897491e-05 7.7374403e-06 -1.0373498e-05 6.4629849e-07 -7.4259507e-11 1.5572292e-11 -2.0877594e-11 1.3007336e-12 0 -0 0 -0 -7.05157 1.4787212 -1.9825046 0.12351569 -0.45748994 0.095936092 -0.12862042 0.0080134191 -49.581383 10.397265 -13.939495 0.86847024
-3.9988272e-05 1.5523628e-07 -9.5310613e-06 7.0180928e-07 1.2776046e-10 -4.9597188e-13 3.0451247e-11 -2.2422443e-12 0 -0 0 -0 -7.0104243 0.027214785 -1.6709095 0.1230356 -0.61260786 0.0023781715 -0.14601289 0.010751499 -49.355758 0.19160129 -11.763768 0.8662122
-3.9543208e-05 6.4685904e-06 -4.4969634e-06 6.9528195e-07 -0 0 -0 0 0 -0 0 -0 -7.0001147 1.1450987 -0.79607247 0.1230819 -0.58548707 0.095775639 -0.066583215 0.010294526 -49.287989 8.0626692 -5.6051668 0.86662287
-3.660711e-05 5.6435132e-06 -1.3728258e-05 6.4625281e-07 6.1878945e-14 -9.5395304e-15 2.3205604e-14 -1.0923955e-15 0 -0 0 -0 -6.9970289 1.0786928 -2.623999 0.12352381 -0.45495387 0.070137691 -0.17061506 0.0080316424 -49.193166 7.5838349 -18.448232 0.8684439
